\data\
ngram 1=146
ngram 2=2092
ngram 3=13123
ngram 4=31420
ngram 5=42257

\1-grams:
-3.7244096	<unk>	0
0	<s>	-3.8007834
-1.5352752	</s>	0
-1.7063255	a	-1.0760711
-1.8111953	l	-0.9940108
-1.7157438	n	-0.9846012
-1.6971072	s	-1.0664388
-1.7157438	m	-0.95929265
-1.7556027	i	-1.0967419
-1.7715462	t	-1.1231533
-1.8111953	h	-1.0177016
-1.7715462	e	-1.0376264
-1.8171668	p	-1.0131273
-1.8483224	u	-1.0352085
-1.7253709	d	-1.0134407
-1.854831	o	-1.0671155
-1.9925745	y	-0.82957804
-1.8232217	f	-0.9396171
-1.8749634	ã	-0.85898465
-2.7107818	¼	-0.10649348
-1.7110091	r	-1.0135136
-1.7937578	k	-0.9618819
-1.881887	v	-0.938603
-1.854831	g	-0.9798309
-1.6620742	,	-0.5554637
-1.8960745	w	-0.9424549
-1.7452898	b	-1.0059294
-1.7556027	c	-0.90823925
-2.7107818	¶	-0.091372445
-1.7661664	.	-0.8138574
-1.8483224	1	-0.9012583
-2.128987	9	-0.7665258
-2.0301769	6	-0.84238386
-2.0204666	8	-0.7859851
-1.8681483	2	-0.8151581
-2.0502737	0	-0.6638619
-1.9497333	(	-0.55982417
-1.7016919	)	-0.62082845
-1.95797	j	-0.632748
-1.9107412	z	-0.8896612
-1.7016919	â	-0.7503941
-2.6255836		-0.09638969
-2.5543892		-0.113744006
-1.7504156	-	-1.1207292
-2.7605975	¤	-0.10949546
-1.9182645	:	-0.56021476
-2.0822785	7	-0.753609
-2.6660967		-0.22610956
-1.9749277	x	-0.56853235
-2.2739942	*	-0.13597506
-2.5227387		-0.10102427
-2.0016742	4	-0.79979837
-1.9182645	3	-0.7727592
-2.0204666	5	-0.8056571
-2.2571115	!	-0.46160454
-2.1543713	=	-0.081420146
-2.9575686	©	-0.07925793
-1.9107412	;	-0.40288275
-2.1050053	á	-0.4310046
-2.0822785	î	-0.5695983
-2.8168766	º	-0.005933628
-2.1954665	ï	-0.28900975
-2.6660967		-0.016686795
-2.7605975	¯	0
-2.8168766		-0.0996455
-2.7605975	­	-0.049232293
-3.4824893		-0.041596342
-2.8815503		-0.023909247
-2.0301769	q	-0.27117267
-1.9337139	\	-0.56650376
-2.1813316	{	-0.29976302
-2.1954665	^	-0.42577952
-2.0204666	}	-0.4308493
-2.167642	_	-0.36168194
-2.2739942	+	-0.17557381
-2.588529	%	-0.10171753
-1.903346	/	-0.80139583
-2.7107818	·	-0.076214224
-2.588529	°	-0.0899895
-3.0497775		-0.07898852
-3.0497775		-0.057759363
-2.9575686	¨	-0.06264365
-2.3919451	&	-0.028201388
-3.0497775	¦	-0.021120211
-2.7107818	¬	-0.08985987
-2.7605975	~	-0.11999222
-2.128987	?	-0.47747755
-2.6255836		-0.007824386
-2.7605975		-0.04395384
-2.6255836		-0.04697112
-2.6255836	§	-0.07773117
-2.6660967		-0.06349892
-2.9575686	|	-0.059816197
-2.8815503	ª	-0.074283965
-2.3489692	#	-0.033527356
-2.588529	´	-0.05813995
-2.0016742	ä	-0.57542837
-2.6255836	±	-0.08452946
-1.9497333	å	-0.42256325
-2.6660967		-0.061028235
-2.8168766	«	-0.13194212
-2.9575686		-0.008754238
-2.7605975	£	-0.0061826315
-2.2739942	ê	-0.35794684
-2.7605975	¿	-0.010653363
-2.6255836		-0.059392937
-2.6255836	¾	-0.021014292
-2.6660967	¡	-0.14140989
-2.7107818	¸	-0.08888226
-2.6660967		-0.118423104
-2.7107818	³	-0.059330493
-2.9575686		0
-2.7107818	¥	-0.04156535
-2.8168766	½	-0.09023899
-2.7107818	µ	-0.017173124
-2.7107818		-0.1363159
-2.8168766	ì	-0.016686795
-2.7107818		-0.053647716
-2.8815503		0
-2.9575686	®	0
-2.1050053	'	-0.3073249
-2.7605975	²	-0.15171644
-2.8815503		0
-2.1050053	"	-0.22310755
-2.9575686		0
-2.6255836	»	-0.05817695
-2.9575686	>	-0.07949474
-2.465616	$	-0.11670479
-2.5227387	ç	-0.16440384
-2.588529	æ	0
-2.8168766		-0.04478508
-2.8815503		0
-2.7107818		0
-3.1669922		0
-2.2739942	ñ	-0.47778565
-2.1543713	ð	-0.69074273
-2.7107818	¹	-0.12539782
-3.1669922	<	-0.049528442
-3.0497775	¢	-0.010653363
-2.4396455	ë	-0.37699172
-2.2739942	é	-0.26837996
-2.3289776	ø	-0.16106749
-2.210077	ù	-0.34868315
-3.0497775		0
-2.3919451	à	0
-2.3289776	×	0

\2-grams:
-1.380491	a </s>	0
-1.38006	l </s>	0
-1.20195	n </s>	0
-1.2953008	s </s>	0
-1.2424116	m </s>	0
-1.3895869	i </s>	0
-1.3563787	t </s>	0
-1.3035208	h </s>	0
-1.3762051	e </s>	0
-1.3535643	p </s>	0
-1.3684363	u </s>	0
-1.2640704	d </s>	0
-1.389423	o </s>	0
-1.2844505	y </s>	0
-1.2624884	f </s>	0
-1.381062	ã </s>	0
-1.1114833	¼ </s>	0
-1.2915874	r </s>	0
-1.2759602	k </s>	0
-1.1889986	v </s>	0
-1.3408161	g </s>	0
-0.45222205	, </s>	0
-1.2175063	w </s>	0
-1.3078849	b </s>	0
-1.2207992	c </s>	0
-1.1909726	¶ </s>	0
-0.95527565	. </s>	0
-1.1241312	1 </s>	0
-1.1841729	9 </s>	0
-1.2563165	6 </s>	0
-1.1363748	8 </s>	0
-1.140091	2 </s>	0
-1.201901	0 </s>	0
-1.8806008	( </s>	0
-0.73778653	) </s>	0
-1.0265753	j </s>	0
-1.2674085	z </s>	0
-0.5521364	â </s>	0
-1.052861	 </s>	0
-1.1340244	 </s>	0
-1.4947846	- </s>	0
-1.3457007	¤ </s>	0
-0.61647326	: </s>	0
-1.1733485	7 </s>	0
-1.093424	 </s>	0
-1.0073403	x </s>	0
-0.87778944	* </s>	0
-1.1549404	 </s>	0
-1.1543702	4 </s>	0
-1.1459179	3 </s>	0
-1.1513026	5 </s>	0
-0.46404934	! </s>	0
-0.929073	= </s>	0
-1.2845957	© </s>	0
-0.21301517	; </s>	0
-0.76532996	 </s>	0
-1.3536056	­ </s>	0
-1.3424749	 </s>	0
-0.8970219	q </s>	0
-0.79909575	\ </s>	0
-1.4003808	{ </s>	0
-0.70640224	} </s>	0
-0.904602	+ </s>	0
-0.784297	% </s>	0
-1.4520924	/ </s>	0
-1.0391953	· </s>	0
-0.8803507	° </s>	0
-1.407881	 </s>	0
-0.9418442	¨ </s>	0
-1.0991201	& </s>	0
-1.244874	¦ </s>	0
-0.67651373	¬ </s>	0
-0.93913615	~ </s>	0
-0.433695	? </s>	0
-1.129946	 </s>	0
-0.99823135	 </s>	0
-0.90729177	§ </s>	0
-0.7925945	 </s>	0
-0.8122762	| </s>	0
-0.7404337	ª </s>	0
-1.0222661	# </s>	0
-0.8467353	´ </s>	0
-0.9863326	± </s>	0
-0.96335685	 </s>	0
-1.0679001	« </s>	0
-1.2250055	 </s>	0
-1.1781415	¡ </s>	0
-0.86949545	¸ </s>	0
-0.6113555	 </s>	0
-1.0502782	³ </s>	0
-0.96865207	¥ </s>	0
-0.76803917	½ </s>	0
-0.570559	 </s>	0
-0.84779966	 </s>	0
-0.8015398	' </s>	0
-0.77837574	² </s>	0
-0.5314021	" </s>	0
-0.85302997	» </s>	0
-0.71772486	> </s>	0
-0.60563165	$ </s>	0
-0.905593	 </s>	0
-0.7410625	¹ </s>	0
-0.87356263	< </s>	0
-1.0202618	ù </s>	0
-1.076752	<s> a	-2.893254
-1.6821903	a a	-0.42564338
-1.2812123	l a	-0.95165426
-1.3686417	n a	-0.8131927
-1.4325526	s a	-0.88318825
-1.266549	m a	-0.85439086
-1.5524614	i a	-0.67610574
-1.4641781	t a	-0.8564492
-1.269346	h a	-0.888028
-1.6020395	e a	-0.6680215
-1.2761198	p a	-0.838311
-1.5404949	u a	-0.45764506
-1.3073344	d a	-0.8348313
-1.6647595	o a	-0.4081754
-1.2687123	y a	-0.4530869
-1.303065	f a	-0.7814871
-1.3531256	r a	-0.96712875
-1.2650048	k a	-0.9078905
-1.2311018	v a	-0.5038866
-1.3503855	g a	-0.7950219
-1.8320674	, a	0
-1.175532	w a	-0.7540709
-1.2473413	b a	-0.8724698
-1.2712786	c a	-0.7267621
-1.3870684	. a	-0.1847687
-1.7198857	1 a	0
-1.5883634	9 a	0
-1.6945726	6 a	0
-1.5680099	2 a	0
-1.8120301	0 a	0
-1.2474804	( a	-0.20815912
-1.0232173	j a	-0.51550794
-1.2902011	z a	-0.6408746
-1.4475555	- a	-0.6644274
-1.4232405	¤ a	0
-1.5758272	: a	-0.09468986
-1.3923029	 a	-0.0503477
-1.4858615	x a	-0.18476097
-1.4736061	* a	0
-1.6668624	 a	-0.018050529
-1.526251	4 a	0
-1.7225069	3 a	0
-1.5683389	5 a	0
-1.6006297	© a	0
-1.4624392	 a	-0.05322747
-1.3381195	­ a	-0.013881765
-1.5098168	 a	0
-1.2038739	q a	0
-1.7121495	\ a	-0.025798794
-1.1595006	{ a	0
-1.8892343	} a	-0.082505964
-1.3306584	/ a	-0.045372203
-1.6374061	 a	-0.090144776
-1.2837421	§ a	-0.037743624
-1.5334783	« a	0
-1.5044067	¿ a	-0.019204002
-1.2623125	¾ a	0
-1.3711033	¡ a	-0.010136359
-1.2008451	' a	0
-1.6469996	" a	0
-1.7414317	<s> l	-2.3130717
-1.4396183	a l	-1.02074
-1.5757138	l l	-0.60884017
-1.8447131	n l	-0.4427939
-1.6259825	s l	-0.5163533
-1.602923	m l	-0.38244563
-1.4785743	i l	-0.9097764
-1.6167704	t l	-0.65628
-1.5853299	h l	-0.6338489
-1.5188762	e l	-1.059728
-1.3916801	p l	-0.5650535
-1.3591634	u l	-0.8271754
-1.6111853	d l	-0.35474342
-1.4466453	o l	-0.935045
-1.4563583	y l	-0.39965433
-1.3667709	f l	-0.6640005
-1.7210139	¼ l	-0.046206225
-1.6283607	r l	-0.36593327
-1.4031065	k l	-0.6279566
-1.7561523	v l	-0.032251522
-1.3788218	g l	-0.5571158
-1.6764798	w l	-0.080207154
-1.3914402	b l	-0.76056266
-1.2755259	c l	-0.47902548
-1.6821597	¶ l	-0.07320657
-1.8761213	. l	-0.25755402
-1.8090612	( l	-0.055609383
-1.7000723	z l	-0.22919793
-1.6130886	- l	-0.7889311
-1.7196231	¤ l	-0.10399768
-1.7866007	: l	-0.100125626
-1.5565838	 l	-0.039296627
-1.5982416	x l	-0.24335203
-1.666197	© l	-0.019204002
-1.4940608	­ l	0
-1.5525628	q l	0
-1.6285492	\ l	-0.10828996
-1.4560997	/ l	-0.03703378
-1.7093219	 l	-0.101069905
-1.46455	« l	0
-1.6904817	 l	0
-1.5313421	¡ l	0
-1.666541	³ l	0
-1.6035789	<s> n	-2.4645343
-1.4119179	a n	-1.1262236
-1.7087036	l n	-0.3728917
-1.6839504	n n	-0.45841074
-1.776711	s n	-0.3762453
-1.693808	m n	-0.29695287
-1.3507046	i n	-1.01578
-1.6804967	t n	-0.50594795
-1.5792795	h n	-0.53982824
-1.3689436	e n	-1.2112644
-1.7117958	p n	-0.26029742
-1.2954171	u n	-0.86405945
-1.708941	d n	-0.41808382
-1.442712	o n	-0.9665889
-1.3749727	y n	-0.46616542
-1.8049346	f n	-0.17065154
-1.6579483	¼ n	-0.07173693
-1.6987158	r n	-0.5632594
-1.4539204	k n	-0.5562711
-1.8832601	v n	0
-1.6144271	g n	-0.35593998
-1.6676332	w n	-0.061059635
-1.7665278	b n	-0.34687766
-1.7083673	c n	-0.019160986
-1.6222271	¶ n	-0.06629175
-1.5972285	. n	-0.2616443
-2.1167793	2 n	0
-1.2483737	( n	-0.27130744
-1.7393193	j n	0
-1.5752386	z n	-0.320518
-1.4197572	 n	0
-1.5829295	- n	-0.5872098
-1.6571486	¤ n	-0.088606216
-1.8905623	: n	-0.10340747
-1.7624135	 n	-0.05322747
-1.4665127	 n	0
-1.6067585	© n	-0.0127078565
-1.4504086	­ n	-0.053675573
-1.609933	\ n	-0.2813405
-1.5535363	{ n	0
-1.5806433	} n	0
-1.5787553	/ n	-0.0551239
-1.6440849	 n	-0.082505964
-1.553373	¨ n	-0.18445127
-1.4304591	« n	0
-1.411405	 n	-0.015294671
-1.7067583	¡ n	-0.008430482
-1.6044562	³ n	-0.0532275
-1.5564839	¥ n	-0.18445127
-1.1645133	<s> s	-2.7911046
-1.4602401	a s	-0.9135094
-1.5354215	l s	-0.7138051
-1.6055621	n s	-0.77036273
-1.5513884	s s	-0.8657727
-1.5292579	m s	-0.5615815
-1.4178694	i s	-1.0571182
-1.551277	t s	-0.9514067
-1.5388316	h s	-0.4496
-1.4692941	e s	-1.0427232
-1.455311	p s	-0.4469449
-1.3884745	u s	-0.8815686
-1.4900829	d s	-0.61703974
-1.4303999	o s	-0.8310678
-1.4281303	y s	-0.4177221
-1.4759767	f s	-0.6040417
-1.6450958	¼ s	-0.036144305
-1.5256138	r s	-0.76797426
-1.5160472	k s	-0.5600956
-1.5072888	v s	-0.2333041
-1.5723006	g s	-0.70089567
-1.5137911	w s	-0.15394373
-1.649971	b s	-0.48267537
-1.6002655	c s	-0.1825292
-1.6099617	¶ s	-0.06839088
-1.6749836	. s	-0.1772305
-2.2683752	1 s	-0.039296627
-1.7809733	2 s	0
-1.2963425	( s	-0.23429233
-1.5647033	j s	0
-1.5734658	z s	-0.44806606
-1.5167351	 s	0
-1.4653602	- s	-0.79057014
-1.6444064	¤ s	-0.067620054
-1.9827011	: s	-0.06594617
-1.7499955	 s	-0.05322747
-1.8583723	x s	0
-1.4580939	 s	-0.071163006
-1.5945861	© s	-0.028221939
-1.4182117	 s	-0.18445127
-1.4412763	­ s	0
-1.5044651	 s	0
-1.846079	\ s	0
-1.6669754	{ s	0
-1.2665156	/ s	-0.10955452
-1.6308285	 s	-0.095684454
-1.5421762	¨ s	0
-1.6934943	¡ s	0
-1.5024245	 s	0
-0.9794414	' s	-0.24751703
-1.4326005	<s> m	-2.5180254
-1.4879961	a m	-0.8197222
-1.5868255	l m	-0.49976712
-1.7773938	n m	-0.43121588
-1.6200429	s m	-0.5833602
-1.5619544	m m	-0.4556375
-1.4628315	i m	-0.69454426
-1.6116624	t m	-0.6055622
-1.5792795	h m	-0.47871953
-1.5497702	e m	-0.80663836
-1.6613377	p m	-0.19048755
-1.3778101	u m	-0.87498987
-1.5691324	d m	-0.3343277
-1.5327616	o m	-0.76785636
-1.4702277	y m	-0.4003684
-1.6108853	f m	-0.26276565
-1.4311656	¼ m	-0.02314887
-1.5876637	r m	-0.4789186
-1.7070613	k m	-0.32598567
-1.7454525	v m	0
-1.6836483	g m	-0.26223844
-1.7057954	w m	-0.06360257
-1.7409774	b m	-0.30568495
-1.6519759	c m	-0.13531958
-1.6222271	¶ m	-0.05840612
-1.9045112	. m	-0.3447042
-1.6439213	( m	-0.09358683
-1.6178405	j m	0
-1.7235307	z m	-0.23241292
-1.4197572	 m	0
-1.4950311	- m	-0.61320215
-1.6571486	¤ m	-0.11390189
-1.8905623	: m	-0.1423273
-1.5226536	 m	-0.12603863
-1.775146	x m	-0.19219953
-1.4665127	 m	0
-1.6067585	© m	-0.02201808
-1.5152352	 m	0
-1.2118813	\ m	-0.4016266
-1.4583635	{ m	0
-1.5219905	/ m	-0.12597953
-1.5270247	· m	-0.082505964
-1.6440849	 m	-0.082506
-1.6251392	 m	0
-1.549921	µ m	-0.05322747
-1.3126097	<s> i	-2.784097
-1.6062459	a i	-0.84106314
-1.2410848	l i	-0.89647865
-1.3607622	n i	-0.90699744
-1.4252526	s i	-0.8323717
-1.260225	m i	-0.7157456
-1.5697114	i i	-0.51818246
-1.3930249	t i	-0.89866674
-1.3362083	h i	-0.7690321
-1.4619733	e i	-1.0005337
-1.3769416	p i	-0.6262474
-1.596353	u i	-0.48883796
-1.3091403	d i	-0.80427915
-1.5070868	o i	-0.5409229
-1.3951118	y i	-0.38145846
-1.3278854	f i	-0.6951145
-1.3097804	r i	-0.90539676
-1.2966232	k i	-0.73724014
-1.2577865	v i	-0.6448634
-1.3643711	g i	-0.7114241
-1.201383	w i	-0.65993446
-1.29086	b i	-0.7030706
-1.3723277	c i	-0.6704856
-1.8656754	. i	-0.14635408
-1.3910171	( i	-0.28092244
-1.2290821	j i	-0.19284095
-1.3195417	z i	-0.68501174
-1.5386745	- i	-0.59058195
-1.6838123	¤ i	-0.05322747
-1.9065326	: i	-0.029068112
-1.4059459	 i	-0.039296627
-1.2922	x i	-0.3551951
-1.4838562	 i	0
-1.6321771	© i	-0.082505964
-1.1753399	q i	-0.040296845
-1.525859	/ i	0
-1.6718771	 i	-0.029134128
-1.5094222	¡ i	0
-1.7911196	<s> t	-2.1387897
-1.5294715	a t	-0.9785461
-1.6689084	l t	-0.64334303
-1.5771573	n t	-0.68713605
-1.3568987	s t	-1.0095121
-1.6371173	m t	-0.35337305
-1.4001417	i t	-0.96817183
-1.5838474	t t	-0.7296081
-1.4579105	h t	-0.4875995
-1.5169384	e t	-0.8732676
-1.5788914	p t	-0.47684067
-1.5122566	u t	-0.82044995
-1.6687348	d t	-0.4540965
-1.481654	o t	-0.7258245
-1.4536515	y t	-0.34346718
-1.615638	f t	-0.63478816
-1.6953893	¼ t	-0.062027883
-1.5752895	r t	-0.639252
-1.801527	k t	-0.60715055
-1.6461084	v t	-0.11093242
-1.5777103	g t	-0.39490044
-1.673018	w t	-0.0798054
-1.7464869	b t	-0.29213002
-1.60708	c t	-0.2793497
-1.6578604	¶ t	-0.0743232
-1.7161225	. t	-0.22444782
-1.5997909	( t	-0.078103155
-1.8313876	j t	0
-1.6639785	z t	-0.285776
-1.4684093	- t	-0.72697085
-1.6942489	¤ t	-0.08544701
-1.9126762	: t	-0.19187346
-1.798516	 t	-0.05840612
-1.6484947	x t	-0.12399107
-1.4905428	 t	-0.37951943
-1.6421062	© t	-0.017027806
-1.7291306	\ t	-0.13420759
-1.7294341	/ t	-0.11993206
-1.6827755	 t	-0.101069905
-1.5774173	& t	0
-1.3089134	« t	0
-1.6638905	 t	-0.02201808
-1.5158827	¡ t	0
-1.389938	¢ t	0
-1.622637	<s> h	-2.422135
-1.6476539	a h	-0.57383883
-1.7680244	l h	-0.44104135
-1.6323382	n h	-0.42408153
-1.5451131	s h	-0.51362264
-1.8035586	m h	-0.17112254
-1.6730628	i h	-0.34941995
-1.4044998	t h	-0.6830526
-2.0681748	h h	-0.16650815
-1.5947664	e h	-0.6557035
-1.4609256	p h	-0.57118666
-1.5811971	u h	-0.39074078
-1.6505419	d h	-0.37215853
-1.5096169	o h	-0.5412333
-1.8229802	y h	0
-1.6667798	f h	-0.24565652
-1.7210139	¼ h	-0.08615585
-1.593893	r h	-0.37462705
-1.559413	k h	-0.3989036
-2.0273652	v h	0
-1.5609775	g h	-0.3504952
-1.5769516	w h	-0.22360797
-1.7761346	b h	-0.22216271
-1.1678133	c h	-0.88484013
-1.6821597	¶ h	-0.18445127
-1.8319349	. h	-0.11827592
-2.3180401	1 h	-0.42054403
-1.7307401	( h	-0.06316627
-2.0696824	j h	-0.07908233
-1.5833071	z h	-0.35661662
-1.5709546	 h	0
-1.5755931	- h	-0.6994048
-1.7196231	¤ h	-0.108022146
-2.03958	: h	-0.100125626
-1.8231583	 h	0
-1.802525	x h	-0.060222264
-1.6557033	/ h	-0.08988601
-1.7093219	 h	-0.072525546
-1.2182636	<s> e	-2.8934722
-1.6587468	a e	-0.51893574
-1.2924258	l e	-1.0003356
-1.2714067	n e	-0.9673766
-1.4353281	s e	-0.9687959
-1.3124508	m e	-0.93083006
-1.5558755	i e	-0.94938064
-1.3308691	t e	-0.998579
-1.2714769	h e	-0.9078718
-1.6208637	e e	-0.740962
-1.3419058	p e	-0.71066016
-1.5279943	u e	-0.5001781
-1.2823719	d e	-0.9472869
-1.5811938	o e	-0.55546236
-1.4536515	y e	-0.26577926
-1.3650596	f e	-0.692902
-1.2462956	r e	-1.0895109
-1.3404462	k e	-0.75439477
-1.081711	v e	-0.63477916
-1.2496872	g e	-1.0146796
-1.1659111	w e	-0.8102229
-1.3002932	b e	-0.9893455
-1.4018877	c e	-0.5843179
-1.9171075	. e	0
-1.5726027	0 e	-0.7111534
-1.3315829	( e	-0.2707772
-1.0999073	j e	-0.4638037
-1.2098689	z e	-0.69655085
-1.5620062	- e	-0.43614423
-1.6942489	¤ e	-0.06470309
-1.7759335	: e	-0.09215576
-1.543072	 e	-0.123495296
-1.4958192	x e	-0.2619386
-1.7130566	 e	0
-1.6421062	© e	-0.04305186
-1.5463086	 e	-0.05322747
-1.7722075	_ e	-0.21356523
-1.370731	/ e	-0.35526112
-1.6827755	 e	-0.059229493
-1.4067215	 e	0
-1.5158827	¡ e	0
-1.4705184	' e	0
-1.6874824	<s> p	-2.412245
-1.5976179	a p	-0.7298375
-1.5936948	l p	-0.4296627
-1.6927489	n p	-0.3730815
-1.5099577	s p	-0.72566056
-1.6215737	m p	-0.45465147
-1.6201504	i p	-0.6055661
-1.6868234	t p	-0.63144845
-1.733072	h p	-0.12582518
-1.6091533	e p	-0.6524251
-1.581596	p p	-0.31663138
-1.5144603	u p	-0.4816817
-1.717661	d p	-0.20548493
-1.4709816	o p	-0.71742636
-1.5746486	y p	-0.2998684
-1.7214195	f p	-0.21189246
-1.7248012	¼ p	-0.025798794
-1.6287382	r p	-0.46388108
-1.7447621	k p	-0.17165995
-1.6826537	v p	-0.17672381
-1.6925389	g p	-0.164283
-1.806487	w p	0
-1.6593546	b p	-0.17922504
-1.6107587	c p	-0.12950523
-1.6857448	¶ p	-0.069715634
-1.5604547	. p	-0.029866716
-1.6652374	0 p	-0.50318927
-1.3979026	( p	-0.15525964
-1.8431231	j p	0
-1.6101698	z p	-0.40850064
-1.4795378	- p	-0.764594
-1.7233721	¤ p	-0.069715634
-1.6816787	: p	-0.13918133
-1.8267956	 p	-0.025798794
-1.657395	x p	-0.11501915
-2.045814	5 p	-0.54548275
-1.6697502	© p	-0.019204002
-1.5859361	{ p	0
-1.8428143	} p	-0.031147704
-1.4342139	/ p	0
-1.7132502	 p	-0.042047285
-1.3918709	<s> u	-2.6570764
-1.522742	a u	-0.9649766
-1.4077473	l u	-0.67277634
-1.4920992	n u	-0.61184186
-1.5345984	s u	-0.7274461
-1.467983	m u	-0.55374837
-1.6387802	i u	-0.39889812
-1.4694327	t u	-0.60766816
-1.4166465	h u	-0.6377586
-1.5444914	e u	-0.7925001
-1.4060302	p u	-0.51914907
-1.7604293	u u	-0.16942842
-1.483583	d u	-0.56102747
-1.5249605	o u	-0.66588557
-1.5772027	y u	-0.12732281
-1.4374013	f u	-0.5686952
-1.4203819	r u	-0.7452283
-1.3548944	k u	-0.6197883
-1.5407956	v u	-0.1583482
-1.4058177	g u	-0.5706106
-1.3523564	w u	-0.43455136
-1.4652855	b u	-0.61255234
-1.4366894	c u	-0.47501773
-1.9889565	. u	0
-1.7389641	( u	-0.097086035
-1.0875005	j u	-0.49291056
-1.3235035	z u	-0.8340777
-1.641835	- u	-0.33951643
-1.4752877	¤ u	-0.11390193
-1.9403509	: u	-0.025798794
-1.5685096	 u	-0.039296627
-1.6041672	x u	-0.043093026
-0.7769582	q u	-0.65265656
-1.6245774	/ u	0
-1.7334433	 u	-0.05322747
-1.820675	« u	0
-1.4135282	¡ u	-0.1533001
-0.8866428	<s> d	-3.2825656
-1.5171418	a d	-0.81329083
-1.6443213	l d	-0.57793796
-1.5131431	n d	-0.6923831
-1.6835821	s d	-0.46650928
-1.6332086	m d	-0.35705063
-1.4996666	i d	-0.746393
-1.7411441	t d	-0.37913048
-1.6010098	h d	-0.14649999
-1.5380647	e d	-0.7132621
-1.5208192	p d	-0.22522685
-1.5416695	u d	-0.43524265
-1.521295	d d	-0.35406452
-1.5055757	o d	-0.6583812
-1.5660754	y d	-0.31166366
-1.5492625	f d	-0.14626102
-1.435052	¼ d	-0.09200889
-1.5883514	r d	-0.56863856
-1.8295679	k d	-0.05982995
-1.5576241	v d	-0.09314957
-1.7671554	g d	-0.18215159
-1.706859	w d	-0.0072160535
-1.7177896	b d	-0.28662246
-1.5174896	c d	-0.28579915
-1.6284921	¶ d	-0.039296627
-1.4902946	. d	-0.376803
-1.9549662	2 d	0
-1.5908446	( d	-0.13698582
-1.6763673	j d	0
-1.7617662	z d	-0.23260961
-1.4234796	 d	0
-1.5264121	- d	-0.60381293
-1.6636626	¤ d	-0.09084591
-1.7625926	: d	-0.18621665
-1.5262953	 d	-0.14955872
-1.8692195	x d	0
-1.2519994	* d	-0.0127078565
-1.972409	3 d	-0.13016069
-1.612975	© d	-0.06470309
-1.520722	 d	-0.082505964
-1.5272498	\ d	-0.13420759
-1.4970762	/ d	-0.12873138
-1.650868	 d	-0.069715634
-1.4967823	¡ d	0
-1.6568346	" d	0
-1.8715075	<s> o	-2.222784
-1.7558812	a o	-0.29617152
-1.3529567	l o	-0.90348226
-1.3545234	n o	-0.8376386
-1.4480625	s o	-0.8358236
-1.3538376	m o	-0.75209206
-1.6055266	i o	-0.71311015
-1.4696361	t o	-0.92331636
-1.2945923	h o	-0.79822266
-1.6896544	e o	-0.5739752
-1.3222607	p o	-0.6986163
-1.663185	u o	-0.15416451
-1.3622596	d o	-0.71325094
-1.6949506	o o	-0.46046293
-1.4803566	y o	-0.27198634
-1.3684888	f o	-0.6376916
-1.4096388	r o	-1.0177584
-1.2419446	k o	-0.86626744
-1.2483319	v o	-0.5551249
-1.3681624	g o	-0.63294816
-1.2576482	w o	-0.5857771
-1.4277619	b o	-0.7174107
-1.2552727	c o	-0.7457085
-1.9336864	. o	-0.23571163
-2.3944545	2 o	-0.13391747
-1.5624905	( o	-0.1628055
-1.0724025	j o	-0.43499178
-1.3528682	z o	-0.40485352
-1.6150856	- o	-0.4904629
-1.7465723	¤ o	-0.023758952
-2.0593603	: o	-0.040787525
-1.5068045	x o	-0.13247475
-1.7689996	 o	0
-1.691703	© o	-0.019204002
-1.7394054	­ o	-0.05322747
-1.7481924	\ o	-0.03475058
-1.6985303	/ o	-0.0075800233
-1.7375971	 o	-0.036883976
-1.7235875	§ o	-0.031147704
-1.5262736	± o	0
-1.5542886	£ o	-0.039296627
-3.1737425	<s> y	-1.0328915
-1.6843915	a y	-0.45201024
-1.5845438	l y	-0.44887474
-1.6621801	n y	-0.38736635
-1.605166	s y	-0.5296682
-1.7395139	m y	-0.2733545
-1.7014778	i y	-0.14830711
-1.6406538	t y	-0.38552988
-1.466064	h y	-0.4418391
-1.7335954	e y	-0.4609459
-1.6792234	p y	-0.27465847
-1.8296471	u y	-0.086842515
-1.7289323	d y	-0.24453494
-1.7020063	o y	-0.2946607
-2.3680882	y y	0
-1.6378988	r y	-0.39062503
-1.6531606	k y	-0.1887922
-1.864297	v y	-0.06360257
-1.6545339	g y	-0.22730863
-1.6890737	w y	0
-1.5751588	b y	-0.33387348
-1.5979832	c y	-0.37429428
-1.7660847	( y	-0.06709168
-1.500627	z y	-0.26416615
-1.9671001	- y	0
-2.1147914	: y	0
-1.685246	x y	-0.065122806
-1.5364497	<s> f	-2.4510267
-1.6483377	a f	-0.4727831
-1.6949714	l f	-0.43660378
-1.81654	n f	-0.41979665
-1.7453496	s f	-0.58679295
-1.6610037	m f	-0.42979586
-1.6204562	i f	-0.5404443
-1.7065196	t f	-0.5838036
-1.6786082	h f	-0.3610635
-1.6546563	e f	-0.60189205
-1.4185345	p f	-0.5122171
-1.619731	u f	-0.54785305
-1.651337	d f	-0.39559335
-1.5101247	o f	-0.51680124
-1.737741	y f	0
-1.3935566	f f	-0.61236423
-1.7286217	¼ f	-0.04889326
-1.6866686	r f	-0.49301118
-1.7173715	k f	-0.21718955
-1.6831621	v f	-0.15384743
-1.6446843	g f	-0.20876144
-1.577742	w f	-0.07155388
-1.7030134	b f	-0.21041761
-1.7521756	c f	-0.07953126
-1.6893597	¶ f	-0.14774558
-1.6089255	( f	-0.08589342
-1.774226	z f	-0.31086156
-1.5095556	- f	-1.0944815
-1.7271538	¤ f	-0.082505964
-1.7896973	: f	-0.115242936
-1.8304636	 f	0
-1.7258954	x f	-0.04863327
-1.3520412	\ f	-0.6697607
-1.721463	{ f	0
-1.6221455	/ f	-0.1623215
-1.7172143	 f	-0.13049419
-2.0800447	<s> ã	-2.2642741
-1.831967	a ã	-0.37289923
-1.4584528	l ã	-0.78312635
-1.5359592	n ã	-0.4600796
-1.6445094	s ã	-0.62657416
-1.4314885	m ã	-0.59873974
-1.6765299	i ã	-0.4382866
-1.5453254	t ã	-0.5284799
-1.3770752	h ã	-0.52550393
-1.8090736	e ã	-0.4313357
-1.6050961	p ã	-0.4268471
-1.6643534	u ã	-0.24374974
-1.4989572	d ã	-0.42140746
-1.6757793	o ã	-0.29205912
-1.943188	y ã	-0.04436589
-1.4094833	f ã	-0.92586756
-1.7604605	¼ ã	-0.031147704
-1.4213179	r ã	-0.75551033
-1.4056439	k ã	-0.50364935
-1.4533955	v ã	-0.6428886
-1.4483958	g ã	-0.4738288
-1.3532991	w ã	-0.9988194
-1.4935446	b ã	-0.6431212
-1.7573221	c ã	-0.22457774
-1.7194158	¶ ã	-0.05322747
-2.055244	( ã	-0.14488126
-1.1382736	j ã	-0.34133068
-1.3849361	z ã	-0.5080819
-1.7916987	- ã	-0.6324822
-1.7586544	¤ ã	-0.082505964
-2.0681212	: ã	0
-1.3988777	 ã	-0.031147704
-1.7503023	 ã	-0.082505964
-1.7359198	§ ã	-0.05322747
-1.1185658	ã ¼	-0.78460854
-1.5575176	á ¼	0
-1.2104224	î ¼	-0.01171701
-1.4016153	ð ¼	-0.44791198
-1.7579372	<s> r	-2.2176042
-1.4117194	a r	-1.1326375
-1.6233869	l r	-0.40033752
-1.6246722	n r	-0.36012894
-1.6499488	s r	-0.5718019
-1.6718663	m r	-0.3675349
-1.4511471	i r	-0.6739061
-1.4531875	t r	-0.6700107
-1.5999583	h r	-0.6385342
-1.3687471	e r	-1.1774485
-1.2570894	p r	-0.67212784
-1.3448673	u r	-0.9998748
-1.4010458	d r	-0.54994076
-1.3778756	o r	-1.090604
-1.4916488	y r	-0.36381048
-1.3258744	f r	-0.67111385
-1.6546993	¼ r	-0.12119808
-1.6039535	r r	-0.43878198
-1.3731058	k r	-0.630394
-1.4649476	v r	-0.31740263
-1.2960795	g r	-0.6268658
-1.5413046	w r	-0.2250841
-1.3554578	b r	-0.61665225
-1.3984754	c r	-0.49382812
-1.6191281	¶ r	-0.10272231
-1.7401781	. r	-0.4352376
-1.5391645	( r	-0.12979364
-1.906847	j r	-0.025798794
-1.6006488	z r	-0.077764824
-1.5151675	- r	-0.64129204
-1.6539278	¤ r	-0.10972095
-1.8886067	: r	-0.22720268
-1.5208441	 r	-0.2092847
-1.9775629	x r	-0.05322747
-1.4643927	 r	0
-1.6036832	© r	-0.047601387
-1.6057576	q r	0
-1.3936447	\ r	-0.22818792
-1.609597	/ r	0
-1.6407326	 r	-0.12330545
-1.5505466	¨ r	-0.05322747
-1.2926977	« r	0
-1.4093497	 r	0
-1.4905977	¡ r	0
-1.314135	¸ r	0
-1.6012541	³ r	-0.082505964
-1.5769309	<s> k	-2.4811478
-1.5847027	a k	-0.7128175
-1.6706451	l k	-0.4974766
-1.7358445	n k	-0.53725535
-1.5442865	s k	-0.79631954
-1.830812	m k	-0.2845436
-1.5716211	i k	-0.7510093
-1.6493077	t k	-0.73453116
-1.7613195	h k	-0.17260173
-1.5418508	e k	-0.6949907
-1.6216801	p k	-0.11354092
-1.4691951	u k	-0.46008772
-1.7665365	d k	-0.32332164
-1.5514685	o k	-0.61503065
-1.5217805	y k	-0.20705195
-1.6406865	f k	-0.4170637
-1.7098463	¼ k	0
-1.6454985	r k	-0.617019
-1.5775106	k k	-0.22304873
-1.7965081	v k	-0.031013316
-1.690652	g k	-0.1869934
-1.5757687	w k	-0.10883909
-1.6786909	b k	-0.18635316
-1.6596597	c k	-0.64707845
-1.6715788	¶ k	-0.031147704
-2.049856	2 k	0
-1.603827	( k	-0.083063565
-1.9353104	j k	0
-1.581952	z k	-0.2507895
-1.5084358	- k	-0.7463441
-1.7085664	¤ k	-0.039296627
-2.031371	: k	-0.06992077
-1.5507414	 k	-0.03475058
-2.0168796	x k	-0.079840824
-1.805331	* k	0
-1.7095339	{ k	0
-1.478276	/ k	-0.09566194
-1.6977456	 k	-0.075572096
-1.663927	 k	-0.039296627
-1.5246493	¡ k	0
-1.4073598	<s> v	-2.4930105
-1.6514277	a v	-0.4719355
-1.5973544	l v	-0.42666802
-1.6368389	n v	-0.41492015
-1.7116271	s v	-0.49029392
-1.6651719	m v	-0.2803056
-1.5324471	i v	-0.5137485
-1.6199217	t v	-0.5312573
-1.61059	h v	-0.30880246
-1.5713995	e v	-0.51978505
-1.5467751	p v	-0.24310222
-1.584754	u v	-0.3846389
-1.471093	d v	-0.35451895
-1.6202472	o v	-0.46430993
-1.8330199	y v	0
-1.6011019	f v	-0.55521584
-1.7646096	¼ v	-0.031147704
-1.5977443	r v	-0.45839295
-1.5828358	k v	-0.33961043
-1.518633	v v	-0.20584667
-1.4788108	g v	-0.39373603
-1.5252056	w v	-0.12994267
-1.5704284	b v	-0.23782243
-2.030662	c v	0
-1.7233233	¶ v	-0.031147704
-1.8015174	. v	-0.22553536
-1.4777215	( v	-0.22059482
-1.8582528	j v	0
-1.5168494	z v	-0.35275695
-1.6295828	- v	-0.61521006
-1.7627575	¤ v	-0.05322747
-2.0710814	: v	0
-1.8649493	 v	-0.082505964
-1.6091678	x v	0
-1.7069799	© v	0
-1.3571022	\ v	-0.3305022
-1.9714749	/ v	-0.04436589
-1.7546214	 v	-0.06470309
-1.448588	<s> g	-2.6434746
-1.5876678	a g	-0.8230094
-1.5781682	l g	-0.46065116
-1.479078	n g	-0.59167176
-1.6283145	s g	-0.68401766
-1.6057549	m g	-0.30671585
-1.5180373	i g	-0.7986037
-1.6888405	t g	-0.6217941
-1.4773983	h g	-0.32419837
-1.5834084	e g	-0.74645185
-1.6040233	p g	-0.30914217
-1.5007999	u g	-0.7166504
-1.5952094	d g	-0.31728688
-1.5252235	o g	-0.6215094
-1.7034029	y g	-0.08671723
-1.4852083	f g	-0.37166333
-1.4824414	¼ g	-0.088606216
-1.5063697	r g	-0.6123572
-1.4921803	k g	-0.44791502
-1.378901	v g	-0.2875443
-1.5270631	g g	-0.36846855
-1.4091847	w g	-0.22222817
-1.5216634	b g	-0.2764157
-1.7903025	c g	0
-1.7078996	¶ g	-0.047601387
-1.8386717	. g	-0.1292396
-1.5624905	( g	-0.13525428
-1.7003102	j g	-0.0127078565
-1.5377561	z g	-0.40656003
-1.5655633	- g	-0.6924284
-1.7465723	¤ g	-0.095684454
-2.0593603	: g	-0.19171883
-1.5705295	 g	-0.045212373
-1.7325261	x g	-0.44791198
-1.691703	© g	0
-1.8998431	\ g	-0.42054403
-1.4088283	{ g	0
-1.5624597	/ g	-0.16942842
-1.7375971	 g	-0.06470309
-1.6307667	¨ g	0
-1.6360075	µ g	-0.082505964
-3.6734238	<s> ,	-1.6113288
-1.5546992	a ,	-0.7995666
-1.5653493	l ,	-0.8302479
-1.495012	n ,	-0.63564175
-1.4597268	s ,	-0.9518674
-1.5265439	m ,	-0.6209004
-1.5358703	i ,	-0.9016038
-1.5778036	t ,	-0.8076235
-1.5961244	h ,	-0.99198
-1.5849655	e ,	-0.7681949
-1.5341275	p ,	-1.0677007
-1.5375725	u ,	-1.358396
-1.6004357	d ,	-0.90112925
-1.5903898	o ,	-1.358396
-1.4448751	y ,	-1.265642
-1.5842088	f ,	-1.2444527
-1.6350268	r ,	-0.7810299
-1.6075468	k ,	-1.2444527
-1.7013611	v ,	-1.022604
-1.5891116	g ,	-1.0121834
-1.6618339	w ,	-1.022604
-1.5906217	b ,	-0.90112925
-1.620602	c ,	-0.9250332
-1.2898042	. ,	-1.4874908
-1.3144023	1 ,	-0.9311398
-1.2564757	9 ,	-0.7639867
-1.332095	6 ,	-0.82292724
-1.3196077	8 ,	-0.70414805
-1.3647273	2 ,	-0.9190634
-1.2867378	0 ,	-0.9020301
-2.1524308	( ,	-0.18445127
-0.86659575	) ,	-0.90241754
-1.6226567	z ,	-0.87388074
-1.3980691	 ,	-0.42054403
-1.756309	- ,	-1.3051506
-1.3310422	7 ,	-0.82110816
-1.3790753	 ,	-0.42054403
-1.3097003	x ,	-0.6135388
-1.3585156	4 ,	-0.9314138
-1.379821	3 ,	-0.9551085
-1.3265141	5 ,	-0.8658179
-1.1145391	! ,	-0.64239275
-1.414967	 ,	-0.18445127
-0.9022651	\ ,	-0.2850646
-1.3030108	{ ,	-0.7885208
-1.2315015	% ,	-0.37951943
-1.48636	 ,	-0.082505964
-1.1991314	± ,	0
-1.4091333	« ,	-0.27182072
-1.169894	² ,	-0.42054403
-1.3941706	<s> w	-2.7039127
-1.6658125	a w	-0.33402163
-1.8033849	l w	-0.36005974
-1.769033	n w	-0.2901798
-1.6777077	s w	-0.5337484
-1.8739606	m w	-0.2794765
-1.7174933	i w	-0.31944418
-1.6908671	t w	-0.64025116
-1.6579208	h w	-0.35015193
-1.6588484	e w	-0.4970332
-1.9825335	p w	0
-1.7119101	u w	-0.292867
-1.8661456	d w	-0.38877994
-1.638777	o w	-0.52709347
-2.0157993	y w	-0.17799169
-1.7584403	f w	-0.2138575
-1.7835064	r w	-0.42987508
-1.6477941	k w	-0.35090515
-1.6887943	v w	-0.1431171
-1.8518096	g w	-0.19907747
-1.8691303	w w	-0.053675573
-1.6856453	b w	-0.3647766
-1.97375	c w	0
-1.7312456	¶ w	-0.05322747
-1.9986606	. w	0
-2.0639296	( w	-0.09016701
-1.496162	z w	-0.43358934
-1.6301744	- w	-0.75511897
-2.0770626	: w	-0.21056442
-1.8729995	 w	-0.031147704
-1.6092206	 w	0
-1.5371765	/ w	-0.35923094
-1.7633904	 w	-0.072525546
-1.6139138	" w	0
-1.2626998	<s> b	-2.6754084
-1.4538394	a b	-0.8823505
-1.5547673	l b	-0.47895998
-1.7083948	n b	-0.45153907
-1.6524134	s b	-0.5653621
-1.5177475	m b	-0.4297608
-1.5691674	i b	-0.6005006
-1.6465476	t b	-0.5958279
-1.6246256	h b	-0.33740222
-1.6191128	e b	-0.5944916
-1.6637896	p b	-0.104097806
-1.5265721	u b	-0.5386209
-1.5711128	d b	-0.28339836
-1.5202543	o b	-0.55320084
-1.5680776	y b	-0.3004171
-1.5507566	f b	-0.2960613
-1.6779696	¼ b	-0.082505964
-1.5897301	r b	-0.48136616
-1.6842939	k b	-0.24864659
-1.4468514	v b	-0.19035418
-1.52097	g b	-0.33207905
-1.5722393	w b	0
-1.6151929	b b	-0.3563265
-1.7118502	c b	0
-1.6413002	¶ b	-0.013881765
-1.7124805	. b	-0.11433887
-1.8632159	1 b	0
-1.7448877	2 b	0
-1.7899735	( b	-0.0645462
-1.6804376	j b	0
-1.5779115	z b	-0.26111045
-1.731742	 b	-0.02201808
-1.4673905	- b	-0.7562022
-1.6769913	¤ b	-0.069715634
-1.9024847	: b	-0.10707153
-1.7817329	 b	-0.060364157
-1.5866276	x b	-0.032842346
-1.4898515	* b	-0.06837295
-1.8012944	4 b	0
-1.729084	3 b	0
-1.5319083	 b	0
-1.2965084	\ b	-0.35668874
-1.5635091	{ b	0
-1.6864251	} b	-0.039296627
-1.4291307	/ b	-0.20365235
-1.6647606	 b	-0.12046293
-1.423946	 b	0
-1.9710853	<s> c	-1.9750085
-1.5713003	a c	-0.64469457
-1.7626143	l c	-0.22561882
-1.6282866	n c	-0.45717013
-1.3809338	s c	-0.6938493
-1.7206029	m c	-0.24275535
-1.5409355	i c	-0.7783969
-1.7655392	t c	-0.29009673
-1.6488154	h c	-0.15456434
-1.5648736	e c	-0.62455654
-1.6190844	p c	-0.14930627
-1.5603694	u c	-0.5245341
-1.6894575	d c	-0.17134666
-1.4938171	o c	-0.5417769
-1.5186354	y c	-0.31127954
-1.7763226	f c	-0.072852686
-1.6848538	¼ c	-0.082505964
-1.7470378	r c	-0.320518
-1.870539	k c	-0.09190335
-1.6771	v c	-0.05982995
-1.9140606	g c	0
-1.9807217	w c	0
-1.6975752	b c	-0.14820981
-1.5605954	c c	-0.33216658
-1.6478487	¶ c	-0.18445127
-1.5125979	. c	-0.39570913
-1.4250981	( c	-0.14841625
-1.8517865	z c	0
-1.7394116	 c	-0.039296627
-1.5386745	- c	-0.5851084
-1.6838123	¤ c	-0.11390189
-1.7714407	: c	-0.15978688
-1.7103829	x c	-0.013881765
-1.6321771	© c	-0.017027806
-1.1791532	\ c	-0.4816275
-1.6897378	} c	0
-1.4752395	/ c	-0.033944268
-1.615337	° c	-0.11390189
-1.6718771	 c	-0.031147704
-1.1059005	ã ¶	-0.7241199
-3.7510877	<s> .	-0.8259157
-1.5832279	a .	-0.3463084
-1.5242919	l .	-0.45599702
-1.4879925	n .	-0.35820663
-1.5553236	s .	-0.40710282
-1.5190752	m .	-0.35093933
-1.5854115	i .	-0.3975693
-1.5409884	t .	-0.5271373
-1.5826304	h .	-0.352164
-1.5786067	e .	-0.36718267
-1.6901673	p .	-0.31386843
-1.5970205	u .	-0.37594232
-1.523661	d .	-0.3963195
-1.5971662	o .	-0.35014358
-1.4963014	y .	-0.33841273
-1.5148482	f .	-0.40595216
-1.5157396	r .	-0.3171873
-1.6862319	k .	-0.30575275
-1.6154373	v .	-0.25277558
-1.5222456	g .	-0.36817506
-1.4470619	w .	-0.23628086
-1.5171812	b .	-0.30430645
-1.5834328	c .	-0.33328518
-1.6283526	. .	-0.36829078
-1.3519242	1 .	-0.6769846
-1.3674257	9 .	-0.43086636
-1.3906935	6 .	-0.38740844
-1.3265488	8 .	-0.44666174
-1.4505196	2 .	-0.62326205
-1.411914	0 .	-0.29791388
-0.89745224	) .	-0.9219304
-1.4889178	j .	-0.1816266
-1.5316879	z .	-0.44591758
-1.6907421	¤ .	0
-1.3387265	7 .	-0.3713504
-1.5411756	 .	-0.37951943
-1.5904645	x .	-0.24321465
-1.38953	4 .	-0.36061966
-1.3880529	3 .	-0.40678322
-1.3106933	5 .	-0.36379153
-1.5750625	% .	-0.18445127
-1.5441015	 .	-0.082505964
-1.6443031	² .	-0.18445127
-1.0133319	" .	-0.94342273
-1.7302556	<s> 1	-2.459197
-1.9728265	a 1	0
-2.236925	s 1	0
-2.2794378	t 1	0
-1.4269427	, 1	-0.469331
-1.9418521	b 1	0
-2.171669	c 1	-0.02201808
-1.5409685	. 1	-0.36976305
-1.2509825	1 1	-0.78778994
-1.343614	9 1	-0.6358177
-1.2952904	6 1	-0.58422565
-1.262473	8 1	-0.6822835
-1.3093901	2 1	-0.63176274
-1.3443524	0 1	-0.72216
-1.6714584	( 1	-0.121492155
-1.8061945	 1	-0.1640465
-1.6147997	- 1	-0.81251204
-1.2823607	: 1	-0.18831708
-1.3182659	7 1	-0.53278
-1.6630518	x 1	-0.076170295
-1.347946	4 1	-0.46422362
-1.3516783	3 1	-0.5430668
-1.2528715	5 1	-0.53553325
-1.1627915	= 1	0
-1.4076524	{ 1	-0.06709168
-1.2489783	_ 1	0
-1.2234782	+ 1	0
-1.5337007	/ 1	-0.16578107
-1.5940132	· 1	-0.082505964
-0.79795045	~ 1	0
-1.6476655	 1	0
-2.8153517	<s> 9	-1.5431298
-1.4493134	, 9	-0.28543094
-1.8262485	. 9	-0.20212205
-1.285425	1 9	-0.7867875
-1.3008344	9 9	-0.7139567
-1.3270644	6 9	-0.39198008
-1.3167901	8 9	-0.648837
-1.4471934	2 9	-0.55594575
-1.3829702	0 9	-0.6023902
-2.5103278	( 9	-0.010136359
-1.9817128	 9	-0.017027806
-1.9464635	- 9	-0.66832703
-1.3045497	7 9	-0.66103685
-1.3363652	4 9	-0.5133189
-1.343004	3 9	-0.5436713
-1.3476893	5 9	-0.4866165
-1.7658461	/ 9	0
-2.9569726	<s> 6	-1.4086218
-1.4429044	, 6	-0.32507443
-1.8178474	. 6	-0.1431171
-1.3447992	1 6	-0.80557036
-1.3516444	9 6	-0.66394436
-1.3013097	6 6	-0.6342784
-1.3140004	8 6	-0.70147336
-1.3662105	2 6	-0.55230904
-1.4041975	0 6	-0.7518504
-2.44237	( 6	0
-1.9247818	 6	0
-1.7999353	- 6	-0.3422262
-1.2784909	7 6	-0.6008414
-2.4449613	x 6	0
-1.3554542	4 6	-0.37505946
-1.4022597	3 6	-0.57542425
-1.3692836	5 6	-0.5377474
-1.806766	/ 6	0
-3.0485742	<s> 8	-1.3705596
-1.442198	, 8	-0.2060445
-1.8169239	. 8	-0.21569483
-1.3787984	1 8	-0.75433505
-1.2977108	9 8	-0.65893173
-1.3748355	6 8	-0.40957725
-1.2905358	8 8	-0.62191707
-1.3839804	2 8	-0.57614756
-1.3541181	0 8	-0.56584764
-2.1101704	( 8	0
-1.9188933	 8	0
-1.7798954	- 8	-0.63355476
-1.2781842	7 8	-0.62337506
-2.2235637	x 8	-0.05322747
-1.3332254	4 8	-0.40414387
-1.3593892	3 8	-0.45672995
-1.3213735	5 8	-0.36325347
-1.7139819	/ 8	0
-2.0281763	<s> 2	-2.275922
-2.0696683	a 2	0
-2.2796948	l 2	-0.07908233
-2.4789038	s 2	0
-2.1609168	p 2	0
-2.61467	u 2	0
-2.311367	r 2	-0.025798794
-2.479407	v 2	-0.05322747
-1.354968	, 2	-0.2887386
-1.9857773	b 2	0
-1.6664233	. 2	-0.23261878
-1.2257885	1 2	-0.7468078
-1.373683	9 2	-0.6502212
-1.3190297	6 2	-0.41554272
-1.3319893	8 2	-0.6546194
-1.3597426	2 2	-0.62780786
-1.3692755	0 2	-0.8175809
-1.6161653	( 2	-0.13226524
-1.8199458	 2	-0.033460386
-1.6156579	- 2	-0.6597078
-1.3233323	: 2	0
-1.2723986	7 2	-0.56211436
-2.1512773	x 2	0
-1.306748	4 2	-0.5347549
-1.2471125	3 2	-0.7544501
-1.3385322	5 2	-0.5787041
-1.495546	{ 2	-0.039296627
-0.8954007	^ 2	0
-0.8673003	_ 2	-0.2712928
-1.6232994	+ 2	0
-1.5351869	/ 2	-0.14440493
-1.6588424	 2	0
-3.016788	<s> 0	-1.3388635
-1.4044089	, 0	-0.36264217
-1.7806628	. 0	-0.18246303
-1.1289349	1 0	-0.74263275
-1.2078102	9 0	-0.6728995
-1.2195112	6 0	-0.6050055
-1.2693881	8 0	-0.7387364
-1.2179438	2 0	-0.7864064
-1.2514803	0 0	-0.74622595
-2.1200402	( 0	0
-2.1100972	- 0	-0.702056
-1.4298079	: 0	-0.2924821
-1.2791048	7 0	-0.5234677
-2.4589689	x 0	0
-1.2385035	4 0	-0.6208687
-1.3035018	3 0	-0.70342773
-1.3222755	5 0	-0.5402436
-2.1681266	{ 0	-0.18445127
-1.3446299	_ 0	0
-1.7162348	/ 0	0
-1.7509903	 0	-0.082505964
-1.6176326	<s> (	-2.290553
-2.2995973	l (	-0.007982658
-1.9643583	n (	-0.15303801
-2.197296	s (	0
-2.3010402	m (	-0.08942148
-2.916687	i (	-0.05322747
-2.1123455	t (	0
-2.5001886	h (	0
-1.9475942	e (	-0.10843364
-2.2610264	p (	0
-2.3315659	f (	-0.09378512
-2.2495456	r (	-0.01086952
-2.248252	v (	0
-2.0998852	g (	0
-2.3666809	, (	0
-2.3082716	b (	0
-1.9496692	. (	0
-2.0620286	- (	-0.19574332
-1.5116569	{ (	0
-3.6928957	<s> )	-1.2796736
-1.5571882	a )	-0.8315958
-1.5857507	l )	-0.5678631
-1.4976907	n )	-0.47160208
-1.5516683	s )	-0.6486918
-1.500441	m )	-0.7815803
-1.5973277	i )	-0.663016
-1.5952172	t )	-0.6413499
-1.5391358	h )	-0.3751687
-1.6017036	e )	-0.65659666
-1.5368724	p )	-0.79250485
-1.6117114	u )	-0.6449976
-1.5514333	d )	-0.65648514
-1.6098956	o )	-0.50954306
-1.391422	y )	-0.5858847
-1.4762917	f )	-0.7908243
-1.5259117	r )	-0.5444159
-1.5707586	k )	-0.6236732
-1.38887	v )	-0.33482128
-1.5181133	g )	-0.70802337
-1.4892056	w )	-0.4194433
-1.4582207	b )	-0.7884197
-1.4967308	c )	-0.57590044
-1.2803179	. )	-0.9491173
-1.4015455	1 )	-0.6282058
-1.3627007	9 )	-0.6876048
-1.4149566	6 )	-0.5799011
-1.3224338	8 )	-0.63614136
-1.350218	2 )	-0.5271629
-1.3555487	0 )	-0.571301
-1.1691451	) )	-0.6952903
-1.4266242	z )	-0.6917962
-1.7785866	- )	-0.08113186
-1.3886789	7 )	-0.5687264
-1.5172477	 )	-0.115242936
-1.3142669	x )	-0.28094077
-1.3443553	* )	0
-1.3392944	4 )	-0.6219719
-1.405087	3 )	-0.47513387
-1.35283	5 )	-0.5883343
-1.0221404	! )	0
-1.4357429	 )	-0.05322747
-1.3323662	q )	-0.25328517
-1.5410163	% )	-0.13049419
-1.2181561	 )	-0.13992184
-1.5512872	¦ )	-0.05322747
-0.8600459	? )	-0.7885208
-1.290053	« )	0
-1.2428861	³ )	0
-1.2001289	' )	0
-1.178577	² )	-0.115242936
-1.2093505	¹ )	0
-1.9371768	<s> j	-2.205789
-1.7982581	a j	-0.25898322
-1.9070373	l j	-0.14348002
-1.8588811	n j	-0.42168587
-1.9843721	s j	-0.23743457
-1.9954671	m j	0
-1.7421451	i j	-0.17295709
-1.8275945	t j	-0.41111857
-2.357933	h j	-0.13420759
-1.8386495	e j	-0.24321465
-2.1048915	p j	0
-1.7965591	u j	-0.30445907
-1.8384305	d j	-0.13747996
-1.6798911	o j	-0.41845432
-1.8319579	f j	0
-2.069341	r j	-0.28444704
-2.1684294	k j	0
-2.0516298	v j	-0.06837295
-2.1719868	g j	-0.1565304
-2.0128977	w j	-0.013881765
-1.9538727	b j	-0.24446134
-2.010023	. j	0
-2.0879774	( j	-0.05840612
-2.2571118	z j	0
-1.5811108	- j	-0.7129485
-2.1018474	: j	-0.20364211
-1.7994093	/ j	0
-1.8003525	 j	-0.11390189
-1.7624035	 j	0
-1.5667645	<s> z	-2.4538348
-1.6665254	a z	-0.35798898
-1.7497009	l z	-0.4146843
-1.7965704	n z	-0.52844393
-1.6620531	s z	-0.539245
-1.8132663	m z	-0.14918472
-1.6078978	i z	-0.4791603
-1.6728262	t z	-0.75103056
-1.7705541	h z	-0.20224042
-1.6438578	e z	-0.37254113
-2.1687105	p z	-0.019204002
-1.6047709	u z	-0.31286788
-1.8674527	d z	-0.17190085
-1.6394608	o z	-0.40045127
-1.7474883	y z	-0.03512272
-1.7292492	f z	-0.1428009
-1.7360053	r z	-0.52910805
-1.783005	k z	-0.33692783
-1.6898263	v z	0
-1.8177062	g z	-0.076770805
-1.9332944	w z	0
-1.732668	b z	-0.20992829
-1.7605699	c z	-0.082154185
-1.739315	¶ z	-0.019204002
-2.0698178	( z	-0.037342515
-1.5946937	j z	0
-1.7834523	z z	-0.3470636
-1.6736001	- z	-0.4125226
-1.7795694	¤ z	-0.039296627
-2.0831275	: z	0
-1.8812017	 z	-0.039296627
-2.3578293	x z	-0.18445127
-1.8274388	_ z	0
-1.7468545	/ z	-0.30265844
-1.7723403	 z	-0.069715634
-1.8433958	<s> â	-2.5264297
-1.6965017	a â	-0.8054233
-1.7567397	l â	-0.6792805
-1.7266438	n â	-0.5562813
-1.6816894	s â	-0.7814239
-1.6124109	m â	-0.75514424
-1.7254648	i â	-0.5442941
-1.6612887	t â	-0.7352724
-1.6950691	h â	-0.86456513
-1.6017036	e â	-0.80633575
-1.910012	p â	-0.4030529
-1.7749001	u â	-0.73363817
-1.8134499	d â	-0.84608173
-1.5931492	o â	-0.8457092
-1.5908333	y â	-0.6135388
-1.8391849	f â	-0.35047406
-1.7908665	r â	-0.50965375
-1.6799647	k â	-0.6754475
-1.9382384	v â	0
-1.7643576	g â	-0.6146528
-1.9210196	b â	-0.7563361
-1.8074467	c â	-0.5148587
-1.214746	. â	-1.4749017
-1.4618852	1 â	-0.6008634
-1.3343726	9 â	-0.51595885
-1.3108715	6 â	-0.98950386
-1.347406	8 â	-0.7206732
-1.5144746	2 â	-0.6694501
-1.4324868	0 â	-0.845991
-1.9744002	( â	-0.088261224
-1.225279	) â	-0.90020967
-1.7216601	z â	-0.81848407
-1.6988125	 â	-0.05322747
-2.2471101	- â	0
-1.5066874	: â	-0.5728507
-1.3886789	7 â	-0.70730925
-1.7530668	 â	-0.18445127
-1.5781163	x â	-0.26029742
-1.4716175	* â	-0.21356523
-1.4359175	4 â	-0.70730925
-1.5058386	3 â	-0.8311287
-1.4041982	5 â	-0.7826575
-0.7682719	! â	-0.94342273
-1.4332573	= â	-0.21356523
-1.5523717	+ â	-0.37951943
-1.8116786	/ â	0
-1.0778807	· â	-0.05322747
-1.1847419	° â	0
-1.6341048	 â	-0.082505964
-1.5512872	¦ â	-0.082505964
-0.73641515	? â	-0.81588876
-1.6227682	§ â	-0.18445127
-1.6554163	± â	-0.18445127
-0.6307296	â 	-1.0111129
-0.88328063	ñ 	-0.32244536
-1.9784391	 	-0.06470309
-1.0751115	ä 	0
-3.0557723	<s> -	-0.85989785
-1.6308812	a -	-0.781788
-1.5233611	l -	-0.5841887
-1.5291657	n -	-0.6091031
-1.5803654	s -	-0.7849396
-1.518079	m -	-0.5166293
-1.5548222	i -	-0.62217736
-1.5539858	t -	-0.8707282
-1.5614587	h -	-0.5584214
-1.634344	e -	-0.8568008
-1.5976424	p -	-0.16979451
-1.5776691	u -	-0.28687716
-1.4931129	d -	-0.7544223
-1.5643464	o -	-0.6709764
-1.4521124	y -	-0.17430744
-1.5710638	f -	-0.19923154
-1.5584129	r -	-0.55735093
-1.519672	k -	-0.29695287
-1.4886798	v -	-0.10913768
-1.5571532	g -	-0.43014333
-1.7517507	w -	-0.028526848
-1.5630974	b -	-0.10557441
-1.5002968	c -	-0.26751325
-1.5327394	. -	0
-1.404454	1 -	-0.40236768
-1.3663307	9 -	-0.6206192
-1.4490914	6 -	-0.5237037
-1.3774636	8 -	-0.5345507
-1.3709408	2 -	-0.39307123
-1.4987936	0 -	-0.4849699
-1.7915325	( -	0
-1.3920898	) -	-0.111942954
-1.6321718	z -	-0.17736644
-1.422992	7 -	-0.6077087
-1.785038	 -	-0.023758952
-1.3489661	x -	-0.1209288
-1.7723863	* -	0
-1.3648624	4 -	-0.44181186
-1.3458122	3 -	-0.51488465
-1.3560712	5 -	-0.4167581
-1.6289172	© -	-0.019204002
-1.9684354	; -	-0.18445127
-1.467702	{ -	-0.16613495
-0.9403193	^ -	-0.040787525
-1.5357609	 -	0
-1.366793	± -	-0.02201808
-1.6355075	 -	0
-1.5072898	¡ -	0
-1.3352722	² -	-0.03475058
-1.0937512	ã ¤	-0.8898753
-2.2207222	<s> :	-1.8303537
-1.8150365	a :	-0.8649171
-1.678991	l :	-0.99198
-1.8253378	n :	-0.6135388
-1.7136552	s :	-0.7204733
-1.8762244	m :	-1.0573661
-1.7401254	i :	-0.89633673
-1.6918839	t :	-0.7980632
-1.9222972	h :	-0.7111534
-1.6599988	e :	-0.40461075
-1.855815	p :	-0.82557756
-1.9746208	u :	-0.94342273
-1.8681077	d :	-0.6792805
-1.84674	o :	-1.119514
-1.5556197	y :	-1.1738718
-1.9092597	f :	-0.94342273
-1.8701289	r :	-1.0895507
-1.8902804	k :	-0.74894196
-2.2408404	v :	-0.54548275
-1.8925514	g :	-0.6171326
-2.2068276	w :	-0.54548275
-1.8761712	b :	-0.81588876
-2.0367765	c :	-0.5728507
-1.5246663	. :	-0.76330113
-1.6026248	1 :	-0.27975315
-1.5178547	9 :	-0.21130486
-1.5297564	6 :	-0.31621817
-1.5176893	8 :	-0.34012467
-1.5585523	2 :	-0.19342658
-1.5514605	0 :	-0.44750583
-1.1679616	) :	-0.9393924
-1.7453132	z :	-1.022604
-2.0861921	: :	0
-1.5046072	7 :	-0.2775399
-1.7447226	x :	-0.721574
-1.5441821	4 :	-0.31621817
-1.5882084	3 :	-0.35397944
-1.4469476	5 :	-0.40082252
-1.6173093	 :	-0.18445127
-3.031993	<s> 7	-1.2782811
-1.4464532	, 7	-0.23869291
-1.8224946	. 7	-0.27926826
-1.3629223	1 7	-0.83128697
-1.35341	9 7	-0.6580016
-1.3259473	6 7	-0.50537306
-1.3401161	8 7	-0.74570864
-1.4674617	2 7	-0.6873238
-1.3810554	0 7	-0.74103284
-2.1301394	( 7	0
-1.955485	 7	0
-2.0038993	- 7	-0.4757253
-1.3032488	7 7	-0.6135378
-2.4808652	x 7	0
-1.3141699	4 7	-0.4177221
-1.3615161	3 7	-0.5309581
-1.3464147	5 7	-0.38612488
-1.8665986	/ 7	0
-1.7026435	ã 	-0.60417265
-1.5717542	ä 	0
-1.158541	å 	-0.09865239
-3.3682024	<s> x	-0.52972627
-1.8600411	a x	-0.2727988
-2.1686604	n x	0
-2.5407426	m x	0
-1.7897197	i x	-0.35178584
-2.1689658	t x	0
-1.6626948	e x	-0.45343137
-1.9911559	p x	-0.42448255
-1.797618	u x	-0.16366816
-2.2231343	d x	-0.053810097
-1.6609999	o x	-0.36964142
-2.2212555	y x	-0.032842346
-2.1844368	r x	-0.064458214
-2.201395	0 x	-0.19298239
-1.5774935	( x	-0.09927637
-1.9373605	- x	-0.37222803
-1.6214094	x x	-0.23554952
-2.33161	\ x	-0.18445127
-1.6704696	<s> *	-2.199738
-3.0576692	d *	-0.18445127
-2.6008818	( *	-0.06470309
-2.5228946	: *	-0.18445127
-1.6360699	* *	-0.09215576
-1.9504664	# *	-0.18445127
-1.9715129	 	-0.051209807
-0.33481428	é 	0
-2.8279085	<s> 4	-1.5348756
-2.700524	a 4	-0.105635054
-1.4407889	, 4	-0.19129579
-1.8575023	. 4	-0.1787246
-1.3123243	1 4	-0.7820693
-1.2970887	9 4	-0.6502493
-1.237537	6 4	-0.62452227
-1.3130745	8 4	-0.6940512
-1.3652341	2 4	-0.7202767
-1.4026886	0 4	-0.71111816
-2.4218915	( 4	-0.017027806
-1.9073505	 4	-0.01171701
-1.8632348	- 4	-0.75440514
-1.376904	: 4	0
-1.3006585	7 4	-0.614755
-2.4247625	x 4	0
-1.3774947	4 4	-0.49304962
-1.3200496	3 4	-0.41111857
-1.3207732	5 4	-0.55375534
-1.5207033	{ 4	0
-1.1412742	_ 4	-0.16613495
-1.529261	+ 4	-0.02201808
-1.6730754	/ 4	0
-2.5101001	<s> 3	-1.880825
-2.1542304	a 3	0
-2.3109233	e 3	0
-1.3259698	, 3	-0.2261496
-2.0908413	b 3	0
-1.8059922	. 3	-0.15221259
-1.3581747	1 3	-0.81060237
-1.3470873	9 3	-0.6758759
-1.3453072	6 3	-0.51018745
-1.3342495	8 3	-0.68576044
-1.3986297	2 3	-0.65995955
-1.3725418	0 3	-0.72791314
-1.9383847	( 3	-0.037342515
-1.853834	 3	-0.045212373
-1.756363	- 3	-0.6260257
-1.370939	: 3	-0.24927138
-1.3745018	7 3	-0.3545344
-1.9321462	x 3	-0.026072184
-1.3740442	4 3	-0.53336686
-1.2490282	3 3	-0.66795725
-1.340725	5 3	-0.60728896
-1.7567204	{ 3	0
-1.2498281	^ 3	0
-1.0416863	_ 3	-0.1330509
-1.509056	+ 3	-0.0127078565
-1.6307173	/ 3	-0.045106698
-1.6860981	 3	0
-2.8800247	<s> 5	-1.5375538
-1.4024724	, 5	-0.1993125
-1.7781243	. 5	-0.0630242
-1.3445449	1 5	-0.8414978
-1.3236756	9 5	-0.673116
-1.324277	6 5	-0.56087506
-1.3640723	8 5	-0.63684493
-1.3485131	2 5	-0.6081723
-1.4036939	0 5	-0.7289324
-2.2266035	( 5	-0.009495863
-1.9188933	 5	0
-1.8881711	- 5	-0.59721005
-1.4277774	: 5	0
-1.3013046	7 5	-0.5432132
-2.4381235	x 5	0
-1.3781881	4 5	-0.5785375
-1.4018695	3 5	-0.35069123
-1.3689483	5 5	-0.5287953
-1.9580328	+ 5	0
-1.9224864	/ 5	0
-2.3712828	n !	-0.14635408
-2.041728	t !	-0.15060702
-3.2994854	<s> =	-1.7827636
-2.5269907	( =	-0.019204002
-2.167087	: =	-0.21356523
-1.1596732	ã ©	-0.62224966
-3.786175	<s> ;	-0.49386632
-1.9009744	a ;	-1.1986953
-2.1405385	l ;	-0.7885208
-2.047665	n ;	-0.89766526
-1.8148088	s ;	-1.2221763
-1.9102645	m ;	-1.022604
-2.0936093	i ;	-0.89766526
-1.7530901	t ;	-0.99198
-2.2401195	h ;	-0.64239275
-1.7895855	e ;	-1.2444527
-2.082665	d ;	-0.84651273
-2.067282	f ;	-0.7885208
-2.173708	r ;	-0.7885208
-2.2419403	k ;	-0.64239275
-2.093888	g ;	-0.7885208
-2.0897288	b ;	-0.84651273
-1.7022792	1 ;	-0.78370404
-1.6134897	6 ;	-0.7111534
-1.7042824	8 ;	-0.84651273
-1.6853607	2 ;	-1.022604
-1.7307578	0 ;	-0.62400323
-2.3541198	( ;	-0.18445127
-1.2387495	) ;	-1.3905808
-1.6904268	7 ;	-0.84651273
-1.7433503	x ;	0
-1.6625794	4 ;	-0.94342273
-1.7047447	3 ;	-0.94342273
-1.7342894	5 ;	-0.84651273
-1.4150839	\ ;	0
-1.6139995	 ;	-0.18445127
-4.2847075	<s> á	-0.23687251
-2.09475	a á	-0.26551273
-2.2319894	i á	-0.5148587
-2.4834297	- á	0
-3.6675985	<s> î	-0.655228
-2.2529018	( î	0
-1.4826028	 î	0
-2.7323568	- î	0
-1.5717161	 î	0
-1.6926843	½ î	0
-1.6153152	ã º	0
-1.2488468	ð º	-0.38308987
-4.6255937	<s> ï	0
-1.7366672	¿ ï	-0.031147704
-1.0184834	ï 	-0.42448255
-1.4690974	å 	-0.44791198
-1.3343415	ù 	0
-2.5738773	ã ¯	0
-2.0148308	 ¯	0
-1.3236885	î ¯	0
-1.9831908	â 	-0.54548275
-1.080073	ï 	-0.36829078
-1.3196632	å 	-0.07318013
-1.0147779	ñ 	-0.14635408
-1.3511722	ã ­	-0.25752732
-1.3900307	â ­	0
-1.7945254	¹ ­	0
-2.0686445	 	-0.04247203
-2.0302866	 	-0.036144305
-3.015856	<s> q	-1.3436383
-1.9096295	a q	-0.22756593
-2.097347	l q	-0.38308987
-2.24806	n q	-0.24335203
-1.8981533	s q	-0.41164076
-2.164774	m q	-0.11498245
-1.8452028	i q	-0.26455033
-2.1204627	t q	-0.45743176
-2.52598	h q	-0.025798794
-1.8952892	e q	-0.26455033
-1.9851042	u q	-0.13081418
-2.4711986	o q	-0.20215929
-2.192661	r q	-0.1852227
-2.2121408	c q	-0.11498245
-2.1134355	( q	-0.02201808
-1.9140573	- q	-0.59013957
-1.8441346	¤ q	-0.18445127
-1.7129698	q q	0
-1.660329	\ q	-0.34828728
-3.0503585	<s> \	-1.0855492
-2.2524097	a \	0
-2.3957121	m \	-0.09378512
-2.647161	u \	-0.37951943
-2.5918512	k \	-0.082505964
-2.156673	, \	-0.06470309
-2.7114375	w \	-0.18445127
-2.0233219	1 \	0
-1.7839088	6 \	0
-1.8693469	2 \	-0.25815114
-1.7558949	( \	0
-1.644916	) \	0
-1.9675633	: \	-0.06837295
-1.831747	x \	0
-1.990031	4 \	-0.11498245
-1.8690535	3 \	-0.36873072
-1.0665565	{ \	-0.21383336
-1.0657638	} \	0
-1.1930367	_ \	-0.61198217
-1.6470516	+ \	-0.37951943
-4.3694224	<s> {	0
-2.9700727	m {	-0.029907478
-2.7000887	t {	0
-2.894851	c {	0
-0.5535388	^ {	-0.20542607
-1.1031288	} {	0
-0.939258	_ {	-0.07070707
-4.093227	<s> ^	-1.0548391
-2.3508456	a ^	-0.015294671
-2.4044507	h ^	0
-2.4594562	4 ^	0
-2.2579978	{ ^	-0.18445127
-1.2778373	} ^	-0.11827592
-4.8482656	<s> }	-0.81588876
-2.3944647	a }	0
-2.3308284	n }	0
-2.3174434	m }	-0.08942148
-2.3093245	t }	0
-2.5670714	u }	-0.27182072
-2.5688484	d }	0
-2.468882	o }	-0.36873072
-2.2623518	r }	0
-2.2690573	g }	0
-2.1948748	, }	0
-1.9614731	1 }	-0.08048735
-2.0246632	9 }	-0.27182072
-1.7270422	6 }	0
-1.8542176	8 }	0
-1.6942837	2 }	-0.13081418
-1.7448765	0 }	-0.01086952
-1.4626074	) }	-0.4016266
-2.5717921	- }	-0.08942148
-1.9311826	7 }	-0.025798794
-1.8397127	4 }	-0.12217472
-1.7150482	3 }	-0.09927637
-1.7445128	5 }	-0.017027806
-0.9965785	} }	-0.26455033
-1.0753316	+ }	-0.45743176
-4.831264	<s> _	0
-2.5071795	a _	0
-2.7381825	l _	0
-2.2872014	s _	0
-2.345495	m _	-0.2775075
-2.3280027	t _	0
-2.0475805	h _	-0.31406248
-2.8252535	e _	0
-2.449651	u _	-0.04863327
-1.9263002	o _	-0.37585092
-2.2665992	f _	0
-2.6378727	c _	0
-2.1477897	) _	0
-1.9885578	x _	-0.07908233
-1.1026983	} _	-0.5195584
-3.3609974	<s> +	-0.89150023
-2.5335946	c +	-0.42054403
-1.967221	2 +	0
-2.3212702	( +	-0.031147704
-1.1687146	^ +	-0.24335203
-2.0862465	+ +	0
-2.9492025	<s> %	-1.75986
-3.68267	<s> /	-0.8368395
-2.0082207	a /	0
-1.8666985	l /	-0.058398474
-1.9212381	n /	-0.11750118
-1.8889256	s /	0
-1.842554	m /	-0.0044427803
-1.9647527	i /	0
-1.7991363	t /	-0.025588341
-2.153762	h /	0
-1.7890683	e /	0
-2.0365078	p /	0
-2.0201514	u /	-0.01171701
-1.9020841	d /	-0.025207322
-2.0717864	o /	0
-2.0621095	r /	0
-1.673573	g /	-0.18846203
-2.036612	b /	0
-1.9224917	c /	0
-1.6696974	. /	0
-1.7017002	1 /	-0.18298383
-1.4769659	9 /	-0.27668786
-1.5288655	6 /	-0.24728929
-1.5564226	8 /	-0.048641954
-1.6846818	2 /	-0.07967619
-1.6306466	0 /	-0.16995609
-1.9056026	- /	0
-2.3032851	: /	-0.18445127
-1.5431598	7 /	-0.23089889
-1.579257	4 /	-0.22942635
-1.5870123	3 /	-0.05982995
-1.6303879	5 /	-0.14629549
-2.2963617	/ /	-0.02201808
-1.709373	$ /	0
-1.35105	â ·	-0.21613386
-1.3928368	î ·	0
-1.4016153	ð ·	0
-1.3146094	â °	-0.11931794
-0.90718985	ð °	-0.4970332
-2.0463128	 	-0.086308554
-2.0463128	 	-0.050661135
-1.3746037	ã ¨	-0.18147402
-1.0872507	ø ¨	0
-3.5811782	<s> &	-1.3357679
-3.2150931	t &	-0.18445127
-1.9727552	ã ¦	0
-2.0463128	 ¦	-0.017696258
-1.9800706	â ¬	0
-1.690492	 ¬	0
-4.6586204	<s> ~	-0.5736203
-2.8185005	( ~	0
-4.641148	<s> ?	0
-2.3516498	n ?	-0.16613495
-2.4434724	s ?	0
-2.0349464	t ?	-0.25417835
-2.161841	e ?	-0.15726832
-1.8436807	â 	-0.2813405
-1.0187004	ù 	0
-1.7086433	 	-0.025798794
-1.9593582	 	-0.042047285
-1.1499016	ù 	-0.34828728
-1.3888338	â 	-0.40322322
-1.6521522	 	-0.031147704
-0.42243108	ë 	0
-1.5069326	ã §	-0.22613288
-1.6593939	â §	-0.13213068
-1.9374591	 §	0
-0.49925494	ç §	0
-0.8544447	ø §	-0.25328517
-1.9999063	 	-0.02201808
-0.8560358	ê 	0
-4.604724	<s> |	-0.7040829
-1.5772204	ã ª	0
-3.4783638	<s> #	-1.237376
-1.574357	ã ´	0
-1.4774348	â ´	0
-1.3910115	î ´	0
-1.9303981	 ´	0
-1.4002054	ð ´	-0.44791198
-4.6153126	<s> ä	0
-2.26355	a ä	0
-1.7554803	l ä	-0.30948496
-1.8623236	n ä	-0.20011003
-2.0623975	s ä	0
-1.8205258	m ä	-0.13670558
-2.055623	i ä	-0.23554952
-2.0694885	t ä	-0.17009015
-1.9783401	h ä	-0.2910737
-1.8106521	d ä	-0.15060702
-2.137015	o ä	-0.62400323
-2.0344796	y ä	-0.33733237
-1.8767639	r ä	-0.31029883
-2.104305	k ä	-0.14635408
-2.0183182	w ä	0
-1.9579546	b ä	-0.26298144
-2.1589804	z ä	0
-2.2485054	- ä	-0.25328517
-1.9645014	ã ±	0
-2.7680798	â ±	-0.06470309
-0.92792946	î ±	-0.026019108
-1.1142831	ä ±	-0.061450053
-1.4006748	ð ±	0
-1.266793	ø ±	0
-3.8714428	<s> å	-0.51284957
-1.9040457	a å	-0.3077221
-2.536915	l å	-0.20215929
-2.164482	n å	-0.40627927
-2.0569859	s å	-0.17009015
-1.8406074	i å	-0.26954362
-2.1659226	t å	-0.28617987
-2.1613464	h å	-0.19219953
-2.0527954	e å	-0.26551273
-2.2610264	p å	-0.025798794
-1.9348655	u å	-0.34469396
-1.9063581	d å	-0.36829078
-1.8946123	y å	-0.35668874
-1.9408076	r å	-0.1852227
-2.096742	k å	-0.1005966
-2.042551	b å	-0.08942148
-1.6528493	j å	-0.45743176
-2.100374	- å	-0.6604451
-1.5788094	¡ å	-0.21356523
-1.1146001	ä 	-0.20336482
-0.8753468	å 	-0.13670558
-1.9691986	ã «	0
-0.7708411	ä «	-0.07200044
-0.8321189	å «	-0.16167653
-1.9384531	¸ «	-0.028221939
-2.1849666	â 	-0.16124111
-2.0382257	 	0
-1.0209471	ï 	0
-1.8161987	ã £	-0.50318927
-1.7945254	¹ £	0
-4.6105766	<s> ê	0
-2.295747	a ê	0
-1.0143311	î ¿	-0.4423414
-0.5444538	ê ¿	-0.11277401
-0.9185334	ï 	0
-0.6581303	ä 	-0.29794553
-0.6663928	ñ 	-0.34012467
-1.7108642	î ¾	0
-1.468079	å ¾	0
-0.8557475	ê ¾	-0.07318013
-1.0449424	ð ¾	-0.3198704
-1.2356757	ã ¡	-0.2548779
-0.7915197	å ¡	-0.39404982
-1.6565006	ã ¸	-0.17765334
-0.41732442	á ¸	-0.42177397
-1.187936	ð ¸	-0.3305022
-2.0823865	ä 	-0.039296627
-1.4004457	ì 	-0.02201808
-1.3294815	ã ³	-0.16484745
-2.787594	â ³	0
-1.713408	î ³	0
-1.9516076	¸ 	0
-1.614271	ã ¥	-0.04241329
-1.9256853	¸ ¥	0
-1.8170296	ã ½	0
-1.0474259	î ½	-0.17108457
-1.2488468	ð ½	-0.62077224
-1.478903	â µ	-0.035998095
-1.2104224	î µ	0
-0.9076424	ð µ	-0.49969906
-1.018975	ï 	0
-1.1149173	ä 	0
-0.830789	ñ 	-0.42363554
-2.778568	i ì	-0.42054403
-2.3939848	ã 	-0.01086952
-1.7586186	ã ®	0
-4.2764215	<s> '	0
-2.224375	a '	0
-2.1683676	l '	-0.030840142
-1.9390138	n '	-0.18774678
-2.163266	s '	-0.21518594
-2.0776606	t '	0
-2.0682447	e '	0
-2.3319895	d '	-0.053810097
-2.2854106	o '	0
-2.3634777	r '	0
-0.8523686	' '	-0.25451759
-1.8161987	ã ²	0
-1.9816278	â ²	-0.20390706
-2.0148308	 ²	0
-1.7146856	î ²	-0.06709168
-1.6418136	ð ²	0
-3.9284313	<s> "	-0.050117604
-2.4569752	n "	0
-2.439129	s "	0
-2.2460806	t "	0
-2.0382257	 	0
-1.7020048	ã »	0
-1.2622434	î »	0
-1.0449424	ð »	-0.29354146
-4.399603	<s> >	-0.49421692
-3.4788167	- >	-0.18445127
-4.61593	<s> $	-0.21783881
-2.934185	s $	-0.14955872
-4.996509	<s> æ	0
-1.0985125	ñ 	-0.11498245
-0.69041884	ë 	0
-1.1493224	ù 	0
-1.0825797	ù 	0
-4.628664	<s> ñ	-0.2616443
-1.8445696	° ñ	-0.031147704
-1.7473257	½ ñ	-0.05322747
-1.829516	µ ñ	0
-1.8288274	 ñ	0
-4.1818967	<s> ð	-0.21597588
-1.9063033	¼ ð	0
-1.857365	 ð	-0.019204002
-1.6886007	º ð	-0.039296627
-1.612279	 ð	-0.082505964
-1.8048003	° ð	-0.069715634
-1.8353041	´ ð	-0.031147704
-1.8848518	 ð	-0.025798794
-1.7450728	¾ ð	-0.019204002
-1.7961076	¸ ð	-0.02201808
-1.7152658	½ ð	0
-1.7843741	µ ð	0
-1.7941488	 ð	-0.025798794
-1.7764704	» ð	0
-1.6989555	¹ ð	-0.18445127
-0.65511954	á ¹	-0.4437877
-1.1634113	î ¹	0
-1.8400468	ð ¹	-0.25658435
-1.4031351	ø ¹	0
-4.389549	<s> <	-0.4728263
-1.4239529	ã ¢	-0.069812596
-2.2509499	a ë	0
-4.3333473	<s> ø	0
-2.6321898	( ø	0
-4.4128733	<s> ù	-0.14175378
-1.8163263	 ù	0
-1.9075407	§ ù	0
-0.9687142	ù 	0
-4.8412037	<s> ×	0

\3-grams:
-2.214544	<s> a </s>	0
-0.8522071	a a </s>	0
-1.2598959	l a </s>	0
-1.2186282	n a </s>	0
-1.2665063	s a </s>	0
-1.2939285	m a </s>	0
-1.1282731	i a </s>	0
-1.2830751	t a </s>	0
-1.2711095	h a </s>	0
-1.115446	e a </s>	0
-1.1998765	p a </s>	0
-0.9502849	u a </s>	0
-1.1974423	d a </s>	0
-0.9894233	o a </s>	0
-0.950273	y a </s>	0
-1.2762469	f a </s>	0
-1.3239564	r a </s>	0
-1.2007923	k a </s>	0
-1.0818666	v a </s>	0
-1.1174976	g a </s>	0
-1.3204232	w a </s>	0
-1.2093321	b a </s>	0
-1.0792074	c a </s>	0
-1.2711756	( a </s>	0
-1.0909009	j a </s>	0
-1.0935328	z a </s>	0
-0.9541181	x a </s>	0
-1.1439456	­ a </s>	0
-1.3164726	 a </s>	0
-2.8186226	<s> l </s>	0
-1.3379729	a l </s>	0
-1.1351166	l l </s>	0
-1.3884705	n l </s>	0
-1.1971247	s l </s>	0
-0.7293215	m l </s>	0
-1.1805902	i l </s>	0
-1.0732923	t l </s>	0
-1.227775	h l </s>	0
-1.3334388	e l </s>	0
-1.170721	p l </s>	0
-1.2475116	u l </s>	0
-0.7573439	d l </s>	0
-1.2185097	o l </s>	0
-1.2522665	y l </s>	0
-1.4145957	f l </s>	0
-1.2848928	¼ l </s>	0
-0.7225972	r l </s>	0
-1.308688	g l </s>	0
-1.0765676	b l </s>	0
-0.8790421	c l </s>	0
-1.3265367	¶ l </s>	0
-0.92077154	/ l </s>	0
-2.6868665	<s> n </s>	0
-1.2792176	a n </s>	0
-0.828695	l n </s>	0
-1.0639414	n n </s>	0
-0.9992815	m n </s>	0
-1.2374773	i n </s>	0
-0.929573	t n </s>	0
-1.1642284	h n </s>	0
-1.3618592	e n </s>	0
-1.2336847	u n </s>	0
-0.97316486	d n </s>	0
-1.1949908	o n </s>	0
-0.7713467	y n </s>	0
-1.173336	¼ n </s>	0
-1.0688643	r n </s>	0
-1.1945682	g n </s>	0
-0.8727561	w n </s>	0
-0.8731193	b n </s>	0
-0.77903605	z n </s>	0
-1.0855026	­ n </s>	0
-1.0211631	 n </s>	0
-1.0924265	¡ n </s>	0
-1.0267935	³ n </s>	0
-3.1324224	<s> s </s>	0
-1.1640722	a s </s>	0
-1.1593847	l s </s>	0
-1.1588511	n s </s>	0
-1.2480131	s s </s>	0
-0.9215578	m s </s>	0
-1.2662055	i s </s>	0
-1.2816823	t s </s>	0
-0.88994265	h s </s>	0
-1.2115176	e s </s>	0
-0.8701787	p s </s>	0
-1.1541636	u s </s>	0
-1.0548967	d s </s>	0
-1.1038226	o s </s>	0
-0.8318758	y s </s>	0
-0.89186054	f s </s>	0
-0.9964314	r s </s>	0
-1.0392854	k s </s>	0
-0.6732228	v s </s>	0
-1.1292531	g s </s>	0
-0.8700534	w s </s>	0
-1.0323025	b s </s>	0
-0.69816923	c s </s>	0
-1.2111608	¶ s </s>	0
-0.9352846	z s </s>	0
-0.79712903	 s </s>	0
-1.1027312	© s </s>	0
-0.3343363	' s </s>	0
-2.210833	<s> m </s>	0
-1.1374961	a m </s>	0
-1.0262392	l m </s>	0
-1.5659413	n m </s>	0
-1.1260608	s m </s>	0
-1.1123304	m m </s>	0
-0.8957575	i m </s>	0
-1.0864115	t m </s>	0
-0.92574704	h m </s>	0
-1.1159544	e m </s>	0
-0.75221354	p m </s>	0
-1.0765955	u m </s>	0
-0.8710835	d m </s>	0
-1.1455256	o m </s>	0
-1.0257813	y m </s>	0
-0.8777318	f m </s>	0
-0.9666425	r m </s>	0
-1.1073399	k m </s>	0
-0.7312796	w m </s>	0
-0.9718006	b m </s>	0
-0.8376512	c m </s>	0
-2.5566435	<s> i </s>	0
-1.2582153	a i </s>	0
-1.2964528	l i </s>	0
-1.3649566	n i </s>	0
-1.3048551	s i </s>	0
-1.2733347	m i </s>	0
-0.7926174	i i </s>	0
-1.3103031	t i </s>	0
-1.2391254	h i </s>	0
-1.3527086	e i </s>	0
-1.184909	p i </s>	0
-1.0530361	u i </s>	0
-1.2933925	d i </s>	0
-1.0896099	o i </s>	0
-0.75286144	y i </s>	0
-1.3438749	f i </s>	0
-1.3425837	r i </s>	0
-1.1747594	k i </s>	0
-1.4124782	v i </s>	0
-1.1020995	g i </s>	0
-1.4073083	w i </s>	0
-1.1648204	b i </s>	0
-1.0710016	c i </s>	0
-0.8500664	j i </s>	0
-1.2753882	z i </s>	0
-1.1345756	- i </s>	0
-1.2049865	x i </s>	0
-2.5650654	<s> t </s>	0
-1.2362504	a t </s>	0
-1.106313	l t </s>	0
-1.1814218	n t </s>	0
-1.343606	s t </s>	0
-0.837289	m t </s>	0
-1.1280878	i t </s>	0
-1.2500825	t t </s>	0
-1.0794611	h t </s>	0
-1.1765292	e t </s>	0
-0.9276725	p t </s>	0
-1.2653096	u t </s>	0
-1.0808624	d t </s>	0
-1.1422441	o t </s>	0
-1.1149949	y t </s>	0
-1.0433741	f t </s>	0
-1.2342123	r t </s>	0
-1.23651	k t </s>	0
-0.7871655	g t </s>	0
-0.87149787	b t </s>	0
-0.90718573	c t </s>	0
-0.9213875	z t </s>	0
-1.3249718	¤ t </s>	0
-1.1552944	 t </s>	0
-1.1334858	x t </s>	0
-0.22109753	 t </s>	0
-3.0091474	<s> h </s>	0
-0.9883184	a h </s>	0
-0.8792051	n h </s>	0
-1.186713	s h </s>	0
-1.1518302	i h </s>	0
-1.026777	t h </s>	0
-1.2111248	e h </s>	0
-1.2583971	p h </s>	0
-1.2839521	u h </s>	0
-0.85621524	d h </s>	0
-1.043847	o h </s>	0
-1.2627269	¼ h </s>	0
-0.95758796	k h </s>	0
-0.7988414	g h </s>	0
-0.7798738	w h </s>	0
-1.215945	b h </s>	0
-1.292395	c h </s>	0
-0.19438797	1 h </s>	0
-2.9614458	<s> e </s>	0
-1.0223725	a e </s>	0
-1.2777259	l e </s>	0
-1.2301586	n e </s>	0
-1.3496541	s e </s>	0
-1.2552027	m e </s>	0
-1.2625569	i e </s>	0
-1.2620399	t e </s>	0
-1.3246691	h e </s>	0
-1.0481222	e e </s>	0
-1.2648932	p e </s>	0
-1.0286231	u e </s>	0
-1.2969694	d e </s>	0
-1.0381753	o e </s>	0
-0.93155915	y e </s>	0
-1.2690094	f e </s>	0
-1.3480054	r e </s>	0
-1.0326756	k e </s>	0
-1.076412	v e </s>	0
-1.3541577	g e </s>	0
-1.306899	w e </s>	0
-1.4400483	b e </s>	0
-1.1440177	c e </s>	0
-0.97306347	j e </s>	0
-1.328168	z e </s>	0
-1.2588017	- e </s>	0
-1.0725552	 e </s>	0
-0.84353334	x e </s>	0
-1.1577493	© e </s>	0
-0.38282806	_ e </s>	0
-2.5105286	<s> p </s>	0
-1.1326673	a p </s>	0
-0.95354784	l p </s>	0
-1.0873251	n p </s>	0
-1.191263	s p </s>	0
-1.0484909	m p </s>	0
-1.0896614	i p </s>	0
-0.9257722	t p </s>	0
-0.8486481	h p </s>	0
-1.1042278	e p </s>	0
-0.89395165	p p </s>	0
-1.0183977	u p </s>	0
-0.88708764	d p </s>	0
-1.1616222	o p </s>	0
-1.1349094	y p </s>	0
-0.87343514	r p </s>	0
-0.4939884	v p </s>	0
-0.69956905	b p </s>	0
-0.5365181	c p </s>	0
-1.1982036	( p </s>	0
-2.8782613	<s> u </s>	0
-1.3160516	a u </s>	0
-1.37115	l u </s>	0
-1.1557257	n u </s>	0
-1.2530158	s u </s>	0
-1.287178	m u </s>	0
-1.1383344	t u </s>	0
-1.2183031	h u </s>	0
-1.2965252	e u </s>	0
-1.1228313	p u </s>	0
-1.1138871	d u </s>	0
-1.1644707	o u </s>	0
-0.8524241	y u </s>	0
-1.1942912	f u </s>	0
-1.3057386	r u </s>	0
-1.3131806	k u </s>	0
-1.3557669	b u </s>	0
-0.99637294	c u </s>	0
-1.264392	z u </s>	0
-1.1435256	- u </s>	0
-0.7970731	¡ u </s>	0
-2.0797076	<s> d </s>	0
-1.1641289	a d </s>	0
-1.1942289	l d </s>	0
-1.1183043	n d </s>	0
-0.94362247	s d </s>	0
-0.7934902	m d </s>	0
-1.1010125	i d </s>	0
-1.0759594	e d </s>	0
-0.6582333	p d </s>	0
-1.0253757	u d </s>	0
-0.8771285	d d </s>	0
-1.1330143	o d </s>	0
-0.7708635	y d </s>	0
-0.6724016	f d </s>	0
-1.2519672	¼ d </s>	0
-1.0141098	r d </s>	0
-0.78132427	v d </s>	0
-0.78942907	b d </s>	0
-0.60206664	c d </s>	0
-0.76999813	3 d </s>	0
-2.5470405	<s> o </s>	0
-0.712958	a o </s>	0
-1.3633782	l o </s>	0
-1.3249226	n o </s>	0
-1.2948647	s o </s>	0
-1.3899758	m o </s>	0
-1.1735495	i o </s>	0
-1.2193127	t o </s>	0
-1.3804888	h o </s>	0
-1.0342633	e o </s>	0
-1.222684	p o </s>	0
-0.753787	u o </s>	0
-1.2630931	d o </s>	0
-1.0453757	o o </s>	0
-1.0459685	y o </s>	0
-1.1414461	f o </s>	0
-1.4290104	r o </s>	0
-1.2488124	k o </s>	0
-0.88462615	v o </s>	0
-1.046783	g o </s>	0
-0.8627389	w o </s>	0
-1.2655245	b o </s>	0
-1.2165996	c o </s>	0
-0.70675904	2 o </s>	0
-1.0164872	j o </s>	0
-1.0310636	z o </s>	0
-0.8197743	­ o </s>	0
-0.90737003	£ o </s>	0
-1.2123665	<s> y </s>	0
-1.032405	a y </s>	0
-0.859934	l y </s>	0
-0.78466433	n y </s>	0
-1.1219095	s y </s>	0
-0.7994335	m y </s>	0
-0.890913	t y </s>	0
-1.1303473	h y </s>	0
-0.9427192	e y </s>	0
-0.7591505	p y </s>	0
-0.92879236	u y </s>	0
-0.869449	d y </s>	0
-0.91697884	o y </s>	0
-0.91987306	r y </s>	0
-1.004055	k y </s>	0
-0.74208045	v y </s>	0
-0.8966832	g y </s>	0
-0.7354767	b y </s>	0
-0.95094925	c y </s>	0
-0.82073647	z y </s>	0
-2.6032894	<s> f </s>	0
-1.0654502	a f </s>	0
-1.0815437	l f </s>	0
-1.1790638	n f </s>	0
-1.1530585	s f </s>	0
-0.83829933	m f </s>	0
-0.9684459	i f </s>	0
-1.0085957	h f </s>	0
-1.0810809	e f </s>	0
-1.0829	p f </s>	0
-1.1325055	u f </s>	0
-0.7429205	d f </s>	0
-1.0020444	o f </s>	0
-1.0418434	f f </s>	0
-1.145199	r f </s>	0
-0.7028042	w f </s>	0
-0.8758507	b f </s>	0
-0.6719574	c f </s>	0
-2.5443847	<s> ã </s>	0
-1.0865507	ã ¼ </s>	0
-2.420727	<s> r </s>	0
-1.3516111	a r </s>	0
-0.6879527	l r </s>	0
-0.9819762	s r </s>	0
-0.8287325	m r </s>	0
-1.0986797	i r </s>	0
-1.1994548	t r </s>	0
-1.112793	h r </s>	0
-1.3485992	e r </s>	0
-1.1106415	p r </s>	0
-1.2468253	u r </s>	0
-1.1163251	d r </s>	0
-1.3080219	o r </s>	0
-1.0664333	y r </s>	0
-1.0627384	f r </s>	0
-1.2884271	¼ r </s>	0
-0.935408	r r </s>	0
-1.14865	k r </s>	0
-0.5578685	v r </s>	0
-1.1313756	g r </s>	0
-0.65333384	w r </s>	0
-1.0817318	b r </s>	0
-0.9676259	c r </s>	0
-1.2936778	¤ r </s>	0
-2.6634214	<s> k </s>	0
-1.1005218	a k </s>	0
-1.2115232	l k </s>	0
-1.170718	n k </s>	0
-1.1102105	s k </s>	0
-0.94903916	m k </s>	0
-1.1448144	i k </s>	0
-0.9597955	e k </s>	0
-0.7741873	p k </s>	0
-0.9893485	u k </s>	0
-0.9163537	d k </s>	0
-1.040181	o k </s>	0
-0.73431987	f k </s>	0
-1.016453	r k </s>	0
-0.74372876	g k </s>	0
-0.6011139	w k </s>	0
-0.998518	b k </s>	0
-1.2490513	c k </s>	0
-1.527049	- k </s>	0
-2.6288402	<s> v </s>	0
-0.85476947	a v </s>	0
-0.6745423	l v </s>	0
-0.5865798	n v </s>	0
-0.68241304	s v </s>	0
-0.53736174	m v </s>	0
-0.89622784	i v </s>	0
-0.75177145	t v </s>	0
-0.48280346	h v </s>	0
-0.89214873	e v </s>	0
-0.33195895	p v </s>	0
-0.7180013	u v </s>	0
-0.49407232	d v </s>	0
-0.919403	o v </s>	0
-0.3672778	f v </s>	0
-0.8879167	¼ v </s>	0
-0.5902127	r v </s>	0
-0.45185912	k v </s>	0
-0.4317376	v v </s>	0
-0.5414155	g v </s>	0
-0.5134679	w v </s>	0
-0.4208938	b v </s>	0
-0.4814242	z v </s>	0
-2.6399689	<s> g </s>	0
-1.1002722	a g </s>	0
-0.738277	l g </s>	0
-1.0061138	n g </s>	0
-0.7566032	s g </s>	0
-0.6361561	m g </s>	0
-1.1556065	i g </s>	0
-0.87381625	t g </s>	0
-0.52014565	h g </s>	0
-1.0454899	e g </s>	0
-0.2743806	p g </s>	0
-0.98385024	u g </s>	0
-0.65711534	d g </s>	0
-1.0135372	o g </s>	0
-0.5534073	f g </s>	0
-1.2198803	¼ g </s>	0
-0.8662656	r g </s>	0
-0.49500126	k g </s>	0
-0.45616475	v g </s>	0
-0.68164617	g g </s>	0
-0.39300948	w g </s>	0
-0.6225774	b g </s>	0
-0.5175891	z g </s>	0
-1.2124052	¤ g </s>	0
-0.0069313687	<s> , </s>	0
-0.0470355	a , </s>	0
-0.043660287	l , </s>	0
-0.07511102	n , </s>	0
-0.032584418	s , </s>	0
-0.07308287	m , </s>	0
-0.03675628	i , </s>	0
-0.046123367	t , </s>	0
-0.029609274	h , </s>	0
-0.050772794	e , </s>	0
-0.024734005	p , </s>	0
-0.012488784	u , </s>	0
-0.03679823	d , </s>	0
-0.012488784	o , </s>	0
-0.015516024	y , </s>	0
-0.016306572	f , </s>	0
-0.049207184	r , </s>	0
-0.016306572	k , </s>	0
-0.027527945	v , </s>	0
-0.02821868	g , </s>	0
-0.027527945	w , </s>	0
-0.03679823	b , </s>	0
-0.034746483	c , </s>	0
-0.0092429165	. , </s>	0
-0.646416	1 , </s>	0
-0.70328987	9 , </s>	0
-0.7331629	6 , </s>	0
-0.64345115	8 , </s>	0
-0.6499725	2 , </s>	0
-0.76235133	0 , </s>	0
-0.23890549	( , </s>	0
-0.036684506	) , </s>	0
-0.03929198	z , </s>	0
-0.122440726	 , </s>	0
-0.014144569	- , </s>	0
-0.68142945	7 , </s>	0
-0.122440726	 , </s>	0
-0.07444565	x , </s>	0
-0.7222264	4 , </s>	0
-0.7678774	3 , </s>	0
-0.65663046	5 , </s>	0
-0.06925681	! , </s>	0
-0.23890549	 , </s>	0
-0.54927105	\ , </s>	0
-0.1366843	% , </s>	0
-0.33259624	 , </s>	0
-0.18442526	« , </s>	0
-0.122440726	² , </s>	0
-3.0295274	<s> w </s>	0
-1.0069646	a w </s>	0
-1.1460829	m w </s>	0
-0.898727	h w </s>	0
-0.940976	e w </s>	0
-0.9640151	o w </s>	0
-0.9687426	r w </s>	0
-0.8298842	k w </s>	0
-0.8852409	g w </s>	0
-0.7021096	b w </s>	0
-2.4372663	<s> b </s>	0
-1.3454571	a b </s>	0
-1.1871206	l b </s>	0
-1.1258408	s b </s>	0
-1.0281744	m b </s>	0
-1.1598208	i b </s>	0
-1.3951472	t b </s>	0
-1.1723231	e b </s>	0
-1.1151818	p b </s>	0
-1.0903202	u b </s>	0
-0.87907374	d b </s>	0
-1.0743678	o b </s>	0
-0.80911267	f b </s>	0
-1.0570047	r b </s>	0
-0.6951518	v b </s>	0
-0.7910292	g b </s>	0
-0.8887383	b b </s>	0
-1.8931848	<s> c </s>	0
-1.0917549	a c </s>	0
-1.0859663	n c </s>	0
-1.0169291	s c </s>	0
-0.8330841	m c </s>	0
-1.124811	i c </s>	0
-0.8323134	t c </s>	0
-1.1236137	e c </s>	0
-0.66626036	p c </s>	0
-0.6705314	d c </s>	0
-0.68762994	f c </s>	0
-0.84340805	r c </s>	0
-0.6548002	b c </s>	0
-0.8479639	c c </s>	0
-0.983201	° c </s>	0
-1.3865864	ã ¶ </s>	0
-0.11590743	<s> . </s>	0
-0.35081103	a . </s>	0
-0.46600962	l . </s>	0
-0.41546738	n . </s>	0
-0.44506624	s . </s>	0
-0.3705024	m . </s>	0
-0.2433181	i . </s>	0
-0.471556	t . </s>	0
-0.3726335	h . </s>	0
-0.4125998	e . </s>	0
-0.34646854	p . </s>	0
-0.3392455	u . </s>	0
-0.36355674	d . </s>	0
-0.32527986	o . </s>	0
-0.22761188	y . </s>	0
-0.28597316	f . </s>	0
-0.5127461	r . </s>	0
-0.37956816	k . </s>	0
-0.46385127	v . </s>	0
-0.33152485	g . </s>	0
-0.35227218	w . </s>	0
-0.35410717	b . </s>	0
-0.433358	c . </s>	0
-0.68122584	. . </s>	0
-0.728116	1 . </s>	0
-0.7425771	9 . </s>	0
-0.7111503	6 . </s>	0
-0.7242856	8 . </s>	0
-0.70996547	2 . </s>	0
-0.688534	0 . </s>	0
-0.048869304	) . </s>	0
-0.38222545	j . </s>	0
-0.28197408	z . </s>	0
-0.68775374	7 . </s>	0
-0.20139837	 . </s>	0
-0.3079297	x . </s>	0
-0.66344005	4 . </s>	0
-0.6865197	3 . </s>	0
-0.6343277	5 . </s>	0
-0.37827045	% . </s>	0
-0.5772625	 . </s>	0
-0.37827045	² . </s>	0
-0.04637895	" . </s>	0
-1.7844018	<s> 1 </s>	0
-0.8379101	, 1 </s>	0
-0.8079314	. 1 </s>	0
-1.0252461	1 1 </s>	0
-0.93471706	9 1 </s>	0
-0.98394877	6 1 </s>	0
-0.97404945	8 1 </s>	0
-0.9489228	2 1 </s>	0
-1.0250857	0 1 </s>	0
-1.0420312	- 1 </s>	0
-0.52064764	: 1 </s>	0
-0.93491507	7 1 </s>	0
-0.8859948	4 1 </s>	0
-0.91629916	3 1 </s>	0
-0.8713526	5 1 </s>	0
-1.160503	<s> 9 </s>	0
-0.808837	, 9 </s>	0
-0.9921187	1 9 </s>	0
-1.0587516	9 9 </s>	0
-0.7814035	6 9 </s>	0
-1.0744091	8 9 </s>	0
-0.89461565	2 9 </s>	0
-0.9537631	0 9 </s>	0
-0.9530509	- 9 </s>	0
-0.8292583	7 9 </s>	0
-0.8630169	4 9 </s>	0
-0.87891567	3 9 </s>	0
-0.8349874	5 9 </s>	0
-1.0207517	<s> 6 </s>	0
-0.760962	, 6 </s>	0
-1.0006832	1 6 </s>	0
-0.97945935	9 6 </s>	0
-0.9238952	6 6 </s>	0
-0.93066937	8 6 </s>	0
-0.8953987	2 6 </s>	0
-0.9339138	0 6 </s>	0
-0.8695824	- 6 </s>	0
-0.9295518	7 6 </s>	0
-0.883337	4 6 </s>	0
-0.94138294	3 6 </s>	0
-0.8933054	5 6 </s>	0
-0.8698349	<s> 8 </s>	0
-0.7643741	, 8 </s>	0
-0.9414491	1 8 </s>	0
-0.9156453	9 8 </s>	0
-0.86869466	6 8 </s>	0
-0.94800985	8 8 </s>	0
-0.90901005	2 8 </s>	0
-0.8923195	0 8 </s>	0
-0.87664247	- 8 </s>	0
-0.89832735	7 8 </s>	0
-0.86076266	4 8 </s>	0
-0.8914088	3 8 </s>	0
-0.8674443	5 8 </s>	0
-1.5747912	<s> 2 </s>	0
-0.6442657	l 2 </s>	0
-0.9145385	v 2 </s>	0
-0.84380066	, 2 </s>	0
-0.9032987	. 2 </s>	0
-0.9010453	1 2 </s>	0
-0.9132595	9 2 </s>	0
-0.83941895	6 2 </s>	0
-0.9401405	8 2 </s>	0
-0.9073527	2 2 </s>	0
-1.0674231	0 2 </s>	0
-1.1847866	( 2 </s>	0
-0.96129715	- 2 </s>	0
-0.8637037	7 2 </s>	0
-0.94931185	4 2 </s>	0
-0.97561944	3 2 </s>	0
-0.9654239	5 2 </s>	0
-0.5845221	_ 2 </s>	0
-1.3962457	<s> 0 </s>	0
-0.8040898	, 0 </s>	0
-0.81806815	. 0 </s>	0
-0.93124586	1 0 </s>	0
-0.9215792	9 0 </s>	0
-0.94498336	6 0 </s>	0
-1.0369442	8 0 </s>	0
-0.9435569	2 0 </s>	0
-1.0862532	0 0 </s>	0
-1.1072874	- 0 </s>	0
-0.87638545	7 0 </s>	0
-0.8905598	4 0 </s>	0
-1.0285264	3 0 </s>	0
-0.904635	5 0 </s>	0
-2.7541015	<s> ( </s>	0
-0.22115913	<s> ) </s>	0
-0.45227268	a ) </s>	0
-0.41980147	l ) </s>	0
-0.48056895	n ) </s>	0
-0.45330888	s ) </s>	0
-0.3256171	m ) </s>	0
-0.37087575	i ) </s>	0
-0.5030849	t ) </s>	0
-0.40632632	h ) </s>	0
-0.5257616	e ) </s>	0
-0.31606257	p ) </s>	0
-0.30546722	u ) </s>	0
-0.39591718	d ) </s>	0
-0.41138536	o ) </s>	0
-0.34352928	y ) </s>	0
-0.3111627	f ) </s>	0
-0.3937038	r ) </s>	0
-0.38131785	k ) </s>	0
-0.25193584	v ) </s>	0
-0.35630396	g ) </s>	0
-0.23433815	w ) </s>	0
-0.37859318	b ) </s>	0
-0.33354506	c ) </s>	0
-0.365834	. ) </s>	0
-0.4271915	1 ) </s>	0
-0.45440915	9 ) </s>	0
-0.5224559	6 ) </s>	0
-0.49554127	8 ) </s>	0
-0.4864086	2 ) </s>	0
-0.4605499	0 ) </s>	0
-0.23856486	) ) </s>	0
-0.35804614	z ) </s>	0
-0.4919625	- ) </s>	0
-0.51255405	7 ) </s>	0
-0.42789608	 ) </s>	0
-0.24252222	x ) </s>	0
-0.41211635	4 ) </s>	0
-0.5576798	3 ) </s>	0
-0.47758323	5 ) </s>	0
-0.55728406	 ) </s>	0
-0.2644223	q ) </s>	0
-0.6537599	% ) </s>	0
-0.5556579	 ) </s>	0
-0.55728406	¦ ) </s>	0
-0.2841424	? ) </s>	0
-0.42789608	² ) </s>	0
-2.6214488	<s> j </s>	0
-0.5991435	g j </s>	0
-2.8532941	<s> z </s>	0
-0.922383	a z </s>	0
-1.0721066	l z </s>	0
-1.3423632	n z </s>	0
-1.0630097	s z </s>	0
-0.97152835	i z </s>	0
-1.1594769	t z </s>	0
-0.9089887	h z </s>	0
-0.8303062	e z </s>	0
-0.883667	u z </s>	0
-0.95116144	o z </s>	0
-0.91854286	r z </s>	0
-1.05043	k z </s>	0
-0.84251374	c z </s>	0
-0.87005925	z z </s>	0
-1.8494217	<s> â </s>	0
-0.5849998	a â </s>	0
-0.3760056	l â </s>	0
-0.37110162	n â </s>	0
-0.3905489	s â </s>	0
-0.42988792	m â </s>	0
-0.41812497	t â </s>	0
-0.38986036	h â </s>	0
-0.3982977	e â </s>	0
-0.37137696	d â </s>	0
-0.55363154	o â </s>	0
-0.41782284	r â </s>	0
-0.47671247	k â </s>	0
-0.46528316	g â </s>	0
-0.37359524	b â </s>	0
-0.4419152	c â </s>	0
-0.25847977	. â </s>	0
-0.31736064	1 â </s>	0
-0.33714232	9 â </s>	0
-0.33546758	6 â </s>	0
-0.32478738	8 â </s>	0
-0.35823166	2 â </s>	0
-0.42201856	0 â </s>	0
-0.2513395	) â </s>	0
-0.6320461	z â </s>	0
-0.4395514	 â </s>	0
-0.09280416	: â </s>	0
-0.34015396	7 â </s>	0
-0.25184333	* â </s>	0
-0.37092066	4 â </s>	0
-0.34643066	3 â </s>	0
-0.34856504	5 â </s>	0
-0.25184333	= â </s>	0
-0.15508084	+ â </s>	0
-0.4395514	· â </s>	0
-0.44802895	§ â </s>	0
-0.2761757	± â </s>	0
-1.5998126	â  </s>	0
-1.1430781	  </s>	0
-0.2517584	<s> - </s>	0
-1.3121278	a - </s>	0
-1.3383449	l - </s>	0
-1.3307316	n - </s>	0
-1.2098957	s - </s>	0
-1.1523299	m - </s>	0
-1.4832958	i - </s>	0
-1.2535034	t - </s>	0
-1.1503135	h - </s>	0
-1.2921956	e - </s>	0
-1.2127389	u - </s>	0
-1.2093593	d - </s>	0
-1.377576	o - </s>	0
-1.032174	f - </s>	0
-1.191915	r - </s>	0
-1.104833	k - </s>	0
-1.2837472	g - </s>	0
-1.143651	b - </s>	0
-1.0671254	z - </s>	0
-1.2447374	 - </s>	0
-0.43536535	; - </s>	0
-1.546958	ã ¤ </s>	0
-0.21322744	<s> : </s>	0
-0.047438625	a : </s>	0
-0.034906156	l : </s>	0
-0.08862723	n : </s>	0
-0.067682154	s : </s>	0
-0.02985532	m : </s>	0
-0.05157948	i : </s>	0
-0.055861693	t : </s>	0
-0.069273755	h : </s>	0
-0.26045895	e : </s>	0
-0.06657596	p : </s>	0
-0.03922732	u : </s>	0
-0.07503098	d : </s>	0
-0.02575402	o : </s>	0
-0.022643646	y : </s>	0
-0.03922732	f : </s>	0
-0.027653366	r : </s>	0
-0.063059725	k : </s>	0
-0.10563568	v : </s>	0
-0.08781773	g : </s>	0
-0.10563568	w : </s>	0
-0.05347096	b : </s>	0
-0.098392665	c : </s>	0
-0.0608581	. : </s>	0
-0.2661148	1 : </s>	0
-0.27252033	9 : </s>	0
-0.1979466	6 : </s>	0
-0.1847191	8 : </s>	0
-0.28875187	2 : </s>	0
-0.33201888	0 : </s>	0
-0.039610296	) : </s>	0
-0.032438427	z : </s>	0
-0.22195639	7 : </s>	0
-0.067496754	x : </s>	0
-0.1979466	4 : </s>	0
-0.29894838	3 : </s>	0
-0.1556833	5 : </s>	0
-0.29740062	 : </s>	0
-1.0751159	<s> 7 </s>	0
-0.75528145	, 7 </s>	0
-1.0722896	1 7 </s>	0
-0.9682966	9 7 </s>	0
-0.89343804	6 7 </s>	0
-0.91770303	8 7 </s>	0
-0.97892505	2 7 </s>	0
-0.97014326	0 7 </s>	0
-0.84111303	- 7 </s>	0
-0.917593	7 7 </s>	0
-0.8371779	4 7 </s>	0
-0.8839151	3 7 </s>	0
-0.83369505	5 7 </s>	0
-1.2356678	ã  </s>	0
-0.7377476	<s> x </s>	0
-0.78711987	a x </s>	0
-0.699397	i x </s>	0
-0.9046625	e x </s>	0
-0.17998753	p x </s>	0
-0.76164687	u x </s>	0
-0.8927716	o x </s>	0
-0.7851658	y x </s>	0
-0.69666183	r x </s>	0
-0.46417576	- x </s>	0
-0.32257992	x x </s>	0
-0.024022795	<s> * </s>	0
-0.36382127	d * </s>	0
-0.7366787	( * </s>	0
-0.36382127	: * </s>	0
-0.72032416	* * </s>	0
-0.36382127	# * </s>	0
-1.127452	  </s>	0
-1.0356148	<s> 4 </s>	0
-0.6547629	a 4 </s>	0
-0.7257789	, 4 </s>	0
-0.9820567	1 4 </s>	0
-0.91833675	9 4 </s>	0
-0.9187955	6 4 </s>	0
-0.8442788	8 4 </s>	0
-0.94412017	2 4 </s>	0
-0.9616874	0 4 </s>	0
-1.0624036	( 4 </s>	0
-0.9507489	- 4 </s>	0
-0.86155236	7 4 </s>	0
-0.88054204	4 4 </s>	0
-0.84376335	3 4 </s>	0
-0.8724568	5 4 </s>	0
-0.58120245	_ 4 </s>	0
-0.9353328	+ 4 </s>	0
-1.2473625	<s> 3 </s>	0
-0.7596168	, 3 </s>	0
-0.9928158	1 3 </s>	0
-0.99156976	9 3 </s>	0
-0.9486881	6 3 </s>	0
-0.86989474	8 3 </s>	0
-0.9925587	2 3 </s>	0
-0.96793467	0 3 </s>	0
-0.9245373	- 3 </s>	0
-0.8631682	7 3 </s>	0
-0.9294982	4 3 </s>	0
-1.0094138	3 3 </s>	0
-0.9552776	5 3 </s>	0
-0.4996472	_ 3 </s>	0
-1.0077145	+ 3 </s>	0
-0.97205687	<s> 5 </s>	0
-0.7750375	, 5 </s>	0
-0.9922426	1 5 </s>	0
-0.94918287	9 5 </s>	0
-0.93617636	6 5 </s>	0
-0.8992498	8 5 </s>	0
-0.8255628	2 5 </s>	0
-0.93610966	0 5 </s>	0
-0.93338007	- 5 </s>	0
-0.8911167	7 5 </s>	0
-0.956673	4 5 </s>	0
-0.8821505	3 5 </s>	0
-0.8682505	5 5 </s>	0
-0.27463657	n ! </s>	0
-0.27091944	t ! </s>	0
-0.05250421	<s> = </s>	0
-0.8071446	( = </s>	0
-0.33681667	: = </s>	0
-1.0087761	ã © </s>	0
-0.10541088	<s> ; </s>	0
-0.010787858	a ; </s>	0
-0.028300896	l ; </s>	0
-0.0218505	n ; </s>	0
-0.010213367	s ; </s>	0
-0.016283942	m ; </s>	0
-0.0218505	i ; </s>	0
-0.017497968	t ; </s>	0
-0.04015869	h ; </s>	0
-0.009696965	e ; </s>	0
-0.024660764	d ; </s>	0
-0.028300896	f ; </s>	0
-0.028300896	r ; </s>	0
-0.04015869	k ; </s>	0
-0.028300896	g ; </s>	0
-0.024660764	b ; </s>	0
-0.02862715	1 ; </s>	0
-0.0340411	6 ; </s>	0
-0.024660764	8 ; </s>	0
-0.016283942	2 ; </s>	0
-0.041982297	0 ; </s>	0
-0.12698177	( ; </s>	0
-0.006904225	) ; </s>	0
-0.024660764	7 ; </s>	0
-0.019615319	4 ; </s>	0
-0.019615319	3 ; </s>	0
-0.024660764	5 ; </s>	0
-0.12698177	 ; </s>	0
-0.19026941	ï  </s>	0
-0.9359597	ã ­ </s>	0
-1.1647	  </s>	0
-1.7192669	<s> q </s>	0
-0.66152674	a q </s>	0
-0.59056365	<s> \ </s>	0
-0.49187952	m \ </s>	0
-0.18778914	u \ </s>	0
-0.51660925	k \ </s>	0
-0.34687933	w \ </s>	0
-0.4621294	2 \ </s>	0
-0.4504028	4 \ </s>	0
-0.4509557	3 \ </s>	0
-0.85796714	{ \ </s>	0
-0.18778914	+ \ </s>	0
-1.29724	m { </s>	0
-0.056879155	<s> } </s>	0
-0.46078998	m } </s>	0
-0.24385318	u } </s>	0
-0.18290706	o } </s>	0
-0.5598588	2 } </s>	0
-0.16662405	) } </s>	0
-0.46078998	- } </s>	0
-0.4427604	3 } </s>	0
-0.24941131	} } </s>	0
-0.14279921	+ } </s>	0
-0.2523935	<s> + </s>	0
-0.30093157	^ + </s>	0
-0.0920756	<s> % </s>	0
-0.065733135	<s> / </s>	0
-1.1795988	n / </s>	0
-0.9545182	â · </s>	0
-0.48310563	â ° </s>	0
-1.2965407	  </s>	0
-0.018853359	<s> & </s>	0
-1.1678796	 ¦ </s>	0
-0.11702705	<s> ~ </s>	0
-0.24476537	n ? </s>	0
-0.18827821	t ? </s>	0
-0.25159967	e ? </s>	0
-0.8943596	  </s>	0
-0.7886987	  </s>	0
-0.7106261	â § </s>	0
-0.69318867	  </s>	0
-0.079462156	<s> | </s>	0
-0.038582686	<s> # </s>	0
-0.80100894	â ± </s>	0
-0.65458524	ä ± </s>	0
-0.6647873	å  </s>	0
-0.64736676	ä « </s>	0
-0.635756	å « </s>	0
-0.9823957	ä  </s>	0
-0.906017	ã ¡ </s>	0
-0.9761702	å ¡ </s>	0
-0.58909535	ã ¸ </s>	0
-0.5085722	ä  </s>	0
-0.8844192	ð ½ </s>	0
-0.78733444	ã  </s>	0
-0.31251922	s ' </s>	0
-0.27460417	' ' </s>	0
-0.5073428	â ² </s>	0
-0.13023011	<s> > </s>	0
-0.3266961	- > </s>	0
-0.33063674	s $ </s>	0
-0.48415232	ñ  </s>	0
-0.5305221	ð ¹ </s>	0
-0.14972444	<s> < </s>	0
-0.45923725	<s> ù </s>	0
-2.9783208	<s> a a	-0.33229446
-1.9288365	l a a	0
-1.833053	n a a	0
-1.4737791	s a a	-0.19791016
-1.691447	m a a	0
-1.7587326	t a a	-0.03639284
-1.5563772	h a a	-0.23466946
-1.3134204	p a a	-0.42638326
-2.1010075	d a a	0
-1.8510356	r a a	0
-1.8933389	k a a	0
-1.5009739	g a a	0
-1.7736794	w a a	0
-1.9109981	b a a	0
-1.8303949	c a a	0
-1.7438365	( a a	0
-0.5518684	<s> l a	-1.8468535
-1.3023758	a l a	-0.4642464
-1.2744348	l l a	-0.29245803
-0.7702544	n l a	-0.30086622
-0.8290326	s l a	-0.37867266
-1.0672584	m l a	-0.2116309
-1.2374777	i l a	-0.2754504
-0.80820245	t l a	-0.26020265
-1.2099813	h l a	-0.145239
-1.4048204	e l a	-0.46154764
-0.6858996	p l a	-0.59288394
-1.1306727	u l a	-0.31546822
-1.0207131	d l a	-0.197078
-1.131557	o l a	-0.33154845
-0.96994376	y l a	-0.13676965
-0.8608327	f l a	-0.42489022
-1.0710602	r l a	-0.22773929
-0.7214663	k l a	-0.5565604
-0.9202389	v l a	0
-0.9115358	g l a	-0.38096553
-0.958732	w l a	0
-0.8964618	b l a	-0.52129805
-0.8675727	c l a	-0.23247753
-0.9394333	( l a	-0.057390656
-0.87786496	z l a	0
-0.7265451	- l a	-0.18524034
-1.1187705	 l a	0
-0.47854343	<s> n a	-2.067158
-1.3658501	a n a	-0.5122304
-1.1071072	l n a	-0.1605021
-1.274104	n n a	-0.16442141
-0.7118189	s n a	-0.30070284
-0.9272744	m n a	-0.07347177
-1.3819765	i n a	-0.5299009
-0.70536983	t n a	-0.2153929
-1.3614562	h n a	-0.10509413
-1.498833	e n a	-0.5839255
-1.2203698	u n a	-0.24069077
-0.8251388	d n a	-0.12289559
-1.346502	o n a	-0.36255404
-1.0862154	y n a	-0.03772307
-0.8024917	f n a	-0.02296344
-1.3000071	¼ n a	0
-1.2032721	r n a	-0.19056879
-0.7694688	k n a	-0.17558251
-0.926798	g n a	-0.16166778
-1.0512466	w n a	0
-0.9863879	b n a	-0.055800725
-1.3436937	( n a	-0.017754503
-0.6919318	z n a	-0.04946668
-0.7249211	- n a	-0.36421707
-0.85491323	: n a	-0.017754503
-1.019862	 n a	-0.19416763
-1.1524608	© n a	0
-1.104339	 n a	-0.047209226
-1.4279222	<s> s a	-1.572223
-1.3373438	a s a	-0.24223758
-1.3451641	l s a	-0.06889342
-1.4873933	n s a	-0.2365881
-1.3679752	s s a	-0.3157576
-1.3006928	m s a	-0.04054226
-1.3441079	i s a	-0.2956589
-1.3745464	t s a	-0.38092208
-1.5155777	h s a	-0.033482533
-1.3854288	e s a	-0.31853062
-1.4962602	p s a	-0.07094679
-1.3002259	u s a	-0.22832817
-1.4924331	d s a	-0.031003417
-1.2838312	o s a	-0.18844712
-1.5357583	y s a	-0.11984299
-1.294275	f s a	-0.024665944
-1.2665782	r s a	-0.17458817
-1.338146	k s a	-0.07435161
-1.4076265	g s a	-0.24886058
-1.302313	b s a	-0.059788596
-1.3653631	( s a	-0.04270183
-1.0137193	z s a	0
-1.1266496	- s a	-0.06783253
-1.0312096	: s a	0
-1.2648041	 s a	0
-0.6399614	<s> m a	-2.0276194
-1.1688623	a m a	-0.3455136
-1.0617405	l m a	-0.28450364
-0.8080249	n m a	-0.23820919
-0.80944395	s m a	-0.35961422
-1.1184684	m m a	-0.21159837
-1.0854734	i m a	-0.28444767
-0.7336777	t m a	-0.40637076
-0.8969053	h m a	-0.16149831
-1.1021343	e m a	-0.39976874
-0.70921594	p m a	-0.26020265
-1.2498165	u m a	-0.2305247
-0.7702853	d m a	-0.1610892
-1.1060954	o m a	-0.32578796
-0.9303465	y m a	0
-0.66926175	f m a	-0.197078
-1.1134167	r m a	-0.2525278
-0.94940585	k m a	-0.15738201
-0.84750456	g m a	-0.200801
-0.77033263	b m a	0
-1.1336039	( m a	-0.021892885
-0.79692405	z m a	-0.19880947
-0.7557788	- m a	-0.45489624
-1.1519301	¤ m a	-0.086321756
-0.93294954	: m a	-0.08664243
-1.0080212	 m a	-0.11938152
-0.4062918	x m a	0
-0.2042237	\ m a	-0.90516645
-0.9050635	/ m a	0
-1.1003435	 m a	-0.024781197
-2.9307122	<s> i a	-0.19804722
-1.412045	a i a	-0.11886738
-1.3490914	l i a	-0.23678403
-1.4087977	n i a	-0.25355396
-1.480809	s i a	-0.2024148
-1.4882507	m i a	-0.15338197
-1.4029505	t i a	-0.21951449
-1.670402	h i a	-0.1160126
-1.6010486	e i a	-0.072739035
-1.3167108	p i a	-0.1800628
-1.1549394	d i a	-0.37549686
-1.6613619	f i a	0
-1.4995303	r i a	-0.3213846
-1.5110512	k i a	0
-1.3970056	v i a	-0.2047419
-1.3039446	g i a	-0.2677345
-1.4499236	b i a	-0.2298775
-1.2098446	c i a	-0.21348932
-1.6627723	( i a	0
-1.0264508	j i a	-0.35991067
-1.2975069	z i a	-0.23208515
-1.0398637	x i a	-0.03639284
-0.9257928	<s> t a	-1.5016171
-1.3180186	a t a	-0.36125952
-1.2885602	l t a	-0.2483153
-1.3627799	n t a	-0.24962458
-1.1707824	s t a	-0.71760947
-1.248606	m t a	0
-1.2723204	i t a	-0.4741827
-1.2039995	t t a	-0.21685909
-1.5061188	h t a	-0.054173402
-1.2346158	e t a	-0.37839404
-1.154172	p t a	-0.07627705
-1.2274314	u t a	-0.26977447
-1.4994147	d t a	-0.044052236
-1.2364315	o t a	-0.2643955
-1.3911214	f t a	-0.08922364
-1.627542	r t a	-0.15273294
-1.3469871	k t a	-0.19860627
-1.1698072	b t a	-0.017754503
-1.0723706	c t a	-0.028306834
-1.3995508	( t a	0
-0.93032634	- t a	-0.06373451
-1.404825	¤ t a	-0.05560156
-1.0010147	: t a	0
-1.1787091	x t a	0
-1.1458726	© t a	0
-0.5729058	/ t a	0
-1.2089002	 t a	0
-0.47551876	<s> h a	-1.975538
-1.0665425	a h a	-0.09484872
-0.7215157	l h a	-0.24879044
-0.8741933	n h a	-0.37490568
-0.89984906	s h a	-0.3634028
-0.82048416	m h a	-0.30201235
-0.83174616	i h a	-0.10034536
-1.1077386	t h a	-0.39396778
-0.68836915	h h a	-0.11546423
-1.1171751	e h a	-0.3087155
-0.901707	p h a	-0.365901
-0.919636	u h a	-0.09807199
-0.74238324	d h a	-0.2384786
-1.067272	o h a	-0.029896664
-0.8729873	f h a	-0.14832121
-0.95690763	r h a	-0.19099738
-0.8161632	k h a	-0.22236694
-0.9294996	g h a	-0.15199588
-1.0058076	w h a	-0.064391434
-0.7449009	b h a	-0.033209357
-1.2241615	c h a	-0.48653325
-1.2362837	( h a	-0.034917157
-0.6480042	z h a	-0.28281707
-0.7864241	- h a	-0.30132604
-1.1590874	: h a	-0.047209226
-0.75374264	x h a	0
-0.63698065	/ h a	0
-1.0759194	 h a	0
-2.642497	<s> e a	-0.5294958
-1.4417918	a e a	0
-1.5241224	l e a	-0.11953799
-1.4973735	n e a	-0.15151179
-1.6110216	s e a	-0.23030156
-1.831798	m e a	0
-1.9191684	i e a	-0.11580132
-1.4812684	t e a	-0.16714211
-1.5568454	h e a	-0.2076616
-1.576915	e e a	0
-1.405105	p e a	-0.20494941
-1.6469598	d e a	-0.21134803
-1.476853	y e a	-0.2053647
-1.7523267	f e a	-0.09065495
-1.3773385	r e a	-0.5115739
-1.9770525	k e a	0
-1.7174864	v e a	-0.15579069
-1.7449758	g e a	-0.10262135
-1.6692116	w e a	0
-1.3752397	b e a	-0.5239956
-1.4369153	c e a	-0.014471945
-1.2673951	j e a	-0.6710833
-1.8189268	z e a	-0.05560156
-0.75715	<s> p a	-1.8078966
-1.0829455	a p a	-0.1715928
-1.021026	l p a	-0.083301425
-0.92919964	n p a	-0.21948661
-1.0256124	s p a	-0.42231256
-1.0671787	m p a	-0.1655279
-1.0527265	i p a	-0.1129345
-0.8655528	t p a	-0.14922158
-1.1758755	e p a	-0.22108585
-1.1823418	p p a	-0.09065495
-1.005661	u p a	-0.09722085
-0.96215117	d p a	-0.05351579
-1.109292	o p a	-0.28515303
-0.8893117	f p a	0
-1.0614524	r p a	-0.0873976
-0.96453184	k p a	0
-0.94503725	g p a	0
-1.1586016	( p a	-0.008319617
-0.91266793	z p a	0
-0.95485044	- p a	-0.30792812
-1.024414	¤ p a	-0.086321756
-0.97069	: p a	-0.06917001
-1.2228924	x p a	-0.086321756
-1.027257	© p a	-0.19416763
-1.1479166	 p a	-0.014471945
-3.4196267	<s> u a	0
-1.6264639	a u a	-0.025368905
-1.6468753	l u a	-0.07611662
-1.4398092	n u a	-0.0539061
-1.4307097	s u a	-0.065141305
-1.2896409	t u a	-0.4244443
-1.3965938	h u a	-0.112339474
-2.0303383	e u a	-0.049234584
-1.3966606	d u a	-0.099541835
-1.3557143	o u a	-0.1156637
-1.7264445	r u a	-0.07611662
-1.2307166	g u a	-0.1588127
-1.2815961	c u a	0
-1.5769209	j u a	-0.11984299
-1.0047163	x u a	-0.05560156
-0.6758656	q u a	-0.45593846
-0.8541832	<s> d a	-2.3104248
-1.0920895	a d a	-0.35183123
-1.2796314	l d a	-0.1040455
-1.3180416	n d a	-0.19479363
-0.9504005	s d a	-0.23889327
-0.98691547	m d a	0
-1.1061149	i d a	-0.31029066
-0.85576904	t d a	-0.08570047
-0.79611796	h d a	0
-1.1702446	e d a	-0.16836947
-1.3060042	p d a	0
-1.0078446	u d a	-0.039481174
-0.9981977	d d a	-0.07401644
-1.0115258	o d a	-0.1479704
-1.0257592	y d a	0
-1.2856408	¼ d a	-0.06308032
-1.2461448	r d a	-0.19930641
-0.76539993	k d a	-0.026911557
-0.9535522	v d a	0
-0.87398034	g d a	-0.015946012
-0.9420611	b d a	-0.012213855
-0.9687131	( d a	-0.06952079
-0.78550607	z d a	0
-0.81911266	- d a	-0.3115452
-1.1460805	¤ d a	-0.05560156
-0.82856727	: d a	0
-1.1759493	 d a	-0.013247361
-2.642709	<s> o a	-0.2101175
-1.6188141	l o a	-0.0794299
-2.0794427	n o a	0
-1.929036	s o a	0
-1.6063614	i o a	-0.04946668
-1.7580283	t o a	0
-2.023841	h o a	-0.026911557
-1.6870959	d o a	-0.017754503
-1.4993743	r o a	-0.12092612
-1.617397	k o a	-0.22473945
-1.4192107	b o a	-0.25786033
-1.472102	c o a	0
-1.4660468	j o a	-0.1605021
-0.795854	<s> y a	-0.10745125
-1.0079685	a y a	-0.11409875
-1.4039469	l y a	0
-1.0835603	n y a	0
-1.2238967	m y a	-0.0930826
-0.48469585	i y a	-0.1414885
-1.2526122	h y a	0
-0.9230449	u y a	0
-0.95864606	o y a	-0.033482533
-1.1884826	r y a	0
-1.2626085	k y a	0
-1.1207348	c y a	-0.4280452
-1.0053529	<s> f a	-1.6986144
-1.0738158	a f a	-0.13498111
-1.090991	l f a	-0.111796364
-1.0343494	n f a	-0.28580886
-0.979846	s f a	-0.2610159
-1.0606734	m f a	-0.051770195
-1.0021362	i f a	-0.017815342
-0.9132262	t f a	-0.20385094
-0.871667	h f a	-0.03249996
-1.0875086	e f a	-0.18974358
-1.0595585	p f a	-0.35149273
-1.1407167	u f a	-0.061735764
-1.1695442	d f a	-0.064391434
-1.1240892	o f a	0
-1.3826627	f f a	-0.09982847
-1.1085222	r f a	-0.19086862
-1.0407144	k f a	0
-0.75363743	g f a	-0.02886622
-1.0624288	b f a	-0.033482533
-1.0122197	( f a	0
-0.82673997	z f a	-0.044052236
-0.7276963	- f a	-0.23430519
-1.0963364	 f a	0
-0.9044499	<s> r a	-1.35741
-1.3057234	a r a	-0.49878362
-1.0186964	l r a	-0.10958861
-0.96475065	n r a	-0.28679985
-0.8762716	s r a	-0.30697295
-1.026111	m r a	0
-1.0886048	i r a	-0.1907637
-0.9086648	t r a	-0.63002443
-1.2463604	h r a	-0.13151205
-1.4947896	e r a	-0.53618497
-0.9410603	p r a	-0.2466761
-1.2520337	u r a	-0.30549332
-0.878798	d r a	-0.30166462
-1.3287222	o r a	-0.39246857
-0.93740594	y r a	-0.07027773
-0.7760832	f r a	-0.47961545
-1.1667048	r r a	-0.1591438
-0.83186173	k r a	-0.45359176
-0.9330609	v r a	0
-0.8123853	g r a	-0.54809755
-0.8300904	b r a	-0.40779442
-0.8037678	c r a	-0.1817637
-1.2022358	( r a	-0.021467796
-1.0023329	j r a	-0.086321756
-0.97120726	z r a	0
-0.7643159	- r a	-0.20164588
-1.3409412	¤ r a	-0.017754503
-1.292428	: r a	0
-0.7124967	 r a	-0.041019704
-1.1287278	© r a	-0.041019704
-1.0818586	 r a	-0.02296344
-0.621192	<s> k a	-1.9666908
-1.048015	a k a	-0.2737484
-0.89930475	l k a	-0.1930067
-1.2075591	n k a	-0.24089387
-0.9054764	s k a	-0.45041865
-1.1569238	m k a	0
-1.1238667	i k a	-0.4145791
-0.90129447	t k a	-0.20701464
-0.980368	h k a	-0.02296344
-1.0701911	e k a	-0.15600903
-0.9313079	u k a	-0.12519775
-0.8592522	d k a	-0.032344043
-1.0125967	o k a	-0.19612953
-0.9554225	f k a	0
-1.2419711	r k a	-0.1517562
-0.8033257	k k a	-0.04493709
-1.1037438	b k a	0
-1.3650334	c k a	-0.14859772
-1.0391062	( k a	-0.03249996
-0.7369161	z k a	-0.008786515
-0.8707355	- k a	-0.3624123
-0.95472777	: k a	-0.078645505
-1.1410606	 k a	0
-0.86602795	 k a	0
-1.6325186	<s> v a	-1.137961
-0.8233476	a v a	-0.3245308
-0.88089144	l v a	-0.06238698
-1.1179523	n v a	-0.049234584
-1.0645919	s v a	0
-0.9895659	i v a	-0.15717128
-1.0612352	t v a	0
-1.0651791	h v a	0
-0.79417574	e v a	-0.28177178
-0.83182013	u v a	0
-1.2436625	d v a	-0.02296344
-0.89972377	o v a	-0.19271022
-1.1950324	r v a	-0.16922486
-1.1277074	g v a	0
-1.1441187	( v a	-0.017754503
-0.84837896	- v a	-0.30135718
-0.8693972	 v a	-0.19416763
-1.0695115	 v a	-0.05560156
-1.2033942	<s> g a	-1.4787977
-1.1180788	a g a	-0.2514305
-1.0887951	l g a	-0.13526393
-1.3156258	n g a	-0.24072637
-1.0380785	s g a	-0.32086653
-1.0427151	m g a	-0.012213855
-1.2733536	i g a	-0.19865832
-0.96382964	t g a	-0.1860511
-1.1508672	h g a	0
-1.1478213	e g a	-0.25905997
-1.0986819	u g a	-0.1997637
-1.1564231	d g a	-0.061735764
-1.0630379	o g a	-0.13284756
-0.99722147	f g a	-0.14676836
-1.2688041	r g a	-0.23408972
-1.1578021	k g a	-0.02296344
-1.0196862	v g a	0
-1.0569333	g g a	-0.065141305
-1.2113569	b g a	-0.14002028
-1.381337	( g a	0
-0.9547602	z g a	0
-0.963377	- g a	0
-0.97309875	: g a	0
-0.18085912	x g a	-0.5249553
-0.19570197	\ g a	-0.3031065
-0.7770212	<s> w a	-1.9966623
-0.85096097	a w a	-0.12654792
-0.8481909	l w a	-0.15109912
-0.7734617	n w a	-0.33799022
-0.69878757	s w a	-0.39365417
-0.8585595	m w a	-0.100167975
-0.6084347	i w a	-0.05521554
-0.74814427	t w a	-0.22353953
-0.6362961	h w a	-0.15530469
-0.9336158	e w a	-0.37046275
-0.672303	u w a	-0.15458177
-0.79102993	d w a	-0.2175982
-1.1181582	o w a	-0.027915504
-0.6002059	y w a	0
-0.8853984	f w a	-0.020025723
-0.90573573	r w a	-0.25884926
-0.8686801	k w a	-0.09065495
-0.87246495	g w a	0
-0.86099553	b w a	-0.04669037
-1.1504827	( w a	-0.015946012
-0.7558662	z w a	-0.22893628
-0.6772294	- w a	0
-1.1208454	: w a	-0.05560156
-0.8815982	 w a	0
-1.0225712	 w a	-0.036265854
-0.96310806	<s> b a	-1.9421924
-1.2165428	a b a	-0.29726273
-1.0881867	l b a	-0.30665818
-0.8433812	n b a	-0.24068975
-0.9668362	s b a	-0.39964604
-1.0481234	m b a	-0.22580673
-1.036206	i b a	-0.14845115
-0.86757874	t b a	-0.39285025
-0.8913746	h b a	-0.16329265
-1.0438452	e b a	-0.2280113
-0.96100295	u b a	-0.19674292
-1.0144603	d b a	-0.16432315
-1.0638791	o b a	-0.17667633
-1.1450537	y b a	-0.05560156
-0.7603805	f b a	-0.24886058
-1.0780512	r b a	-0.26215568
-0.95735663	k b a	-0.07094679
-1.000853	g b a	-0.3004537
-0.94831157	b b a	-0.12987585
-1.0907865	( b a	-0.03305503
-0.8675113	z b a	-0.1517859
-0.86819893	- b a	-0.31748447
-0.93162704	: b a	0
-1.033892	 b a	-0.11938152
-0.7121872	* b a	-0.086321756
-0.6525459	/ b a	0
-1.1108185	 b a	-0.029442811
-0.7697586	<s> c a	-1.4261413
-1.118788	a c a	-0.22399843
-1.2584052	l c a	0
-1.1591324	n c a	0
-1.0823891	s c a	-0.17360914
-0.897234	m c a	-0.033482533
-1.0442346	i c a	-0.4226786
-1.2258884	e c a	-0.02943392
-1.0829529	u c a	-0.008319617
-0.9837049	d c a	-0.07611662
-1.0839573	o c a	-0.20602086
-1.0280409	r c a	-0.07556834
-1.020599	c c a	-0.083301425
-1.2053479	( c a	-0.040346555
-0.73631746	- c a	-0.13182224
-1.240952	: c a	-0.026911557
-1.2031152	u . a	-0.3031065
-1.2095088	<s> ( a	-1.1504849
-0.37637854	<s> j a	-1.7725619
-0.59211826	a j a	-0.12519775
-0.5384377	l j a	-0.06399627
-0.52959466	n j a	-0.14441143
-0.67106354	s j a	-0.30159533
-0.5539198	i j a	0
-0.80289507	t j a	-0.19257659
-0.474396	h j a	-0.041019704
-0.7053557	e j a	-0.09158706
-0.55518425	u j a	-0.02296344
-0.84640616	d j a	0
-0.6635359	o j a	-0.09640404
-0.51703787	r j a	-0.04031772
-0.89679635	b j a	0
-0.94186044	( j a	-0.026911557
-0.56302124	- j a	-0.1860511
-0.7240124	: j a	-0.020025723
-0.8840579	 j a	0
-1.4407828	<s> z a	-1.2023625
-0.9268052	a z a	-0.088017434
-1.1220025	l z a	-0.034026258
-1.201871	n z a	-0.14892265
-0.90067565	s z a	-0.26179174
-1.0024003	i z a	-0.16989534
-1.2780889	t z a	-0.1385617
-1.0232681	e z a	-0.025368905
-0.9977165	u z a	0
-0.87451005	d z a	0
-1.0438532	o z a	-0.04031772
-0.9031974	y z a	-0.086321756
-1.1973931	r z a	-0.0873976
-0.87407756	z z a	-0.06976375
-1.0267982	- z a	0
-1.1293374	<s> - a	-0.26109558
-1.2016277	a - a	-0.1040455
-1.2917624	l - a	0
-1.2878876	n - a	-0.20975311
-1.247216	s - a	-0.15368326
-1.3081368	m - a	0
-1.2829729	i - a	-0.14643887
-1.2279769	t - a	-0.2197152
-1.1441185	h - a	-0.028306834
-1.2651902	e - a	-0.20433939
-1.0421752	p - a	0
-1.1499375	u - a	0
-1.2048311	d - a	0
-1.1869129	o - a	-0.1378936
-1.1720742	y - a	0
-1.1035289	f - a	0
-1.258879	r - a	-0.046776965
-1.1783228	k - a	0
-1.0639018	v - a	0
-1.1311004	g - a	-0.07935882
-1.1265603	b - a	0
-1.2541807	c - a	0
-1.4171867	2 - a	0
-0.88098663	) - a	0
-0.9664806	x - a	0
-1.2318423	± - a	-0.05560156
-1.1463805	² - a	-0.041019704
-1.8454696	ã ¤ a	0
-1.5045662	<s> : a	-0.57742476
-1.5099677	e : a	-0.012213855
-1.45405	ã  a	0
-1.1691961	<s> x a	-0.19767775
-1.1423775	a x a	0
-1.1339236	e x a	-0.075666465
-1.0938923	o x a	-0.16873161
-3.0891938	<s> * a	0
-1.5017159	  a	-0.01882184
-1.645365	ã © a	0
-0.7347002	å  a	-0.05560156
-0.8191261	ã ­ a	-0.19484496
-1.3835764	  a	0
-1.5593034	<s> q a	0
-1.4979274	<s> \ a	-0.7073607
-1.1081122	m { a	0
-1.2936379	5 } a	-0.19416763
-1.5833335	  a	-0.0943538
-0.54593605	ã § a	-0.010565375
-1.2299349	¸ « a	0
-0.5971544	ê ¿ a	-0.19869484
-0.69624835	ê ¾ a	0
-0.8843354	å ¡ a	-0.068608984
-0.89549375	l ' a	0
-0.7640466	d ' a	0
-0.73372734	<s> a l	-2.3741903
-1.2001292	a a l	-0.082492225
-1.6716019	l a l	-0.10367449
-1.3902009	n a l	-0.44409898
-1.2543746	s a l	-0.39787978
-1.2835653	m a l	-0.37225127
-1.2815976	i a l	-0.39107448
-1.2717154	t a l	-0.4276055
-1.1465694	h a l	-0.5209002
-1.225813	e a l	-0.16010699
-1.1669058	p a l	-0.3665411
-1.0168428	u a l	-0.15057224
-1.2823755	d a l	-0.23247257
-0.9982895	o a l	-0.06399627
-1.1215814	y a l	-0.14551762
-1.036558	f a l	-0.44021624
-1.4588269	r a l	-0.5203245
-1.2241713	k a l	-0.3181199
-1.0002699	v a l	-0.36255726
-1.2491974	g a l	-0.3355405
-1.056316	w a l	-0.38990402
-1.1347272	b a l	-0.36338207
-1.2253349	c a l	-0.25116304
-1.1857426	( a l	-0.027996393
-1.4999692	j a l	0
-1.2949522	z a l	-0.061458014
-1.0714084	- a l	-0.28879613
-1.0919907	: a l	-0.04669037
-1.3090857	x a l	-0.032499935
-1.3570739	 a l	-0.03249996
-1.1077757	¿ a l	0
-3.1061378	<s> l l	0
-1.3112077	a l l	-0.6590693
-1.824011	l l l	0
-1.1773629	i l l	-0.49245942
-1.6545358	h l l	-0.07611662
-1.3308742	e l l	-0.57198566
-1.1345749	u l l	-0.2875462
-1.288968	o l l	-0.43064564
-1.2469565	y l l	-0.16410598
-1.4167899	¼ l l	-0.038496494
-1.4637513	¶ l l	-0.044948287
-1.3230724	¤ l l	-0.13690566
-2.8156593	<s> n l	-0.48312223
-1.5593158	a n l	-0.43208528
-1.5198445	n n l	-0.20842235
-1.8482157	i n l	-0.26076874
-1.3799165	h n l	-0.12535325
-1.5972619	e n l	-0.9047285
-1.8151428	u n l	0
-1.6295214	o n l	-0.17002137
-1.583401	r n l	-0.017754503
-1.5527874	¶ n l	-0.05560156
-2.6273525	<s> s l	-0.8622626
-1.665572	a s l	-0.10034536
-1.6451485	n s l	-0.37344277
-1.4918015	s s l	-0.30167335
-1.4386333	i s l	-0.3577893
-1.5883195	t s l	-0.5546212
-1.9341692	h s l	-0.032499935
-1.6126997	e s l	-0.43013763
-1.8483132	u s l	-0.14397706
-1.5380186	d s l	0
-1.8098611	o s l	-0.14002028
-1.6772654	f s l	0
-1.8076395	r s l	-0.017754503
-1.790295	k s l	-0.2053647
-1.4969628	g s l	-0.2927796
-1.7444623	b s l	0
-1.415379	¶ s l	-0.05560156
-3.3204827	<s> m l	0
-1.6597266	a m l	-0.04946668
-1.3968672	m m l	-0.28491238
-1.739495	i m l	-0.16846988
-2.037601	t m l	0
-1.7217629	h m l	-0.086321756
-1.6163142	e m l	-0.08570047
-1.6432709	u m l	-0.22737873
-1.387667	¼ m l	-0.086321756
-1.4272517	r m l	-0.017754503
-1.3184748	¤ m l	-0.19416763
-2.3116777	<s> i l	-0.65714777
-1.2222904	a i l	-0.24051772
-1.645892	l i l	-0.20435087
-1.5712869	n i l	-0.051411517
-1.23503	s i l	-0.26314002
-1.0681465	m i l	-0.4840609
-1.2959602	t i l	-0.3099297
-1.0954741	h i l	-0.36215603
-1.2784743	e i l	-0.45559877
-1.0844961	p i l	-0.34645274
-1.1996114	u i l	-0.19880947
-1.5054029	d i l	-0.04403771
-1.2222027	o i l	-0.20248707
-0.98988765	f i l	-0.37972507
-1.3719604	r i l	-0.33208466
-1.3663698	k i l	-0.16004623
-1.1738304	v i l	-0.23231345
-1.1635944	g i l	-0.16688935
-0.98475504	w i l	-0.33831683
-1.0117618	b i l	-0.4002576
-1.2795504	c i l	-0.3019187
-1.4212916	z i l	-0.14922363
-1.4430652	x i l	-0.012213855
-3.0415082	<s> t l	0
-1.4622997	a t l	-0.4710611
-1.5310755	l t l	-0.112339474
-1.537798	n t l	-0.22953363
-1.6273288	s t l	-0.37644115
-1.5770549	m t l	-0.055800725
-1.7872207	i t l	-0.12017564
-1.491053	t t l	-0.31026724
-1.6803368	h t l	-0.10837932
-1.713522	e t l	-0.13944557
-1.972919	p t l	0
-1.5910137	u t l	-0.26427847
-1.6484593	o t l	-0.06399627
-1.6200002	f t l	-0.1646985
-1.3407422	r t l	-0.28431445
-1.4972032	k t l	0
-1.4499034	z t l	-0.3031065
-2.8067482	<s> h l	-0.3390069
-1.2192589	a h l	-0.28229105
-1.735421	t h l	-0.16329265
-1.0748771	e h l	-0.22652902
-1.418519	p h l	0
-0.8819249	u h l	-0.07210455
-1.0482308	o h l	-0.17830501
-1.454095	¼ h l	-0.03712637
-1.4233483	c h l	-0.5278231
-1.1776632	¶ h l	-0.026911557
-1.2863506	¤ h l	-0.047209226
-1.5681553	<s> e l	-1.432062
-1.206587	a e l	-0.15028422
-1.9614086	l e l	-0.03852857
-1.550032	n e l	-0.26580414
-1.3441226	s e l	-0.5086402
-1.2471001	m e l	-0.37391332
-1.3140457	i e l	-0.45322335
-1.3848244	t e l	-0.47622454
-1.1493818	h e l	-0.38848776
-1.3355947	e e l	-0.20316847
-1.252301	p e l	-0.26045
-0.8936814	u e l	-0.24052623
-1.2745765	d e l	-0.46547133
-1.0856742	o e l	-0.08808201
-0.99980426	y e l	-0.044052236
-1.0272357	f e l	-0.387882
-1.3729151	r e l	-0.4590658
-1.3207984	k e l	-0.31472006
-1.1731637	v e l	-0.14570318
-1.3153628	g e l	-0.5766748
-0.9777045	w e l	-0.40000552
-1.2986282	b e l	-0.45623615
-1.1317189	c e l	-0.18794222
-1.4029874	( e l	-0.049234584
-1.0597014	z e l	-0.30914453
-1.1189289	- e l	-0.39168495
-1.1797457	: e l	0
-1.4143906	 e l	0
-1.0741768	x e l	-0.16329265
-1.3503684	 e l	0
-1.2141674	<s> p l	-1.5241535
-1.3247471	a p l	-0.30201235
-1.1460385	l p l	-0.21444517
-1.0957795	n p l	-0.4110632
-1.2471017	s p l	-0.5188372
-1.0897713	m p l	-0.38145596
-1.3013215	i p l	-0.24032316
-0.9587777	t p l	-0.5235698
-0.9919499	h p l	0
-1.1088274	e p l	-0.23023944
-1.2236854	p p l	-0.27185744
-1.2191228	u p l	-0.19257659
-1.3058304	d p l	-0.2053647
-1.3306248	o p l	-0.27937552
-0.83435637	f p l	-0.35991067
-1.2037432	r p l	-0.22895764
-0.9992291	k p l	0
-0.83858204	g p l	-0.12535325
-1.4202684	( p l	-0.041019704
-0.9301695	z p l	-0.23497191
-0.9432602	- p l	-0.43093413
-1.2978853	x p l	-0.11938152
-2.2947412	<s> u l	-0.6951672
-1.358817	a u l	-0.27629715
-1.5897267	l u l	0
-1.2838221	n u l	-0.10178483
-1.1667583	s u l	-0.20569775
-1.0626792	m u l	-0.22816892
-1.3871003	i u l	-0.16846988
-1.2595366	t u l	-0.24355626
-1.2167783	h u l	-0.18822123
-1.5144207	e u l	-0.16711476
-1.0239632	p u l	-0.18975079
-1.3543824	d u l	-0.121613525
-1.1122646	o u l	-0.18830773
-1.0999213	f u l	-0.23107085
-1.4945607	r u l	-0.06399627
-0.91359395	k u l	-0.46405494
-0.7862846	v u l	-0.100167975
-1.0847049	g u l	-0.06615641
-1.0360663	w u l	-0.16674595
-1.1044762	b u l	-0.1425856
-0.9950421	c u l	-0.27937552
-1.1463552	( u l	0
-1.3027115	j u l	-0.12535325
-1.066581	z u l	-0.47789878
-1.2109272	- u l	0
-1.2999511	¤ u l	-0.05560156
-1.1545899	: u l	-0.05560156
-4.0157847	<s> d l	0
-1.3953544	a d l	-0.31789872
-1.5100974	l d l	-0.03985765
-1.5590962	n d l	-0.3984672
-1.5978549	i d l	0
-1.3847605	e d l	-0.31799585
-1.4040451	d d l	-0.15579069
-1.5926902	o d l	0
-1.4984074	¼ d l	-0.086321756
-1.5537684	r d l	-0.12562983
-1.2907355	¶ d l	-0.086321756
-1.28973	¤ d l	-0.086321756
-1.6619841	<s> o l	-0.67876697
-1.2716454	a o l	0
-1.8611039	l o l	-0.017754503
-1.3869971	n o l	-0.29385275
