\data\
ngram 1=192073
ngram 2=1

\1-grams:
-6.4867854	<unk>
0	<s>
-1.0322984	</s>
-5.2543893	andorra
-5.798397	andorra,
-4.3242536	oficialmente
-4.8791265	principado
-1.1697872	de
-3.595333	,
-2.3047657	es
-2.1268764	un
-4.022626	pequeño
-3.4797692	país
-5.0226283	soberano
-1.9317358	del
-4.534994	suroeste
-4.495271	europa.
-4.929793	constituido
-1.5525529	en
-3.2775958	estado
-4.925083	independiente,
-4.8936243	derecho,
-4.7410297	democrático
-1.6714214	y
-4.5773964	social,
-4.0650444	cuya
-3.3073041	forma
-3.4177237	gobierno
-1.5952424	el
-5.95317	parlamentario.
-2.201137	su
-3.8543327	territorio
-3.1239223	está
-4.578499	organizado
-4.008327	siete
-5.7859635	parroquias,
-2.1422317	con
-2.1762497	una
-3.2406301	población
-3.3922997	total
-3.7102973	habitantes
-5.5397305	(2016).
-3.7689872	capital
-1.4828486	la
-5.616567	vieja.
-3.1677296	tiene
-4.297163	extensión
-4.5240846	territorial
-3.9703221	situado
-1.9518791	los
-5.616567	pirineos,
-2.7942746	entre
-3.5097103	españa
-4.1941137	francia,
-4.4286757	altitud
-3.8707347	media
-4.0263786	1996
-4.9313374	msnm.
-4.495636	limita
-2.0993264	por
-3.5001528	sur
-5.552244	—con
-2.1586373	las
-5.2559032	comarcas
-5.5982223	catalanas
-6.1239457	cerdaña,
-3.8506	alto
-5.60183	urgel
-5.6502285	pallars
-3.5147374	norte
-3.8662403	francia
-4.725241	departamentos
-6.2476215	ariège
-5.2272363	pirineos
-4.87571	orientales
-3.5096705	sistema
-3.8841815	político
-4.5270147	democracia
-5.1663923	parlamentaria
-1.9112995	que
-2.3391821	como
-4.7520785	jefes
-1.8553425	a
-4.153131	obispo
-3.511514	presidente
-5.639374	francia;
-3.944901	jefe
-2.3586986	al
-4.677927	gobierno.
-4.307511	idioma
-3.6176162	oficial
-4.7217827	catalán
-5.9473977	convive
-3.7362738	español
-3.9463172	menor
-4.164466	medida
-4.0179462	francés
-5.361135	portugués.
-2.6360996	no
-4.809343	ejército,
-2.9809172	pero
-3.9646828	sí
-3.82653	cuerpo
-4.1612926	policía
-4.165469	creado
-5.1680093	1931.
-3.759253	caso
-5.5129848	emergencias
-2.6964407	o
-5.3654675	desastres
-5.0252953	naturales,
-4.018574	ejemplo
-5.1351676	inundaciones
-5.3818383	ocurrieron
-4.737833	1982,
-4.8823233	costumbre
-6.034751	dictaba
-2.0511608	se
-6.2231417	convocaría
-4.1608424	formado
-4.7626286	cabezas
-3.3237522	familia
-4.707194	nacionalidad
-3.3291986	aunque
-4.2937765	práctica
-3.7945783	fuera
-3.7677608	época
-5.2653384	gestiona
-3.6746395	todas
-6.0844674	emergencias.
-5.496028	catástrofe
-5.583836	grave,
-4.0589676	ayuda
-3.8708596	española
-4.19948	francesa,
-3.3012815	según
-4.1646457	tratado
-6.138835	vecindad,
-4.6183825	amistad
-5.952589	cooperación.
-2.9843304	durante
-3.8623478	mucho
-3.4659834	tiempo
-4.882965	pobre
-5.9217916	aislado,
-4.1037445	consiguió
-4.5143294	notable
-5.2731586	prosperidad
-2.9492023	desde
-3.3985708	segunda
-3.382938	guerra
-3.567106	mundial
-3.58189	través
-4.3832545	turismo
-3.7890282	y,
-5.4706235	especialmente,
-4.421921	condición
-5.036695	paraíso
-5.577674	fiscal,
-4.2460485	perdió
-2.3480103	para
-3.32879	10
-3.5310998	febrero
-4.2434106	2010.
-2.6061258	más
-3.9331906	grande
-4.8820763	toponimia
-3.7562852	origen
-4.188214	palabra
-5.4626627	desconocido,
-3.3868651	han
-5.8646383	formulado
-4.035202	diversas
-4.7353625	teorías
-5.519144	respecto.
-1.981396	*
-3.659267	francisco
-4.1854773	martínez
-5.121513	marina,
-4.6444435	ensayo
-3.3061278	siglo
-4.5593815	xix,
-4.7453294	sugiere
-4.824587	(al
-3.9109507	igual
-4.0661736	podría
-5.499694	derivar
-4.5439825	árabe
-4.0232606	cuyo
-4.571059	significado
-3.8664258	sería
-3.3878	otras
-5.022833	sugieren
-4.494887	deriva
-3.9106872	término
-5.5506315	significaría
-4.439028	cubierta
-3.0101316	ha
-4.812904	propuesto
-5.822231	baroja
-5.8538733	ejemplo)
-4.56448	vasco
-5.3699956	término,
-4.7856345	quizás
-4.6313696	relacionado
-6.318322	decir;
-4.551752	tierra,
-4.058945	país.
-3.5560637	otro
-4.415589	lado,
-4.807137	etimología
-3.8349633	popular
-4.565003	afirma
-5.5326123	carlomagno
-3.1931472	había
-3.8914597	nombrado
-3.5587502	región
-4.071795	referencia
-3.9517736	valle
-5.502361	bíblico
-6.3011546	endor
-3.0199406	donde
-3.7751255	habían
-3.340231	sido
-5.784385	derrotados.
-4.7250347	símbolos
-4.256939	escudo
-3.5646193	casa
-4.1152964	armas
-4.8893394	lema
-5.7289815	virtus
-6.1239457	unita
-3.5052376	cuatro
-5.3336306	cuarteles
-5.194026	(dos
-3.3814104	cada
-3.184892	primer
-4.730742	cuartel
-6.213512	(superior
-4.747495	izquierdo
-3.9848523	vista
-5.5928664	gules,
-5.707007	mitra
-5.9434023	báculo
-3.8315158	oro
-5.3584676	seo
-3.5640736	segundo
-3.8437715	derecho
-4.484395	ojos
-4.6164246	oro,
-3.2600253	tres
-5.22571	palos
-5.53794	gules
-4.6330905	(del
-3.7203138	condado
-3.9207242	tercer
-5.079517	(según
-3.8302925	ley
-6.246478	cataluña).
-4.0989304	cuarto
-2.934518	dos
-5.503185	vacas
-5.2823606	puestas
-4.960948	palo
-5.7883425	vizcondado
-4.0680013	bandera
-6.1469293	andorrana
-5.317739	balcón
-4.7963133	adoptó
-5.1932178	1866
-5.565605	tricolor
-5.539506	vertical,
-4.8581786	azul,
-4.6512327	amarillo
-4.824889	rojo,
-4.7992387	franja
-5.0012097	amarilla
-4.608785	ligeramente
-5.166962	dos.
-3.476942	centro
-3.9734037	muestra
-6.078223	diferenciarla
-5.0362725	banderas
-5.8205147	chad,
-5.4473476	moldavia
-5.737385	rumanía.
-4.7308116	himno
-4.3965163	letra
-6.0036397	himno,
-4.3304286	titulado
-3.1372545	gran
-3.4400063	(en
-5.1878977	castellano,
-4.0700574	escribió
-4.532649	joan
-6.2985725	benlloch
-3.5765624	i
-6.2533827	vivó
-3.6051269	música
-2.4363637	fue
-4.3202705	compuesta
-5.433783	enric
-4.7539845	1914
-4.341995	interpretó
-3.0686321	primera
-3.3257906	vez
-3.363174	8
-3.473998	septiembre
-5.3043604	1921.
-3.212127	historia
-5.3936925	gobernada
-3.8104193	acuerdo
-4.865619	remonta
-4.2523556	tradición
-5.913758	carlomagno,
-4.827709	monarca
-5.011654	sacro
-3.9998338	imperio
-4.3805256	romano
-5.3200316	germánico
-4.7214756	concedió
-4.148451	independencia
-2.9192064	este
-3.9218092	cambio
-4.023752	lucha
-3.338664	contra
-6.036859	al-ándalus.
-4.707854	acabar
-6.119662	pugnas
-3.6850348	poder
-6.1731215	1278
-4.288777	estableció
-4.2560163	régimen
-3.7662053	mediante
-3.263483	cual
-4.056211	conde
-5.800845	foix
-5.5936275	compartieron
-3.3920252	ese
-5.0176115	territorio.
-4.294541	siglos
-3.1435914	después
-3.4649458	luego
-4.095917	revolución
-4.1865997	francesa
-2.6411002	-
-6.23299	1799)
-5.2179437	heredera
-4.7691975	renunció
-2.6955929	sus
-3.9677305	derechos
-5.7473984	feudales
-2.9749026	sobre
-4.836237	napoleón
-5.339814	bonaparte
-4.005198	volvió
-4.797408	aceptar
-4.7998915	soberanía
-5.453924	1806
-4.7230806	petición
-4.864102	expresa
-5.728635	temían
-5.3258862	hegemonía
-4.4766264	española.
-5.2649813	prehistoria
-3.9870455	periodo
-4.2263055	pequeños
-3.8403792	grupos
-4.2760415	humanos
-5.3782673	asentaron
-5.510462	gruta
-5.10513	próximas
-3.2546978	otros
-3.7900207	puntos
-6.161702	pal,
-6.1635847	massana
-3.2207325	5
-3.4764416	junio
-3.9052415	2001
-4.3736014	encontró
-5.5245247	sarcófago
-5.046957	fabricado
-5.716674	losas
-5.563705	pizarra
-4.8553395	contenía
-4.1111298	restos
-4.857292	humanos,
-6.046837	brazaletes
-5.610982	recipientes
-4.762104	cerámica
-5.406209	alimentos.
-3.475247	debido
-5.402596	fertilidad
-5.239869	tierras,
-3.4866235	estos
-6.016221	cultivaron
-4.745653	establecieron
-5.8438196	definitivamente,
-4.8048186	recibiendo
-4.1561527	pueblos
-4.5518446	pasaron
-5.0307493	territorio,
-3.8476415	cultura
-4.193841	bronce
-5.796367	beneficiarse
-5.02018	metales
-4.2791076	escrita
-3.313665	encuentra
-3.9967778	descripción
-3.590461	hizo
-4.4794087	historiador
-4.356502	griego
-5.9428344	polibio
-3.903958	paso
-5.040444	aníbal
-5.879584	pirineos.
-4.8964705	v,
-6.189831	sucumbe
-5.9965186	visigodos,
-5.05335	ocupan
-5.5046306	galia
-4.88455	meridional
-3.0404313	parte
-5.878115	hispania.
-3.8007033	edad
-4.5230474	moderna
-3.567216	iglesia
-4.7717924	sant
-4.370978	construida
-4.6315637	xi
-3.7906837	estilo
-5.7746463	románico.
-3.0402784	san
-3.8089535	miguel
-5.4793177	trescientos
-3.058758	años
-4.086796	después,
-4.8656664	musulmanes
-6.1078873	conquistan
-6.178946	traspasando
-4.253967	frontera
-3.7299826	reino
-5.397717	franco.
-2.9292653	año
-3.5340095	carlos
-5.7380924	martel
-4.287044	derrota
-3.838559	batalla
-5.858054	tours,
-6.1969023	frenando
-4.470139	expansión
-3.426643	hacia
-4.2658954	norte,
-5.06786	continúan
-5.6502285	asentados
-3.8034072	posteriormente
-4.4984617	crea
-4.1417165	marca
-5.340806	hispánica
-4.7152157	sucesor
-3.5754166	luis
-5.938881	piadoso
-6.2533827	integra,
-6.206167	carolingio.
-4.570481	(los
-5.994597	de)
-4.792243	pasan
-5.8529496	urgel,
-3.0455432	ser
-5.7027426	cedidos
-5.0520344	calvo
-4.2563663	occidental
-4.906739	(actual
-5.50712	francia)
-6.3129673	sunifredo
-4.4767623	i,
-4.230489	sur,
-4.5473247	terrenos
-5.9739985	fértiles,
-3.9787142	zonas
-5.411686	montañosas
-4.8095098	dejaron
-3.7951958	tener
-3.994337	interés
-6.1848493	ermengol
-4.416534	vi
-5.4670043	cede
-3.4177797	todos
-4.4552455	bienes
-5.339814	adquiridos
-4.7985463	valles
-5.9560847	urgel.
-6.3129673	1095,
-5.1093554	obispado
-4.265824	protección
-4.6294904	militar,
-5.0235157	cedió
-4.9761786	políticos,
-4.2382154	militares
-5.2125254	judiciales
-5.2265816	conservó
-5.653131	transformando
-4.37786	dominio
-4.8530264	señorío
-5.883526	episcopal.
-6.283395	1185,
-4.6989937	contrajo
-4.085612	matrimonio
-5.493399	arnaldo
-4.5500035	roger
-4.5839767	bernardo
-3.7433808	ii
-6.302451	1208,
-4.701623	supuso
-5.4850144	feudal
-4.9359484	condes
-5.9428344	foix,
-4.0609064	quienes
-5.737385	irían
-5.0165343	aumentando
-6.280916	bearne,
-4.6394486	navarra
-4.1528645	tarde,
-4.3112187	francia.
-4.337762	consecuencia
-4.6470776	conflictos
-4.028668	iii
-3.7163887	pedro
-4.3892555	firma
-5.539506	lérida,
-4.9697924	fija
-4.4329343	límites
-5.4315042	señor,
-4.1611986	representa
-3.964468	fundación
-4.656131	define
-5.1295495	obligaciones
-4.443407	materia
-5.9180236	diezmo
-4.366515	asuntos
-4.9697323	militares,
-2.7468593	lo
-4.121613	formó
-3.6311088	esto
-2.9778483	le
-5.502979	preocupa
-4.246882	corona
-4.797327	aragón,
-3.2008085	ya
-3.0392196	era
-5.484619	vasallo
-5.112112	suyo
-3.435276	estaba
-3.5865514	dentro
-4.7855554	fronteras
-5.311727	corona.
-4.084486	diez
-3.769577	construcción
-5.5908437	fortificada
-4.216595	vicente
-4.197793	podía
-5.4182487	vigilar
-3.999879	actividades
-4.3820515	firmó
-5.636001	aspectos,
-5.0241995	nombrar
-4.1216216	ambas
-4.0726814	partes
-3.5841947	unos
-5.4785376	notario
-4.2554793	representación
-5.970961	principado.
-6.1317644	1396
-3.996136	martín
-5.0314445	humano,
-5.8561907	anexionó
-5.452454	devolvió
-3.153224	4
-4.893472	tarde.
-6.180905	1419
-4.184239	creó
-3.895069	consejo
-4.4555964	representantes
-4.0647135	objetivo
-4.7017536	defender
-4.567578	intereses
-4.943724	locales.
-3.3948982	nuevo
-3.877467	fernando
-4.7418504	católico
-6.1460223	1512,
-6.210349	albret
-5.9508514	reintegró
-3.7986872	tarde
-5.8041306	germana
-5.247469	esposa.
-4.16918	v
-5.523659	ratificó
-2.9971955	esta
-5.0264635	donación
-4.5490627	excepto
-4.2270036	(que
-5.767767	retenido
-2.9739182	hasta
-6.2522244	actualidad),
-5.0895023	agregado
-4.0145802	enrique
-4.1863313	iv
-6.057049	1607,
-3.6730545	hijo
-5.7342143	1620
-5.0230374	xiii,
-4.934944	declara
-4.0989795	unido
-5.320844	revolución,
-4.9879785	temporalmente
-5.038247	gobernó
-4.5197577	mismo,
-5.5089965	1814,
-3.128027	cuando
-5.36833	liberada
-4.2132616	inglaterra
-4.6349854	aliados
-5.8679686	formalizó
-5.9479713	condominio
-5.372888	reconocía
-4.968948	independencia,
-4.2968297	eso
-4.663673	serán
-3.5834599	rey
-4.6803694	actualidad,
-3.7076912	república
-6.141516	francesa).
-3.2727442	nueva
-4.336131	reforma
-3.31627	lugar
-4.463973	residencia
-5.6676393	guillem
-3.8390858	sociedad
-4.1132584	anterior
-4.5711555	xvii
-3.544342	solo
-4.8518286	existían
-4.239933	sociales
-3.2536218	eran
-4.2419167	casas
-4.758489	existentes
-4.355826	hacía
-4.003981	tenían
-4.228545	recursos
-4.710405	económicos
-5.013987	suficientes
-4.6757126	pagar
-4.8653817	impuesto
-5.8524885	consell
-3.34984	general
-5.3818383	parlamento,
-3.3125005	grupo
-5.5048375	pobres.
-3.4647815	vida
-3.7320065	política
-4.385183	únicamente
-4.4429226	podían
-4.309526	participar
-3.7748208	miembros
-4.5823903	pertenecientes
-5.5312905	(cuyo
-3.5003679	número
-5.4795127	179
-3.6224597	frente
-4.72686	600
-6.1406207	inició,
-5.127722	antón
-5.9990945	maestre,
-3.8644743	proceso
-4.8823233	nova
-5.4570646	reforma,
-3.9721029	participación
-4.65757	activa
-3.7199876	pueblo
-6.245338	andorrano
-3.769459	principales
-4.8745933	modificaciones
-4.8785386	fueron:
-4.6548133	voto
-4.1220155	cabeza
-4.6998687	familia.
-5.8900084	incompatibilidad
-3.7696266	cargo
-4.702764	consejero
-4.0697837	común
-4.4828577	duración
-4.4353967	cargos
-3.8795857	años.
-4.7850814	renovación
-5.2004476	consejeros
-5.402596	limitación
-5.5845814	parroquia.
-3.9602542	creación
-5.0287395	comisionado
-4.6417403	pueblo,
-4.853719	finalidad
-6.1460223	fiscalizar
-4.658247	controlar
-4.0162363	administración
-4.9176846	cuentas
-5.1852126	públicas.
-4.3593645	xx
-3.550998	18
-3.5017467	agosto
-3.4256535	9
-3.4529963	octubre
-5.051306	1933,
-5.270617	destacamento
-6.0326524	gendarmes
-4.5544815	franceses
-4.3942003	ocupó
-6.0291777	altercados
-4.9426455	producidos
-4.329211	conseguir
-5.149722	sufragio
-4.4717855	universal
-4.3923273	masculino
-4.034788	(el
-4.3214903	femenino
-5.210314	1970)
-5.098665	lucha,
-3.6910782	menos
-5.728635	general)
-5.4185877	paralelamente,
-4.9682255	obreros
-5.745593	construían
-4.142947	carretera
-4.7159553	vieja
-5.3104024	pas
-4.693367	casa,
-4.7281384	provenientes
-5.3038387	afiliados
-5.535046	cnt
-6.311639	fai,
-4.8259716	iniciaron
-4.88629	huelga
-5.8660626	reivindicar
-4.8367257	mejoras
-4.145772	condiciones
-4.7242107	trabajo.
-4.8158164	barón
-4.46588	ruso
-5.5510917	borís
-6.036155	autoproclamó
-3.2325232	nombre
-5.0667267	1934,
-5.4177403	depuesto
-4.157518	pocos
-3.761284	días
-4.7039084	después.
-3.920832	único
-4.143064	histórico
-5.9180236	dependió
-4.153712	ningún
-4.457485	estado,
-4.6368604	salvo
-5.2206244	anexión
-4.5477357	directa
-5.2164497	1812
-3.217015	fueron
-3.7556689	cuales
-5.7099843	orange,
-4.8228617	ciudadano
-3.7022738	llamado
-5.101354	boris
-5.2054048	coronó
-4.3652377	apenas
-4.2657046	nueve
-4.6658564	días,
-4.8666177	proclamó
-5.1020904	constitución,
-4.9721537	boletín
-3.4972734	varios
-5.6676393	decreto,
-3.4375303	además
-6.245338	declararle
-6.322382	copríncipe
-5.811197	episcopal,
-3.602517	ante
-4.453513	reinado
-3.3985627	julio
-5.2883534	comunicó
-6.202025	intervendría
-5.876164	andorra.
-5.3052745	tardó
-4.6624217	actuar
-3.906247	fuerza
-3.5292547	día
-3.6767745	21
-3.2951174	mismo
-5.039521	mes,
-5.1997294	pidiendo
-5.0277033	guardias
-4.560157	civiles
-4.8884373	sargento
-4.289974	españoles
-3.7339735	base
-5.4992847	acompañaron
-4.8450713	supuesto
-4.234979	hicieron
-4.2995305	nada
-6.318322	impedirlo,
-5.3403807	marchar
-4.790881	detenido
-4.5650263	mañana
-3.783434	siguiente
-4.8009543	trasladado
-3.989294	barcelona
-3.7112384	puesto
-4.6136236	disposición
-4.5494065	juez
-6.27114	reaparecería
-5.03249	1938,
-6.1344028	aix-en-provence,
-6.051184	reivindicando
-4.547599	trono
-4.2621984	autoridades
-4.957178	francesas
-5.007815	juzgado
-3.465006	marzo
-5.1525636	1938.
-4.8826194	1936,
-4.313051	motivo
-3.9939666	civil
-4.4669027	española,
-5.220517	repitió
-4.015659	presencia
-5.1344614	franceses,
-5.553863	comandados
-4.185735	nuevamente
-4.2357025	coronel
-4.7086473	rené
-4.868048	1940,
-5.3964252	rinde
-3.69145	ejército
-4.766921	alemán.
-5.1834316	consiguiente
-3.8389115	victoria
-4.829804	bando
-5.6293344	franquista,
-5.0871224	estallido
-4.4446306	invasión
-4.5285206	alemanes
-5.438909	hitler,
-4.095264	dejó
-4.404311	difícil
-6.151492	amparada
-5.7851734	vichy
-4.229291	dirigido
-4.7534337	mariscal
-3.4871736	tuvo
-6.1918397	simpatizar
-5.916419	forzosamente
-5.40015	regímenes
-4.8405194	hitler
-4.426407	franco
-4.2540946	mantener
-6.166424	neutralidad,
-4.914377	aprovechando
-3.997202	situación
-4.7663918	organizar
-4.791762	cadenas
-5.656933	evasión
-5.0848346	destinadas
-4.23597	pasar
-4.546891	judíos
-5.4355435	perseguidos
-6.176024	gestapo,
-3.3001637	así
-4.2302794	oficiales
-4.245319	soldados
-4.0909014	españa.
-4.293255	finalmente,
-4.9566507	1944,
-5.0891047	incursiones
-5.990145	maquis
-3.994369	españa,
-5.675539	gaulle
-4.472323	envió
-5.2021966	contingente
-4.1983953	evitar
-5.2014756	franquista
-4.3663044	vez,
-4.9452624	episcopal
-2.7551665	también
-5.2567205	civiles,
-3.5392492	tanto
-4.891199	españoles,
-4.993937	1945.
-3.5248199	14
-3.477719	enero
-4.270058	1982
-4.2688904	entró
-4.240552	funciones
-5.054816	presidido
-6.2960057	òscar
-5.68798	ribas
-3.826604	última
-3.6285448	fecha
-4.4150667	histórica
-4.6262484	1993,
-4.70029	aprobó
-5.06839	referéndum
-4.1869974	constitución
-4.4424562	historia,
-4.3938794	últimas
-5.708328	reminiscencias
-5.1631765	declarar
-4.5171947	estado.
-4.115347	entrada
-4.1785192	doctor
-4.1750674	ramón
-4.4792137	iglesias
-5.4498935	príncipe,
-5.1357865	1942.
-3.9592042	antigua
-3.7878194	sede
-5.058577	parlamentario
-4.632479	1993.
-4.645158	responsabilidad
-5.158676	jefatura
-5.5928664	recae
-4.159541	figura
-4.327296	español,
-4.561593	francés,
-4.8059764	heredero
-6.1645293	foix.
-4.511883	actuales
-3.0043058	son
-5.184717	emmanuel
-4.644044	representado
-4.6713786	patrick
-5.526913	vives
-4.7045636	josep
-3.5170877	maría
-3.7941148	actual
-5.1270275	antoni
-6.0115433	martí.
-5.2036424	internacionalmente
-3.6402075	varias
-5.6873493	organizaciones,
-4.966604	poseer
-4.8627787	diplomático
-3.7350588	países
-5.0058427	exterior.
-4.4344454	ejecutivo
-4.546595	órgano
-3.9712358	compuesto
-4.091093	ministerio
-5.6534224	variable.
-4.9362836	legislativo
-4.664958	placa
-4.3536577	parlamento
-4.8802547	antiguamente
-4.33515	denominado
-3.9652321	trata
-6.0418196	unicameral
-5.1736684	mixta
-3.2328937	nacional
-3.7470345	28
-4.8069296	elegidos
-4.590911	inaugurado
-4.305087	2011.
-3.5988677	entonces
-3.735657	partidos
-5.0977726	representados
-4.298641	general,
-3.9629679	resultados
-3.8299642	elecciones
-2.8604426	1
-3.6493483	2015
-4.2021623	son:
-3.3342834	partido
-4.8517365	escaños
-5.330849	demócratas
-4.2164674	per
-4.370887	37
-3.4866612	15
-4.523998	liberal
-6.3050566	27,7
-4.5810566	juntos
-6.1645293	23,5
-3.0491283	3
-3.9062	social
-4.6848884	progreso
-6.043247	11,7
-2.9649787	2
-4.664031	actualmente,
-5.6197915	gobierna
-6.0751343	centroderecha
-3.878498	obtuvo
-3.702995	mayoría
-5.5667973	absoluta.
-4.598419	judicial
-4.7857924	por:
-6.1406207	bailía
-5.380904	instancia,
-4.954139	delito
-4.358876	menores
-5.130597	penales
-5.91482	litigios
-5.632377	administrativos,
-4.3779993	tribunal
-4.943838	delitos
-4.1665125	mayores
-6.161702	apelación,
-5.440691	sentencias
-5.840669	dictadas
-3.9071972	superior
-4.2658715	justicia
-4.0945554	ocho
-5.4228506	magistrados
-5.228111	designados
-3.5441065	cuenta
-4.821229	competencias
-5.2030225	administrativos
-5.5941358	penales.
-6.006258	justicia:
-5.7558002	representación,
-4.9294624	vela
-4.220933	buen
-4.550831	funcionamiento
-5.132437	justicia.
-4.592149	constitucional
-4.5213456	encargado
-4.6927924	interpretar
-5.0223556	decidir
-5.5959187	adecuación
-4.8165793	restantes
-5.451721	esta.
-4.655223	compone
-6.224225	magistrados.
-4.136297	pública
-4.5142026	comunes
-4.7536907	órganos
-5.835764	parroquias.
-5.482648	corporaciones
-4.496813	públicas
-4.644415	personalidad
-4.9539065	jurídica
-5.519144	potestad
-5.1739583	normativa
-4.7251377	local.
-5.482255	encargan
-5.2774286	aprobar
-4.985092	ejecutar
-4.7267566	presupuesto
-5.8747063	comunal,
-5.3035784	gestionar
-4.154561	propiedad
-5.3561096	comunal
-3.536371	pueden
-4.5831084	presentar
-4.262423	proyectos
-5.393052	eligen
-3.1810236	e
-4.211499	incluyen
-4.915122	cónsul
-4.5441413	mayor,
-6.116265	comunales.
-5.45503	revisiones
-5.2865973	médicas
-4.5384464	realizan
-5.773108	inmigrantes,
-4.521002	establece
-5.0180163	autorización
-3.6498046	trabajo
-4.659723	aquellas
-3.491417	personas
-5.7613688	alcoholismo
-4.192457	u
-4.581328	enfermedades
-5.5589905	susceptibles
-5.9037905	cuarentena
-5.44248	definidas
-4.946119	reglamento
-5.463603	sanitario
-3.5299075	internacional
-3.8836908	organización
-4.8367257	salud,
-5.156536	alteraciones
-4.703974	graves
-6.0607553	representen
-4.5749817	peligro
-3.6198058	orden
-4.0766864	seguridad
-5.1020083	públicas,
-5.863692	infecciosas
-4.1785293	salud
-5.583588	hepatitis
-5.8103595	sida,
-4.8854938	crónicas
-5.256487	incapacidad
-4.910673	laboral
-6.0082326	sordera
-4.7306724	físicas
-6.1451173	psíquicas
-3.6091816	tipo
-6.260399	solicitado.
-5.9006896	garantizan
-6.306365	(defensor
-6.1769958	pueblo),
-4.3382273	institución
-4.2280197	misión
-5.4047275	velar
-4.914271	cumplimiento
-4.3567963	aplicación
-5.238074	libertades
-5.3008523	recogidos
-4.274809	actuación
-4.843308	pública,
-4.1970687	sentido
-5.4615374	amplio,
-3.882193	principios
-4.899747	fundamentales
-3.973824	defensa
-5.105295	establecidos
-5.289865	constitución.
-4.589827	divide
-5.971567	territorialmente
-3.7248929	nivel
-6.3210244	político-administrativo
-4.446364	aun
-4.1753287	así,
-3.5466194	hay
-5.6208715	subdivisiones
-4.918113	parroquias
-4.721237	julián
-6.2114005	loria
-5.1071963	dividen
-6.27114	(cuartos
-4.2919855	parroquia
-4.9380755	toman
-6.2998614	protocolario
-4.772558	es:
-5.305405	fronteriza
-5.0214705	poblada
-3.0973952	ciudad
-3.6039734	principal
-5.454477	reciente,
-4.7359962	haberse
-4.8481627	1978.
-3.8119698	geografía
-4.3876247	mapa
-5.4777594	topográfico
-3.9910784	imagen
-4.7243137	satélite
-4.535305	sitúa
-4.307445	península
-5.3329334	ibérica.
-3.7837682	superficie
-6.18386	englobada
-5.282857	ibérica,
-4.77858	relieve
-5.899661	montañoso,
-4.532076	65
-5.0489807	picos
-5.122456	altitud.
-4.338354	montaña
-3.905023	alta
-4.484	pico
-3.8464627	que,
-4.588746	cordillera
-5.6482086	enclavado
-6.1524105	escarpados
-5.7528596	montañosos
-5.3738055	estrechos
-5.7723413	fluyen
-4.1280923	numerosos
-4.6171746	cursos
-3.783269	agua
-4.911834	unen
-4.116124	formar
-3.4070663	río
-5.264267	principales:
-6.319671	valira
-4.429632	oriente
-3.6176617	grandes
-5.197072	extensiones
-5.6447673	boscosas
-4.8556643	pino
-5.9807568	abedul
-4.150432	clima
-4.741708	mediterráneo
-5.355816	goza
-4.334059	2004,
-4.5481014	declarado
-4.2582507	patrimonio
-4.7227387	humanidad
-5.4320292	unesco.
-5.6407866	oceánico
-5.100619	montaña,
-4.6593094	temperaturas
-4.4601283	invierno
-5.2049894	frías
-4.868574	verano,
-5.9643526	suaves.
-4.600581	producen
-4.8195596	variaciones
-4.6383777	dependiendo
-6.0844674	orientación.
-4.5775924	porcentaje
-4.7612815	elevado
-6.1012993	soleados
-4.031136	algo
-5.8016644	húmedo.
-5.3627734	mínimas
-4.9026337	anuales
-5.1865034	máximas
-5.0014696	precipitaciones
-4.950255	abundantes
-4.7315087	otoño
-3.397454	mientras
-5.0227647	son,
-4.6335077	todo,
-5.55782	nieve.
-4.5639815	caracteriza
-5.162517	cumbres
-4.333082	materiales
-6.303752	paleozoico,
-5.6700544	elevan
-4.394393	encima
-5.7477603	2600
-4.843624	msnm
-4.5957828	llegan
-4.181645	máximo
-5.2637916	coma
-6.178946	pedrosa,
-3.7334547	cerca
-5.476594	pla
-3.9491806	actividad
-4.5837536	humana
-4.83766	centra
-5.2349496	transversal
-3.6228044	partir
-3.798374	puerto
-5.2251663	msnm,
-5.0278416	desciende
-5.85019	840
-4.5684633	entra
-4.655223	vegetación
-4.4125996	bosques
-6.2522244	2/5
-5.02957	distribuidos
-4.9201546	pisos
-5.1870008	1200
-4.71488	metros,
-4.340858	destacan
-5.501333	encina
-5.2892346	predomina
-5.691147	abunda
-4.661827	negro,
-4.761992	sustituido
-5.4628506	prados
-6.2947283	alpinos.
-4.339654	bosque
-4.853119	masas
-5.3420844	forestales
-3.8755577	importantes
-4.4954133	flor
-4.8003817	típica
-5.203539	hidrografía
-3.7479682	estación
-4.96487	esquí
-5.2827325	cruzado
-4.22732	ríos
-5.2639103	principales.
-4.5256014	nace
-4.847707	oriental,
-4.3519516	recorrido
-3.7015114	23
-3.8504717	km
-4.239113	pasa
-3.9651783	ciudades
-6.297287	confluyendo
-4.7268944	lagos
-6.0876236	confluir
-3.8033414	ambos
-6.014879	11,6
-4.9008784	caudal
-4.4136386	anual
-3.648057	medio
-3.5167875	13
-6.0868325	m/s.
-4.6867723	último,
-4.5627737	descenso
-4.7993608	acaba
-5.803307	desembocando
-6.005602	segre
-4.9249744	afluente
-5.5284405	ebro.
-4.206816	60
-5.44248	lago.
-5.267131	representativos
-4.168779	lago
-4.8082595	extensa
-4.877952	hectáreas
-5.7506666	estival
-5.474852	consecuente
-4.193871	falta
-4.5664554	agua,
-3.3038445	puede
-5.0414395	diferentes,
-4.2169685	realidad
-5.3702993	hectáreas,
-5.3975554	estanque
-3.3486826	7
-3.754189	demografía
-5.4343104	fronterizo
-3.6641915	2014
-4.223665	habitantes.
-3.6709497	2008
-4.0892687	habitantes,
-5.62686	portugueses,
-6.0319552	nacionalidades.
-5.4024324	voluntaria
-4.090997	carácter
-6.2188354	restrictivo
-4.8541813	adquirir
-5.821801	nacionalidad,
-4.52671	1998,
-3.9020066	información
-3.5739653	sólo
-4.1610956	nacido
-4.4876056	ciudadanos
-5.214112	crecido
-5.08084	significativamente
-3.9674182	últimos
-5.4367805	años:
-5.251608	representaban
-6.3210244	24,5%
-6.10955	relativa.
-4.796962	contrario,
-4.9073663	absoluto
-3.6843457	2007
-4.1070447	respecto
-5.475432	disminuido
-3.8844988	hoy
-4.7401395	constituyen
-5.030541	minoría
-4.1752224	país,
-3.3180258	junto
-5.100374	portugueses
-5.172319	conjunto,
-5.120316	disponen
-5.9601994	mayoritarios
-3.7070906	tienen
-6.006915	comunales,
-3.867245	ni
-4.556435	tampoco
-6.186835	presidentes.
-4.1648445	cuanto
-5.3542037	vieja,
-4.174071	2008,
-4.912045	seguida
-6.1969023	encamp
-3.4255104	siendo
-6.027106	poblada.
-4.583059	tasa
-4.225108	crecimiento
-5.324654	demográfico
-3.2157474	estados
-6.2545443	europeos;
-5.639374	estimaba
-6.112056	1,9%
-5.534602	anual.
-5.209055	debida
-6.168327	natalidad,
-4.972761	estimada
-4.83011	1.000
-5.1749253	mortalidad
-6.028486	altísima
-5.7275968	neta
-5.01172	migración
-5.6057286	migrantes
-4.508906	llegado
-6.166424	7,7%
-4.3946013	2003,
-6.1702385	6,3%
-5.880075	elevada.
-4.569471	esperanza
-4.305113	mundo,
-3.8616552	hombres
-5.8845167	mujeres).
-6.1103835	1,32
-4.1319427	hijos
-5.019977	mujer.
-5.0891047	pirámide
-5.9142885	edades,
-6.3129673	15,5%
-3.7909358	años,
-4.5809083	64
-5.6320996	12%
-4.7457614	residentes
-4.7920423	idiomas
-4.793649	gráfico
-4.290189	lenguas
-6.224225	maternas
-5.2352834	catalán,
-4.952976	oficial.
-4.94492	lingüística
-3.6293654	resultado
-4.7316484	transformación
-4.670317	demográfica
-5.1488094	vivido
-4.053516	mitad
-5.847449	xx:
-4.502786	1940
-5.1459923	extranjeras
-4.1745834	1989
-3.7898812	alrededor
-4.2327833	suele
-5.538834	obviamente
-4.526928	recientemente
-5.005711	habido
-4.699285	incremento
-4.99432	significativo
-4.3348417	habla
-5.5304112	portuguesa.
-3.783493	servicio
-4.0905905	lengua
-5.227892	materna
-6.0667515	utiliza.
-5.1671524	extendida
-3.7526886	pesar
-5.5747466	nacionalidades
-5.4617248	portuguesa,
-4.356502	declaró
-5.737385	materna.
-3.7860796	estudio
-4.3285074	producido
-5.1543145	deterioro
-3.7444036	posición
-4.848665	catalana
-4.180682	favor
-4.2507267	español.
-6.1918397	alfabetización,
-4.9368987	100%
-5.3542037	saben
-4.818493	leer
-5.6584044	escribir.
-4.433531	ocupa
-4.9082036	proporción
-5.3824625	catalán.
-4.5339084	observatorio
-3.8214977	instituto
-3.6871018	estudios
-4.6040263	usos
-5.614964	lingüísticos
-4.6294355	siguientes:
-4.5763702	habitual
-3.7836108	%
-4.7659006	portugués
-5.2420106	3,5
-5.7812448	5,4
-5.577674	2,2
-5.4311547	5,5
-5.353035	0,5
-3.9643667	+
-6.034751	hispanohablantes
-3.622004	censo
-3.8001106	2004
-3.772787	2005
-3.6655827	2009
-4.487248	religión
-4.1868286	ninguna
-4.910094	oficial,
-3.6394339	hace
-4.6551933	mención
-5.5471954	explícita
-4.8855433	católica,
-5.3978786	garantiza
-4.0034914	"el
-4.6482277	ejercicio
-3.9960654	libre
-3.9356782	público
-4.6046505	mantenimiento
-3.9885747	relaciones
-4.243989	colaboración
-3.9440694	especial
-4.175911	libertad
-5.326023	religiosa.
-5.536602	nótese
-3.2400303	uno
-4.548147	celebración
-4.6146617	religiosa
-4.6803074	septiembre,
-4.10091	virgen
-6.2274914	meritxell
-4.225935	fiesta
-4.2388544	nacional.
-4.6773415	estima
-4.87537	95
-5.792738	profesa
-5.1019263	denominaciones
-5.2859716	catolicismo
-6.154253	protestantismo,
-6.316977	mormonismo
-5.025776	testigos
-6.1938577	jehová.
-5.1071963	religiones
-5.4057145	practican
-5.06839	islam
-5.567753	—por
-3.7254806	2000
-4.732382	inmigrantes
-6.2896547	norteafricanos
-6.19487	hinduismo.
-4.0340176	economía
-3.752286	miembro
-4.683075	pleno
-3.6970778	unión
-4.332344	europea
-4.729178	pero,
-4.5128937	1990,
-3.840868	relación
-3.3936243	si
-3.6163836	ella
-4.197099	comercio
-5.978287	manufacturados
-5.1137905	ue
-4.1482143	productos
-5.515311	agrícolas.
-4.719877	tradicionalmente
-4.7179456	agrícola
-5.659585	ganadero
-5.3410897	aunque,
-3.8137956	década
-5.2996893	50,
-4.075345	sector
-5.1944313	primario
-4.707491	ido
-4.710837	perdiendo
-5.2986584	importancia.
-3.7211237	producción
-5.600538	limitada,
-5.4143662	2%
-3.6533067	tierra
-5.241672	tabaco
-3.7445545	casi
-4.6171474	totalidad
-5.166582	campos,
-5.500308	ganadera
-5.3781123	crianza
-5.9377575	bovina
-4.930509	basadas
-4.605485	explotación
-4.811141	secundario
-5.327947	predominan
-4.815647	industrias
-5.1678185	puro
-5.9697523	primarias.
-3.7372587	actualmente
-5.5359344	terciario
-5.9566703	representa,
-6.151492	estimaciones,
-5.2160234	80%
-5.1137066	pib
-5.762491	sostén
-3.7715118	millones
-5.3986883	visitan
-5.7613688	anualmente,
-6.0844674	atraídas
-4.405018	estaciones
-5.266772	diferencial
-4.789763	precios
-5.188397	vecinos,
-3.7139802	último
-5.9479713	erosionado
-5.424224	economías
-5.294686	abierto,
-5.3759537	proporcionando
-5.1791086	disponibilidad
-4.416787	amplia
-5.406539	tarifas
-5.3278093	bajas.
-4.273677	2005,
-3.830643	recibió
-4.7967997	visitantes
-5.000043	turistas
-6.3129673	excursionistas.
-5.6200614	visitantes,
-6.2009954	3,0%
-5.232621	venían
-4.738364	países.
-5.6312685	financiero,
-4.6460447	entidades
-5.6685433	bancarias
-3.9486053	asociación
-4.8172164	bancos
-4.175135	federación
-5.454477	bancaria
-4.9703965	europea,
-5.207905	contribuye
-5.490386	sustancialmente
-3.9468265	gracias
-4.593137	secreto
-6.11542	bancario.
-4.382817	presión
-5.514887	ejercida
-4.888287	nicolas
-6.212455	sarkozy,
-5.4451776	amenazó
-5.678616	dimitir
-5.2683296	continuaba
-4.361844	considerada
-4.1769505	2009,
-4.5332894	declaración
-4.151211	parís
-5.475045	para,
-4.7488723	cumbre
-5.5520134	londinense
-4.3858433	dejar
-4.069799	considerado
-4.676173	fiscal
-6.2663336	ocde.
-4.462225	momento,
-4.711336	firmado
-4.815055	tratados
-4.6979594	intercambio
-4.8584585	austria,
-5.673703	mónaco,
-5.9789033	liechtenstein,
-5.4053855	marino,
-4.9517584	bélgica,
-4.2011533	argentina,
-4.957765	bajos,
-4.399056	portugal
-3.0593238	sin
-3.5172687	embargo,
-4.8412375	foro
-4.429963	global
-5.374878	transparencia
-6.09481	tributaria,
-5.741648	auspiciado
-5.9310794	avalado
-4.649612	agentes
-4.416973	organizaciones
-6.125671	sindicales.
-3.4898524	diciembre
-6.0659976	asalariados
-3.293686	**
-5.872771	sat
-5.912698	usda
-5.323426	empresariales
-5.783598	cea
-4.666757	moneda
-4.963916	históricamente
-4.504024	introducción
-5.1185265	euro
-5.845177	peseta
-5.156629	facto
-4.7766023	monedas
-4.9791293	usadas
-4.9947033	allí.
-4.423445	2002,
-5.85019	convirtió,
-5.8930335	facto,
-3.6180992	2011
-5.3868566	monetario
-5.2555532	permitiría
-4.378169	usar
-3.77281	manera
-5.8515677	acuñar
-4.4583583	propias
-4.374582	2013.
-5.2714624	dependía
-5.6031256	ratificación
-4.5412507	sucedió
-3.492355	abril
-4.17889	2012,
-3.787879	momento
-5.928327	vigor.
-3.638991	2012
-4.5529065	emisión
-4.201308	2014,
-3.8525684	finalmente
-4.925628	emitida
-4.7795143	serie.
-5.4341345	emitía
-5.0958314	denominadas
-4.3083525	curso
-4.6109467	legal
-3.8577895	sino
-4.215531	fines
-6.318322	coleccionismo.
-3.6216435	estas
-5.0872808	podrán
-4.387862	seguir
-5.0282555	supervisión
-4.2303014	demás
-5.234394	financieras
-4.425975	corresponde
-5.614165	finanzas,
-4.737833	1989.
-4.705121	infraestructura
-4.8669987	transportes
-4.947493	comunica
-4.3590093	exterior
-4.4383345	vías
-5.604946	terrestres.
-4.5902805	dispone
-4.4751935	tren
-4.8000546	(aunque
-4.053055	existe
-3.7940705	proyecto
-3.6340332	línea
-4.72531	ferroviaria
-5.6318226	conectando
-5.8594565	francés),
-4.3375225	metro
-3.9782152	aeropuerto
-3.9759927	apoyo
-4.8385515	beneficio
-4.2582626	bastante
-4.8946385	cubrir
-3.3432477	mayor
-3.6151116	están
-3.5771513	obras
-5.149266	infraestructuras
-6.3050566	viarias
-5.124434	como,
-4.066136	ejemplo,
-4.7477846	ampliación
-5.390659	carriles
-4.7093096	carreteras
-5.191504	principales,
-4.9856553	supresión
-4.7763705	negros
-3.905611	red
-6.0354524	viaria
-5.9971614	túneles,
-4.8762937	iniciado
-4.0648937	trabajos
-4.8142524	túnel
-4.0287714	posible
-4.6584535	acceder
-4.148032	líneas
-4.950601	regulares
-5.8679686	autobús,
-5.361135	conectan
-4.4532375	prácticamente
-3.7382565	cualquier
-3.7428792	punto
-3.8814142	europa
-5.999741	helipuerto
-5.0842056	accesos
-4.604286	mar,
-6.210349	navegable.
-5.1269407	telecomunicaciones
-4.9240494	emisora
-3.8835573	radio
-4.176785	comercial
-5.0231056	emitir
-5.927231	ràdio
-3.8050153	estuvo
-4.5317893	activo
-4.5996532	1939
-4.853534	1981.
-3.4411452	12
-4.668232	1989,
-3.7316716	televisión
-3.903046	servicios
-4.556575	públicos
-5.220517	esenciales
-4.163126	crear
-4.497341	entidad
-5.700139	gestora
-6.1326423	orta
-6.2274914	convirtiéndose,
-4.309117	2000,
-6.078223	televisió
-4.7682858	s.a.
-4.083889	1990
-4.25312	fundó
-5.583092	operaban
-5.0997224	emisoras
-4.807968	fm
-5.030541	aparatos
-4.0287094	1997
-3.8677125	canal
-5.804543	autóctono
-4.188074	cadena
-4.307314	creada
-4.5940256	1995,
-5.1872	promueve
-4.5154734	canales
-4.180761	internacionales
-3.9681635	primeras
-4.8504963	emisiones
-6.11542	analógicas
-4.7079864	españolas
-5.6138988	tv3
-4.8616943	france
-5.1593294	posteriores,
-3.8769157	aún
-5.595154	emitiendo
-6.2145715	analógico,
-5.439977	introduciendo
-5.645053	33,
-4.8108478	antena
-4.180114	llegada
-6.197922	tdt,
-3.6320148	25
-4.1830926	2007,
-4.653704	oferta
-4.969129	televisiva
-5.021947	amplió
-5.377649	cuatro,
-5.795154	telecinco,
-5.9332943	sexta,
-6.112056	nrj
-5.119463	12,
-4.730116	portuguesa
-3.6771312	estadounidense
-5.4820585	cnn
-5.514675	international,
-4.385324	británica
-4.7372317	bbc
-3.9716601	world
-4.968767	arte.
-4.9254646	emite
-6.2374396	tdt.
-5.215492	proveedor
-5.216663	telefonía
-5.7670097	fija,
-4.8690047	móvil
-4.4196353	internet
-6.2896547	telecom.
-5.211471	telefónica
-4.8949437	conexiones
-3.0690417	enlaces
-5.7859635	microondas
-4.7233543	centrales
-4.9357805	locales,
-5.001664	circuitos
-5.049198	terrestres
-4.594331	comunicaciones
-4.8498087	internacionales.
-5.6854634	telecom
-4.1765714	actualidad
-4.913899	internacionales,
-6.204091	télécom
-4.3614273	international
-5.529753	services
-3.5153348	2010
-4.76802	cubre
-4.7545357	hogares
-5.1329646	ofreciendo
-3.9130065	100
-6.230782	mbps
-3.8677697	además,
-5.522149	pretenden
-4.3438907	utilizar
-4.93073	cobre
-4.413907	2015.
-4.84034	correo
-5.665237	atendido
-4.277829	estatal
-5.1614833	correos
-5.8594565	telégrafos
-4.884203	(españa)
-5.1151385	1928,
-5.6767673	poste
-5.3017592	(francia)
-5.2646236	introdujeron
-5.052838	códigos
-5.517649	postales
-5.9479713	parroquias:
-4.140588	biblioteca
-4.633452	archivos
-4.063948	nacionales
-4.967805	creados
-4.3851514	1974
-4.358891	1975
-4.9624295	respectivamente,
-5.277551	localizan
-4.8958592	capital.
-3.9842153	existen
-6.2188354	museo:
-6.2909174	rull
-6.2522244	farga
-6.130015	rossell
-4.3462687	interpretación
-5.231076	románica
-3.7371068	museo
-5.639374	maquetas
-3.7974513	arte
-5.1725116	románico
-5.6519675	perfume
-5.7007885	miniaturas
-5.1066995	postal
-4.7851605	automóvil
-4.168025	sección
-4.4305205	dedicada
-6.1570315	filatelia
-6.2156334	numismática,
-3.9024665	educación
-5.6758456	conviven
-4.102235	sistemas
-5.1682	educativos
-4.286217	centros
-5.294303	primaria,
-4.5208945	secundaria
-3.9192383	formación
-5.993958	profesional:
-4.8632507	dependiente
-4.8215294	educación,
-5.349692	juventud.
-4.6690164	francés.
-4.9812937	añadir
-4.2488403	existencia
-5.5762076	rigen
-4.9756885	mayoritariamente
-5.601571	imparten
-4.3123465	clases
-4.6670275	también,
-3.7352066	uso
-4.842857	escolar
-6.104581	2005-2006,
-3.8910618	estaban
-5.4367805	inscritos
-5.45503	alumnos,
-3.328128	universidad
-5.542656	firmados
-5.381371	convenios
-4.555341	universidades
-5.6271343	francesas.
-3.6838768	escuela
-5.9428344	enfermería.
-5.3799715	imparte
-3.5320199	carrera
-5.022833	informática
-5.723126	gestión.
-4.3689904	carreras
-5.231517	empresas,
-4.039973	ciencias
-5.7658753	informática.
-6.083682	virtuales.
-5.621683	asignaturas
-6.083682	virtuales,
-5.8465385	ciclo,
-5.4081926	postgrado
-6.18386	actualización.
-4.4744015	enseñanza
-3.9419124	profesional
-3.9538054	meses
-4.152239	verano
-4.87761	organiza
-3.9833298	honor
-3.359077	juan
-6.230782	goytisolo
-4.217043	2006,
-3.3588138	josé
-4.1690745	arquitectura
-4.60265	monumentos
-6.322382	románicos.
-3.4908955	santa
-5.9473977	coloma,
-4.6417403	ix
-3.8909962	x
-6.1230855	d.c
-4.4581537	pocas
-5.81414	románicas
-3.6043272	mundo
-5.153208	campanario
-5.91164	cilíndrico,
-5.3071084	fechado
-5.234394	xii.
-4.1222386	literatura
-4.5077167	orígenes
-4.8439856	xviii.
-3.761228	libro
-4.7853975	costumbres
-4.7394285	manual
-5.883526	digest
-5.6634445	valls
-6.161702	1748.
-3.5046911	obra
-4.098175	contiene
-4.4509645	documentos
-5.5098333	ludovico
-6.1062307	pío.
-3.9456885	original
-4.459196	conserva
-4.800259	copia
-5.6581097	armario
-5.235617	llaves
-5.6162996	vall
-3.6150236	otra
-4.3467145	posteriormente,
-5.923416	1763,
-5.11573	párroco
-5.263079	puig
-5.0943007	describen
-5.106948	privilegios
-5.3892293	atribuciones
-5.5860763	autoridades.
-4.3084316	poeta
-5.031514	jacinto
-5.9952364	verdaguer
-4.1505694	parte,
-4.316123	publicada
-5.5087876	1886.
-4.252599	autores
-4.849122	contemporánea
-5.2251663	citar
-6.0189166	morell
-5.3719726	mora,
-4.5358157	albert
-6.3129673	miras,
-4.5000963	teresa
-5.904829	colom
-6.0548406	boix
-4.8171315	participando
-3.446937	algunos
-4.532362	escritores
-3.7651675	edición
-4.5768585	feria
-6.0876236	fráncfort.
-5.2541566	editoriales
-5.9649496	catalanas,
-5.460602	convoca
-4.8885374	anualmente
-3.5358129	premio
-5.242689	ramon
-6.2545443	llull.
-4.101531	fuente
-4.7431026	representando
-4.625155	baile
-4.2562847	evento
-3.7065766	importante
-4.023322	cultural
-3.8876204	festival
-4.5369062	jazz
-4.640296	celebrado
-4.10917	mes
-4.647049	julio,
-5.1172533	intérpretes
-4.446762	miles
-5.2656965	davis,
-6.0988545	fats
-5.7528596	domino
-6.071304	b.b.
-4.4816594	king
-6.26873	participado.
-4.9530344	auditorio
-3.7233498	ubicado
-4.4334607	celebra
-5.2931576	narciso
-6.1878314	yepes,
-4.3997054	dedicado
-4.614822	clásica
-5.341516	jazz.
-4.7516766	capital,
-4.9440656	noches
-4.8181095	jueves
-4.657335	agosto,
-4.1636825	realiza
-4.920316	rock,
-4.292899	locales
-4.837838	ofrecen
-4.404508	conciertos
-5.838879	asistente.
-4.9152284	centre
-6.2557087	organiza,
-4.4851856	1999,
-5.308028	carles
-5.994597	sabater
-5.614964	eligiendo
-3.3995051	mejor
-3.6097345	canción
-4.11325	año.
-4.2170324	orquesta
-4.1005836	cámara
-4.0629144	dirigida
-4.236896	fundada
-4.1014414	1992
-5.2595353	violinista
-5.26154	gerard
-6.2442007	claret,
-4.801036	certamen
-4.562963	canto
-4.4369693	fama
-4.593061	internacional,
-5.25883	montserrat
-6.2092996	caballé,
-3.7276323	haber
-5.183629	ofrecido
-4.6158895	bélgica
-4.996754	regularmente
-5.050505	ciclos
-3.9886818	palacio
-5.4334316	catalana.
-4.2748213	tradicional
-4.804117	relacionada
-4.2689624	regiones
-5.1221986	danzas
-3.8398373	características
-5.96079	recopiladas
-5.9142885	folclorista
-5.634883	palmira
-4.407029	1968
-5.732813	participó,
-3.7372375	da
-4.7194357	representada
-5.5323915	"le
-4.041252	des
-4.425406	1969
-4.653179	representar
-3.9798126	dicho
-4.116361	artista
-3.6483996	les
-6.078223	printemps
-4.1596537	du
-4.237421	1970
-3.9701407	cantante
-4.231469	rosa
-5.419097	morena
-3.9484386	tema
-5.428369	"como
-4.346542	(como
-4.8327885	cual,
-4.197844	crítica
-5.2649813	janeiro.
-4.890243	eurovisión
-4.743927	marta
-3.7780662	hecho
-5.1405015	atrajo
-4.2422557	atención
-3.8577662	medios
-4.175387	comunicación
-4.866047	cataluña,
-4.9975257	eliminada
-5.7587614	semifinal,
-4.797327	composiciones
-5.814562	(interpretada
-5.533938	marian
-3.8531356	van
-3.711878	2006
-5.330018	danesa
-5.8815503	susanne
-4.2876835	fiestas
-5.442301	festivos
-5.901721	obligatorio,
-5.597453	oficinas,
-4.974161	establecimientos
-6.2051277	bancarios,
-4.118456	transporte
-3.770198	distribución
-5.109439	mercancías
-4.4802685	relacionados
-4.281477	directamente
-5.3498363	turismo.
-4.6465034	castellano
-3.8188326	local
-5.396103	cap
-3.2605875	6
-5.9673443	epifanía
-5.4690957	dia
-5.763241	reis
-4.827753	variable
-4.5963955	viernes
-4.062234	santo
-4.6841373	lunes
-5.2798877	pascua
-3.44611	mayo
-4.384743	trabajadores
-5.779683	festa
-4.666547	asunción
-4.0955625	nuestra
-4.1765614	señora
-5.2913814	mare
-6.023675	déu
-3.4947891	noviembre
-4.2583327	santos
-6.1779695	tots
-5.96079	sants
-5.0001726	inmaculada
-4.387973	concepción
-4.8744965	navidad
-5.2264724	nadal
-3.7261174	26
-4.563792	esteban
-5.621683	esteve
-5.0612516	coincide
-5.642488	sábado,
-4.0697155	permite
-4.791121	abrir
-4.1801233	empresas
-4.999267	dedicadas
-5.0055146	comercio,
-5.2357287	origina
-4.859628	protestas
-5.980138	sindicato,
-4.7300463	asociaciones
-4.876002	o,
-4.4472876	deporte
-3.7251163	juegos
-5.38812	sede,
-4.1192217	1991
-4.4200096	europa,
-4.2437844	competición
-5.0537157	amparo
-5.2776737	coi
-4.600091	europeos
-4.7017207	millón
-4.323626	baloncesto
-3.4628832	temporada
-6.104581	1991-92,
-5.523227	básquet
-3.2882056	club
-4.5251894	consigue
-4.263538	ascenso
-3.5991993	liga
-5.8384323	acb,
-4.1673017	mano
-4.14755	entrenador
-5.8041306	edu
-5.3561096	torres.
-3.2743492	equipo
-5.122885	descendió
-4.25283	máxima
-3.7750945	categoría
-4.6057982	1996.
-5.876164	2014-15,
-4.2934713	vuelve
-5.5368247	acb.
-4.7794366	alcanzado
-4.3718762	cuartos
-3.4371316	final
-4.6428766	campañas
-5.6224966	1994-95
-5.895062	2016-17.
-4.1797314	deportes
-4.890193	perros
-5.7345657	tiro.
-6.322382	telesilla
-5.9826183	esquí.
-4.5247774	intentó
-4.1144867	olímpicos
-3.9000585	2010,
-4.5900035	clasificó
-4.546253	final.
-4.1507525	estudió
-4.677711	candidatura
-5.0113215	conjunta
-4.550739	zaragoza
-5.1916046	2018.
-5.379041	albergó
-4.5025806	etapas
-5.0340967	iniciada
-4.611687	1990.
-5.039734	dominios
-5.0475345	formados
-5.9366374	esquí,
-4.335332	complejo
-4.6372814	destinado
-5.286472	ocio
-5.0599866	practicar
-6.2051277	fondo:
-5.5210733	surgida
-4.55555	fusión
-5.6479206	roig
-4.3028975	pista
-3.943842	situada
-4.652161	alberga
-4.2762246	pruebas
-3.5042796	copa
-5.9857388	alpino.
-4.1597843	alianza
-3.574021	zona
-5.244845	cota
-6.322382	2160
-4.862873	mínima
-4.32023	1960
-4.669651	pistas
-6.2499166	marcadas,
-4.4936953	diferente
-5.8226604	dificultad.
-3.5389829	fútbol
-4.7642803	división,
-6.262763	supercopa,
-5.1303353	enfrentan
-3.791564	campeón
-5.488588	copa.
-4.1010165	ganador
-4.141179	juega
-4.032655	ronda
-4.791962	previa
-4.2901006	campeones
-5.4664354	uefa.
-5.0272207	juegan
-3.8085828	campo
-3.724855	selección
-5.34451	futbol
-4.515007	participa
-4.652394	competiciones
-5.1215987	oficiales,
-3.962006	nunca
-6.149661	eurocopa.
-3.9788744	estar
-5.2348385	inscrito
-3.5529382	real
-4.817514	fútbol.
-4.153518	sala
-4.7558618	dividida
-5.6031256	categorías,
-3.586679	división
-3.950559	fase
-4.5346174	uefa
-5.6260386	sala.
-5.419097	sala,
-5.063643	milita
-3.9960268	plata
-4.6381526	ciclismo
-6.186835	festina
-4.408353	cambió
-5.2031255	domicilio
-4.415471	2001,
-5.874222	desaparición,
-3.8641002	participó
-4.23094	ediciones
-4.084219	tour
-4.585594	giro
-3.972285	italia
-3.9702737	vuelta
-4.4939976	ciclista
-5.8674912	mauri
-5.018421	impulsó
-4.8417315	hockey
-5.592107	patines
-4.0226393	posee
-6.2009954	patines,
-4.9306197	compite
-3.5314562	campeonato
-3.9609873	b
-3.7713892	veces
-6.034751	a),
-4.324308	generación
-4.618087	divisiones
-5.56087	masculino.
-4.719843	jugado
-4.898208	montevideo,
-4.3462687	uruguay
-5.549942	macao
-4.597342	(2004)
-3.9972405	1998
-5.0465965	(ciudad
-5.75839	méxico).
-4.3079185	decir
-5.0868855	deportes.
-4.6256194	aparte
-5.7481227	ciclismo,
-3.2780547	muy
-4.487725	rugby
-4.854135	balonmano
-5.7765765	concordia,
-5.581361	natación,
-5.917488	judo,
-5.84563	gimnasia,
-4.8971343	voleibol
-3.616986	muchos
-4.6486597	más.
-5.0126524	deportistas
-4.1159463	futbolista
-4.8393106	originario
-4.372181	vivió
-5.1796956	cuantos
-3.4657867	antes
-4.3466854	ir
-5.685777	masía
-3.8298154	fc
-4.564385	barcelona.
-5.162517	bull
-3.7920008	new
-4.0025077	york
-4.0007014	jugó
-4.3043427	barcelona,
-3.8261437	madrid
-5.088866	zaragoza.
-5.5357122	cyril
-4.315427	piloto
-5.584333	motos
-4.5758824	rally
-4.8503585	vencedor
-4.832436	establecida
-4.7448254	marc
-5.3895464	girona
-5.8149843	f.c.,
-5.323426	ex-futbolista
-5.2637916	getafe
-4.637366	f.c.
-4.7505455	fútbol,
-3.98424	natural
-5.883526	rally,
-5.7180243	competido
-5.512353	asfalto
-4.5966	tierra.
-4.367902	inicios
-5.222781	joaquim
-4.1369	rodríguez
-5.1574655	dani
-5.774261	esquiador
-5.131035	tour,
-5.1191225	accedió
-4.4566507	circuito
-4.2100477	2013,
-3.8024204	jugador
-6.155177	quino
-6.1205153	unics
-6.1828723	kazan,
-4.4262686	river
-4.5071545	categorías
-5.4727325	inferiores.
-3.7428756	torneo
-4.527298	brasil.
-3.4394612	véase
-4.5349054	resolución
-6.0659976	848
-4.248003	naciones
-4.5052032	unidas
-2.8529038	referencias
-3.6838799	bibliografía
-3.0739326	externos
-4.7358556	portal
-5.5206437	catalán)
-3.934608	web
-4.9851546	francés)
-3.738129	argentina
-3.861514	conocida
-4.379222	simplemente
-3.8121672	américa
-4.28623	extremo
-4.757414	sudeste
-6.303752	subcontinente.
-5.216343	adopta
-5.4810777	republicana,
-5.475432	democrática,
-5.3742647	representativa
-5.0233107	federal.
-4.77252	organizada
-4.1159635	federal
-6.176024	descentralizado,
-4.577666	integrado
-5.361879	veinticuatro
-5.8905115	jurisdiccionales
-4.020599	propia
-4.690628	autonomía
-4.294235	provincias
-6.143313	reservan
-4.4996667	poderes
-5.0976915	delegados
-4.2178974	municipios
-5.570152	autónomos
-3.6843207	buenos
-4.524734	aires.
-4.77858	reconoce
-5.358172	étnica
-5.1992173	indígenas,
-5.7979903	garantizando
-5.5159473	identidad,
-5.4032507	bilingüe
-5.8379865	intercultural
-5.370907	comunitaria
-5.302278	tierras.
-4.8262753	integra
-5.612836	mercosur
-4.3127055	fundador
-5.747037	sudamericanas
-3.8923275	comunidad
-5.352889	latinoamericanos
-6.078223	caribeños
-4.9645715	americanos
-4.364308	2016,
-4.6558084	índice
-3.680753	desarrollo
-4.494058	humano
-5.7561693	45,
-5.103074	alto.
-5.680163	ajustado
-5.3841834	desigualdad
-5.2591825	coeficiente
-6.195885	gini
-4.6951275	inversión
-5.8291626	5,1
-4.3330545	teniendo
-4.442653	altas
-5.0628195	tasas
-5.286722	matrícula
-3.7173228	toda
-4.7413864	región,
-5.5754766	tope
-4.1720753	banco
-4.3487325	mundial,
-5.2894864	nominal
-6.1137347	21.º
-4.1925178	mundo.
-4.130699	importancia
-5.9245024	geopolítica
-4.9802413	económica,
-5.5658436	soberanos
-3.5159354	20
-5.9383187	nic
-3.9717145	nuevos
-6.302451	industrializados.
-3.986675	capacidad
-5.1227136	tecnológica
-4.600168	científica
-4.8891387	permitido
-5.159423	diseñar
-4.4495044	producir
-6.001686	satélites,
-4.321246	construir
-5.4531884	reactores
-5.072195	nucleares
-5.5251746	potencia,
-4.0963454	influencia
-4.344777	visto
-5.050505	reducida
-5.731765	transiciones
-5.014188	internas
-5.865587	brindado
-4.6821713	creciente
-4.6501613	cooperación
-4.6497855	nuclear
-5.0001726	latina,
-6.10955	magreb,
-4.5971117	golfo
-6.0555754	pérsico,
-4.971486	asiático
-5.795154	oceanía,
-4.945605	capacidades
-5.2763267	desarrolladas
-4.0709634	comisión
-4.099321	energía
-5.324791	atómica
-3.8990724	empresa
-5.128591	latinoamericano
-3.844694	premios
-4.790521	nobel
-4.3451066	ganado
-3.6984236	ellos
-5.1839256	vinculados
-5.3793507	ciencia.
-6.1692815	hispanohablante
-5.0113215	extenso
-5.1302476	planeta,
-4.8479347	octavo
-4.1872168	considera
-4.655457	continental
-5.2629604	sujeta
-5.837096	efectiva.
-4.478278	plataforma
-5.2499933	continental,
-4.6786056	reconocida
-5.1095223	onu
-4.524106	alcanza
-4.4545813	convirtiéndose
-5.4371347	extendiéndose
-4.6893916	continente
-4.6369166	americano
-4.7315784	polo
-5.7099843	antártida,
-4.650219	atlántico
-4.337016	sur.
-4.625592	cuentan
-3.9355054	islas
-5.503185	malvinas,
-5.7561693	georgias
-5.6000223	sandwich
-4.17696	numerosas
-4.935669	porción
-3.7593758	área
-5.2030225	antártica
-3.8549485	llamada
-5.1339326	antártida
-4.8209286	paralelo
-5.4905863	reclama
-5.9121685	soberanía,
-5.165918	eleva
-4.5100355	veinte
-4.5063024	permanente
-3.9901283	cantidad
-4.4621124	bases
-5.814562	permanentes,
-3.8506	seis
-4.507092	total.
-5.5566525	dividirse
-3.7277534	cinco
-5.845177	áreas:
-3.246533	#
-5.222241	andes,
-3.900465	oeste
-3.708352	isla
-4.94344	fuego,
-5.800845	aconcagua
-6.043247	américa;
-4.9089904	llanura
-6.0291777	ondulaciones
-4.21413	kilómetros
-5.3702993	cuadrados,
-4.932721	meseta
-5.91164	patagónica
-6.130015	(600
-4.404492	000
-5.7398667	km²)
-5.543334	sur;
-4.283163	cuenca
-5.8171034	mesopotamia,
-4.016015	presenta
-5.8594565	esteros
-5.7459536	lagunas,
-5.0230374	nordeste
-4.434762	formando
-5.886506	cuchillas
-6.2476215	lomadas
-4.0300946	baja
-5.9043093	altura;
-4.3462977	territorios
-5.8291626	insulares
-4.87503	reúne
-4.7312646	diversidad
-6.23299	climas,
-5.1066995	causada
-5.166582	amplitud
-6.1213703	latitudinal
-5.104883	supera
-6.009554	30°
-6.0697813	—incluyendo
-4.0671015	diferencia
-4.065059	va
-2.9801753	0
-4.903566	litoral
-4.975505	marítimo
-5.1372046	amplias
-5.164214	llanuras
-5.3819942	húmedas
-5.450076	limitan
-5.3741117	extensos
-5.673398	desiertos
-5.417063	montañas,
-5.2297554	climas
-4.8674755	tropicales
-5.252533	subtropicales
-5.8776264	contrastan
-5.6222253	nevadas
-5.360244	fríos
-4.9188643	extremos
-5.228768	americano,
-4.542332	abarca
-5.116406	cono
-4.546003	bolivia
-4.9090953	paraguay,
-4.4765296	brasil,
-4.442725	océano
-5.197174	atlántico,
-3.8431306	chile
-3.836853	siempre
-4.106283	aguas
-6.02573	atlánticas
-4.986658	pasaje
-6.0453973	drake.
-3.661725	primeros
-4.6701355	registros
-4.8286247	pobladores
-4.1254663	argentino
-5.1498137	remontan
-3.9646173	período
-6.18883	paleolítico.
-4.9065304	colonización
-3.6674325	comenzó
-6.18883	1512.
-4.645129	surgió
-4.9747715	virreinato
-4.575639	plata,
-5.919097	1776.
-5.1786203	1810
-4.1789103	alcanzó
-4.755088	virrey
-4.152322	aires,
-6.1145763	organizándose
-4.184506	junta
-5.3895464	1816
-5.615765	proclamada
-4.859488	formal
-5.48049	tucumán.
-4.249863	nombres
-5.0103264	1860
-4.090862	artículo
-4.2095337	35
-4.2192783	nacional,
-4.7692738	usados
-6.11881	plata»,
-6.189831	«república
-6.2784514	argentina»
-6.230782	argentina».
-4.1923566	utilizado
-4.992853	segundo,
-6.283395	elipsis
-6.1878314	sustantivo,
-5.4493465	decirse
-5.252186	correctamente
-4.4690323	«la
-5.0177464	extendido
-5.807857	artículo.
-4.4963255	proviene
-4.5068426	latín
-4.5974956	asociado
-4.4706554	leyenda
-4.132882	sierra
-5.337837	exploradores
-5.7307186	portugueses.
-5.6271343	denominaron
-4.6312313	rio
-6.1818876	prata
-5.3965864	estuario
-4.3893666	descubierto
-4.3252106	expedición
-5.9643526	1502
-5.399662	participaba
-5.42681	américo
-6.234098	vespucio,
-3.748171	llegó
-4.3526363	díaz
-5.2349496	solís
-6.1265364	1516,
-5.798397	llamándolo
-3.8651667	mar
-5.0928555	dulce.
-4.523263	portada
-4.6182213	poema
-4.5020247	barco
-6.151492	1602.
-4.578523	menciona
-3.8656507	publicado
-5.8575873	1602
-6.3129673	centenera
-4.4138064	conquista
-4.463164	describe
-5.0475345	topónimo
-3.9056058	aparece
-5.38733	ratificado
-5.5007176	publicarse
-5.831791	1612
-5.3973937	criollo
-5.5954084	ruy
-5.1848164	guzmán,
-4.6988645	relato
-6.1848493	épico,
-4.6090746	región.
-3.7548914	finales
-5.319086	denominar
-3.3825037	todo
-5.2066526	cuenca,
-5.766253	pobladores,
-5.771958	1776,
-5.291508	antecedente
-4.8286247	inmediato
-6.230782	independizado
-5.6554666	1816,
-3.9961743	llevó
-4.5195436	utilizó
-4.6766953	empleado
-4.5967536	gobiernos
-5.328085	sucedieron
-4.020246	congreso
-4.913528	tucumán
-5.0602098	sud
-4.709111	américa,
-4.2076297	mantuvo
-5.763616	1819.
-5.4830413	oficialmente,
-4.3867726	denominación
-5.7106485	1826.
-3.7344017	manuel
-4.8516903	rosas
-4.4936748	otros,
-4.606321	confederación
-4.237667	argentina.
-5.270255	1853
-5.60183	sancionó
-5.2529964	incorporarse
-4.420129	nación
-4.661946	incorporó
-6.0396867	35:
-5.368179	1860,
-5.277306	paraná,
-3.875655	santiago
-6.094006	derqui
-5.2226734	decretó
-4.919724	que:
-4.9744663	confirmado
-4.6291046	definitivamente
-5.1880975	1862
-4.7863064	bartolomé
-5.5828443	mitre,
-3.5532365	título
-4.2117095	izquierda
-4.3676605	registro
-4.084698	poblacional
-5.083813	controlado
-5.1663923	12º
-5.1479897	milenio
-6.1424136	ap,
-5.092375	hallazgos
-6.0876236	toldos
-4.225282	piedra
-5.2423496	museo.
-6.1274033	originarios,
-5.110773	cazadores
-5.89354	recolectores
-5.576696	habitaron
-5.694017	patagonia,
-5.1602645	pampa
-5.7356205	chaco.
-5.2308555	agricultores
-5.1334043	instalaron
-5.291128	noroeste,
-5.824385	cuyo,
-5.0800614	sierras
-4.316391	córdoba
-5.9566703	mesopotamia.
-5.720398	precolombina
-3.9674003	ubicada
-4.782211	argentino,
-5.544693	rastros
-4.1536565	corresponden
-5.4322042	paleolítico
-4.1300354	mil
-4.699447	atrás
-5.31279	incorporaron
-5.1744413	aportes
-4.5028687	culturales
-6.158894	mesolítico
-6.001686	neolítico.
-4.7110367	ocupado
-3.9790347	diversos
-3.7453387	diferentes
-5.167248	dividir
-4.6559258	alimentos
-4.923181	básicos
-6.318322	yagán
-4.3155875	fuego
-5.3068457	avanzados
-5.474659	het
-5.450076	praderas
-5.708658	estepas
-5.898635	pampeana
-5.1725116	patagonia
-4.072697	s.
-4.484632	xviii
-5.454477	mapuche
-6.0216293	alfareros
-4.6677194	procedentes
-6.1673746	qom
-6.2580476	chaqueña.
-4.7246914	pertenecen
-6.082898	charrúas
-5.0428658	incorporado
-5.642204	cerámica.
-5.7079973	guaraníes
-4.7852	culturas
-5.8274193	andinas
-6.2533827	derivadas.
-5.7241535	milenio,
-4.6162105	(un
-3.6432939	conocido
-5.427502	invadieron
-5.8524885	nea
-6.0209494	argentino;
-5.9869933	cultivadores
-6.0892105	mandioca
-4.987035	maíz
-5.9439707	roza
-5.208741	quema
-4.058441	ello
-5.7477603	centradas
-4.468537	agricultura
-4.9189715	ganadería
-5.9105854	noa
-5.2286587	puramente
-4.3768106	desarrollado
-4.5501413	redes
-4.504603	comerciales
-6.2318845	englobadas
-3.8886259	conjunto
-3.251645	tras
-4.4613814	establecer
-4.3064346	torno
-5.2198725	sometidos
-5.952589	incaico
-6.2821536	1480.
-5.7839913	influidos
-6.1878314	andinas,
-6.2522244	huarpes
-4.930785	desarrollaron
-4.9805503	desarrollo,
-5.1211705	adaptada
-5.9349627	llanas
-6.1750546	serranas
-6.0175667	cuyo.
-4.697443	xiv
-5.0717363	xv,
-5.07534	conquistó
-5.5363793	jujuy,
-5.304621	salta,
-5.621683	catamarca,
-3.5004683	provincia
-5.2078	tucumán,
-4.932998	rioja
-4.7287965	juan,
-4.342322	noroeste
-4.597624	mendoza
-5.410019	probablemente,
-5.4552145	estero,
-5.318547	incorporando
-6.240807	tahuantinsuyo
-3.8765016	tal
-5.1863046	imperio.
-5.5075364	tradicionalmente,
-4.886888	atribuye
-5.021947	inca
-5.534602	túpac
-6.235209	yupanqui.
-5.515735	señoríos
-6.2177653	diaguitas
-5.0074854	intentaron
-6.235209	resistir,
-5.489386	incas
-4.6044426	lograron
-5.8287263	trasladando
-4.841327	colonos
-5.6447673	deportados
-4.755788	tribus
-6.323744	chichas,
-5.274131	habitaban
-5.6566396	boliviano.
-6.1626425	(popularmente
-4.4722266	llamados
-5.7063484	resistieron
-3.8743737	éxito
-5.9789033	incaica
-4.929188	mantuvieron
-5.3574343	independientes.
-4.3484435	comienzos
-4.4614	xvi
-4.0588784	aproximadamente
-4.826579	tercio
-6.0115433	sometiendo
-5.1910014	originarios
-6.280916	habitaban.
-4.7708364	indígena
-4.3913064	sufrió
-6.0189166	mortandad
-4.172903	produjo
-6.081334	demográfica,
-4.3192434	razón
-5.228549	conquistadores
-4.828886	esclavos
-5.606251	secuestrados
-4.362172	áfrica
-5.9294257	subsahariana.
-4.05375	fuerte
-5.4881897	sancti
-6.26514	spiritu
-4.6982503	asentamiento
-4.9504857	instalado
-5.8438196	1527
-4.710405	orillas
-6.1451173	40 km
-5.250454	rosario.
-4.8641963	exploración
-4.104518	diego
-4.559053	rojas
-6.2051277	1543.
-5.168772	estero
-4.0674796	aires
-4.576175	establecimiento
-4.712136	colonial
-4.885892	impuso
-4.8341117	sujeto
-4.409581	autoridad
-4.0693965	(la
-4.8031287	gobernación
-6.0735984	plata).
-5.723126	1560
-5.904829	1667
-6.174087	diaguita
-4.2552	larga
-4.3312883	resistencia
-4.539185	guerras
-6.158894	calchaquíes
-4.6255646	argentino.
-4.5387373	misiones
-6.036859	jesuíticas
-6.1878314	guaraníes.
-4.379005	comunidades
-5.6658363	fundados
-3.8351007	compañía
-4.079934	jesús
-6.046837	afines,
-3.7956161	fin
-5.9111123	evangelizar
-4.4659557	indígenas
-5.380904	misiones,
-5.2573056	corrientes,
-4.5458436	paraguay
-5.7096524	cumplieron
-5.7576485	tarea,
-5.969149	1768,
-4.44736	ordenó
-5.2955794	expulsar
-5.8256826	jesuitas.
-5.274131	colonial,
-4.484	perú,
-5.568711	1776
-4.7582293	plata.
-5.1884966	designada
-4.944635	comercial,
-4.1452923	idea
-5.225928	resistir
-5.3082914	eventual
-4.136386	ataque
-5.2497635	portugués,
-4.0998254	acceso
-4.632785	fácil
-4.8490763	navegación
-5.908483	atlántica.
-5.528003	multiplicación
-5.6083474	vacuno
-6.083682	equino
-6.0453973	cimarrón
-6.158894	pampeana,
-3.6004357	banda
-4.2668877	oriental
-4.5518904	provocó
-4.247225	aparición
-5.2950683	campesino
-4.0934224	independiente
-4.6234927	caballo
-5.5757203	gaucho
-4.963499	—en
-4.105895	china
-4.382239	mujeres.
-5.7967725	gauchos
-5.7136507	propias,
-5.9428344	adhirieron
-6.2580476	lucharían
-4.8843517	enfrentaron
-6.1635847	estancieros
-4.9455476	garantizar
-5.624673	vencidos
-4.662065	xix.
-4.7426014	riqueza
-5.040302	salvaje
-5.4713893	ecuestre
-5.484619	chaco,
-6.078999	entablaron
-4.975199	dinámica
-5.7572784	intermitente
-5.585328	ganaderos
-6.0924015	criolla.
-4.0991907	mediados
-5.642204	pampas
-5.082324	permanecieron
-3.363887	bajo
-3.9167948	control
-6.208253	indígenas:
-5.290749	principalmente,
-5.6566396	mapuches
-6.224225	ranquel
-6.3210244	siglo xix.
-4.4559293	asimismo,
-5.989513	chaqueña
-6.2092996	colonizados
-5.153761	europeos,
-5.7681465	habitados
-5.6691475	autóctonos
-6.2396817	siglo xx.
-6.13617	sedentaria
-5.292776	sometida
-4.934944	dependencia
-4.9441795	generaciones
-5.474852	absorbida
-5.89354	étnicamente
-5.9758315	identificable
-4.860191	total,
-4.884203	demuestra
-4.4373236	poblaciones
-4.895147	levantamiento
-5.5323915	1780
-5.502773	epicentro
-5.577674	cuzco,
-6.292184	generala
-6.2209835	(pm)
-4.56574	asumió
-5.3983645	comandancia
-4.0753527	perú
-5.433783	emancipación
-5.925047	honrada
-4.9931717	bolivia.
-5.49179	1807
-4.1650434	tuvieron
-5.1681046	invasiones
-5.318816	inglesas
-4.831513	oportunidades
-5.578654	guarniciones
-4.711403	civil,
-4.653179	organizó
-4.1806726	unidades
-5.016669	milicias
-5.1807737	formadas
-5.427329	criollos
-6.2072086	—tanto
-5.799619	porteños
-5.463227	negros.
-4.1193833	rafael
-6.0375643	sobremonte
-6.1128945	culpado
-6.108718	cobardía
-4.9070005	iniciales
-5.2020936	triunfos
-5.9584312	invasores,
-4.710737	reemplazado
-4.8083425	cabildo
-5.9643526	liniers,
-4.713171	héroe
-5.122971	reconquista
-5.0704403	defensa.
-4.5270586	líderes
-4.748328	convirtieron
-4.347002	rápidamente
-5.018421	élite
-5.3967476	ingresando
-5.9721737	cabildo.
-5.4848166	liniers
-4.4119644	haya
-5.351869	destitución
-5.405221	inédito
-5.923416	—junto
-4.709111	ejércitos
-4.440667	dieron
-4.8839054	prestigio
-3.8103356	ganó
-5.460602	provincias.
-5.429238	1810,
-4.694166	noticia
-4.4507456	completa
-5.6433415	bonaparte,
-4.0782647	inició
-4.59334	mayo,
-5.5334954	derrocó
-5.451172	expulsó
-5.6908293	cisneros,
-4.645444	integrada
-3.8018212	dio
-5.426637	prolongada
-5.4871945	desarrollaba
-3.5127306	tenía
-5.1153917	compleja
-4.535127	disputa
-4.9562407	generó
-5.2677298	1814
-4.13589	inicio
-5.5015383	duraría
-5.264743	siglo.
-4.1333923	líder
-5.001859	fracción
-4.91268	federal,
-5.6039047	gervasio
-5.2557864	artigas
-5.168677	proclamado
-5.1777425	protector
-5.2857213	libres,
-5.840221	negaban
-5.7007885	administrados
-5.3323765	unitario
-3.7189224	misma
-4.78599	uruguay,
-5.4850144	discute
-5.650518	proclamar
-5.475045	—como
-5.3170667	reunido
-4.41569	diputados
-5.778516	centro-oeste
-5.3048825	exiliados
-4.432759	utilizando
-5.9360785	fórmula:
-5.246326	(nombre
-4.691645	local,
-6.2156334	principat
-5.4466233	meridional,
-5.4921913	orientales.
-4.4277735	norte.
-4.3547697	física
-5.6115108	litoral,
-3.8373556	encuentran
-5.0301247	cruces
-4.6675086	caminos
-5.895062	468
-4.054388	km².
-4.9721537	vertiente
-4.071879	agua.
-4.1511374	casos
-5.375185	2.500
-4.1780605	llega
-3.9475086	m.
-4.926611	básicamente
-6.155177	y:
-4.5161314	este,
-6.2476215	unen,
-5.4559536	atraviesan
-5.0649943	valle,
-4.9849043	discurre
-5.779683	unirá
-6.2051277	segre.
-5.5956635	más:
-4.3738155	une
-4.756785	este.
-3.9037921	llegar
-4.2977667	forman
-4.924267	recorre
-4.723149	km.
-3.7589817	m
-5.6189833	cúbicos
-5.2639103	segundo.
-4.647911	paisaje
-4.874448	sesenta
-4.3783083	propios
-6.2396817	pirineo.
-4.1760178	parece
-4.6503925	fueran
-5.4579926	diferentes:
-6.1344028	(lago
-5.9619746	orientación,
-3.966818	pues
-3.731567	esa
-4.74443	orientación
-5.238186	montañosa
-5.7609954	oscilaciones
-6.318322	térmicas.
-4.1191196	similar
-5.2092648	templado
-4.4795647	vecinos
-5.170974	altitud,
-5.3003354	inviernos
-5.009796	tienden
-6.1969023	severos,
-5.003683	humedad
-4.345021	inferior
-5.2527647	veranos
-6.0216293	frescos.
-5.5728064	alpina
-5.2937937	árboles,
-4.7516036	medias
-5.4207993	diarias
-6.2580476	28 °c
-6.18883	15 °c
-5.216556	enero.
-5.254971	descender
-4.7297683	grados
-4.8442564	cero
-4.9642735	subir
-4.959059	verano.
-4.285767	temperatura
-4.8381057	varía
-4.8414173	centro,
-6.18386	soleados.
-5.701113	hay,
-4.7961516	media,
-4.4611754	300
-6.020271	insolación
-5.17745	diaria
-5.0518885	diciembre.
-5.5720806	seco.
-5.041653	precipitación
-4.2329383	mm
-5.1020904	seca
-6.125671	(800
-5.6933775	año)
-5.7967725	lluviosa
-4.7311254	superar
-6.000388	1220
-5.5442395	altas.
-5.1195483	secos
-4.873915	febrero,
-6.269933	lluviosos,
-5.0287395	noviembre.
-5.6740084	lluvias,
-5.529753	intensas
-5.553863	asocian
-6.1021175	tormentas.
-5.670964	atardecer
-4.963499	nieve
-4.336552	completamente
-5.5559535	septentrionales
-4.8607073	meses.
-4.4172773	esas
-5.85019	moderadas
-4.5862427	permiten
-4.784175	cultivos
-6.2156334	ene.
-6.0585275	feb.
-4.5971375	mar.
-6.2499166	abr.
-6.1070585	jun.
-6.2723503	jul.
-6.27114	ago.
-6.138835	sep.
-5.9721737	oct.
-5.481862	nov.
-6.000388	dic.
-4.469013	max
-6.279682	(media)
-5.4992847	°c
-3.4789574	11
-3.5401149	16
-3.6521575	19
-3.652512	22
-4.198508	34
-4.510245	46
-4.7233543	63
-4.9944477	105
-4.773825	69
-4.9384127	98
-4.825365	81
-4.8184505	73
-4.7426014	68
-5.823522	808
-4.358285	ambiente
-3.8454323	parque
-4.641627	central.
-5.597709	ecorregión
-5.9434023	bioma
-6.230782	"bosque
-5.3204374	pinos
-4.403901	mantiene
-4.4767623	espacios
-5.238522	protegidos
-4.410946	reserva
-5.361284	caza,
-6.230782	hectárea)
-6.2896547	(750
-6.210349	ha).
-6.057049	(est.
-5.6249456	2009),
-3.769478	densidad
-4.8972363	kilómetro
-5.506081	cuadrado.
-4.6435027	urbana
-6.0964236	89%
-5.363819	(2008),
-5.8326707	concentrándose
-4.895961	desarrollan
-4.6206193	económicas
-3.917276	resto
-5.6433415	dispersa
-5.2690506	rural.
-5.2872233	étnicos
-4.6127205	siguen
-5.581855	7%
-5.5684714	6%
-5.3284984	(1998).
-4.9139524	hablan
-5.1924105	predominante
-5.813297	catolicismo.
-6.199969	religión:
-4.559499	(2007)
-5.4060445	meramente
-5.1137066	administrativas
-6.3129673	propia;
-5.2015786	menores.
-4.257009	económica
-5.054669	m)
-4.7670727	m,
-5.2785335	grau
-3.9879637	ver
-5.799619	pic
-6.0563116	baix
-4.7437835	(2
-5.9422674	705
-6.0585275	781
-5.425946	m).
-4.3824105	naturales
-5.4243956	concentran
-6.0821157	hidroeléctrica,
-5.840669	mineral,
-4.8859415	madera,
-4.88455	mineral
-6.279682	ferroso
-5.8665385	plomo.
-5.488588	cosechas
-5.1932178	permanentes
-4.8068466	dedica
-4.195279	0%
-5.184717	(2005).
-3.7191122	central
-5.2901173	hidroeléctrica
-4.7410655	proporciona
-5.7992115	excedente
-5.8082733	exporta
-4.5937715	emplea
-5.9383187	0,3%
-5.5723224	activa,
-4.1507163	industria
-6.311639	20,8%
-6.1070585	79%
-5.1896973	(2007).
-3.865138	datos
-4.250911	composición
-5.4760127	sector.
-5.136141	calcula
-5.221917	turismo,
-4.663882	pilar
-4.063214	pequeña
-5.9832406	adinerada
-4.63745	supone
-6.1750546	80%.
-5.7670097	turistas,
-5.538163	atraídos
-4.740638	estatus
-4.68974	tienda
-4.8317327	impuestos
-5.0827937	turísticos
-4.686426	ventaja
-5.7546954	comparativa
-4.78449	conforme
-5.3456564	vecinas
-5.7681465	tos
-4.5000143	consumo
-6.234098	aduaneras
-6.059269	bancario,
-4.8031287	parcial
-5.2870984	economía.
-4.2240553	produce
-4.2825546	pequeñas
-4.7460136	cantidades
-5.8252497	centeno,
-5.3151903	trigo,
-5.6499395	cebada,
-5.806197	avena
-4.6793475	comida
-3.8396895	debe
-4.9270487	cría
-6.1239457	oveja.
-4.3622913	particular
-5.0793614	invierno,
-5.359651	ganado,
-5.880566	banca,
-6.009554	muebles.
-5.350271	320
-5.2061324	(2008).
-5.764368	férreas
-6.051913	fluviales.
-4.6578937	::
-5.158024	cia
-2.8671575	the
-6.1878314	factbook
-4.175484	inglés)
-5.4012895	;notas
-4.2811675	2007.
-6.0735984	restrictiva
-4.829935	concesión
-4.498237	constituye
-5.557119	país;
-4.7109036	población,
-6.174087	mayoritaria,
-5.1816583	políticos.
-4.216489	evolución
-5.748848	habitantes)
-5.71904	hab.)
-6.2960057	16,3%
-6.176024	7,8%
-5.2209473	restante
-6.072832	pob.
-4.2902017	1981
-6.2909174	18,3%
-4.235213	1986
-6.2985725	16,9%
-6.2998614	17,6%
-6.316977	20,2%
-6.212455	44,4%
-4.7403884	población.
-5.839326	factores.
-5.948546	aislada,
-4.298963	tenido
-5.2267995	baja.
-5.0240626	potente
-5.9619746	demográfico,
-4.0522656	dado
-5.8344355	inmigración,
-3.8997502	principalmente
-4.7274814	procedente
-4.9010334	portugal.
-5.6908293	bonanza
-4.455282	corriente
-6.3076773	inmigratoria
-4.1381526	sigue
-5.1817565	importante.
-4.1005673	hora
-5.3178735	otorgar
-5.75839	descendientes,
-4.8552003	1960.
-4.8514147	extremadamente
-4.84958	adquisición
-4.9907575	vigente
-5.141666	disponer
-5.6706605	nacidas
-3.7533116	padre
-5.042723	residente
-5.6972284	norma,
-6.2592216	discriminatoria
-3.9454372	mujeres
-5.8552623	(pues
-4.7575994	extranjeros
-5.632655	negaba
-4.76821	permitía
-4.4141088	1950
-6.3142996	superase
-4.186162	1980
-5.143463	proporciones
-5.299174	bajas,
-4.9688277	superando
-5.1935205	20%
-4.7191305	norma
-4.7534337	clasificados
-5.9965186	(hijos
-5.813297	progenitor
-5.5745034	paterno
-5.095751	nacidos
-4.525819	cercano
-5.0918946	disponía
-4.5477357	encontraban
-6.2274914	discriminados
-6.28464	administrativamente.
-4.053941	1995
-5.006959	vigor
-5.1171684	1939.
-5.0306106	ley,
-4.2235894	padres
-5.821372	progenitores
-5.3645678	justificar
-5.066425	dieciocho
-4.3541694	anteriores
-4.379206	nacimiento
-4.943497	modificación
-4.318017	realizada
-5.4201174	2004).
-6.018241	pueden,
-4.203546	gente
-4.692888	nacida
-4.894791	hayan
-5.14077	(20
-5.0278416	2004)
-6.0555754	superen
-4.257852	deben
-4.8574786	demostrar
-4.769883	conocimientos
-4.8179817	cultura,
-4.3405886	instituciones
-4.726515	tradiciones
-4.5635786	perder
-4.6234927	anterior.
-4.441811	raíz
-4.4085517	esto,
-4.86005	aumentó
-3.9467177	especialmente
-4.524279	1999.
-4.83637	xxi
-6.0375643	estabilizado
-5.069984	niega
-4.945319	presentarse
-5.3347483	elecciones.
-5.529753	restringida
-4.4750967	cuyos
-5.2540407	ejecutivos
-5.738801	dominados
-5.600796	laboral.
-4.849168	presidentes
-5.7510314	33%
-5.135698	compañía.
-5.1185265	limitaciones
-5.4946103	afectando
-5.2925224	60%
-5.096801	criticado
-6.2580476	discriminatorio
-5.3425117	nacimientos
-6.051913	defunciones
-4.3584623	2005.
-5.952009	(x
-6.2487674	1000)
-4.6085486	muertos
-4.5891733	1948
-4.935334	92
-4.6809587	58
-6.1070585	16.6
-5.741648	10.5
-5.5900874	6.1
-4.647164	1949
-4.7998505	85
-4.4681945	48
-6.046837	14.6
-5.7430787	8.2
-5.618714	6.4
-5.00854	94
-4.7370195	61
-4.2416906	33
-6.006258	15.5
-5.7658753	10.1
-5.559695	5.4
-4.6510878	1951
-5.1211705	104
-4.45983	41
-6.0652447	16.7
-5.6499395	6.6
-4.609812	1952
-4.5761023	49
-6.0805545	16.1
-5.5803747	8.0
-4.6255646	1953
-4.977959	101
-4.6273174	53
-6.1054053	17.6
-5.7792935	9.3
-5.7473984	8.4
-4.5965233	1954
-4.8980546	96
-4.567554	51
-4.324404	45
-6.09481	17.3
-5.7967725	9.2
-5.6634445	8.1
-4.5828857	1955
-5.102418	108
-4.5469823	55
-6.049005	18.5
-5.839326	9.4
-5.787548	9.1
-4.553647	1956
-4.8616004	110
-6.154253	17.7
-5.8149843	9.8
-5.7550635	7.9
-4.568487	1957
-5.156815	111
-4.5367947	47
-5.7056904	7.4
-4.531459	1958
-5.3307104	138
-4.9178452	83
-6.1673746	20.4
-5.919097	12.3
-4.5573683	1959
-5.4152074	157
-4.6551642	57
-6.2487674	21.9
-6.038978	13.9
-4.910515	180
-5.168677	107
-6.1711974	23.0
-6.0243587	13.7
-4.539611	1961
-5.350997	185
-5.2206244	124
-6.1406207	21.3
-5.513196	7.0
-6.006258	14.3
-4.503281	1962
-5.563468	242
-4.721067	72
-5.1149697	170
-6.203057	25.1
-5.512563	7.5
-4.512493	1963
-5.5865755	262
-4.5384464	75
-5.4706235	187
-6.206167	24.2
-5.691465	6.9
-4.4618874	1964
-5.519786	275
-4.8040757	77
-5.503391	198
-6.203057	23.3
-5.496637	6.5
-6.062994	16.8
-4.483212	1965
-5.638528	308
-5.609136	233
-6.230782	23.9
-5.589584	5.8
-6.116265	18.1
-4.4699097	1966
-5.6994905	292
-4.8632035	88
-5.4617248	204
-6.222061	20.9
-5.607036	6.3
-4.4531274	1967
-5.4670043	330
-4.9572954	93
-5.598993	237
-6.155177	22.1
-5.5982223	6.2
-6.040396	15.8
-5.6433415	375
-5.710316	279
-6.213512	22.9
-5.613367	5.9
-6.0453973	17.0
-5.618714	390
-5.199422	113
-5.681404	277
-6.1750546	22.0
-6.0852547	15.6
-5.75839	395
-5.0651445	102
-5.707007	293
-4.4287453	1971
-5.82829	414
-4.983282	91
-5.6981964	323
-6.160764	20.7
-5.2971163	4.5
-4.393239	1972
-5.9207115	487
-5.8057833	377
-6.168327	23.2
-5.5089965	5.2
-6.062994	18.0
-4.3753185	1973
-5.771193	475
-5.2338395	132
-5.733163	343
-6.090803	15.4
-3.6567519	24
-5.9207115	545
-5.1999345	116
-5.807857	429
-6.1878314	22.8
-5.4574356	4.8
-6.1145763	17.9
-5.8971	515
-5.8291626	427
-6.1379447	20.1
-5.3071084	3.4
-4.33779	1976
-3.7597144	27
-5.913758	469
-5.3367114	143
-5.711647	326
-5.9428344	12.2
-4.3611746	1977
-5.2352834	122
-6.1037583	17.1
-5.460228	4.4
-5.8497324	12.0
-4.3354297	1978
-3.808566	29
-5.842467	441
-4.9739175	140
-5.6542974	301
-6.051913	15.2
-5.865113	10.4
-4.3076425	1979
-3.8965712	31
-5.5615773	420
-5.510881	310
-5.317201	3.6
-5.9572563	577
-5.376261	153
-5.8162546	424
-5.4713893	4.6
-5.9578433	12.7
-5.6998143	560
-5.321115	156
-5.7402225	404
-6.046837	15.3
-5.4110184	4.3
-5.7947507	11.0
-4.417007	39
-5.735973	630
-5.238522	127
-6.1070585	16.2
-5.2298656	3.3
-5.736678	10.0
-4.273762	1983
-5.9619746	563
-5.7066774	406
-6.0102158	13.8
-5.3374147	3.8
-4.2560625	1984
-4.3957753	42
-5.898123	472
-5.419437	164
-5.8515677	11.2
-5.4163876	3.9
-5.664041	7.3
-4.2426176	1985
-4.4443784	44
-5.970961	557
-5.311462	165
-5.7899356	392
-5.950274	12.8
-5.6487846	9.0
-5.9508514	547
-5.7899356	368
-5.941701	11.9
-4.2227235	1987
-5.9394436	527
-5.40555	176
-5.780073	351
-5.3447967	3.7
-4.208968	1988
-5.9479713	572
-5.394334	206
-5.7931395	366
-5.910059	11.6
-5.3938527	4.2
-5.977672	634
-5.5611057	209
-5.7106485	425
-5.8175282	12.5
-5.404892	4.1
-5.9566703	628
-5.475819	191
-5.908483	437
-5.716	8.3
-6.0555754	678
-5.513196	217
-5.9201727	461
-6.0667515	729
-5.5788994	219
-5.717011	510
-5.9360785	12.1
-5.6271343	8.5
-4.1222816	1993
-6.0563116	723
-5.528003	211
-5.5946445	512
-5.938881	11.4
-4.0872464	1994
-5.981997	704
-5.456879	184
-5.700139	520
-5.904829	10.9
-5.1627994	2.8
-5.980138	702
-5.9377575	483
-4.902375	700
-5.4907866	197
-5.869404	503
-5.217089	3.1
-5.679853	7.8
-5.844724	730
-5.870363	533
-4.9881673	3.0
-4.725723	66
-5.5295343	235
-5.9832406	546
-3.9430237	1999
-6.062994	823
-5.4369574	207
-5.9366374	616
-5.7738767	747
-5.683585	259
-5.8469934	488
-5.8915186	11.3
-5.846084	777
-5.65576	540
-5.907436	11.8
-3.894576	2002
-4.7831917	67
-6.072832	749
-5.5392823	218
-5.9508514	531
-3.8595846	2003
-4.350963	70
-6.0243587	721
-5.553863	221
-4.2404165	500
-5.824817	10.3
-5.2523017	3.2
-5.6622534	7.2
-6.0541067	814
-5.6740084	281
-5.658699	7.1
-4.805769	78
-6.049005	828
-5.692739	276
-5.950274	552
-5.8737373	10.7
-4.337903	80
-6.0504565	843
-5.3322377	260
-5.952009	583
-5.8830314	10.6
-4.790721	82
-6.0852547	826
-5.26785	230
-5.899661	596
-4.8547835	84
-6.0195932	875
-5.9984493	638
-5.7149916	7.6
-6.078223	838
-5.630715	272
-5.987622	566
-5.8571215	9.9
-5.6581097	6.7
-4.370507	núcleo
-5.3073707	(2007),
-3.901831	siguientes
-6.1103835	hab.).
-5.411686	hablada
-5.9643526	principado,
-5.614431	habitual.
-6.159828	7,6%
-5.9572563	1,5%
-6.093203	2,7%
-6.2723503	14,7%
-6.1654754	7,1%
-6.198944	8,7%
-6.2580476	6,0%
-6.2522244	educativos:
-6.1062307	2004-2005,
-4.4584885	seguido
-5.028947	únicas
-5.4325542	universitarias
-4.5959105	presentes
-5.7769637	enfermería,
-5.5497127	francesas,
-5.1919065	correcta
-4.1715274	áreas
-5.475239	conocimiento.
-5.2749834	demográficos
-5.5172234	población:
-6.28464	0-14
-5.965547	(hombres
-6.292184	15-64
-4.6635833	(2000)
-6.280916	3,65
-6.059269	infantil:
-5.554791	vida:
-5.305013	total:
-5.7262163	hombres:
-5.6613617	mujeres:
-5.8900084	1,25
-4.1617994	católica
-4.035434	artes
-5.0912557	visuales
-5.4719644	mona
-4.7659006	lisa
-4.7659383	cuadros
-4.903151	reconocidos
-5.3954587	occidente.
-5.8137183	instalación,
-4.6133046	instalación
-5.3098736	rifle
-6.147838	gap,
-4.4783754	montañas
-5.8646383	rocosas,
-5.398041	colorado.
-5.970961	engloban
-5.280628	plásticas
-5.2964754	tradicionales,
-5.5087876	dibujo,
-5.0684657	pintura,
-4.391992	grabado
-5.377495	escultura,
-4.954722	expresiones
-5.3656178	incorporan
-4.294592	tecnología
-5.150545	orientada
-4.0124235	elementos
-5.7681465	convencionales,
-4.8257985	componente
-5.9121685	expresivo
-5.569671	visual,
-5.3137217	medios,
-5.195648	incluyen:
-4.2808585	digital
-4.4649725	fotografía
-6.18883	videoarte
-5.5728064	abstracto
-4.569543	xx,
-4.5465264	como:
-4.9102516	ambiental
-6.1731215	cinético
-5.584333	efímero
-4.4207425	urbano
-4.4848495	intervención
-5.039947	land
-4.5226374	art
-5.057763	disciplinas
-5.6560526	artísticas,
-5.9907784	escénicas,
-4.580243	poseen
-4.699804	dimensiones
-5.763241	compartidas
-5.634883	visuales,
-5.2958355	definiciones
-5.7123137	estrictas
-6.306365	consideran,
-4.024149	acción
-5.6407866	interactivo
-5.7569084	caligrafía
-6.303752	fluxus
-6.046837	grafiti
-6.138835	happening
-5.1539454	performance
-5.043438	percepción
-4.6959624	obra,
-4.408253	visión
-4.6260843	tendencia
-5.6181765	agrupar
-5.246783	separar
-4.7497807	forma,
-5.5227957	contraste,
-5.1025	color,
-4.1657534	etc.
-4.755751	visual
-4.511483	recepción
-5.7851734	sensorial
-5.7758036	visuales.
-6.086043	proporción,
-5.719379	equilibrio,
-5.691465	ritmo,
-5.2473545	textura
-4.378695	valores
-6.1460223	tonales
-6.0175667	tenidos
-5.153853	creadores
-5.7765765	espectador.
-4.6044946	seres
-6.1274033	asimila
-5.4864006	estímulos
-4.3526945	conocimiento
-4.8394895	previo
-5.7967725	emocional,
-5.1118603	discriminación
-4.268806	esos
-5.1816583	traduce
-4.210794	efectos
-4.0370235	luz
-4.9050193	visible
-4.794495	psicología
-6.0924015	gestalt
-4.105796	teoría
-4.011758	alemania
-5.1509113	alude
-4.9711833	modos
-5.1802835	aquello
-5.2854714	vemos
-4.472342	nuestro
-4.9064784	cerebro
-6.1779695	percepción.
-4.579235	agrupación
-4.204623	formas
-5.26036	a)
-5.0281863	cercanía
-5.0856223	sí.
-5.1965632	b)
-4.330539	figuras
-5.6658363	conocidas,
-5.4658675	parecidas
-5.081933	iguales
-5.435897	c)
-4.4362087	búsqueda
-5.7210784	semejanzas
-4.826449	continuidad
-5.8737373	significativa,
-5.894554	observamos
-3.899016	primero
-5.183234	importantes.
-4.179536	fondo
-5.723126	percibido
-5.770048	figura.
-5.3750315	contorno
-4.8886375	separa
-4.9911375	distingue
-4.7275505	continua
-6.1213703	discontinua
-4.392391	límite
-4.37978	colores
-5.824817	rellenar
-5.6067743	visualmente
-4.2604027	aquellos
-5.2913814	huecos
-4.6137037	completar
-5.6230397	objeto.
-5.363221	aplicadas
-5.3346086	artesanía
-4.851185	irán
-5.1980925	basan
-4.539678	definición
-5.0215387	utilidad
-4.25729	objeto
-4.7970834	determinado
-5.3592067	fin.
-4.6774645	considerar
-4.0984917	valor
-4.5067177	artístico
-5.5956635	estético
-5.9549165	trasciende
-6.0175667	utilidad,
-5.854336	utilitario
-5.7899356	funcional.
-5.6628485	decorativo
-5.722784	funcional,
-5.632377	referencia,
-6.125671	decorativas.
-4.0723376	ellas
-4.325991	variedad
-5.6181765	artesanales
-5.6203313	alfarería
-5.6537137	orfebrería
-4.8093014	talla
-4.3213005	madera
-5.9990945	tapicería
-5.908483	vitral
-4.007569	nuevas
-5.7459536	utilidades
-5.1662974	diseño,
-4.9878526	comparten
-3.990565	espacio
-4.951816	consideradas
-4.7904415	manejo
-4.4688225	lenguaje
-5.618445	apreciación
-5.8488173	estética.
-5.604946	ellas:
-3.976857	diseño
-4.9632015	interiores
-4.3612785	industrial
-5.7314157	survival
-3.0371652	of
-5.050723	how
-5.527567	artists
-4.4593263	live
-3.398783	and
-5.3948154	work
-6.311639	(unesco)
-5.6388097	soja
-6.2419353	agri
-4.35201	técnicas
-5.1822486	cultivar
-5.2204094	ello.
-4.3072877	tratamiento
-4.37449	suelo
-5.580621	vegetales.
-4.4614935	comprende
-4.297857	acciones
-5.0381765	humanas
-5.0598383	transforma
-4.8094263	natural.
-4.644016	relacionadas
-5.1359634	integran
-5.3951373	agrícola.
-5.2985296	fundamento
-5.7587614	favorecida
-6.1012993	humano:
-5.10579	vegetal
-5.686405	cereales,
-5.773108	fruta,
-6.236323	hortaliza,
-5.294303	pastos
-5.7558002	cultivados
-5.1126986	fibras
-4.850267	utilizadas
-5.803307	energéticos
-5.0553303	estratégica
-4.579726	fundamental
-6.141516	autosuficiente
-5.3965864	naciones.
-4.2200403	ciencia
-4.9564166	estudia
-6.2896547	agronomía.
-4.353395	comienzo
-6.18386	trilla
-5.4035783	cereales
-3.9015987	antiguo
-5.1019263	egipto.
-5.4325542	fértil
-5.0163326	asia,
-4.6511455	egipto
-4.350194	india
-4.4873075	sitios
-5.415713	siembra
-5.2412205	cosecha
-6.016221	hidráulica,
-3.937754	plantas
-5.453924	recogidas
-4.6097064	previamente
-5.1743445	naturaleza.
-4.6121902	china,
-5.800845	sahel
-4.8812385	áfrica,
-4.8411927	guinea
-4.7448254	américa.
-4.7248974	fundadores
-5.5077443	neolítico
-4.915974	agricultura,
-5.108773	trigo
-6.306365	guisantes,
-6.323744	lentejas,
-6.1487484	lino.
-5.284349	naciente
-5.61019	subcontinente
-4.944806	indio
-5.533054	cultivó
-5.215067	demuestran
-4.9472637	excavaciones
-5.199627	arqueológicas
-5.5323915	pakistán.
-5.400964	campesina
-6.240807	atrincheró
-5.880075	nilo.
-3.6044364	poco
-5.7919354	riego.
-4.152009	tiempo,
-4.3402624	desarrolló
-5.208532	lejano
-5.1254697	oriente,
-5.4113517	arroz,
-4.5441866	cultivo
-4.7889657	principal.
-4.9917088	indonesia
-6.318322	domesticar
-5.880566	taro
-4.251165	papa
-5.7758036	frijol
-5.2130537	complemento
-4.100886	fuentes
-5.9223323	hidratos
-5.482648	carbono,
-4.726722	pesca
-4.823939	altamente
-4.8922586	ríos,
-4.614609	costas
-4.902944	trajo
-5.004075	consigo
-4.749926	volúmenes
-4.8213577	proteínas
-6.0189166	esenciales.
-4.5094495	métodos
-4.9348884	agrícolas
-5.650518	originaron
-4.9060087	auge
-5.8082733	expansiones
-4.5465493	continúa
-4.82784	actualidad.
-6.1103835	sumerios
-5.41403	agrícolas,
-3.9318662	incluyendo
-5.720738	intensivo
-5.469477	escala,
-5.703396	riego,
-5.8492746	especializada,
-4.5459576	particularmente
-3.6691513	largo
-4.090359	vía
-5.68798	acuática
-3.9992583	ahora
-4.7553825	delta
-5.85019	pérsico
-5.0164	confluencia
-5.927231	tigris
-6.153331	éufrates.
-5.883526	domesticación
-3.741	especies
-6.179924	uros
-5.972781	ovino,
-4.717034	utilización
-4.4212713	escala
-4.290694	animales
-5.66945	bestias
-5.40869	carga.
-4.8313375	pastor
-4.264049	unió
-5.6482086	agricultor
-4.9265566	esencial
-4.727931	sociedades
-6.216698	sedentarias
-5.0998855	maíz,
-6.0852547	5200
-5.2688103	cristo.
-4.22131	cómo
-3.8553612	nació
-4.270227	pintura
-4.647767	tumba
-5.0974483	ca.
-6.2896547	1200 a. c.
-6.3129673	planeta;
-4.5847225	consideran
-5.6898775	primario,
-5.527567	influjo
-5.197786	agricultura.
-5.900175	neolítico,
-5.372888	evolucionó
-6.02231	recolección,
-4.5385137	caza
-5.491589	ganadería.
-5.5115113	cultivadas
-6.0924015	cebada.
-5.140949	pierden
-5.9752197	gestó
-5.95317	practicaron
-4.954897	surgieron
-5.451538	(zona
-4.642535	próximo
-5.580621	mesopotamia
-6.2960057	egipto),
-6.0175667	precolombinas
-4.547896	central,
-4.890193	desarrollada
-5.004729	chinos
-5.618445	transición,
-4.149445	generalmente
-6.0924015	gradual,
-5.179794	recolección
-4.5418587	razones
-4.6536746	pudieron
-5.576452	debidas
-4.196	cambios
-5.6337676	climáticos
-5.595154	deberse
-5.0316534	escasez
-6.323744	desertización
-5.541303	regiones.
-6.104581	ventajas,
-6.292184	antropólogos,
-4.982598	significó
-4.6294627	reducción
-5.917488	dieta,
-4.707326	creando
-3.5564063	especie
-4.6523066	individuos
-5.511932	vulnerables
-5.263079	dependientes
-5.2789025	enclave
-6.048281	predecesores.
-5.210524	dedicación
-5.604946	maternidad
-5.6601763	intensiva
-4.982722	permitieron
-4.94778	alimento
-5.511932	individuos.
-4.4265275	deja
-4.324554	objetos
-5.083264	móviles
-5.069984	trasladarse
-6.0439625	inmuebles,
-5.5632315	amplía
-4.7914014	surge
-5.8670144	especializadas,
-4.8344207	asentamientos
-6.0216293	linderos
-4.2616425	dan
-5.451172	jurídicos
-5.731067	gubernamentales.
-4.745978	mujer,
-6.077449	recluida
-5.791535	doméstico,
-5.70405	excluye
-4.326307	dando
-6.318322	patriarcado.
-4.2416344	roma
-4.2751503	tiempos
-5.882537	cultivaban
-5.9217916	leguminosas
-5.916953	hortalizas,
-4.9160275	republicana
-4.4965286	imperial
-6.1702385	incluía,
-4.6191087	pan
-5.759505	tríada
-5.058133	trilogía
-5.7879453	mediterránea.
-4.808426	trabajaba
-4.6184363	familia,
-3.9409397	modelo
-6.240807	literariamente
-6.1335216	idealizado
-5.106617	sencilla
-5.963757	(base
-5.1605453	morales,
-4.693942	familiares
-5.1127825	públicos,
-5.607036	res
-5.5282216	territorial,
-4.660226	esfuerzo
-5.9990945	bélico,
-5.360838	exigía
-5.448255	prolongado
-3.824326	militar
-5.4733095	ciudadanos,
-5.983864	arruinó
-5.404892	explotaciones
-3.9863675	modo
-4.516493	incluía
-5.2555532	agrícola,
-5.9111123	modestos
-5.5774293	lotes
-4.1163526	tierras
-5.2475834	repartidos
-5.1900983	veteranos
-6.122227	latifundio
-4.161283	manos
-5.2842245	aristocracia
-6.28714	senatorial.
-5.2446175	lenta
-4.640777	transición
-6.2663336	feudalismo,
-4.238115	crisis
-4.6774645	iii,
-5.7492113	sustituyeron
-6.26873	siervos,
-4.3578277	pasando
-6.311639	villae
-4.8895903	rurales
-5.468144	perjuicio
-6.1818876	decadentes
-5.2078	ciudades.
-5.7943473	basaban
-5.811197	arado
-5.0145893	romano,
-5.581361	tirado
-4.792845	habitualmente
-6.1137347	bueyes,
-6.001686	prensas
-5.6000223	aceite,
-3.6190782	algunas
-5.5460563	regadío
-4.8474336	labores
-5.9965186	salzburgo.
-5.1124473	surgen
-5.275716	innovaciones
-5.5689507	tecnológicas
-5.260006	positivos
-5.732813	campesinos.
-4.6802144	medieval
-5.131823	debieron
-5.6724834	dinamismo
-5.9383187	feudal,
-5.106038	suponía
-5.811616	siervos
-5.8252497	incentivo
-4.688696	mejora
-5.484619	esclavos.
-5.1698236	partidas
-4.1004286	alfonso
-4.2373314	castilla
-5.2036424	definen
-4.882471	campesinos
-6.285888	estamental
-4.4110794	cosas
-4.4019694	vivir
-6.2883954	mantenerse.
-5.8000274	campesinado
-5.3252015	medieval.
-6.277224	arados
-5.196461	pesados
-4.1498013	(con
-4.891956	ruedas
-4.306317	permitió
-4.843805	profundo
-4.8284936	suelos
-4.946977	(se
-5.671875	alpes,
-5.9121685	frágiles
-5.403087	mediterránea
-5.141845	seguían
-6.28714	romano).
-4.9993315	molino
-5.8086896	hidráulicos
-5.5462837	(posteriormente
-4.6394205	viento
-5.4339585	introducidos
-5.7289815	incrementaron
-5.3329334	productividad
-4.6076035	trabajo,
-5.8103595	paulatina
-6.119662	aperos
-4.1760273	tipos
-5.901205	hoces
-5.948546	trillo
-5.928327	(imagen
-5.6407866	buey
-4.581871	animal
-4.5850463	tiro
-4.931614	avances
-5.392093	tecnológicos
-5.31586	—el
-5.558522	herradura
-5.313056	permitían
-5.5304112	tirar
-5.0045977	cargas
-5.6410694	fácilmente.
-5.037823	eficiencia
-5.2352834	sumado
-4.6994147	introdujo
-4.916455	rotación
-4.3028455	hojas
-6.1750546	asociando
-5.598479	cereal
-4.550693	primavera
-6.0418196	leguminosa
-6.3142996	invierno),
-5.7466755	reducía
-5.89608	50 %
-4.340107	necesidad
-6.2784514	barbecho
-5.7499385	haciéndola
-4.318125	posibilidad
-6.1702385	asociada,
-4.933054	periodos
-4.4660883	impacto
-5.9245024	campesina,
-5.039167	positivo
-5.834878	agricultores,
-5.569191	contradicción
-6.0690217	ganaderos,
-5.5855775	privilegiada
-4.609206	concejo
-6.151492	mesta
-5.838879	ganaderas
-4.4601474	similares
-4.8121896	reinos
-4.668051	cristianos
-5.443917	monasterio,
-5.858989	benedictina
-6.2883954	expandidos
-4.8096766	extendió
-4.668232	prácticas
-4.261146	gestión
-4.424872	propiedades
-5.989513	alimentaria.
-5.088073	sicilia
-4.7148128	árabes
-5.0930157	murcia,
-5.589081	acequia
-6.160764	valencia),
-5.2237554	aprovechamiento
-5.0458765	laderas
-6.03405	inundables
-5.9223323	huertas,
-5.604425	generalización
-5.5524755	frutales
-5.673703	mediterráneos
-6.128272	verdura,
-5.701439	estereotipo
-4.677003	alimentación
-5.5646544	zonas,
-5.763241	musulmán,
-5.9006896	harto
-6.1213703	ajos
-4.8666654	llamaba
-3.925381	don
-5.2691708	quijote
-5.2837267	causaron
-5.398041	crecimiento,
-5.967945	cosechas,
-4.906426	dieta
-4.4127502	protagonista
-4.755751	plena
-4.9616585	europea.
-5.8971	aportaba
-4.7938905	sociales,
-5.7879453	excedentes
-5.534159	óptimo
-5.227127	medieval,
-5.680783	beneficiado
-6.2723503	benigno.
-4.301042	promedio
-6.245338	interanual
-4.6318965	causas
-5.3536186	leve
-6.159828	sostenido,
-5.1218557	sugerido
-4.3056755	producto
-4.8225174	incorporación
-6.2385592	aminoácido,
-6.1769958	cultivables
-3.7781594	costa
-5.6715713	marginales
-4.812904	contribuyó
-5.274131	alimentos,
-5.778516	inevitablemente
-5.4615374	conducía
-4.6452723	consecuencias
-5.3587627	negativas
-5.5684714	rendimientos
-5.8287263	lejanas
-5.2726736	xiv.
-5.0899796	manifestó
-4.8800583	signos
-5.9566703	precariedad
-5.2519546	imposibilidad
-4.055754	realizar
-5.483435	productiva
-4.4717855	renta
-4.8507714	nobleza
-4.8493967	estrecha
-5.1405015	naturales.
-5.9277787	prolongaron
-4.400193	económico
-5.641353	pudiéndose
-4.6004777	hablar
-4.927815	evidente
-4.894436	xvii,
-5.839326	reafirmó
-4.8814354	señores
-5.5456014	campesinos,
-5.2450724	inmensa
-4.745221	iniciar
-5.113118	acumulación
-4.7650332	necesaria
-5.865113	agraria.
-4.6929836	cambio,
-6.1769958	noroccidental,
-4.9945755	holanda
-4.5704327	inglaterra,
-4.3278875	políticos
-6.260399	(revolución
-4.700193	vieron
-5.1273746	acompañados
-4.759381	xviii,
-5.645053	intensificó
-5.716674	cultivos,
-5.6390915	productivas
-5.9212513	jethro
-5.7441545	cultivos.
-4.6425924	integración
-5.1286783	descubrimientos
-4.4075084	viejo
-5.509624	templadas
-5.8335524	vid,
-5.573048	cálidas
-5.002575	caña
-5.281741	azúcar,
-5.2422366	algodón
-5.2304153	café,
-5.8840213	patata,
-5.645053	tomate,
-5.7891383	pimiento
-6.243067	diversificaron
-5.686405	continentes.
-5.064093	industrial,
-5.9514303	caucho,
-4.283511	inicialmente
-5.871806	silvicultura
-5.9907784	amazónica,
-4.5104756	acabó
-5.5573525	extendiendo
-6.1469293	ecuatoriales
-4.7509828	cuidado
-4.312945	puso
-6.2318845	impedirlo.
-4.864102	ideología
-5.339248	liberalismo
-6.240807	propugnó
-4.530887	liberación
-4.0590787	mercado
-5.3627734	imposición
-4.5742526	privada
-4.8280144	ellas,
-4.263752	distintas
-4.7985053	manifestaciones
-6.100483	xviii;
-5.540853	mayorazgo
-4.4882226	cortes
-5.0848346	cádiz,
-5.548338	desamortización
-5.732114	mendizábal
-6.2442007	1836).
-4.7920823	mercados
-6.041107	unificados
-5.408856	implicaba
-5.1215987	unificación
-4.8027177	pesos
-5.7007885	medidas,
-5.7377386	liberalización
-6.090803	proteccionismo
-4.6657667	tarea
-6.012208	despotismo
-5.1464453	ilustrado
-5.2528806	supuestos
-5.692739	1765
-5.374725	motín
-6.3129673	esquilache,
-5.7647443	tramitación
-5.1721263	agraria
-5.1366725	efectivos
-6.23299	(informe
-6.0956163	jovellanos,
-6.319671	1795).
-5.3283606	austríaco
-5.2228894	abolición
-5.718363	servidumbre
-5.4620996	(josé
-4.3897157	ii,
-5.1495395	1861
-4.1595507	alejandro
-5.841118	ii).
-5.4519043	1789
-5.567753	suprimió
-6.160764	feudales,
-4.90253	propietarios
-4.554806	suficiente
-5.325749	implicados
-5.123917	caracterizó
-5.7352686	vitalidad
-5.313322	predominio
-5.506704	terratenientes
-5.989513	gentry
-3.9795964	logró
-3.6792412	bien
-5.153853	entrado
-4.2951794	xix
-5.940571	corn
-5.984488	laws
-4.555178	precio
-4.8447995	industriales
-6.3076773	patrocinaron
-5.941701	mánchester.
-5.847904	drástica
-5.215598	expectativas
-4.880599	ruptura
-5.031236	solidaridad
-4.5656924	tradicionales
-4.707029	desaparición
-5.6484966	comunales
-5.9180236	madoz,
-4.832392	condujo
-5.9327393	imparable
-5.3944945	éxodo
-4.4699287	rural
-6.0216293	alimentó
-5.4559536	suburbios
-5.53794	industriales.
-4.8012	barra
-4.1062584	corte
-4.2231455	originalmente
-5.40555	tirada
-5.466246	caballo.
-5.9601994	abonos
-5.0860953	químicos
-4.983282	etc.)
-5.953751	mecanización
-4.5912137	científicos
-6.18883	edafología
-4.3640833	ingeniería
-5.6691475	transformaron
-4.5944834	conexión
-5.383557	tecnología.
-4.294656	obstante,
-5.8492746	climatología
-5.53794	periódica
-5.698519	irrupción
-5.5954084	plagas
-5.27328	irlandesa
-5.657521	afectación
-6.0972323	filoxera
-5.4762063	1863,
-5.530851	periódicas
-5.0922146	desarrollados
-6.251069	subdesarrollados
-5.8930335	aspectos:
-5.617103	caracterizados
-4.862307	especializada
-4.4197206	altos
-5.59439	(incluso
-4.9636183	denominados
-4.6657963	segundos
-5.589081	subsistencia
-5.429238	plantación
-6.19487	monocultivo
-4.946119	destinados
-5.8830314	presiona
-5.4563236	reducidos
-4.2510614	verde
-4.488442	salto
-6.0195932	cualitativo
-6.186835	tecnificación
-4.916455	basándose
-5.4350147	avanzadas
-4.7734795	semillas
-5.615765	rendimiento,
-5.146627	experimentó
-4.865429	impulso
-5.691783	biotecnología
-5.5288777	simultáneamente,
-5.396909	generalizada
-6.2883954	plaguicida
-6.0333505	abonado
-6.2784514	intensivo,
-3.9907107	problemas
-5.7060194	medioambientales
-4.975505	contaminación
-5.869404	acuíferos
-5.8261166	pretendido
-5.0976915	responder
-5.5007176	planteamiento
-4.379578	denominada
-5.8041306	sostenible.
-3.826621	muchas
-4.4511843	planeta
-5.205716	precisa
-4.535127	enorme
-5.154407	ayudado
-5.580128	técnicos,
-6.2545443	falte
-5.4081926	invertir
-5.8599253	maquinaria,
-5.7789044	abono
-5.781636	químico,
-5.1378264	maquinaria
-5.161859	moderna.
-6.2985725	tractor,
-5.961382	exigentes
-4.6572466	tareas
-5.830037	cosechar
-5.108441	realizarse
-4.702014	rápida
-4.0066414	academia
-4.0169764	unidos.
-4.782211	logros
-4.616264	xx.
-3.570201	unidos
-5.0327687	necesitaba
-5.7197185	granjero
-5.4131913	alimentar
-4.540464	personas,
-4.9859056	hoy,
-5.2571883	tecnología,
-6.3011546	agroquímicos
-4.6949353	variedades
-5.4664354	actuales,
-4.906635	130
-4.5487194	personas.
-4.738967	costo
-6.057049	energético,
-5.3925724	combustibles
-5.8599253	fósiles.
-4.5777636	difusión
-5.529096	informática,
-5.4988766	ayuda,
-4.8568263	facilitar
-4.843805	informes
-6.2385592	meteorológicos,
-5.0991526	mercado,
-5.01172	animales,
-4.0378985	tales
-5.483238	flor,
-5.9479713	ornamentales,
-5.3354483	piel,
-5.6622534	cuero,
-5.6592894	plástico,
-6.18883	cáñamo,
-4.72956	combustible
-3.8964078	propio
-6.0916014	etanol,
-4.561192	obteniendo
-4.9483542	drogas
-4.9597664	legales
-5.343367	ilegales
-6.068264	marihuana,
-6.144214	opio,
-5.12006	creadas
-4.948182	genética
-4.907157	sustancias
-5.285097	especializadas
-6.198944	(como,
-4.979685	obtención
-5.625492	modificando
-3.9287295	planta
-5.2319584	manipulación
-5.7024164	genética,
-5.430108	nutrientes
-5.0659723	semilla
-5.18442	aumentado
-5.2922688	enormemente
-4.0831985	unidad
-5.217089	superficie,
-4.9205317	vuelto
-5.411686	sensibles
-5.5442395	enfermedades,
-5.359059	conlleva
-4.125821	prueba
-5.4738874	resurgimiento
-4.5021687	antiguas
-5.71904	variedades,
-5.3687835	resistentes
-6.1626425	plagas,
-4.823206	reducido
-5.505666	exigencia
-4.871068	obra.
-5.4348383	pobres,
-5.581855	carecer
-5.791535	necesarios.
-4.662392	depende
-5.990145	biológicas.
-6.1626425	irrigación,
-5.9807568	drenaje,
-4.4541206	conservación
-5.7430787	sanidad,
-5.5703926	vitales
-5.8158307	exitosa,
-5.660769	exigen
-4.7696924	especializado
-4.7793584	ingenieros
-4.556155	química
-6.0497303	insecticida
-5.126854	reparación
-5.835764	suelos,
-4.2300596	análisis
-5.8820434	mejoradas
-6.1673746	germinar
-4.5824647	rápido
-5.2555532	adaptarse
-5.173186	breves
-4.2287207	distintos
-6.02231	pesticidas
-4.6733875	capaces
-5.9590197	exterminar
-5.529315	verdes.
-4.32569	método
-4.90768	soluciones
-5.697551	químicos,
-4.480797	ayudar
-6.077449	aumenta.
-4.9713044	modernas
-5.216876	contribuido
-5.039876	procesamiento
-5.7754173	congelado
-5.925592	deshidratación
-4.3623953	abierto
-5.681715	horizontes
-5.115645	comercialización
-4.597598	posibles
-5.8149843	mercados.
-5.5982223	simbología
-4.855386	diosa
-6.119662	ceres,
-5.230635	coronada
-6.28464	espigas,
-3.8964486	lado
-4.9872236	arbusto
-4.501039	empieza
-6.293454	florecer.
-5.402596	cuerno
-5.029917	abundancia
-4.8461146	lleno
-4.0117846	clase
-4.7931666	frutos
-5.632655	pala
-6.059269	pintan
-5.2063403	apoyada
-6.26753	zodiaco,
-5.406704	significar
-6.1078873	arreglan
-5.8442717	revestida
-6.2009954	ropaje
-4.8785386	verde,
-4.4665804	símbolo
-5.550172	esperanza.
-3.8489926	medalla
-3.9276764	mujer
-6.2145715	echados
-4.5651455	pies
-4.0574355	león
-5.3375554	toro,
-5.074955	emblema
-4.8904443	otro,
-6.210349	labranza.
-4.876099	grabada
-5.6444817	vaticano,
-4.249403	ve
-4.597906	alma
-6.1145763	meditación.
-5.221917	genio
-5.2206244	simboliza
-4.2771916	niño
-5.793542	desnudo,
-5.689561	fisonomía
-4.9616585	coronado
-6.144214	manojo
-5.614964	espiga
-5.515099	racimo
-6.186835	uvas.
-5.8175282	algodón.
-5.694017	secano
-5.2490735	ávila,
-4.8658566	criterios
-6.057788	clasificación:
-5.8689246	agua:
-4.499462	producida
-5.024747	aporte
-6.2318845	agricultor.
-4.8316445	lluvia
-5.965547	subterráneas.
-6.0884166	agricultor,
-4.9961767	suministro
-5.879584	capta
-5.6581097	cauces
-5.4854097	superficiales
-5.7106485	artificiales,
-4.950948	extracción
-5.5603995	subterráneas
-6.141516	pozos.
-4.53444	magnitud
-6.0988545	mercado:
-4.329792	consiste
-4.638012	necesidades
-4.3005376	técnico
-5.9560847	primitivo.
-6.1635847	industrial:
-5.9952364	cantidades,
-5.872288	costosos
-4.8904443	producción,
-4.186053	obtener
-6.285888	industrializados,
-5.922874	tecnológico.
-5.587576	definirse
-5.1126986	mercado.
-6.1938577	pretenda
-4.6264677	rendimiento
-5.9027543	determinará
-5.2135825	huella
-4.361294	busca
-5.1999345	espacio.
-5.4509892	desgaste
-5.3360095	sitio.
-4.2225723	decir,
-4.8412375	provoca
-6.2114005	ecológicas,
-4.791081	beneficios
-4.381771	suelen
-5.916419	objetivos:
-5.7262163	tradicional:
-4.1359696	utiliza
-4.9744663	típicos
-4.4835668	lugar,
-5.7939444	configurado
-6.2821536	prolongados.
-4.306697	basada
-6.2784514	intensivos,
-5.5620494	enfocada
-6.2592216	—pero
-5.200037	mover
-5.2412205	comerciales.
-5.173572	biológica
-5.3072395	ecológica
-5.8855104	(son
-5.065521	crean
-6.206167	respeten
-5.768906	ecológicas
-4.06154	lugares
-5.8469934	procurando
-5.355816	respetar
-5.567753	distribuciones
-5.557586	vegetales,
-5.824817	fomentando
-5.0273585	suelo.
-5.9920473	natural:
-5.3186817	recogen
-5.168772	ambiente.
-4.446237	aspectos
-4.5390954	compañías
-5.426464	productoras
-6.26514	procesadoras
-6.0326524	preocupan
-4.582564	general.
-4.2583914	efecto
-5.9196343	desastroso
-4.4927683	entorno
-5.0058427	causado
-4.3602095	anteriormente
-5.4873934	fértiles
-4.7340975	dejado
-5.736678	serlo
-5.1815596	completo,
-4.620079	ocurrió
-4.913528	medio,
-5.4480734	antaño
-5.518289	desierto.
-5.460228	desechos
-5.3722777	orgánicos
-5.3042297	nitrógeno
-5.5312905	fósforo
-4.996305	residuos
-4.9885454	suelo,
-5.113118	aire.
-4.900364	causar
-5.9965186	desequilibrios
-5.9920473	biota
-6.180905	indiscriminado
-5.2161303	erosión
-5.4123545	terreno.
-5.59236	agotamiento
-4.906374	minerales
-6.2883954	salinización
-5.9201727	secas.
-4.419431	competencia
-5.6876645	alimentación.
-6.1451173	agotando
-5.3793507	obligando
-4.5367727	abandonar
-6.2476215	arar
-4.5236735	círculo
-5.994597	vicioso
-5.3437953	destruyendo
-5.4014525	entorno.
-4.485542	claro
-5.2752275	progresiva
-5.6265864	deforestación
-4.736808	selva
-5.5044236	amazonas.
-3.7422137	equipos
-4.722192	herramientas
-5.77619	tractor
-5.9299765	maquinarias
-4.4487762	utilizan
-4.699188	dirigir
-3.8491206	fuerzas
-6.1721582	energía;
-4.8319964	mecanismos
-4.189854	motor
-5.069528	emplean
-5.7307186	mejoran
-5.5828443	cultivo.
-4.644044	máquina
-5.8070264	útil,
-5.3282228	diseñadas
-5.228768	moverse
-5.023379	facilidad
-4.3883524	terreno
-4.501593	potencia
-5.07166	tracción
-5.8561907	pedales
-5.44248	freno
-4.8950453	estabilidad
-5.1900983	fuerza,
-5.553863	ruedas,
-4.3153596	capaz
-5.414534	desplazarse
-4.118643	velocidad
-4.493413	eje
-4.5979314	opera
-5.214112	mediana
-5.798804	versátil
-6.0175667	implementos
-5.1442747	venido
-6.2947283	desarrollando.
-4.727067	ideal
-5.4760127	parcelas
-4.8036637	frecuentes
-5.547652	asiático,
-5.6528397	mundo;
-5.1583033	gasolina
-5.2682095	diésel
-4.189854	200
-5.07975	cc
-4.2954984	queda
-6.0697813	compensada
-4.8890886	escasa
-5.192713	velocidad,
-5.59643	potencia.
-5.541979	emplearse
-4.4863343	relativamente
-5.0388837	asiento
-5.7923365	conductor,
-4.6197824	empleo
-4.759418	parcialmente
-5.8183794	tractores
-5.0891843	grandes,
-4.4539733	llevado
-3.82286	cabo
-4.8007903	países,
-5.9394436	limitándose
-5.666737	jardinería
-5.9468246	ornamento
-5.1852126	variar
-4.174651	toma
-4.9433265	bombas
-5.1062036	riego
-5.90587	fines.
-5.4311547	seguirá
-6.2487674	fragmentados
-5.8991475	relieve.
-5.846084	potente,
-5.8594565	peine
-6.2522244	cortador
-6.302451	segar
-5.905349	maduras
-6.2114005	rastrillo
-4.547051	delante
-4.093832	gira
-5.751762	horizontal.
-5.0731897	diseñados
-5.7089896	surcos
-6.2883954	fertilizar
-4.5119247	diseñado
-5.865587	tierra;
-6.319671	cuchilla,
-6.2545443	reja,
-6.323744	talón,
-5.696584	cama,
-5.5559535	timón
-6.159828	mancera,
-4.8993874	sirven
-5.142294	cortar
-6.2396817	nivelar
-5.1919065	sostener
-4.298873	piezas
-6.197922	arado,
-5.3284984	fijar
-4.7085814	servir
-6.319671	empuñadura.
-4.3680983	conocidos
-6.0049467	discos:
-4.407343	discos
-6.306365	cóncavos
-6.005602	profundos.
-5.8344355	superficial,
-5.7066774	remover
-4.621214	capa
-6.0396867	subsuelo,
-5.069376	profundidad.
-5.453005	porciones
-6.2318845	removidas
-4.9814796	compuestas
-5.651677	armazón
-5.105295	metal,
-4.8287554	dientes
-5.9958773	enganche
-4.8993874	depósito
-5.7391562	líquido,
-4.7286234	bomba
-5.534159	presión,
-6.0751343	tapa,
-5.385125	boca,
-4.9811697	tanque
-5.42097	válvula
-6.2568765	correas,
-5.0165343	llave
-5.938881	boquilla
-4.5241494	sale
-4.910884	líquido
-3.89205	sea
-6.2896547	fungicida
-5.0017943	coloca
-4.960416	espalda
-4.0387397	lleva
-5.170494	colocada
-4.340787	boca
-5.253808	nariz
-6.2960057	mascarilla
-4.4786873	fuertes
-5.895062	olores
-5.8900084	despedidos
-4.9702153	sustancia
-5.406704	hagan
-5.7241535	daño.
-6.26514	directa:
-5.0087385	colocar
-5.1406803	cama
-6.1265364	siembra,
-6.234098	laboreo
-5.9422674	previo.
-5.366069	distribuir
-6.2419353	tolva
-4.8958592	tubo
-4.3705525	caída
-6.0425324	fertilizante
-5.520429	distribuidor
-6.322382	empacar
-5.4014525	paja
-5.624128	herbáceas
-6.27114	forrajeras
-5.3021483	balas
-4.524279	(también
-4.5985475	llamadas
-4.4900594	instrumentos
-6.049005	labrar
-5.3512874	cargar
-5.11666	arena,
-5.069528	transportar
-5.31747	material,
-5.302408	variadas
-5.4585505	palanca
-4.7367373	acero
-5.691465	terminadas
-4.566646	hoja
