\data\
ngram 1=147
ngram 2=1850
ngram 3=9117

\1-grams:
-3.2095685	<unk>	0
0	<s>	-3.7094643
-1.517555	</s>	0
-1.7081096	a	-1.0259976
-1.7233236	n	-0.8496541
-1.7554501	d	-0.72774535
-1.8344684	o	-1.0213922
-1.7901443	r	-0.83861226
-1.6654263	,	-0.55777985
-1.8213362	f	-0.64449245
-1.7724508	i	-1.0385864
-1.7337706	c	-0.7931039
-1.7724508	l	-0.8570239
-1.744475	m	-0.7704656
-1.7233236	e	-1.0009046
-1.784166	t	-0.82372653
-1.7901443	p	-0.81330365
-1.7554501	s	-0.88144255
-1.8411865	u	-0.9359303
-1.9395435	q	-0.37699848
-1.8480102	ã	-0.67730916
-2.6012187	±	-0.11519906
-2.6871016	­	-0.13601528
-1.7610433	b	-0.72394663
-1.7337706	.	-0.92258906
-1.8085893	h	-0.7514651
-2.4977088	¡	-0.15944307
-1.9068414	y	-0.7023078
-1.8619878	g	-0.72600204
-1.9842205	z	-0.58619285
-2.6012187	³	-0.124086305
-2.0556662	7	-0.6532801
-2.0784411	8	-0.69365287
-1.6654263	â	-0.752395
-1.8691491	2	-0.70021033
-2.0340264	6	-0.6872884
-1.9842205	4	-0.68439806
-2.0556662	(	-0.39809564
-2.0556662	0	-0.6025494
-1.8764304	1	-0.7810167
-1.6609325	)	-0.7750615
-1.8278526	v	-0.6224477
-1.9568667	j	-0.49390817
-1.8619878	k	-0.6180054
-2.737385	²	-0.107497275
-1.9657946	x	-0.4680691
-2.090293	9	-0.71029276
-2.6871016		-0.13237965
-2.794262		-0.054164104
-2.794262	¨	-0.013792802
-1.8691491	:	-0.4199844
-1.7901443	;	-0.49794438
-2.859727	©	-0.144515
-1.9068414	3	-0.68488514
-2.5639062	º	-0.11992353
-2.4977088	*	-0.20795678
-1.7901443	-	-1.0043795
-3.0306704		-0.04140677
-2.794262		-0.036585253
-2.9368417		-0.071805514
-2.6871016		-0.08285206
-2.0235977	5	-0.7009111
-1.8913698	"	-0.4727444
-1.9842205	'	-0.40624204
-2.9368417	¯	-0.01271612
-2.4402795	°	-0.062390745
-1.8619878	/	-0.5381113
-2.4141827	%	-0.48117763
-2.794262	¼	-0.06520353
-2.1412253	+	-0.13985904
-2.6420405	«	-0.17351758
-2.6871016	»	-0.088925146
-2.0447116	w	-0.47060832
-2.794262	§	-0.05881952
-2.6012187	£	-0.007827917
-2.794262	#	-0.06863385
-2.9368417	¢	-0.1195948
-2.6871016	®	0
-2.737385		-0.09629539
-2.0340264	å	-0.19746588
-1.9568667	î	-0.9386218
-2.6420405	¸	-0.0071416013
-2.737385	@	0
-2.6871016		-0.01506869
-2.6012187		0
-2.230945	^	-0.13770196
-2.115013	_	-0.112605765
-2.794262	¿	-0.016604733
-2.2838733	?	-0.12793797
-2.230945	\	-0.18996266
-2.737385	]	0
-2.4977088	{	-0.09603571
-2.169122	}	-0.3255707
-2.4402795	|	-0.07346407
-2.9368417	¶	-0.014402553
-2.2655044	á	-0.33204147
-1.9937352	ï	-0.7496623
-2.4680455		-0.067877196
-2.794262		-0.013792802
-2.5639062		-0.044969127
-2.4402795		-0.10311827
-2.794262	½	-0.030139457
-2.6420405	µ	-0.0353725
-2.859727	¦	-0.034616444
-1.9937352	=	-0.17899
-2.2838733	&	-0.0040920647
-2.9368417	ª	-0.04870143
-2.6420405	¤	-0.0032061862
-3.150522	<	0
-2.794262	>	-0.14362575
-2.4402795	$	-0.12861641
-2.5295475		0
-2.859727		0
-2.737385		-0.050067317
-2.6871016	¬	-0.036086977
-2.6012187	!	-0.13418171
-2.737385		-0.0058576637
-2.3895655	ø	-0.099618345
-2.5639062	ù	-0.04970247
-2.6871016		-0.025815882
-2.0235977	ä	-0.3880298
-2.737385	ì	0
-2.794262		0
-2.737385	´	-0.005654345
-2.6420405	¹	-0.19035584
-2.9368417		0
-2.737385	~	-0.04870143
-2.6871016		0
-2.6420405		-0.049783163
-2.5295475	ë	-0.2685645
-2.6420405		-0.047297683
-2.737385		-0.08294069
-2.6420405	à	0
-2.9368417	¥	0
-2.794262		-0.02743399
-2.794262		0
-2.5639062	ê	0
-2.6871016	¾	0
-2.6871016	ð	-0.01506869
-2.859727		-0.028038112
-2.3030534	é	-0.24174193
-2.737385	·	-0.06801153
-2.6420405		0
-2.794262		0
-2.5639062	è	0
-2.3895655	ç	0
-2.3662689	æ	0

\2-grams:
-1.3227137	a </s>	0
-1.2863559	n </s>	0
-1.2562566	d </s>	0
-1.3569617	o </s>	0
-1.3818712	r </s>	0
-0.48571616	, </s>	0
-1.1355368	f </s>	0
-1.4010496	i </s>	0
-1.2668488	c </s>	0
-1.3193753	l </s>	0
-1.2325796	m </s>	0
-1.4016575	e </s>	0
-1.3266644	t </s>	0
-1.3391243	p </s>	0
-1.2777079	s </s>	0
-1.3222688	u </s>	0
-0.99222666	q </s>	0
-1.4233825	ã </s>	0
-1.0660045	± </s>	0
-1.5202055	­ </s>	0
-1.203843	b </s>	0
-0.9640842	. </s>	0
-1.2584918	h </s>	0
-1.0635028	¡ </s>	0
-1.167328	y </s>	0
-1.3674213	g </s>	0
-1.2039386	z </s>	0
-1.0625936	³ </s>	0
-1.1110259	7 </s>	0
-1.1440177	8 </s>	0
-0.8820534	â </s>	0
-1.1130146	2 </s>	0
-1.1041857	6 </s>	0
-1.0778892	4 </s>	0
-1.741375	( </s>	0
-1.2940047	0 </s>	0
-1.1842623	1 </s>	0
-0.6335296	) </s>	0
-1.1887677	v </s>	0
-1.1361818	j </s>	0
-1.1330521	k </s>	0
-1.1261766	² </s>	0
-1.0529226	x </s>	0
-1.1512138	9 </s>	0
-0.9246916	 </s>	0
-1.2985837	 </s>	0
-0.6156574	: </s>	0
-0.19744122	; </s>	0
-1.2498802	© </s>	0
-1.1130141	3 </s>	0
-1.3048502	º </s>	0
-0.900468	* </s>	0
-1.5322107	- </s>	0
-1.2471364	 </s>	0
-1.1149961	 </s>	0
-1.1376667	5 </s>	0
-0.669823	" </s>	0
-0.9692277	' </s>	0
-0.8198742	° </s>	0
-1.0747951	/ </s>	0
-0.69273	% </s>	0
-1.1087166	¼ </s>	0
-0.8455918	+ </s>	0
-1.1396712	« </s>	0
-1.0720899	» </s>	0
-1.2889317	w </s>	0
-1.1069894	§ </s>	0
-0.851241	# </s>	0
-0.68600047	¢ </s>	0
-1.1894102	 </s>	0
-0.60170996	? </s>	0
-1.1552494	\ </s>	0
-0.43887085	} </s>	0
-0.9319286	| </s>	0
-1.0555592	ï </s>	0
-1.0160471	 </s>	0
-0.67894995	 </s>	0
-1.1106073	½ </s>	0
-0.9802329	¦ </s>	0
-0.8327822	= </s>	0
-1.4038073	& </s>	0
-0.8754027	ª </s>	0
-0.5179772	> </s>	0
-1.3464183	$ </s>	0
-1.0603735	 </s>	0
-1.0427175	¬ </s>	0
-0.5404699	! </s>	0
-0.52732825	¹ </s>	0
-0.8754027	~ </s>	0
-1.1751907	 </s>	0
-0.96514547	 </s>	0
-0.8033839	 </s>	0
-0.82050437	· </s>	0
-1.1358794	<s> a	-2.793586
-1.6918855	a a	-0.4939313
-1.234806	n a	-2.6914287
-1.1948867	d a	-2.6024747
-1.6378621	o a	-1.310413
-1.2084959	r a	-2.8675692
-1.0964102	f a	-1.6785929
-1.5252829	i a	-2.504842
-1.1945276	c a	-2.7537498
-1.1406696	l a	-3.0556386
-1.0969224	m a	-2.5928996
-1.5914531	e a	-2.046775
-1.2703769	t a	-2.7741318
-1.1445065	p a	-2.4599636
-1.3284049	s a	-2.2417085
-1.4794711	u a	-2.156758
-1.2124898	q a	0
-1.603934	± a	-1.6288168
-1.4401786	­ a	-2.5022497
-1.0885453	b a	-2.1401813
-1.503781	. a	-0.59913194
-1.1260855	h a	-2.161099
-1.181215	y a	-1.4310343
-1.1232175	g a	-2.0477068
-1.0711621	z a	-1.9337759
-1.887625	2 a	0
-1.7405434	( a	-0.9130069
-2.0798342	0 a	0
-0.9718913	v a	-2.2260766
-0.8965628	j a	-1.5770019
-1.1793399	k a	-0.8772694
-1.2889415	x a	-0.8651689
-1.5881658	 a	0
-1.485993	: a	0
-1.8089123	; a	0
-1.6304445	© a	-1.6304126
-1.6561564	º a	-1.046948
-1.4932495	* a	-0.13324569
-1.384393	- a	-0.5485685
-1.5350647	 a	0
-1.5478814	 a	-0.3477952
-1.941463	" a	-0.34721583
-1.5281166	' a	-0.3061068
-1.3342751	/ a	0
-1.594673	« a	-0.084231116
-0.9124883	w a	-1.0752875
-1.4454017	§ a	0
-1.2815064	{ a	0
-1.7607739	<s> n	-2.305492
-1.431598	a n	-2.8963227
-1.9008507	n n	-1.492703
-1.795153	d n	-0.8322019
-1.4708613	o n	-2.7671187
-1.624081	r n	-1.8221736
-2.0067484	f n	-0.21918882
-1.305083	i n	-2.6567574
-1.694702	c n	-1.4672011
-1.877932	l n	-0.47744453
-1.7899823	m n	-1.4274508
-1.3264407	e n	-3.0340466
-1.7380887	t n	-0.8084295
-1.8779376	p n	-0.07928673
-1.7935029	s n	-0.9198959
-1.2659094	u n	-2.6463218
-1.6130506	± n	0
-1.6614203	­ n	-1.8025422
-1.9487302	b n	-1.0754921
-1.8655356	. n	-0.23436955
-1.6627092	h n	-0.9065479
-1.5449383	¡ n	-1.965684
-1.4801996	y n	-0.50395113
-1.5137576	g n	-1.7084942
-1.7287669	z n	0
-1.6718726	³ n	-2.5959797
-2.1791193	2 n	-0.8053628
-1.5093651	( n	-0.63756114
-2.0653675	v n	-0.56157905
-2.1025927	k n	0
-1.469182	¨ n	-0.780663
-1.6395018	© n	-1.9397975
-1.666339	º n	-1.8063724
-1.7657123	* n	0
-1.5839336	- n	-0.5552452
-1.5567334	 n	0
-1.9501648	" n	-0.21309842
-1.5805572	/ n	0
-1.6121119	¼ n	-0.20158403
-1.3871834	« n	-0.19210823
-1.673281	w n	-0.3613991
-1.3643847	¢ n	0
-1.4608967	¶ n	0
-1.6199996	 n	-0.56157905
-1.582934	¤ n	0
-0.9215366	<s> d	-2.99259
-1.4688182	a d	-2.6218166
-1.5257796	n d	-2.384775
-1.8451465	d d	-0.4627989
-1.5218807	o d	-2.140539
-1.6015314	r d	-1.8422613
-1.4253383	i d	-2.3898375
-1.6993958	c d	-0.41871548
-1.7255306	l d	-1.4153873
-1.7961507	m d	0
-1.4789273	e d	-2.2937722
-2.0666661	t d	0
-1.7883571	p d	-0.34514868
-1.8991486	s d	-1.6183002
-1.4179016	u d	-1.9507624
-1.6815107	­ d	-1.4715655
-1.7888367	b d	-0.58767617
-1.6389177	. d	-0.40495607
-1.7549555	h d	0
-1.7504671	¡ d	-1.1730039
-1.645388	y d	-0.3518627
-1.914898	g d	-0.74919105
-1.6930517	³ d	-1.4417963
-1.9774836	8 d	0
-1.6632725	( d	-0.8612118
-1.7648982	v d	-0.31846422
-1.6192929	 d	0
-1.6982615	: d	0
-2.0477355	; d	0
-1.6582035	© d	-1.0896767
-2.2192862	3 d	0
-1.6874498	º d	0
-1.4099944	- d	-0.7712896
-1.5633386	 d	-0.4106518
-1.5749977	 d	0
-1.9681096	" d	-0.5105035
-1.7798454	' d	0
-1.510869	/ d	0
-1.7893426	« d	-0.34514868
-1.6413965	 d	0
-1.7000519	<s> o	-2.4662094
-1.75256	a o	-0.66812134
-1.2400495	n o	-2.3964217
-1.23324	d o	-2.4900212
-1.6831671	o o	-1.0259899
-1.2458767	r o	-2.656133
-1.0898685	f o	-2.0092278
-1.6680284	i o	-2.4952428
-1.2088872	c o	-2.872847
-1.2106102	l o	-2.5855126
-1.2070602	m o	-2.271041
-1.6472034	e o	-1.7266731
-1.3360124	t o	-2.607192
-1.261787	p o	-2.5182717
-1.366538	s o	-2.2496896
-1.743536	u o	-1.0803033
-1.7940835	q o	0
-1.6757094	± o	-1.8637427
-1.7285168	­ o	-1.5635839
-1.165315	b o	-1.83038
-1.7317464	. o	-0.45422012
-1.1548743	h o	-1.6979603
-1.2461084	y o	-1.5019326
-1.2665955	g o	-1.9882072
-1.1682508	z o	-1.4200014
-2.1258235	( o	-0.53243965
-1.1940644	v o	-1.9644514
-1.0049106	j o	-1.6063802
-1.2208667	k o	-0.5974126
-1.3033935	x o	-0.85335386
-1.6686008	 o	0
-1.7017177	© o	-0.50581837
-1.6938446	- o	0
-2.009737	" o	0
-1.8208321	/ o	-0.5703527
-1.8451645	« o	0
-1.0905644	w o	-0.91806155
-1.5011189	§ o	-0.50581837
-1.4915901	£ o	-0.9954501
-1.6288851	<s> r	-2.3894417
-1.4432786	a r	-2.8033335
-1.9648535	n r	-0.9735852
-1.4761779	d r	-2.3077042
-1.3990769	o r	-2.7924185
-1.5800952	r r	-2.4523778
-1.1850259	f r	-2.2667007
-1.4267673	i r	-2.0099323
-1.3813437	c r	-2.2653484
-2.147807	l r	-1.4422387
-1.8977135	m r	0
-1.5040139	e r	-2.9836931
-1.2857213	t r	-3.1315591
-1.2114556	p r	-2.873231
-1.8346189	s r	-0.43260366
-1.3905249	u r	-2.286951
-1.7025757	­ r	-1.2863101
-1.2357322	b r	-2.6260145
-1.7953258	. r	-0.18544783
-1.634055	h r	-0.91287327
-1.7739242	¡ r	-1.4316846
-1.5454437	y r	-0.87631536
-1.1767397	g r	-2.8412306
-1.7153169	³ r	-1.406677
-1.9596616	( r	-0.6930448
-1.588994	v r	-0.264578
-2.011029	j r	0
-1.5748472	k r	-0.4748631
-1.5039569	¨ r	-0.7361191
-1.8077825	: r	0
-2.069015	; r	0
-1.6777469	© r	-1.7245094
-1.7096394	º r	-1.1453243
-1.6680822	- r	-0.64385355
-1.5964861	 r	0
-1.594064	 r	-0.94120437
-1.9232374	" r	-0.24686882
-1.8079267	/ r	0
-1.6554639	¼ r	0
-1.4067732	« r	-0.25075775
-1.6074399	w r	-0.53443825
-1.4393506	 r	-0.66148543
-1.4223472	\ r	0
-1.6639026	 r	0
-3.717611	<s> ,	-1.7338274
-1.492512	a ,	-2.7561204
-1.4006029	n ,	-2.8706071
-1.4102039	d ,	-2.0737686
-1.5294558	o ,	-3.1479118
-1.4824488	r ,	-2.4806752
-1.5018928	f ,	-1.0458789
-1.4816984	i ,	-2.4922478
-1.4592414	c ,	-1.8851016
-1.5102316	l ,	-2.9099185
-1.4334146	m ,	-2.0888093
-1.6028316	e ,	-2.6980321
-1.4914641	t ,	-2.189529
-1.4800571	p ,	-0.92867804
-1.3683965	s ,	-3.0135233
-1.4595596	u ,	-1.973389
-1.3917603	q ,	-0.86865366
-1.3590047	± ,	-1.0033523
-1.6238297	­ ,	-2.3043823
-1.4193257	b ,	-1.5125532
-1.4159558	. ,	-2.04947
-1.468723	h ,	-1.0686945
-1.6868567	¡ ,	-2.006238
-1.3013809	y ,	-2.419646
-1.637398	g ,	-2.2303815
-1.3217098	z ,	-2.5762239
-1.3741118	³ ,	-1.9445323
-1.2307615	7 ,	-1.0369889
-1.3321577	8 ,	-1.1832278
-1.2789096	2 ,	-1.5385906
-1.2752261	6 ,	-1.5150331
-1.2493087	4 ,	-1.4450868
-1.3131238	0 ,	-1.692945
-1.2365061	1 ,	-1.5584098
-0.75051016	) ,	-2.834049
-1.4442754	v ,	-1.988629
-1.5139219	j ,	-1.035432
-1.4247943	k ,	-2.0499775
-1.2586792	² ,	-1.526231
-1.2307068	x ,	-1.8982745
-1.312845	9 ,	-1.365652
-1.5591211	 ,	-1.6964927
-1.6043539	© ,	-1.66611
-1.2652143	3 ,	-1.4268984
-1.3674138	º ,	-1.8484503
-1.950885	- ,	-1.1696837
-1.5188375	 ,	-1.5831358
-1.1580467	 ,	-1.8095323
-1.3241789	5 ,	-1.4652963
-0.8823304	" ,	-2.26817
-1.147213	' ,	-0.52067626
-0.77962554	% ,	-1.8095323
-1.6985555	+ ,	-1.0033523
-1.5099465	« ,	-0.86865366
-1.4696064	» ,	-2.2252011
-1.509998	w ,	-1.1696837
-1.4582354	 ,	-1.3043822
-1.1918904	\ ,	-0.936046
-1.4490018	 ,	-1.3835635
-1.2292202	 ,	0
-1.6620753	<s> f	-2.381859
-1.6557925	a f	-1.7816203
-1.9712626	n f	-2.2070773
-1.9649384	d f	0
-1.58147	o f	-1.8491524
-1.9387697	r f	-1.3214736
-1.4902043	f f	-0.4065887
-1.577431	i f	-2.0460513
-1.9743664	c f	-0.10312533
-1.8491399	l f	-1.1283522
-1.6632926	e f	-1.9863555
-1.9617879	t f	-0.14251734
-1.8976308	p f	-0.4026634
-1.7499783	s f	-1.4516432
-1.6310524	u f	-1.2735096
-1.7209456	­ f	-2.2856307
-2.1534822	b f	-0.94956726
-1.7304904	. f	-0.6292246
-1.7944887	¡ f	-1.6545238
-1.9318079	g f	0
-1.734785	³ f	-1.6969471
-1.977817	( f	-0.8287507
-1.8829839	x f	-1.1722699
-2.0875807	; f	0
-1.6947328	© f	-0.8158032
-1.648898	- f	-0.38541102
-1.610618	 f	0
-2.1648304	" f	0
-1.9940906	' f	0
-1.5992482	/ f	-0.33033928
-1.6494651	« f	0
-1.2855234	_ f	0
-1.4307606	\ f	-1.0577099
-1.6707511	<s> i	-2.3573678
-1.6249477	a i	-1.319946
-1.2277105	n i	-2.4067283
-1.1592698	d i	-2.5534823
-1.5938013	o i	-1.4808068
-1.1910712	r i	-2.7069225
-1.0401815	f i	-2.105816
-1.6082369	i i	-1.4707506
-1.2740461	c i	-3.0120559
-1.1516979	l i	-2.5027907
-1.1731616	m i	-2.4910297
-1.5814784	e i	-1.3964427
-1.2023871	t i	-2.7175164
-1.2107239	p i	-2.0003662
-1.2925411	s i	-2.547658
-1.5200086	u i	-2.2265465
-1.2205833	q i	-0.3014856
-1.641608	± i	-0.1115201
-1.1853721	b i	-2.244716
-1.9197181	. i	0
-1.1773014	h i	-1.9345573
-1.5668187	¡ i	-0.65280724
-1.4854987	y i	-0.10537274
-1.2632201	g i	-1.9187934
-1.2289281	z i	-0.81426346
-1.7040416	³ i	-1.0484301
-1.668698	( i	-0.58795786
-1.0125974	v i	-2.1016889
-1.1356989	j i	-0.69849765
-1.1678662	k i	-0.99368805
-1.1946936	x i	-1.7414044
-1.9255054	: i	0
-1.6678653	© i	-0.57016164
-1.5946534	* i	0
-1.5694995	- i	-0.52829444
-1.9773679	" i	-0.24521773
-1.4859339	' i	-0.49455553
-1.5502977	/ i	0
-1.6442134	¼ i	0
-1.8016025	« i	-0.2369176
-0.9835195	w i	-1.0647582
-1.4590107	{ i	0
-1.2163908	 i	0
-1.0674756	<s> c	-2.9251928
-1.527369	a c	-2.6682796
-1.4691755	n c	-2.5528564
-1.630891	d c	-0.22208735
-1.4714111	o c	-2.394794
-1.5992758	r c	-1.9891979
-1.9179202	f c	0
-1.5414612	i c	-2.8447592
-1.5556827	c c	-1.8224994
-1.6334842	l c	-1.9518945
-1.8848248	m c	-0.30126303
-1.4777553	e c	-2.5693998
-1.6264033	t c	-1.0409598
-1.5826578	p c	-1.1222619
-1.4077601	s c	-2.2600708
-1.416719	u c	-2.1810637
-1.6680144	­ c	-1.8772349
-1.5985433	b c	-0.53378093
-1.5056454	. c	-0.7889433
-1.6643032	h c	-0.28613564
-1.5497062	¡ c	-1.8953279
-1.5090885	y c	-0.8982173
-1.6897144	g c	0
-1.5529779	z c	-1.2545419
-1.6788182	³ c	-0.90404516
-2.0056167	4 c	0
-1.3173157	( c	-1.0919312
-1.8465033	x c	-1.3287668
-1.6051824	 c	-0.37388432
-1.4917111	: c	-0.7042289
-1.7378092	; c	-0.40391502
-1.4083182	© c	-1.7880373
-1.4702123	º c	-1.5160171
-1.502765	* c	-0.5035059
-1.3633283	- c	-0.60096824
-1.5505447	 c	0
-1.5627365	 c	-0.1179244
-1.7598293	" c	-0.5540979
-1.8903239	' c	-0.2174288
-1.6070676	° c	-0.9958676
-1.165437	/ c	-0.28194267
-1.7735165	« c	-0.747166
-1.4908723	 c	-0.55202204
-1.5564116	\ c	-0.32644328
-1.0975318	| c	0
-1.1343889	= c	-0.1493329
-1.0524894	<s> l	-3.1158783
-1.4338386	a l	-2.8904502
-1.721678	n l	-1.2592472
-1.6963897	d l	-0.59485245
-1.4973707	o l	-2.4132674
-1.7915382	r l	-1.5149963
-1.3757433	f l	-2.10059
-1.4874213	i l	-2.2767901
-1.3298012	c l	-2.2220142
-1.461588	l l	-2.160059
-1.758741	m l	0
-1.361517	e l	-2.793439
-1.5831119	t l	-1.3525186
-1.3281784	p l	-2.405874
-1.7715744	s l	-1.7005858
-1.3758421	u l	-2.2245016
-1.6919155	­ l	-0.8972455
-1.321361	b l	-2.5847216
-1.5082688	. l	-0.39042667
-1.5342268	h l	-0.8429023
-1.4910588	¡ l	-1.5622369
-1.3675368	y l	-1.1531479
-1.4910538	g l	-1.8800988
-1.671742	z l	0
-1.7040416	³ l	-1.7384996
-1.7671058	( l	-1.1699066
-1.852171	v l	-0.2723896
-1.4679723	k l	-0.47103915
-1.6905159	x l	0
-1.6301849	 l	0
-1.4998453	: l	-0.21418352
-1.6678653	© l	-1.5765718
-1.6984029	º l	-1.4153312
-1.5946534	* l	-0.2502487
-1.5359795	- l	-0.84882075
-1.5731876	 l	-0.26521873
-1.5844262	 l	0
-1.9773679	" l	-0.56035566
-1.5502977	/ l	-0.8499359
-1.6442134	¼ l	-0.6878144
-1.5568622	« l	-0.458951
-1.7918705	w l	0
-1.701439	 l	0
-1.138274	\ l	0
-1.4861745	¶ l	0
-1.402723	<s> m	-2.5981588
-1.4500685	a m	-2.430462
-1.7835965	n m	-1.490559
-1.8425963	d m	-1.146621
-1.6076207	o m	-2.6230178
-1.6264696	r m	-2.3441706
-1.921599	f m	-0.3100311
-1.424863	i m	-2.5410895
-1.7572433	c m	-0.4242655
-1.6921873	l m	-1.9175329
-1.8382285	m m	-1.1448307
-1.5388267	e m	-2.4273295
-1.6807672	t m	-1.208349
-1.8318591	p m	0
-1.6259482	s m	-2.1952653
-1.3883066	u m	-1.8170283
-1.6747102	­ m	-1.8060597
-1.891513	b m	-0.3324367
-1.5895053	. m	-0.48327446
-1.7072684	h m	-0.38658267
-1.5545272	¡ m	-1.6053967
-1.571913	y m	-0.68823457
-1.6503217	g m	-1.1506369
-1.606775	z m	-0.5920676
-1.6858766	³ m	-1.9298543
-1.6596929	( m	-1.1158662
-1.7476751	0 m	0
-1.6848379	j m	0
-1.496312	k m	-1.260154
-1.6945727	: m	0
-1.8231217	; m	0
-1.6518797	© m	-0.7383112
-1.6802983	º m	-2.1748593
-1.5829257	* m	0
-1.4743838	- m	-0.9287994
-1.5568945	 m	0
-1.5688238	 m	0
-1.9620452	" m	-0.2666534
-1.4755682	/ m	-0.25471786
-1.42076	¼ m	-0.3014012
-1.7591128	+ m	-1.0033523
-1.6130743	« m	-0.18390809
-1.3712986	¢ m	0
-1.2969744	\ m	0
-0.9296367	<s> e	-3.091876
-1.6487753	a e	-1.4245975
-1.197206	n e	-2.4107125
-1.1127787	d e	-3.1547883
-1.6390744	o e	-1.1211219
-1.1606125	r e	-2.726008
-1.1658527	f e	-2.051953
-1.5717311	i e	-2.5000262
-1.2819237	c e	-2.367678
-1.1867924	l e	-2.5395522
-1.1514009	m e	-2.484471
-1.6557335	e e	-1.132939
-1.219397	t e	-2.8425303
-1.1756794	p e	-2.409481
-1.3093181	s e	-2.661985
-1.4471209	u e	-2.733111
-1.6130506	± e	-0.44744435
-1.4461172	­ e	-1.1056471
-1.1283633	b e	-1.961641
-1.4353871	. e	-0.58134806
-1.1267798	h e	-1.8014404
-1.3434917	y e	-1.465998
-1.1124083	g e	-1.9755554
-1.2735579	z e	-0.9511916
-1.6526209	( e	-1.1177857
-1.881815	0 e	0
-0.8851744	v e	-2.175297
-1.0184548	j e	-1.8413514
-1.2134987	k e	-0.9127476
-1.3202329	x e	-0.35828704
-1.5982956	 e	-0.5324819
-1.6108719	: e	-0.2001925
-2.0274498	; e	-0.48575088
-1.6395018	© e	0
-1.666339	º e	-0.24521773
-1.5737662	* e	0
-1.4594932	- e	-0.4101856
-1.5442864	 e	0
-1.5567334	 e	0
-1.9501648	" e	-0.47535095
-1.5969797	' e	-0.26797748
-1.4125595	/ e	-0.24825817
-1.6121119	¼ e	-0.49740887
-1.7658147	« e	-0.59851086
-0.9291869	w e	-0.86604416
-1.6674224	 e	0
-1.5518968	\ e	0
-1.5189217	<s> t	-2.5373704
-1.552156	a t	-2.3980176
-1.5281006	n t	-2.851096
-1.7317791	d t	-0.134424
-1.5646793	o t	-2.2062352
-1.6306815	r t	-2.336734
-1.6325686	f t	-1.0136373
-1.4500729	i t	-2.3611302
-1.5815375	c t	-2.4121025
-1.6968867	l t	-2.1757753
-1.8964074	m t	0
-1.4803966	e t	-2.1172795
-1.7152721	t t	-0.9367511
-1.4693513	p t	-1.7769387
-1.3426251	s t	-2.6404788
-1.37638	u t	-1.9308805
-1.4686139	­ t	-1.8437339
-1.7494866	b t	-1.3785735
-1.8750529	. t	-0.33531427
-1.4805897	h t	-0.5610578
-1.5718344	¡ t	-2.0756736
-1.4866852	y t	-1.0230691
-1.7958219	g t	-0.43182167
-1.6139979	z t	-0.4706497
-1.7115259	³ t	-1.3980885
-1.6723529	( t	-0.9210415
-1.7699208	k t	0
-1.5189357	x t	-1.9278761
-1.627861	: t	-0.33033928
-1.424749	© t	-2.1363168
-1.7058616	º t	-1.3155448
-1.5994346	* t	0
-1.5207828	- t	-0.38848385
-1.5908275	 t	0
-1.9204924	" t	-0.2571496
-1.6937361	' t	0
-1.8061138	/ t	0
-1.5616065	« t	-0.21209313
-1.7959797	w t	-1.1649356
-1.4206839	\ t	0
-1.1582305	<s> p	-2.8318675
-1.5413406	a p	-1.952428
-1.8688983	n p	0
-1.8090507	d p	0
-1.4860423	o p	-2.1381276
-1.7941734	r p	-1.4955747
-1.5922115	i p	-2.2351127
-1.7041408	c p	-0.53220105
-1.7647939	l p	-0.9192416
-1.6284653	m p	-2.2146587
-1.5971934	e p	-2.148064
-1.9551333	t p	-0.5433345
-1.5619715	p p	-0.9855509
-1.5069866	s p	-2.2937255
-1.5024927	u p	-1.7754922
-1.7025757	­ p	-1.2123721
-2.046266	b p	0
-1.4728922	. p	-0.17745918
-2.022325	h p	0
-1.5743643	¡ p	-1.1122668
-1.6126202	y p	-1.1077824
-1.8558738	g p	-0.469962
-1.7153169	³ p	-1.6664481
-2.0166125	6 p	-1.2375367
-1.7685224	4 p	0
-1.593084	( p	-1.0810647
-1.6039401	0 p	-2.2993503
-1.9943801	x p	-1.9325013
-1.6413572	 p	0
-1.7095197	: p	0
-1.8399515	; p	0
-1.6777469	© p	-1.5319643
-1.7096394	º p	-0.87742174
-1.5224456	* p	0
-1.3995432	- p	-0.736929
-1.5832652	 p	0
-1.594064	 p	0
-1.6449968	5 p	-1.8896255
-1.9868279	" p	-0.35197777
-1.9211433	' p	0
-1.4508324	/ p	-0.38840285
-1.6351055	« p	-0.48650897
-1.4223472	\ p	-0.88282186
-1.6818829	= p	0
-1.2176936	<s> s	-2.8220234
-1.459607	a s	-2.8771143
-1.5887367	n s	-2.1433084
-1.6936742	d s	-0.94914126
-1.4843386	o s	-2.8514526
-1.6554806	r s	-1.8831358
-1.7238622	f s	0
-1.3818781	i s	-2.4166453
-1.6993958	c s	-0.23952046
-1.7255306	l s	-1.0949478
-1.4805557	m s	-0.6052168
-1.3197716	e s	-3.0308836
-1.5187494	t s	-0.900771
-1.3125203	p s	-1.2752613
-1.6270334	s s	-1.1911037
-1.2779082	u s	-2.1682398
-1.6815107	­ s	-1.7380704
-1.4710132	b s	-1.1990461
-1.5071425	. s	-0.8220659
-1.5947531	h s	-0.3014012
-1.5594021	¡ s	-1.9628365
-1.4575341	y s	-0.8783419
-1.5473083	g s	-0.607547
-2.107821	z s	-1.3457749
-1.6930517	³ s	-1.3607439
-1.4077712	( s	-1.1079922
-1.7648982	v s	-0.3952801
-1.6104755	k s	-0.24106614
-1.6192929	 s	0
-1.6982615	: s	0
-2.0477355	; s	-0.3471587
-1.6582035	© s	-1.8009256
-1.6874498	º s	-1.3522182
-1.7873957	* s	0
-1.5684252	- s	-0.470111
-1.5633386	 s	0
-1.5749977	 s	0
-1.9070218	" s	-0.32460973
-1.0655544	' s	-0.6295355
-1.3398035	/ s	-0.09788772
-1.3968679	« s	-0.14631021
-1.5994889	w s	-0.45359087
-1.500666	 s	0
-1.6143545	<s> u	-2.4597764
-1.5784438	a u	-1.839079
-1.4594519	n u	-1.8370049
-1.3614957	d u	-1.820976
-1.6136854	o u	-1.3441982
-1.332509	r u	-1.9409641
-1.1723851	f u	-2.1024535
-1.6488905	i u	-1.721179
-1.3456807	c u	-2.5571117
-1.3264889	l u	-2.120909
-1.2531402	m u	-1.9572829
-1.6312723	e u	-1.473975
-1.3907331	t u	-2.2969854
-1.3024948	p u	-2.208449
-1.4262546	s u	-2.4058723
-1.9423953	u u	-0.5291737
-0.51749545	q u	-2.9746232
-1.6792715	± u	-0.41830686
-1.2382765	b u	-1.7063645
-1.8401703	. u	-0.20892896
-1.2979419	h u	-1.5345315
-1.5951511	¡ u	-0.9816219
-1.4402425	y u	-1.0394588
-1.2509761	g u	-2.3448353
-1.3102033	z u	-1.0166543
-2.1310687	( u	-0.6183002
-1.4294083	v u	-1.1227362
-1.0052272	j u	-1.8898541
-1.3189838	k u	-0.44514006
-1.6402347	x u	-0.90565693
-1.7052528	© u	-0.721774
-1.9794127	- u	0
-2.0131106	" u	-0.43777734
-1.9474771	' u	0
-1.849771	« u	-0.36522666
-1.9615381	w u	0
-1.7363491	<s> q	-2.7661214
-1.7599015	a q	-1.7239203
-2.0537777	n q	-2.5779395
-2.3760734	d q	-1.5834305
-1.8235672	o q	-1.9638323
-1.9588943	r q	-2.3903463
-1.6738887	i q	-1.3122095
-2.3097308	c q	-0.7096299
-1.9675446	l q	-1.7827451
-1.768733	e q	-2.4946501
-2.0168715	s q	-1.4912643
-2.0737705	u q	-1.0806148
-1.7855684	­ q	-1.75668
-1.8677188	¡ q	-1.669553
-2.1564012	g q	0
-1.9804022	z q	-1.6748494
-2.2057378	( q	-1.4753928
-1.7288224	 q	-1.031381
-1.8380162	- q	-0.6513859
-1.6277047	¿ q	-1.0033523
-2.3239331	<s> ã	-2.0094793
-1.6574601	a ã	-2.5742903
-1.4275156	n ã	-2.4005003
-1.4811276	d ã	-1.9094118
-1.7911965	o ã	-1.1629295
-1.3912224	r ã	-2.2088044
-1.433996	f ã	-2.1815813
-1.6492884	i ã	-2.7915206
-1.4424412	c ã	-2.3646474
-1.3685012	l ã	-2.1837592
-1.3046962	m ã	-2.5896854
-1.7407537	e ã	-2.4052293
-1.4058425	t ã	-2.426578
-1.5417035	p ã	-1.9796917
-1.595887	s ã	-2.2245214
-1.5863084	u ã	-2.235715
-1.6828632	± ã	-1.2648704
-1.5278258	b ã	-1.900212
-1.315548	h ã	-1.2824656
-1.6584226	y ã	-1.3866813
-1.3993394	g ã	-2.345234
-1.4792099	z ã	-1.9083761
-2.1363783	( ã	-0.41046077
-1.840532	0 ã	-0.94120437
-1.2371558	v ã	-2.1984787
-1.1972998	j ã	-1.1362195
-1.6251067	k ã	-0.47154275
-1.5300488	x ã	-1.2248893
-1.7452062	º ã	-0.973389
-2.0276985	- ã	-0.3751874
-1.6910772	¼ ã	-1.6964927
-1.8544269	« ã	0
-1.6196463	w ã	-0.2850108
-1.5065573	§ ã	0
-1.6149123	ã ±	-2.7459562
-1.0867803	î ±	-0.67185813
-1.0144407	ä ±	-0.31124544
-1.0976015	ã ­	-2.5797966
-1.6093434	î ­	-0.35605603
-1.7933154	<s> b	-2.2756681
-1.539745	a b	-2.252334
-1.8638272	n b	-0.6274733
-1.6636679	d b	0
-1.4846221	o b	-2.213128
-1.6858821	r b	-1.9035594
-1.5430174	i b	-2.0091753
-1.8685751	c b	0
-1.8396603	l b	-1.6050419
-1.5239359	m b	-2.4863203
-1.6420474	e b	-1.8047054
-1.7776904	t b	-1.0630832
-2.0893064	p b	0
-1.6700809	s b	-0.89341664
-1.5006976	u b	-1.6768627
-1.6849513	­ b	-0.9989447
-1.745366	b b	-0.18761522
-1.7242644	. b	-0.7908861
-1.8074207	h b	-0.17294456
-1.7542896	¡ b	-1.1132728
-1.6873826	y b	-0.13639553
-1.7400393	g b	-0.17879938
-1.7383583	z b	-0.25395092
-1.6966842	³ b	-1.2113818
-1.5855054	( b	-0.7415417
-1.9364327	1 b	0
-1.950984	v b	0
-1.9342433	j b	-0.7583955
-1.7072245	k b	-0.65189093
-1.7001177	: b	0
-1.6614002	© b	-0.5897572
-2.039667	3 b	-0.8345172
-1.6910702	º b	-1.2860101
-1.5899242	* b	-0.2502487
-1.4350902	- b	-0.51836413
-1.5781178	 b	0
-1.9096826	" b	-0.30131632
-1.6862334	' b	0
-1.548295	/ b	0
-1.793391	« b	0
-3.7167375	<s> .	-1.0752602
-1.5492159	a .	-1.9585022
-1.4054888	n .	-1.6466085
-1.5108038	d .	-1.4827558
-1.5475292	o .	-1.9017909
-1.4510617	r .	-1.5656981
-1.4227232	f .	-0.93722785
-1.498833	i .	-1.419061
-1.4822018	c .	-1.1721518
-1.3771645	l .	-1.7085766
-1.2983974	m .	-1.2137319
-1.5513109	e .	-1.5808717
-1.4797105	t .	-1.1459243
-1.5565344	p .	-1.0819216
-1.3957244	s .	-1.9718797
-1.6003745	u .	-0.6886156
-1.2705021	q .	-0.6878144
-1.6680144	­ .	-1.4673911
-1.4261546	b .	-0.9780232
-1.3233374	. .	-1.094955
-1.3843682	h .	-0.82266843
-1.7355045	¡ .	-1.6125909
-1.4307393	y .	-1.146529
-1.4128569	g .	-0.9791887
-1.2745092	z .	-1.4090403
-1.3991164	³ .	-1.6196527
-1.3284558	7 .	-1.0417151
-1.3975098	8 .	-0.81511843
-1.2671933	2 .	-1.2951441
-1.326763	6 .	-1.0509218
-1.2746725	4 .	-0.95257497
-1.3938494	0 .	-1.3615222
-1.3607984	1 .	-1.3584721
-0.7644664	) .	-2.1721158
-1.3857738	v .	-1.2050316
-1.3257143	j .	-0.89623845
-1.3554895	k .	-0.879573
-1.1838388	² .	-1.3043822
-1.3532052	x .	-1.1154394
-1.3183511	9 .	-0.8611338
-1.6051824	 .	-1.1889889
-2.0705194	: .	-1.2744191
-1.6456467	© .	-1.0811895
-1.3310993	3 .	-1.2644435
-1.2236145	º .	-1.429321
-2.0592978	- .	-0.94120437
-1.5624306	 .	-1.0512263
-1.1746044	 .	-1.2635454
-1.3061866	5 .	-1.0777124
-0.85557973	" .	-1.711514
-1.2086428	' .	-1.2586248
-1.6741563	/ .	-0.6701213
-0.7823505	% .	-1.5435874
-1.5037405	» .	-1.6078137
-1.3243827	w .	-0.4666475
-1.6747547	 .	-1.031381
-1.7442353	<s> h	-2.4113488
-1.6845278	a h	-1.2503297
-1.8719696	n h	-0.9825952
-1.7357373	d h	-0.82098776
-1.7006726	o h	-1.3365358
-1.8385345	r h	-0.83510333
-1.7794099	i h	-0.4718346
-1.297363	c h	-2.0175195
-1.8053554	l h	-0.5589258
-1.6923902	m h	-0.44346005
-1.698349	e h	-0.97225696
-1.418799	t h	-1.3719349
-1.5901823	p h	-1.4463735
-1.4931103	s h	-0.87244844
-1.8479989	u h	-0.2474887
-1.7536467	b h	-0.28216064
-1.618326	. h	-0.52719915
-2.2629755	h h	-0.17262034
-1.5228317	g h	-0.6760165
-1.564893	z h	0
-2.1986349	7 h	-0.86865366
-1.927683	4 h	-0.464669
-1.5287033	( h	-0.8589448
-2.13604	0 h	0
-2.1365323	1 h	-0.26521873
-1.387407	k h	-0.42885327
-1.8779391	x h	-1.0228622
-1.7152601	: h	0
-1.2321186	* h	0
-1.5544894	- h	-0.5405805
-2.1724427	5 h	0
-1.9315782	" h	-0.264578
-1.620307	' h	0
-1.6418523	/ h	0
-1.6436641	« h	0
-1.5398531	w h	-0.6755223
-1.069702	ã ¡	-2.3753593
-1.8262392	â ¡	0
-1.8112872	 ¡	-1.590689
-1.5495076	<s> y	-2.590626
-1.6755472	a y	-1.6811194
-1.736464	n y	-0.54799205
-1.7878841	d y	-0.3406976
-1.7072511	o y	-1.3046381
-1.5004379	r y	-0.9588774
-1.5354863	, y	0
-1.9073493	i y	-1.0673777
-1.7178736	c y	-0.83690095
-1.5502584	l y	-0.5880814
-1.6405971	m y	-0.534427
-1.6865764	e y	-1.1283146
-1.6434629	t y	-0.7630904
-1.766855	p y	-0.90509635
-1.732165	s y	-0.6170743
-1.568057	u y	-1.8977005
-1.5881786	b y	-0.50018764
-1.517262	h y	-1.0614582
-1.6319152	g y	-0.39091432
-1.858885	z y	0
-1.960544	( y	-0.60233086
-1.8866291	v y	0
-1.4224793	k y	-0.3013058
-1.8091369	x y	-0.43777734
-1.94438	- y	0
-1.7348417	 y	-0.464669
-1.8159033	<s> g	-2.172008
-1.5339197	a g	-1.9677429
-1.5979315	n g	-1.6976192
-1.7812103	d g	-0.6290155
-1.6663399	o g	-2.0140514
-1.5622422	r g	-2.023665
-2.061783	f g	-0.97315145
-1.5047877	i g	-2.2688272
-2.040537	c g	0
-1.7379638	l g	-2.0126407
-2.0394921	m g	0
-1.6489359	e g	-2.2262156
-1.791967	t g	0
-2.0357695	p g	-0.5897572
-1.8443656	s g	-0.9517649
-1.5449524	u g	-1.8393983
-1.7440671	­ g	-1.4640709
-2.2998207	b g	-0.47244608
-1.885679	. g	-0.578864
-1.8205246	¡ g	-0.99555916
-1.5858684	y g	0
-1.8097984	g g	-0.5645498
-1.6266665	z g	-0.90380615
-1.7593606	³ g	-2.0381637
-1.8002993	( g	-0.6976132
-1.8565364	k g	-0.16800778
-1.8348262	: g	0
-1.7160338	© g	-0.8466973
-1.6113168	- g	-0.08364726
-2.023392	" g	-0.16655411
-1.6060419	/ g	0
-1.8638912	« g	-0.2571496
-2.0371842	w g	-0.93448675
-2.86157	<s> z	-1.4068375
-1.6228557	a z	-1.789994
-2.0616562	n z	-1.6202254
-2.072261	d z	-0.6964823
-1.6373359	o z	-1.019938
-1.9653794	r z	-1.1877785
-1.5377313	i z	-2.0134132
-2.0672193	c z	-0.65095437
-1.9738843	l z	-0.61454797
-1.6728159	e z	-1.630443
-1.7696575	t z	-0.4775911
-2.2093887	s z	-0.21418352
-1.6169097	u z	-1.0215127
-1.8079076	­ z	-0.646741
-2.1869092	h z	-0.34831288
-1.8933898	¡ z	-0.84677094
-1.958807	y z	0
-1.7076509	z z	-0.41492325
-2.2382612	( z	-0.39485258
-1.821549	º z	-0.94649094
-1.7155685	« z	0
-1.1110595	ã ³	-2.7423184
-1.3229704	î ³	-0.36260334
-2.9488103	<s> 7	-1.3043981
-1.3758878	, 7	-0.516657
-1.8200414	. 7	-0.5505836
-1.3487885	7 7	-0.37971836
-1.329004	8 7	-0.6214806
-1.4241024	2 7	-0.6271849
-1.3996027	6 7	-0.3932694
-1.4453559	4 7	-0.42826116
-1.8581994	( 7	0
-1.4500413	0 7	-0.7006647
-1.3770454	1 7	-1.1976027
-1.3938136	9 7	-1.331067
-1.3979728	3 7	-0.39257333
-1.7310023	- 7	-0.11377256
-1.348196	5 7	-0.4868582
-1.8727155	 7	0
-2.9880033	<s> 8	-1.2975338
-1.4560502	, 8	-0.38049757
-1.8625318	. 8	-0.6648867
-2.2666073	z 8	-1.128291
-1.3777055	7 8	-0.5468795
-1.3034475	8 8	-0.8559029
-1.4251373	2 8	-0.681283
-1.3215606	6 8	-0.6382066
-1.3887134	4 8	-0.54873335
-2.0299482	( 8	-0.1115201
-1.4514173	0 8	-0.59972364
-1.4445078	1 8	-1.5077658
-1.3646724	9 8	-1.3277526
-1.3989822	3 8	-0.6420704
-1.7320437	- 8	-0.38231412
-1.3490633	5 8	-0.39633954
-1.8022937	/ 8	0
-1.8845398	 8	-0.42200482
-2.5881116	<s> â	-1.5861248
-1.6726868	a â	-1.4057211
-1.6511266	n â	-1.0694379
-1.8227162	d â	-1.0430655
-1.6176366	o â	-1.8687595
-1.9587216	r â	-1.1680043
-1.7908752	i â	-1.3172786
-1.7462542	l â	-0.93449163
-1.7037339	m â	-0.9482684
-1.743735	e â	-1.1469637
-1.7613248	t â	-0.26521873
-1.6376019	s â	-1.6741686
-1.9613483	u â	0
-1.5195113	. â	-1.4405868
-1.630246	y â	-0.28031802
-1.8832676	z â	0
-1.3220361	7 â	-0.9247805
-1.3604224	8 â	-0.9064654
-1.4682958	2 â	-0.73598754
-1.4295996	6 â	-0.9799132
-1.4144038	4 â	-0.7995695
-1.7216362	( â	-0.9014823
-1.5056516	0 â	-1.8605454
-1.4665844	1 â	-1.1584888
-1.5607944	) â	-0.3499244
-1.8187107	v â	-0.5235472
-1.7391875	k â	0
-1.367768	9 â	-0.9475258
-1.4204311	3 â	-1.0565822
-1.9949799	- â	-0.49099794
-1.4032937	5 â	-0.933717
-1.3697865	' â	0
-1.4990422	+ â	0
-2.2486424	<s> 2	-1.8494432
-2.4278097	a 2	0
-2.463489	o 2	-0.6696752
-1.3626108	, 2	-0.73695505
-2.1218174	p 2	0
-1.768148	. 2	-0.73739004
-1.3659648	7 2	-0.40385357
-1.3477169	8 2	-0.90446305
-1.3103964	2 2	-0.67357326
-1.3891621	6 2	-0.45597392
-1.4336942	4 2	-0.45464385
-1.296444	( 2	-0.90689725
-1.3805776	0 2	-0.5774398
-1.294948	1 2	-1.1792557
-2.0356255	x 2	-0.41410547
-1.301274	9 2	-1.0497324
-1.3745829	: 2	0
-1.3190763	3 2	-0.63373727
-1.4801829	- 2	-0.7298753
-1.3648951	5 2	-0.4326053
-1.2839798	/ 2	-0.6138686
-1.6614565	+ 2	0
-1.7648208	 2	-0.23599632
-0.5504228	^ 2	-0.46549287
-1.2234582	_ 2	0
-1.3238983	{ 2	0
-1.3168281	= 2	0
-1.4947631	 2	0
-2.9132187	<s> 6	-1.4071473
-1.4120238	, 6	-0.5174377
-2.3430429	c 6	-1.2509921
-1.903988	. 6	-0.5014256
-1.3756406	7 6	-0.5121174
-1.3281618	8 6	-0.6541545
-1.4734166	2 6	-0.50206065
-1.3985974	6 6	-0.49545044
-1.3359802	4 6	-0.5212134
-1.5026251	( 6	-0.2309686
-1.4486696	0 6	-0.72435296
-1.3010455	1 6	-1.2447109
-1.3348902	9 6	-1.2658494
-1.3271374	3 6	-0.58101773
-1.7054563	- 6	-0.24686882
-1.4014215	5 6	-0.5016484
-1.8612047	 6	-0.28711286
-2.8191853	<s> 4	-1.3305712
-2.650691	o 4	-0.8553055
-1.4085493	, 4	-0.38294688
-1.8993379	. 4	-0.89145374
-1.3730735	7 4	-0.5268851
-1.4156492	8 4	-0.7828034
-1.3349854	2 4	-0.7377564
-1.2514759	6 4	-0.636531
-1.3583106	4 4	-0.47754472
-1.4409399	( 4	-0.23255856
-1.4764717	0 4	-0.5809167
-1.3352818	1 4	-1.1355847
-1.3066345	9 4	-1.242176
-1.4203198	3 4	-0.4653044
-1.5800238	- 4	-0.1613123
-1.3989799	5 4	-0.50525784
-1.6713338	/ 4	-0.38087964
-1.8336957	 4	0
-1.9043392	<s> (	-1.9434978
-2.2073998	a (	-0.28216064
-2.147909	n (	0
-2.2437193	o (	0
-2.2826128	f (	0
-2.1944108	e (	0
-1.8904855	2 (	0
-1.7285502	6 (	-0.48733497
-1.8094845	4 (	-0.39485258
-1.7629471	9 (	-0.35605603
-2.129188	: (	0
-1.7208362	3 (	0
-2.344488	- (	0
-1.7319252	5 (	0
-3.0100627	<s> 0	-1.0507209
-1.4998928	, 0	-0.4868533
-1.9058621	. 0	-1.1095338
-1.2312087	7 0	-0.9300199
-1.2320201	8 0	-1.0441729
-1.163339	2 0	-1.6150076
-1.2539876	6 0	-0.7961353
-1.2501167	4 0	-0.84255
-2.0964706	( 0	-0.35064894
-1.2375764	0 0	-1.7946465
-1.1686649	1 0	-1.467694
-1.3093399	9 0	-1.1076261
-1.2677431	3 0	-1.0252231
-1.8143246	- 0	-0.11305468
-1.1477026	5 0	-1.0643926
-1.7357248	/ 0	0
-1.328249	_ 0	-0.48733497
-1.9760083	<s> 1	-2.205776
-2.1235697	d 1	0
-2.100009	o 1	-0.71300006
-1.2164584	, 1	-0.8845813
-2.1889372	c 1	-0.73220974
-2.371929	e 1	0
-1.8442254	. 1	-0.717946
-1.3955503	7 1	-0.5389985
-1.3481572	8 1	-0.71243346
-1.3696735	2 1	-0.68804777
-1.3623497	6 1	-0.45483896
-1.3779788	4 1	-0.41625142
-1.1685641	( 1	-1.6532787
-1.4365153	0 1	-1.7290429
-1.2624569	1 1	-1.2811528
-1.6475497	x 1	0
-1.3550911	9 1	-1.0348376
-1.2677475	: 1	0
-1.3411543	3 1	-0.59774935
-1.4147387	- 1	-1.1699991
-1.3653456	5 1	-0.686238
-1.4312283	/ 1	-0.33823624
-1.1415899	+ 1	0
-1.7693942	 1	-0.45057973
-1.2973078	_ 1	0
-1.2031498	{ 1	0
-1.0036638	= 1	-0.28711286
-1.399423	$ 1	0
-1.4972895	 1	0
-4.2031417	<s> )	-0.44594586
-1.5789351	a )	-1.9195303
-1.4151402	n )	-1.3253169
-1.4097345	d )	-1.2182903
-1.5709659	o )	-1.7073482
-1.6164074	r )	-1.044417
-1.341465	f )	-0.34588298
-1.5674223	i )	-1.1861235
-1.4587891	c )	-1.2972087
-1.5097927	l )	-1.0722669
-1.4329656	m )	-1.3550806
-1.6177354	e )	-1.6886585
-1.5934613	t )	-0.7364469
-1.4796042	p )	-0.905408
-1.454038	s )	-1.9490634
-1.6945655	u )	-0.5092701
-1.5748576	± )	0
-1.3438823	­ )	0
-1.4833684	b )	-0.90409297
-1.3582395	. )	-1.5762506
-1.358249	h )	-0.4094521
-1.5151607	¡ )	0
-1.5597957	y )	-0.5289004
-1.453034	g )	-0.53468734
-1.4168097	z )	-1.1188236
-1.4052482	7 )	-1.1390185
-1.3317333	8 )	-1.2229633
-1.3526852	2 )	-1.5094359
-1.371356	6 )	-1.5793777
-1.4435291	4 )	-1.3737323
-1.3594406	0 )	-1.3421527
-1.3752906	1 )	-1.418036
-1.5601989	) )	0
-1.269138	v )	-0.4580456
-1.3716283	k )	-0.46549287
-1.166728	² )	-0.7691193
-1.3421111	x )	-0.9594559
-1.3975997	9 )	-1.2413096
-1.6015494	© )	0
-1.3037952	3 )	-1.4236121
-1.6238418	º )	0
-1.7018406	- )	-0.14739092
-1.5158849	 )	-1.2164271
-1.4342089	 )	0
-1.4327018	5 )	-1.1727948
-1.1257627	" )	-0.8900008
-1.3293021	' )	-0.20158403
-0.7794315	% )	-1.2307974
-1.1093165	» )	-0.8930928
-1.4465631	 )	-0.40301526
-1.0809948	 )	-1.035432
-1.8485296	<s> v	-2.2463202
-1.62845	a v	-1.8078145
-1.9725558	n v	-1.9746374
-2.0311236	d v	-0.7264821
-1.5970953	o v	-2.0177715
-1.8879479	r v	-1.9001483
-1.5943117	i v	-2.4327738
-2.0319953	c v	-0.3547113
-1.7016374	l v	-1.977127
-1.570639	e v	-2.134102
-1.6627239	t v	-0.40364823
-2.3448756	p v	-0.8190933
-1.9973222	s v	-0.91100943
-1.7122767	u v	-1.7767684
-1.7247146	­ v	-1.2491499
-2.156114	b v	-0.7550006
-2.4379895	. v	-0.77958477
-1.5898603	¡ v	-1.3091811
-2.0162094	g v	0
-1.7387855	³ v	-1.2907366
-2.1206408	( v	-1.0087116
-1.5266849	x v	-1.4598919
-1.6982112	© v	0
-1.7976382	- v	-0.3711017
-2.1696603	" v	0
-1.6523949	« v	0
-2.2160583	<s> j	-2.0173476
-1.7430911	a j	-1.9603484
-2.056912	n j	-1.5397025
-1.9963808	d j	-0.88641167
-1.7993138	o j	-1.5427071
-2.023853	r j	-0.76947796
-1.6747324	i j	-1.3346059
-2.1940281	l j	-0.47365034
-1.6894252	e j	-2.4132311
-2.4524126	t j	-0.8375767
-2.203203	s j	0
-1.5924602	u j	-1.6997695
-2.010198	b j	-1.5660084
-1.852451	. j	-0.74296325
-1.877806	¡ j	-0.90420455
-2.1616917	g j	0
-2.0502853	( j	-0.8183234
-1.7620522	© j	-1.031381
-1.8070644	º j	-0.55202204
-1.7788925	- j	-0.23966783
-1.925466	« j	0
-2.714879	<s> k	-1.4317683
-1.7038043	a k	-0.820619
-1.8802676	n k	-0.53025514
-1.6663399	o k	-0.5185486
-1.8934494	r k	-0.9662133
-1.6133391	i k	-0.7443398
-1.887563	c k	-0.8455811
-1.9551358	l k	-0.086889334
-1.7215914	e k	-0.39137182
-1.9699105	t k	0
-2.119836	p k	0
-1.6363686	s k	-0.84130543
-1.525284	u k	-0.31124663
-1.9872637	. k	0
-1.9577543	h k	0
-1.8631287	y k	0
-1.9568621	z k	0
-1.6949532	( k	-0.2792775
-1.8439214	0 k	0
-1.7268369	k k	0
-1.8314129	- k	-0.30119425
-1.7031363	/ k	-0.5727651
-1.6673478	« k	0
-2.201022	w k	-0.7376703
-1.6174557	ã ²	0
-1.8332363	â ²	-1.434716
-1.492253	î ²	-0.77352554
-2.815169	<s> x	-1.1680436
-1.841483	a x	-1.3087076
-1.6908493	o x	-1.2660918
-2.5116074	r x	-0.53930265
-1.7908432	i x	-1.1487446
-2.257306	m x	0
-1.6065385	e x	-2.1195734
-1.8039227	t x	-0.14765926
-1.7730374	p x	-1.4344401
-1.8249322	u x	-0.63765776
-1.8829386	¡ x	-1.8641396
-2.3846753	g x	0
-1.8179194	³ x	-1.8054655
-1.7208415	( x	0
-1.7311862	0 x	-0.4044939
-1.6640899	x x	-1.0411227
-1.7661165	© x	-1.5341305
-2.0434265	- x	0
-1.823162	 x	-0.8487765
-3.0570178	<s> 9	-1.1311665
-1.4155264	, 9	-0.31187052
-1.9086885	. 9	-0.6702106
-1.3782232	7 9	-0.41344747
-1.3584083	8 9	-0.9840279
-1.4502499	2 9	-0.45267782
-1.4011148	6 9	-0.5123255
-1.3892076	4 9	-0.39914447
-2.1113415	( 9	0
-1.4225405	0 9	-0.5746076
-1.2856681	1 9	-1.9511104
-1.2620018	9 9	-1.449359
-1.3994877	3 9	-0.4826975
-1.7586995	- 9	-0.068538845
-1.3758367	5 9	-0.516207
-1.8905748	 9	-0.61922175
-0.6064109	â 	-1.7727921
-2.0033271	¼ 	-0.98023534
-1.049999	ï 	-0.45534605
-1.9243883	 	-0.7571496
-1.4658645	ã ¨	-0.40495607
-2.915775	<s> :	-1.1401757
-1.6445336	a :	-1.3208276
-1.7653784	n :	-2.2124777
-1.7823155	d :	-0.9174616
-1.6317294	o :	-1.2258295
-2.0077107	r :	-1.8162558
-1.7122474	i :	-0.9871985
-1.9341682	c :	0
-1.9032326	l :	-1.6575322
-1.9137026	m :	-1.1889889
-1.7027476	e :	-1.9170227
-2.030266	t :	-0.6701213
-1.9667537	p :	-1.1078783
-1.6804004	s :	-1.819777
-1.7480432	­ :	-0.86865366
-1.768148	. :	-1.2853094
-1.8250198	¡ :	-0.9064423
-1.7037165	y :	-0.8375767
-2.1333604	g :	-0.7063719
-1.6899446	z :	-1.0033523
-1.7635952	³ :	-1.1696837
-1.4960176	7 :	-0.6025876
-1.5637023	8 :	-0.95128596
-1.8598305	2 :	-1.2721813
-1.6517304	6 :	-0.86356246
-1.6176915	4 :	-0.87379515
-1.7157164	0 :	-0.7488564
-1.7719096	1 :	-0.63297325
-1.05947	) :	-1.9638705
-1.7985647	x :	-1.1060146
-1.5710471	9 :	-0.7063719
-1.517806	: :	-0.47816724
-1.6991245	3 :	-0.8601016
-1.6318656	* :	-0.30150732
-1.6554173	5 :	-0.6760165
-1.4067762	" :	-1.0577099
-3.425339	<s> ;	-0.76072955
-1.714823	a ;	-2.2287157
-1.8278533	n ;	-1.7815036
-1.8090507	d ;	-1.5085022
-1.7405026	o ;	-2.1468937
-1.9907596	r ;	-1.7667803
-1.9303538	i ;	-1.2422343
-2.0219622	c ;	0
-1.9418837	l ;	-1.876479
-1.7242997	m ;	-1.0806148
-1.756888	e ;	-2.0175927
-2.0118206	t ;	-0.9064423
-1.746388	s ;	-2.6591308
-1.6419756	. ;	-1.1008182
-1.6577876	8 ;	-1.0033523
-1.6076971	2 ;	-1.35874
-1.826356	6 ;	-0.86865366
-1.5248065	0 ;	-1.0811895
-1.7605901	1 ;	-1.0033523
-0.9768831	) ;	-2.2338011
-1.69543	x ;	-0.9064423
-1.6871884	3 ;	-1.2744191
-1.5964861	 ;	-0.88282186
-1.6986437	5 ;	-0.973389
-0.66564834	$ ;	-1.0825335
-1.1123863	ã ©	-2.3121607
-2.6828148	<s> 3	-1.5122492
-2.5376058	a 3	0
-2.6148071	o 3	-0.46661156
-1.3657354	, 3	-0.441495
-2.1861699	b 3	0
-1.771581	. 3	-0.44864255
-1.3411112	7 3	-0.53708947
-1.3794085	8 3	-0.66463196
-1.371501	2 3	-0.55972564
-1.3384062	6 3	-0.5994209
-1.3541846	4 3	-0.4453661
-1.4313524	( 3	-0.22033875
-1.3581442	0 3	-0.73240924
-1.3321459	1 3	-1.1119791
-1.7243787	x 3	-0.39197794
-1.3291717	9 3	-1.182267
-1.5239619	: 3	0
-1.3658172	3 3	-0.54152
-1.613692	- 3	-0.26065072
-1.3169371	5 3	-0.42803967
-1.8399603	/ 3	0
-1.788185	 3	-0.13531697
-1.2235801	ã º	-2.0119367
-1.422611	â º	-0.88439023
-1.398711	î º	-0.77940536
-1.9855635	<s> *	-2.155178
-2.276462	: *	-1.4011914
-1.2929323	* *	-1.795307
-2.9191773	<s> -	-0.9146674
-1.626112	a -	-0.4208027
-1.6153286	n -	-0.24593832
-1.7327652	d -	-0.33770978
-1.680043	o -	-0.66593456
-1.6593387	r -	0
-1.8567572	f -	0
-1.6457192	i -	-0.09884911
-1.6269143	c -	-0.35749733
-1.8027638	l -	-0.118136376
-1.7616003	m -	-0.16062425
-1.6968926	e -	-0.4812706
-1.6326438	t -	0
-1.8400849	p -	-0.12509778
-1.6730907	s -	-0.41120577
-1.8878059	u -	0
-1.6515602	± -	0
-1.7505229	b -	0
-1.6168753	. -	-0.3012432
-1.3682289	h -	-0.1833174
-1.6921232	y -	0
-1.7969697	g -	0
-1.6753219	z -	-0.1902755
-1.4192543	7 -	-0.28800213
-1.402473	8 -	-0.5051141
-1.4309272	2 -	-0.30951846
-1.4120059	6 -	-0.22128743
-1.3985802	4 -	-0.4186922
-1.7740083	( -	0
-1.4900627	0 -	-0.8601184
-1.4290472	1 -	-0.3035602
-1.5356418	) -	0
-1.588994	v -	-0.2205439
-1.6620619	k -	0
-1.5759159	² -	-0.23436955
-1.5200343	x -	0
-1.4096411	9 -	-0.40055206
-2.1165192	: -	-0.8357173
-1.4333621	3 -	-0.30130327
-2.2791774	- -	-1.2428203
-1.4152608	5 -	-0.266422
-1.4379352	' -	0
-1.5562011	+ -	-1.1722699
-1.6923702	w -	0
-1.5012777	 -	-0.6878144
-1.9429144	 	-0.3974938
-1.9243883	 	-0.8839981
-0.36877546	é 	-0.1179244
-1.9366508	 	-0.6758061
-1.9124625	 	-1.3116819
-2.8988621	<s> 5	-1.2994704
-1.4522065	, 5	-0.6852944
-1.7806358	. 5	-0.71640146
-1.3212228	7 5	-0.62805223
-1.3277414	8 5	-0.6848335
-1.3566037	2 5	-0.94892013
-1.3980956	6 5	-0.6583514
-1.3355428	4 5	-0.5784758
-1.8498344	( 5	-0.15823062
-1.4479853	0 5	-0.69024783
-1.2518148	1 5	-1.4251572
-1.3624761	9 5	-1.1320618
-1.3719459	3 5	-0.53952193
-1.6388577	- 5	-0.21577874
-1.4009321	5 5	-0.46294725
-1.8555617	 5	-0.1732134
-2.9325995	<s> "	-1.1019592
-1.7056673	a "	-1.3665365
-1.8844768	n "	-0.91120166
-1.9821248	d "	-0.27842408
-1.6867653	o "	-1.1453401
-2.012054	r "	-0.59100574
-1.8726596	i "	0
-1.9600568	l "	-0.28057843
-1.7653157	e "	-1.0148455
-1.8340714	t "	-0.38061216
-1.8155748	s "	-1.2941408
-2.3147767	b "	0
-1.9918182	. "	0
-1.9534749	( "	0
-1.7311803	= "	0
-3.6208694	<s> '	-0.38954744
-2.0331795	a '	-0.1535971
-1.9447192	n '	-0.18409877
-2.1563394	d '	-0.27259803
-1.9838045	o '	0
-2.1020527	r '	0
-2.2031415	i '	0
-2.0371132	l '	-0.2926263
-1.9637785	e '	0
-2.077148	s '	-0.14514492
-1.9540633	2 '	0
-2.2382612	( '	0
-1.9061971	1 '	0
-2.0271738	: '	-1.2761661
-1.1249137	' '	-0.43883294
-1.2907448	î ¯	-0.5308026
-1.3206985	â °	-0.89483696
-3.566932	<s> /	-0.36716494
-1.9293358	a /	0
-2.107209	n /	0
-1.9751683	d /	0
-1.8723844	o /	0
-2.0062728	r /	-0.22382228
-2.1214402	i /	0
-1.887563	c /	0
-1.9021485	l /	0
-1.8141192	m /	0
-1.9182755	e /	-0.1290512
-1.9699105	t /	-0.49455553
-1.6541295	p /	-0.46481848
-1.7823153	s /	0
-2.4667072	u /	-0.5625325
-2.1695185	b /	-0.3499244
-1.7342693	. /	0
-2.0166838	y /	-0.6274733
-1.9413167	g /	-0.38232023
-1.9042934	7 /	0
-1.8964964	8 /	0
-1.7450587	2 /	0
-1.929506	6 /	0
-1.9415737	4 /	0
-1.7743797	0 /	-0.2070045
-1.7227757	1 /	-0.12201064
-2.1977434	v /	-0.7180116
-1.5703393	9 /	0
-2.0312076	: /	-1.8140328
-1.8131196	3 /	0
-2.184222	/ /	-0.60678226
-3.1680462	<s> %	-1.6577555
-1.487414	7 %	-0.72591704
-1.4666125	8 %	-0.707099
-1.5793023	2 %	-0.6848279
-1.4744314	6 %	-0.6752623
-1.526495	4 %	-0.67491436
-1.5721778	0 %	-1.2030619
-1.6721866	1 %	-0.85355175
-1.5121826	9 %	-0.8691569
-1.5279517	3 %	-0.6569735
-1.5126913	5 %	-1.1592212
-1.3291343	ã ¼	-0.93257123
-1.3239173	î ¼	-0.84621257
-0.9988232	á ¼	-0.4072966
-3.7550075	<s> +	-0.3764164
-2.9883661	o +	-1.0033523
-2.168937	c +	-1.2635454
-2.950517	- +	-0.7441604
-1.3513846	+ +	-0.47753888
-1.4043535	ã «	-0.32187495
-1.7437768	â «	-1.0251776
-1.1359537	å «	0
-0.8618428	ä «	0
-0.74798375	â »	-1.5727651
-1.1295812	î »	-0.95039296
-2.9061792	<s> w	-1.3056303
-1.9189842	a w	-0.48612234
-2.0713034	n w	-0.7166717
-1.8484445	d w	-1.240555
-1.8304286	o w	-0.84677124
-2.2042363	r w	-0.27955517
-2.0407126	i w	-0.17262034
-2.4920454	c w	0
-1.9816165	l w	0
-2.2819448	m w	-0.32545
-1.7325001	e w	-1.2141906
-1.8954123	t w	-1.000233
-2.5141845	p w	-0.43777734
-1.8999436	s w	-0.80461705
-2.0235436	u w	0
-1.7477605	. w	-0.28216064
-1.915565	h w	-0.7166717
-1.8938715	y w	0
-2.1863303	g w	0
-2.2808053	( w	0
-1.6980796	k w	-0.5147732
-2.1733875	- w	-0.32079077
-1.7341893	/ w	-0.6023169
-1.8700825	w w	-1.0106796
-1.6183069	ã §	-0.49639964
-0.68560565	ø §	-0.49992526
-1.6149123	ã £	-1.2874212
-3.124538	<s> #	-1.9743819
-1.4863652	# #	-1.0825335
-1.6200142	ã ¢	-0.7550006
-1.9366508	 ¢	-0.722947
-1.6093434	î ®	0
-1.9183846	 	-0.91782767
-1.7253981	 	-0.973389
-1.1189263	ä 	0
-4.4181166	<s> å	0
-2.3914406	a å	0
-2.0827935	h å	0
-2.1745534	y å	0
-3.6487157	<s> î	-0.57632077
-1.4479315	± î	0
-1.5221605	­ î	0
-1.556162	³ î	0
-2.2184565	( î	0
-1.6475098	² î	0
-1.4242136	 î	-0.13324569
-1.8070644	º î	0
-2.097475	- î	0
-1.4025134	¯ î	-0.3658889
-1.7530259	¼ î	0
-1.5967264	» î	-0.40022948
-1.5658516	¸ î	0
-1.6357505	¿ î	-0.19854346
-1.5091504	 î	-0.10857322
-1.3771743	 î	0
-1.2281171	 î	0
-1.6646392	 î	0
-1.550265	½ î	-0.11267062
-1.1703119	µ î	-0.23176529
-1.5651989	¬ î	0
-1.4060242	 î	0
-1.6227568	´ î	0
-1.6301441	¹ î	-0.18603243
-1.6148266	 î	0
-2.0441256	ã ¸	0
-1.5462704	î ¸	-0.32644328
-0.997466	á ¸	0
-1.7447346	â 	-0.39844123
-1.4007437	ï 	0
-0.95872015	ù 	0
-4.461852	<s> ^	0
-2.497052	a _	0
-2.3691835	n _	0
-2.3285131	o _	0
-2.2180429	r _	0
-2.2543225	c _	0
-2.4334137	e _	0
-2.1767848	p _	-0.578351
-2.3259265	s _	0
-2.5668645	u _	0
-2.1953075	y _	0
-2.1412313	x _	0
-1.6736865	â ¿	-0.13067275
-1.0485753	î ¿	-0.9373735
-0.9100998	á ¿	0
-2.350852	o ?	0
-1.5023088	? ?	0
-3.6506717	<s> \	-0.39409786
-1.805054	\ \	-0.9064423
-1.2464534	{ \	0
-4.9586205	<s> {	0
-3.0031261	c {	0
-1.2148392	_ {	-0.19734704
-0.7464204	} {	0
-2.6251013	a }	0
-2.202981	2 }	-0.3015576
-4.6759768	<s> |	0
-2.468092	o |	0
-2.4592352	g |	0
-1.4359761	ã ¶	-0.11363941
-4.333123	<s> á	-0.6949018
-2.4201405	( á	-0.66148543
-3.9814672	<s> ï	-0.54806113
-1.4564126	± ï	0
-2.2450688	( ï	-0.30150732
-1.4319257	 ï	-0.1286483
-1.8264867	º ï	0
-1.6094804	» ï	0
-1.6523037	¿ ï	-0.44205868
-1.52007	 ï	0
-1.2341099	 ï	0
-1.5201107	µ ï	0
-1.6306621	 ï	0
-1.4154958	 ï	0
-1.641026	¹ ï	-0.34101585
-1.6294079	 ï	-0.6029717
-1.5464078	· ï	0
-0.9199891	ï 	-0.87938094
-0.5844213	ä 	-0.35890338
-1.3387985	ï 	-0.43496978
-0.99314487	ï 	-0.8027469
-2.287086	â 	-0.8053628
-1.2325394	ï 	-0.35605603
-1.1770661	î ½	-0.5547049
-1.2021922	î µ	-0.69119906
-1.7218983	ã ¦	0
-1.9304763	 ¦	0
-3.3542244	<s> =	-1.3556446
-2.2244806	n =	-0.22446084
-2.0036883	d =	0
-1.9923439	t =	0
-2.4745438	k =	-0.6903247
-1.9427274	x =	0
-1.6743666	: =	-0.3499244
-3.2108464	<s> &	-1.8123847
-1.7229812	ã ª	0
-1.5092623	â ª	-1.169034
-1.4973177	ã ¤	-0.12511453
-1.6177881	 ¤	0
-4.752209	<s> >	-0.62665564
-3.2483187	- >	-1.0577099
-4.5514884	<s> $	0
-2.792712	s $	0
-2.5111926	( $	0
-2.7563736	â 	0
-2.3146877	â 	-0.8006418
-1.1149802	ï 	-0.98290247
-1.3995563	î ¬	-0.28613564
-1.7413332	 ¬	-0.49604043
-0.75955045	å 	0
-1.401181	ï 	-0.3722008
-4.818867	<s> ø	0
-1.6748971	§ ù	0
-1.2346212	ï 	-0.988629
-4.6530986	<s> ä	0
-2.0680637	n ä	0
-1.9150146	r ä	-0.18630852
-1.9790238	l ä	0
-1.8351227	m ä	0
-2.0594919	t ä	0
-1.9127262	h ä	-0.48520198
-1.8908482	y ä	-0.57632077
-2.1971364	v ä	-0.94120437
-1.5075928	â ´	0
-1.492253	î ´	-0.2070045
-1.0671265	î ¹	-0.6994976
-0.6691368	á ¹	0
-4.8316073	<s> ~	-0.8081882
-0.94364154	ï 	-0.59667057
-1.3337008	¹ 	0
-1.7154937	 	-0.88282186
-0.3349646	ë 	-0.48888797
-1.4400417	ð 	-1.2586248
-1.6655939	ã 	-0.77143455
-2.050993	ã 	-0.64893204
-1.1385022	å 	0
-1.6032227	ä 	-0.2502487
-1.2991065	å 	0
-1.7708138	î ¾	0
-2.610332	( ð	-1.2586248
-1.9304763	 	-1.2586248
-1.5075928	â ·	-0.32811534
-1.3600922	î ·	-0.44016832
-1.9243883	 	0
-4.653275	<s> æ	0

\3-grams:
-0.71221364	<s> a </s>
-1.0871423	a a </s>
-0.45268923	n a </s>
-0.5245319	d a </s>
-0.9206108	o a </s>
-0.580965	r a </s>
-1.549113	f a </s>
-0.43552738	i a </s>
-0.7288491	c a </s>
-0.27157882	l a </s>
-0.7561213	m a </s>
-0.6841246	e a </s>
-0.6565053	t a </s>
-1.4697623	p a </s>
-0.811491	s a </s>
-1.1299833	u a </s>
-0.507871	± a </s>
-0.1678469	­ a </s>
-0.8723597	b a </s>
-0.75514114	h a </s>
-0.2681538	y a </s>
-0.9241336	g a </s>
-0.6452804	z a </s>
-1.1810336	( a </s>
-0.7981023	v a </s>
-0.68837106	j a </s>
-1.0613687	k a </s>
-1.1875762	x a </s>
-0.23329552	º a </s>
-1.6137145	w a </s>
-2.7485003	<s> n </s>
-0.7038652	a n </s>
-0.86840904	n n </s>
-0.31228045	d n </s>
-0.55599886	o n </s>
-1.7906296	r n </s>
-1.2992765	i n </s>
-0.4524682	e n </s>
-0.5633838	u n </s>
-0.82055736	­ n </s>
-0.05887851	b n </s>
-0.56053644	h n </s>
-0.5134379	¡ n </s>
-0.095020466	³ n </s>
-0.06978886	2 n </s>
-0.22688544	© n </s>
-0.21156867	º n </s>
-0.37897903	w n </s>
-0.5986321	 n </s>
-3.5435896	<s> d </s>
-0.84294736	a d </s>
-1.6493708	n d </s>
-2.224315	o d </s>
-1.2098795	r d </s>
-2.1729958	i d </s>
-0.4948214	c d </s>
-0.7795915	l d </s>
-1.4702839	e d </s>
-1.904961	s d </s>
-1.0483391	u d </s>
-0.59581274	<s> o </s>
-0.5814198	a o </s>
-0.46270853	n o </s>
-0.31197733	d o </s>
-1.4825596	o o </s>
-0.7014596	r o </s>
-1.5501572	f o </s>
-0.61723787	i o </s>
-1.063517	c o </s>
-0.6746583	l o </s>
-0.33481655	m o </s>
-0.57561076	e o </s>
-0.4607926	t o </s>
-1.0881323	p o </s>
-0.73939466	s o </s>
-0.37968883	u o </s>
-0.5300382	± o </s>
-0.31470767	­ o </s>
-1.1421831	b o </s>
-0.76177955	h o </s>
-0.74162734	y o </s>
-0.47251612	g o </s>
-0.6606555	z o </s>
-0.27183178	( o </s>
-0.46871305	v o </s>
-0.39491597	j o </s>
-0.9210435	k o </s>
-1.2238557	x o </s>
-0.12907735	/ o </s>
-0.044125214	£ o </s>
-2.8333864	<s> r </s>
-0.78988236	a r </s>
-0.4982561	o r </s>
-0.5877993	i r </s>
-1.0474372	e r </s>
-1.3837196	u r </s>
-0.0054301512	<s> , </s>
-0.00051292265	a , </s>
-0.0003940337	n , </s>
-0.002473966	d , </s>
-0.0002080177	o , </s>
-0.00096771115	r , </s>
-0.027135989	f , </s>
-0.00094223523	i , </s>
-0.0038259232	c , </s>
-0.0003599123	l , </s>
-0.0023895463	m , </s>
-0.00058637635	e , </s>
-0.0018938509	t , </s>
-0.035898384	p , </s>
-0.0005702538	s , </s>
-0.0031195644	u , </s>
-0.04148101	q , </s>
-0.030026296	± , </s>
-0.001453026	­ , </s>
-0.0090761995	b , </s>
-0.002616785	. , </s>
-0.025705269	h , </s>
-0.0028915675	¡ , </s>
-0.0011138767	y , </s>
-0.0017234862	g , </s>
-0.0007764184	z , </s>
-0.0033347164	³ , </s>
-0.20791973	7 , </s>
-0.20225209	8 , </s>
-0.29964262	2 , </s>
-0.19404505	6 , </s>
-0.24910021	4 , </s>
-0.24069424	0 , </s>
-0.3580371	1 , </s>
-0.00042865015	) , </s>
-0.0030116374	v , </s>
-0.027818292	j , </s>
-0.002613712	k , </s>
-0.008791931	² , </s>
-0.0037111368	x , </s>
-0.20345803	9 , </s>
-0.005920927	 , </s>
-0.0063531525	© , </s>
-0.30634126	3 , </s>
-0.0041644275	º , </s>
-0.02024543	- , </s>
-0.007702582	 , </s>
-0.004556923	 , </s>
-0.2680401	5 , </s>
-0.0015795835	" , </s>
-0.09853425	' , </s>
-0.004556923	% , </s>
-0.030026296	+ , </s>
-0.04148101	« , </s>
-0.0017441998	» , </s>
-0.02024543	w , </s>
-0.014753718	 , </s>
-0.03526928	\ , </s>
-0.012259677	 , </s>
-3.1303685	<s> f </s>
-1.933859	a f </s>
-0.76828676	o f </s>
-0.8553262	f f </s>
-0.5701041	c f </s>
-1.1836195	l f </s>
-2.3177123	e f </s>
-0.19839942	p f </s>
-2.0522163	<s> i </s>
-1.475533	a i </s>
-1.729758	n i </s>
-2.2466242	d i </s>
-2.1000738	o i </s>
-2.1398711	r i </s>
-2.7540538	f i </s>
-0.4185612	i i </s>
-3.3139534	c i </s>
-2.3316772	l i </s>
-2.587618	m i </s>
-1.670154	e i </s>
-2.6407464	t i </s>
-2.2005017	p i </s>
-1.3690416	s i </s>
-2.2768385	u i </s>
-0.58714485	q i </s>
-2.6485987	b i </s>
-2.0002222	h i </s>
-0.30185863	¡ i </s>
-0.60801303	y i </s>
-2.2781315	g i </s>
-1.1525122	z i </s>
-2.0857394	v i </s>
-1.2975895	j i </s>
-1.0765982	k i </s>
-1.7135639	x i </s>
-2.802139	<s> c </s>
-2.512855	a c </s>
-2.9281301	n c </s>
-0.70577806	d c </s>
-2.8174164	o c </s>
-2.0235834	r c </s>
-2.0080638	i c </s>
-2.2240205	l c </s>
-2.8072908	e c </s>
-1.0854323	p c </s>
-2.5551753	s c </s>
-0.27210954	° c </s>
-3.8087492	<s> l </s>
-0.5663242	a l </s>
-1.2666867	o l </s>
-1.1775826	r l </s>
-1.1202847	i l </s>
-1.7264638	l l </s>
-0.12553538	e l </s>
-2.6300817	p l </s>
-2.0518436	s l </s>
-1.9802576	u l </s>
-0.9764064	h l </s>
-1.6100552	¡ l </s>
-0.9133653	© l </s>
-1.586762	º l </s>
-2.2826457	<s> m </s>
-1.910336	a m </s>
-1.4122338	n m </s>
-2.4214633	o m </s>
-2.7497656	r m </s>
-0.667222	f m </s>
-2.4404426	i m </s>
-0.2435059	c m </s>
-2.0493453	l m </s>
-0.7527187	m m </s>
-2.3695784	e m </s>
-0.81732416	u m </s>
-0.34859374	b m </s>
-0.88699853	h m </s>
-0.45325482	k m </s>
-0.3221233	/ m </s>
-0.27599463	¼ m </s>
-2.1681972	<s> e </s>
-0.5779673	a e </s>
-1.0147864	n e </s>
-0.2047517	d e </s>
-1.0339743	o e </s>
-0.8596758	r e </s>
-1.4928738	f e </s>
-1.4750999	i e </s>
-0.9524621	c e </s>
-1.0517473	l e </s>
-1.8927265	m e </s>
-0.5229311	e e </s>
-0.48147044	t e </s>
-1.9209621	p e </s>
-0.32760894	s e </s>
-0.29533598	u e </s>
-0.86437714	b e </s>
-0.8865831	h e </s>
-0.71194756	y e </s>
-1.2543722	g e </s>
-1.3694259	z e </s>
-1.2186201	v e </s>
-0.8013085	j e </s>
-0.91550076	k e </s>
-2.9946005	<s> t </s>
-2.0208006	a t </s>
-2.3918738	n t </s>
-0.52173704	d t </s>
-2.0814254	o t </s>
-1.7008476	r t </s>
-0.47432107	f t </s>
-2.0318804	i t </s>
-2.7668996	c t </s>
-2.2555125	l t </s>
-1.4314444	e t </s>
-1.2897128	t t </s>
-2.4313998	s t </s>
-2.2153609	u t </s>
-0.8436066	h t </s>
-3.376419	<s> p </s>
-2.3697588	a p </s>
-2.4278488	o p </s>
-2.0553126	i p </s>
-1.4518213	l p </s>
-2.6969826	m p </s>
-2.2051651	e p </s>
-0.87870824	p p </s>
-2.2300048	u p </s>
-3.300476	<s> s </s>
-0.18544887	a s </s>
-1.6232713	n s </s>
-1.0163449	d s </s>
-0.13687094	o s </s>
-1.652061	r s </s>
-1.0554849	i s </s>
-0.42746416	c s </s>
-1.0130094	l s </s>
-0.8024106	m s </s>
-0.38005874	e s </s>
-0.35495538	t s </s>
-1.0226098	p s </s>
-0.99670005	s s </s>
-0.5087651	u s </s>
-0.6474172	­ s </s>
-1.8446786	b s </s>
-0.5036138	h s </s>
-0.08251438	¡ s </s>
-0.7497145	y s </s>
-0.33866763	g s </s>
-1.5730134	³ s </s>
-0.47836608	k s </s>
-0.16093053	© s </s>
-0.8046118	º s </s>
-0.10918381	' s </s>
-0.49209955	w s </s>
-2.2409704	<s> u </s>
-2.0048723	a u </s>
-2.1577806	n u </s>
-2.206329	d u </s>
-1.638968	o u </s>
-2.6571357	r u </s>
-2.2694917	i u </s>
-2.7066517	l u </s>
-2.0451705	e u </s>
-2.2383535	t u </s>
-2.4721584	p u </s>
-0.487657	s u </s>
-1.5994714	b u </s>
-1.9613464	h u </s>
-1.4034317	y u </s>
-3.095948	<s> q </s>
-2.5874078	<s> ã </s>
-2.733563	r ã </s>
-2.809822	t ã </s>
-0.75520325	î ± </s>
-0.46570978	ä ± </s>
-1.3318897	ã ­ </s>
-2.4153223	<s> b </s>
-2.7220507	a b </s>
-2.6784966	o b </s>
-1.7785048	i b </s>
-2.3843534	m b </s>
-1.7077467	e b </s>
-1.5108719	u b </s>
-0.101801194	k b </s>
-0.06590847	<s> . </s>
-0.034582946	a . </s>
-0.016810743	n . </s>
-0.059852917	d . </s>
-0.006224514	o . </s>
-0.032959703	r . </s>
-0.09966051	f . </s>
-0.01500609	i . </s>
-0.17592758	c . </s>
-0.04789108	l . </s>
-0.066242546	m . </s>
-0.01872691	e . </s>
-0.050337266	t . </s>
-0.12580368	p . </s>
-0.01680867	s . </s>
-0.38014516	u . </s>
-0.26975515	q . </s>
-0.01340103	­ . </s>
-0.13244584	b . </s>
-0.38238078	. . </s>
-0.111883275	h . </s>
-0.009550396	¡ . </s>
-0.028543765	y . </s>
-0.07922447	g . </s>
-0.015362596	z . </s>
-0.009394699	³ . </s>
-0.26186022	7 . </s>
-0.19291732	8 . </s>
-0.31193414	2 . </s>
-0.23615529	6 . </s>
-0.29060805	4 . </s>
-0.2534073	0 . </s>
-0.39936146	1 . </s>
-0.0026123838	) . </s>
-0.1134665	v . </s>
-0.13262516	j . </s>
-0.13132407	k . </s>
-0.019644892	² . </s>
-0.030738717	x . </s>
-0.19034655	9 . </s>
-0.025804536	 . </s>
-0.02108271	: . </s>
-0.033360336	© . </s>
-0.29511565	3 . </s>
-0.014649714	º . </s>
-0.046752952	- . </s>
-0.035844207	 . </s>
-0.02163074	 . </s>
-0.28785902	5 . </s>
-0.0075878734	" . </s>
-0.02188355	' . </s>
-0.09179394	/ . </s>
-0.01121643	% . </s>
-0.009657208	» . </s>
-0.2600131	w . </s>
-0.03759476	 . </s>
-2.7592807	<s> h </s>
-1.4638675	a h </s>
-1.0122476	d h </s>
-1.6878281	c h </s>
-1.1598406	t h </s>
-1.2637643	p h </s>
-1.024765	s h </s>
-0.43765667	h h </s>
-1.1446086	g h </s>
-1.0480444	ã ¡ </s>
-0.010303721	 ¡ </s>
-0.026571974	<s> y </s>
-0.7096202	a y </s>
-0.4035236	n y </s>
-0.4091325	d y </s>
-0.62321377	o y </s>
-0.51301414	r y </s>
-1.0814565	c y </s>
-0.5712702	l y </s>
-0.72907376	m y </s>
-0.35211474	e y </s>
-0.56035286	t y </s>
-0.47528988	u y </s>
-0.54746914	b y </s>
-1.5755767	h y </s>
-0.46042895	g y </s>
-0.11511877	( y </s>
-0.71075124	k y </s>
-2.907064	<s> g </s>
-2.1452625	a g </s>
-1.1453916	n g </s>
-2.2273574	o g </s>
-2.0005991	r g </s>
-2.1408563	i g </s>
-0.12271336	p g </s>
-0.455989	k g </s>
-1.9656785	<s> z </s>
-1.018996	a z </s>
-1.7126132	n z </s>
-0.7602221	o z </s>
-1.428386	i z </s>
-0.4248572	c z </s>
-0.4135248	e z </s>
-0.59748	t z </s>
-0.36906415	s z </s>
-0.34927076	u z </s>
-0.19893473	­ z </s>
-0.23685972	h z </s>
-0.62556785	z z </s>
-0.78720504	ã ³ </s>
-0.83940756	<s> 7 </s>
-0.659656	, 7 </s>
-0.814512	. 7 </s>
-0.52031326	7 7 </s>
-0.60020256	8 7 </s>
-0.41749674	2 7 </s>
-0.4896017	6 7 </s>
-0.4947821	4 7 </s>
-0.4263839	0 7 </s>
-0.69446695	1 7 </s>
-0.96156764	9 7 </s>
-0.4801976	3 7 </s>
-0.53751135	- 7 </s>
-0.5045516	5 7 </s>
-0.70614606	<s> 8 </s>
-0.5313163	, 8 </s>
-0.7245601	. 8 </s>
-0.65990394	7 8 </s>
-0.7100435	8 8 </s>
-0.32058814	2 8 </s>
-0.49241704	6 8 </s>
-0.5393813	4 8 </s>
-0.44609863	0 8 </s>
-0.9885242	1 8 </s>
-1.156408	9 8 </s>
-0.47459716	3 8 </s>
-0.64805347	- 8 </s>
-0.49919492	5 8 </s>
-1.5177613	<s> â </s>
-1.2594689	o â </s>
-0.582973	i â </s>
-1.4010252	s â </s>
-0.11892058	. â </s>
-0.23794432	7 â </s>
-0.22564346	8 â </s>
-0.1634725	2 â </s>
-0.14471146	6 â </s>
-0.2010515	4 â </s>
-0.048427373	0 â </s>
-0.28689665	1 â </s>
-0.13090801	v â </s>
-0.24635594	9 â </s>
-0.2593758	3 â </s>
-0.1471268	5 â </s>
-1.1718835	<s> 2 </s>
-0.7390422	, 2 </s>
-0.7663874	. 2 </s>
-0.41122577	7 2 </s>
-0.62476176	8 2 </s>
-0.4637258	2 2 </s>
-0.49487653	6 2 </s>
-0.4740857	4 2 </s>
-1.4748452	( 2 </s>
-0.49342054	0 2 </s>
-0.52699697	1 2 </s>
-0.761353	9 2 </s>
-0.43346646	3 2 </s>
-0.9557579	- 2 </s>
-0.5292767	5 2 </s>
-0.77900654	/ 2 </s>
-0.16493484	^ 2 </s>
-0.77438337	<s> 6 </s>
-0.6224566	, 6 </s>
-0.69715303	. 6 </s>
-0.6094053	7 6 </s>
-0.6151899	8 6 </s>
-0.42044663	2 6 </s>
-0.48036277	6 6 </s>
-0.5728128	4 6 </s>
-0.47450125	0 6 </s>
-0.5276037	1 6 </s>
-0.958053	9 6 </s>
-0.45527565	3 6 </s>
-0.45562965	- 6 </s>
-0.51212615	5 6 </s>
-0.78549445	<s> 4 </s>
-0.5696863	, 4 </s>
-0.80702615	. 4 </s>
-0.47599328	7 4 </s>
-0.79591197	8 4 </s>
-0.4497568	2 4 </s>
-0.3766641	6 4 </s>
-0.44505864	4 4 </s>
-0.79980344	( 4 </s>
-0.47445577	0 4 </s>
-0.50352454	1 4 </s>
-0.9062477	9 4 </s>
-0.49276355	3 4 </s>
-0.61995196	- 4 </s>
-0.52196777	5 4 </s>
-0.20848745	/ 4 </s>
-2.751529	<s> ( </s>
-0.98587877	<s> 0 </s>
-0.96941465	, 0 </s>
-1.0536177	. 0 </s>
-0.6069082	7 0 </s>
-0.5843525	8 0 </s>
-1.1614584	2 0 </s>
-0.4248674	6 0 </s>
-0.5062517	4 0 </s>
-0.5753715	0 0 </s>
-0.5607078	1 0 </s>
-0.648592	9 0 </s>
-0.44616163	3 0 </s>
-0.5584184	5 0 </s>
-0.16054755	_ 0 </s>
-1.4286584	<s> 1 </s>
-0.73578835	, 1 </s>
-0.7036755	. 1 </s>
-0.5598128	7 1 </s>
-0.5731015	8 1 </s>
-0.5057092	2 1 </s>
-0.48427123	6 1 </s>
-0.5046064	4 1 </s>
-1.7646607	( 1 </s>
-1.0035524	0 1 </s>
-0.5516933	1 1 </s>
-0.7111174	9 1 </s>
-0.371625	3 1 </s>
-1.2027338	- 1 </s>
-0.5904026	5 1 </s>
-0.13958065	<s> ) </s>
-0.27862436	a ) </s>
-0.2513633	n ) </s>
-0.21296562	d ) </s>
-0.393692	o ) </s>
-0.3603505	r ) </s>
-0.1844778	f ) </s>
-0.34146	i ) </s>
-0.26583058	c ) </s>
-0.33647513	l ) </s>
-0.24464363	m ) </s>
-0.34194776	e ) </s>
-0.36487052	t ) </s>
-0.3178045	p ) </s>
-0.34247458	s ) </s>
-0.3620654	u ) </s>
-0.10491308	b ) </s>
-0.13096632	. ) </s>
-0.15425672	h ) </s>
-0.28173557	y ) </s>
-0.21167764	g ) </s>
-0.25718334	z ) </s>
-0.33227253	7 ) </s>
-0.35373753	8 ) </s>
-0.3529416	2 ) </s>
-0.35666516	6 ) </s>
-0.28600514	4 ) </s>
-0.35242173	0 ) </s>
-0.2933528	1 ) </s>
-0.31137222	v ) </s>
-0.13239531	k ) </s>
-0.19558053	² ) </s>
-0.27323171	x ) </s>
-0.27222595	9 ) </s>
-0.32879186	3 ) </s>
-0.34352267	- ) </s>
-0.5779941	 ) </s>
-0.36354032	5 ) </s>
-0.35635293	" ) </s>
-0.29308906	% ) </s>
-0.34144104	» ) </s>
-0.031860244	 ) </s>
-2.3143759	<s> v </s>
-2.2857194	a v </s>
-1.8427194	o v </s>
-2.0152655	r v </s>
-2.209443	i v </s>
-2.3152423	e v </s>
-0.45239234	t v </s>
-1.044244	x v </s>
-2.0437822	a j </s>
-1.3145298	o j </s>
-1.8260876	<s> k </s>
-1.008502	a k </s>
-0.6448335	n k </s>
-1.0326899	o k </s>
-0.645958	r k </s>
-0.9008712	i k </s>
-0.4840201	c k </s>
-0.719468	e k </s>
-0.911853	u k </s>
-0.27004102	- k </s>
-0.5109204	â ² </s>
-0.7742795	î ² </s>
-0.9679709	<s> x </s>
-1.0755125	a x </s>
-1.7620512	o x </s>
-0.48345447	r x </s>
-0.4064311	i x </s>
-1.5473436	e x </s>
-0.014807095	p x </s>
-0.605499	u x </s>
-0.54848593	x x </s>
-0.78436893	<s> 9 </s>
-0.55521584	, 9 </s>
-0.77837574	. 9 </s>
-0.46502456	7 9 </s>
-0.6849265	8 9 </s>
-0.452287	2 9 </s>
-0.63421357	6 9 </s>
-0.52017915	4 9 </s>
-0.5059282	0 9 </s>
-1.5156171	1 9 </s>
-1.2199028	9 9 </s>
-0.5569812	3 9 </s>
-0.68553483	- 9 </s>
-0.53881717	5 9 </s>
-2.051048	â  </s>
-0.4832	  </s>
-1.1070787	<s> : </s>
-0.016011728	a : </s>
-0.0020221754	n : </s>
-0.04173735	d : </s>
-0.053115442	o : </s>
-0.0050530504	r : </s>
-0.035286658	i : </s>
-0.007301259	l : </s>
-0.021835772	m : </s>
-0.00400187	e : </s>
-0.07672976	t : </s>
-0.0050120405	s : </s>
-0.04697963	­ : </s>
-0.017403949	. : </s>
-0.042864624	¡ : </s>
-0.05067571	y : </s>
-0.033946536	z : </s>
-0.02285486	³ : </s>
-0.091084406	7 : </s>
-0.03846719	8 : </s>
-0.017949268	2 : </s>
-0.04756505	6 : </s>
-0.046396088	4 : </s>
-0.063032344	0 : </s>
-0.08428983	1 : </s>
-0.0035909254	) : </s>
-0.026576074	x : </s>
-0.070060365	9 : </s>
-0.4665171	: : </s>
-0.047967393	3 : </s>
-0.0755997	5 : </s>
-0.029812343	" : </s>
-0.6152983	<s> ; </s>
-0.0009380067	a ; </s>
-0.0026318638	n ; </s>
-0.004947862	d ; </s>
-0.0011327186	o ; </s>
-0.002722895	r ; </s>
-0.009179062	i ; </s>
-0.0021136247	l ; </s>
-0.013381622	m ; </s>
-0.0015262491	e ; </s>
-0.020139074	t ; </s>
-0.00034791732	s ; </s>
-0.012764341	. ; </s>
-0.016035823	8 ; </s>
-0.007001733	2 ; </s>
-0.022017045	6 ; </s>
-0.013363682	0 ; </s>
-0.016035823	1 ; </s>
-0.00092708523	) ; </s>
-0.020139074	x ; </s>
-0.008516955	3 ; </s>
-0.02129276	 ; </s>
-0.017204229	5 ; </s>
-0.013321746	$ ; </s>
-1.4190613	ã © </s>
-0.8167416	<s> 3 </s>
-0.5896567	, 3 </s>
-0.5845887	. 3 </s>
-0.5881859	7 3 </s>
-0.5726236	8 3 </s>
-0.44849092	2 3 </s>
-0.54250944	6 3 </s>
-0.53490436	4 3 </s>
-0.77326643	( 3 </s>
-0.4306158	0 3 </s>
-0.53393835	1 3 </s>
-1.0322328	9 3 </s>
-0.59256065	3 3 </s>
-0.693563	- 3 </s>
-0.5657687	5 3 </s>
-1.6020678	ã º </s>
-0.057511743	â º </s>
-0.06632939	<s> * </s>
-0.015341679	: * </s>
-0.1429878	* * </s>
-0.1222703	<s> - </s>
-1.4167538	a - </s>
-1.0848297	s - </s>
-0.2882608	. - </s>
-0.06635592	: - </s>
-0.7591968	  </s>
-0.35098153	  </s>
-0.74288857	<s> 5 </s>
-0.49327925	, 5 </s>
-0.81260663	. 5 </s>
-0.56956387	7 5 </s>
-0.666858	8 5 </s>
-0.5043849	2 5 </s>
-0.50157636	6 5 </s>
-0.5592129	4 5 </s>
-0.53638756	0 5 </s>
-0.555974	1 5 </s>
-0.88315606	9 5 </s>
-0.55020106	3 5 </s>
-0.5730549	- 5 </s>
-0.5142703	5 5 </s>
-0.30710787	a " </s>
-0.29080203	n " </s>
-0.23214664	d " </s>
-0.36319828	o " </s>
-0.17400941	r " </s>
-0.23063065	l " </s>
-0.25971013	e " </s>
-0.172144	t " </s>
-0.30519822	s " </s>
-0.4425619	s ' </s>
-0.7305766	' ' </s>
-0.68073344	â ° </s>
-0.5161196	<s> / </s>
-0.0831239	<s> % </s>
-0.07049422	7 % </s>
-0.07389683	8 % </s>
-0.07815639	2 % </s>
-0.08006759	6 % </s>
-0.08013806	4 % </s>
-0.072574094	0 % </s>
-0.05142912	1 % </s>
-0.049506396	9 % </s>
-0.083865814	3 % </s>
-0.09750398	5 % </s>
-1.3483751	ã ¼ </s>
-0.24090047	<s> + </s>
-0.27831623	+ + </s>
-0.47530806	ã « </s>
-0.33905935	â » </s>
-1.651793	<s> w </s>
-0.8680066	o w </s>
-0.3099792	e w </s>
-0.013707755	<s> # </s>
-0.032005455	# # </s>
-0.07071319	 ¢ </s>
-0.7871769	  </s>
-0.045489836	  </s>
-1.1506517	<s> \ </s>
-0.05323496	\ \ </s>
-0.16596247	2 } </s>
-0.42944902	ï  </s>
-0.6473658	î ½ </s>
-0.016649595	<s> = </s>
-0.20838128	: = </s>
-0.0064736055	<s> & </s>
-0.026286418	â ª </s>
-0.07808481	<s> > </s>
-0.027330546	- > </s>
-0.5553167	ï  </s>
-0.14886469	 ¬ </s>
-0.062887624	<s> ~ </s>
-0.053931244	  </s>
-0.14829534	ë  </s>
-0.17662418	ã  </s>
-0.22094446	â · </s>
-0.46458265	î · </s>
-3.346874	<s> a a
-3.0656588	i a a
-3.6027915	t a a
-2.5526724	s a a
-2.8734577	g a a
-0.7311148	<s> n a
-1.0193148	a n a
-0.8107557	n n a
-0.954193	d n a
-0.8758236	o n a
-0.38555583	r n a
-0.59664273	i n a
-0.41763255	m n a
-1.6375844	e n a
-0.95655155	t n a
-1.0458745	s n a
-0.53848004	u n a
-0.9578028	­ n a
-1.4346159	h n a
-0.6501273	y n a
-0.68658996	g n a
-3.2128878	³ n a
-0.8233356	( n a
-0.7039182	- n a
-0.2977679	 n a
-1.7841469	<s> d a
-0.6191163	a d a
-0.8231053	n d a
-0.9823413	o d a
-0.80711925	r d a
-0.37429202	i d a
-0.7749351	l d a
-0.7758334	e d a
-0.23872131	p d a
-0.41136068	u d a
-0.776045	­ d a
-0.9830023	b d a
-0.75199413	y d a
-0.2987329	g d a
-1.1701992	( d a
-0.9934455	- d a
-3.1832685	<s> o a
-2.317361	n o a
-2.7866635	d o a
-2.2821434	r o a
-3.084185	i o a
-2.687276	c o a
-2.280852	l o a
-3.1590254	m o a
-2.474352	e o a
-3.0487597	t o a
-2.2774575	p o a
-2.4747307	s o a
-2.1318264	b o a
-1.896837	z o a
-1.7701482	j o a
-1.0268036	<s> r a
-0.8012439	a r a
-0.8051375	n r a
-0.5526875	d r a
-1.1778146	o r a
-0.55240667	r r a
-0.42378658	f r a
-0.95382565	i r a
-1.3413856	c r a
-0.78688705	e r a
-0.41135037	t r a
-1.6253767	p r a
-0.28605494	s r a
-0.3112024	u r a
-0.541697	b r a
-1.0351403	h r a
-0.8955151	¡ r a
-0.8752022	y r a
-0.24350688	g r a
-0.7541867	( r a
-0.38823247	k r a
-0.92615247	<s> f a
-1.4537863	a f a
-1.1556456	n f a
-1.4536458	o f a
-1.0912175	r f a
-1.5446918	i f a
-0.3348308	l f a
-1.3818637	e f a
-0.47180694	t f a
-0.9472291	s f a
-0.9181337	u f a
-0.04736168	b f a
-0.8911308	³ f a
-0.95710665	( f a
-0.19388184	© f a
-2.6926496	<s> i a
-2.0153508	a i a
-1.1926038	n i a
-0.8957558	d i a
-1.787942	o i a
-0.79545224	r i a
-2.0162518	f i a
-0.6759324	c i a
-1.0153768	l i a
-1.64444	m i a
-2.2579885	e i a
-1.5168445	t i a
-1.1600153	p i a
-1.4049087	s i a
-1.5880785	u i a
-1.1609735	b i a
-1.4138699	h i a
-1.1927762	g i a
-1.3074783	z i a
-1.1033633	v i a
-1.2832029	k i a
-1.437298	x i a
-1.4657987	w i a
-0.7502421	<s> c a
-1.281718	a c a
-1.299322	n c a
-0.6726893	o c a
-0.5580221	r c a
-0.35168618	i c a
-1.8164091	c c a
-0.18181188	l c a
-1.4277831	e c a
-0.77921814	s c a
-1.147265	u c a
-2.0170488	­ c a
-1.0049453	b c a
-0.6627039	. c a
-2.1899068	¡ c a
-0.73592883	y c a
-0.4295612	z c a
-0.72886	( c a
-0.94034106	x c a
-0.5601965	: c a
-0.5827311	© c a
-0.61913437	º c a
-0.4837069	* c a
-0.5276441	- c a
-0.7586813	" c a
-0.55746746	« c a
-0.19390078	<s> l a
-1.4097797	a l a
-0.0849873	n l a
-0.9316438	o l a
-0.51724327	r l a
-0.9267762	f l a
-1.0201269	i l a
-0.41520607	c l a
-0.36387506	l l a
-1.314663	e l a
-0.8553386	t l a
-0.41941535	p l a
-0.095356755	s l a
-0.3896672	u l a
-0.58425033	­ l a
-0.6178314	b l a
-0.58313864	. l a
-0.9757532	h l a
-0.99188375	¡ l a
-1.3154553	y l a
-0.8647475	g l a
-1.0625222	³ l a
-0.3864213	( l a
-0.29709888	v l a
-0.851617	k l a
-0.36302286	: l a
-1.1725532	© l a
-0.3199978	* l a
-0.45713845	- l a
-0.30425763	 l a
-0.372737	" l a
-0.5208055	/ l a
-0.266345	« l a
-0.62433666	<s> m a
-0.8188479	a m a
-0.89970315	n m a
-1.5182018	d m a
-1.0289364	o m a
-0.27640855	r m a
-0.76191074	i m a
-0.86062336	l m a
-0.7043884	m m a
-0.6971452	e m a
-1.4747294	t m a
-0.8168498	s m a
-0.64003986	u m a
-0.82049423	b m a
-0.5837709	h m a
-0.7452347	¡ m a
-0.37602547	g m a
-0.28336185	z m a
-1.7508955	³ m a
-0.6328352	( m a
-1.5286766	k m a
-0.5951769	- m a
-0.517197	" m a
-0.664798	« m a
-3.7289312	<s> e a
-1.6249095	a e a
-1.3609717	n e a
-2.143318	d e a
-1.8473945	o e a
-1.2008743	r e a
-2.7169623	i e a
-1.1739074	c e a
-1.6487614	l e a
-2.6589334	m e a
-2.060844	t e a
-1.7182512	p e a
-1.8744857	s e a
-2.110381	u e a
-1.745995	b e a
-1.7413052	h e a
-2.5596497	g e a
-2.7071984	v e a
-2.0947852	j e a
-1.6488515	k e a
-0.72569716	<s> t a
-0.79065245	a t a
-0.82989013	n t a
-0.69846445	o t a
-0.67378765	r t a
-1.6010735	f t a
-0.5222999	i t a
-0.9844454	c t a
-0.5945659	l t a
-0.55546767	e t a
-0.9550759	t t a
-0.637165	p t a
-0.49981427	s t a
-0.650049	u t a
-1.9781346	¡ t a
-0.48039126	y t a
-0.56535393	( t a
-1.6864291	x t a
-1.479374	© t a
-0.6450353	<s> p a
-0.55570185	a p a
-0.935491	o p a
-1.3152187	r p a
-0.5817751	i p a
-0.92097723	l p a
-1.052913	m p a
-0.90769213	e p a
-0.8032592	p p a
-0.6440075	s p a
-0.8371254	u p a
-0.9095355	y p a
-0.7591461	( p a
-0.9970892	x p a
-1.0292599	© p a
-0.6555145	- p a
-0.75203866	" p a
-0.50834703	« p a
-1.1324918	<s> s a
-1.5614591	a s a
-1.036102	n s a
-1.6291224	o s a
-0.8907599	r s a
-1.6707504	i s a
-0.51545715	l s a
-1.4454724	e s a
-1.6359253	p s a
-0.9649659	s s a
-0.9418752	u s a
-1.0897543	y s a
-0.93824375	( s a
-1.972088	© s a
-0.83757156	- s a
-0.62110996	/ s a
-0.7375039	« s a
-3.1230187	<s> u a
-0.98748976	n u a
-1.454776	d u a
-1.3964723	o u a
-2.2863479	r u a
-0.6722779	c u a
-1.9057285	l u a
-1.2503885	e u a
-0.77574193	t u a
-1.4097066	s u a
-2.5995774	q u a
-1.3213193	h u a
-1.7312086	y u a
-0.6049275	g u a
-1.082567	j u a
-1.1439617	k u a
-0.14682984	x u a
-3.1688447	<s> q a
-0.4392038	ã ± a
-0.3760752	ã ­ a
-0.47501045	<s> b a
-0.5296989	a b a
-0.50244963	n b a
-1.0375056	o b a
-0.4770282	r b a
-1.389574	i b a
-0.48931736	l b a
-0.89766866	m b a
-0.8851369	e b a
-1.1295817	t b a
-1.1053802	s b a
-0.7951152	u b a
-0.88006836	­ b a
-0.68348414	b b a
-0.41651636	h b a
-0.9199967	¡ b a
-0.44492525	³ b a
-0.5491179	( b a
-0.31531933	* b a
-0.7092771	- b a
-0.39232898	" b a
-1.9326324	c . a
-1.5980633	l . a
-2.707831	s . a
-0.33379778	<s> h a
-0.85184866	a h a
-0.55711347	n h a
-0.6474553	d h a
-0.84983104	o h a
-0.8235635	r h a
-0.5135882	c h a
-0.60293055	l h a
-1.1570846	e h a
-1.164578	t h a
-0.8097377	p h a
-0.6740663	s h a
-0.5553698	u h a
-0.28662798	b h a
-0.7951529	g h a
-0.48636663	( h a
-0.29649997	k h a
-0.45773548	x h a
-0.94691604	- h a
-1.4555988	<s> y a
-0.97300667	a y a
-0.7855023	n y a
-0.6676969	d y a
-0.58827376	o y a
-0.7484791	r y a
-0.54043156	i y a
-1.327911	c y a
-1.4585111	e y a
-1.331224	t y a
-0.9684262	u y a
-0.922474	b y a
-1.3711606	h y a
-0.95791703	<s> g a
-0.8034172	a g a
-1.1233374	n g a
-0.72820747	d g a
-1.2916492	o g a
-0.47880656	r g a
-0.044970307	f g a
-0.9994993	i g a
-0.84676427	l g a
-0.7874737	e g a
-0.95333314	s g a
-0.1866836	u g a
-1.6435242	­ g a
-0.73611116	z g a
-1.8144187	³ g a
-0.89414227	( g a
-0.6247051	- g a
-0.77830493	<s> z a
-0.5213339	a z a
-0.20150433	n z a
-0.49504024	o z a
-0.2903848	r z a
-0.119601645	i z a
-0.21242276	l z a
-0.4781767	e z a
-0.9836112	t z a
-0.6169172	u z a
-0.41861674	¡ z a
-0.4869311	z z a
-0.19973458	( z a
-1.1418536	<s> ( a
-2.608481	0 0 a
-0.5637105	<s> v a
-0.7194994	a v a
-1.070338	n v a
-0.79555506	d v a
-1.0438117	o v a
-0.28019735	r v a
-0.5156873	i v a
-0.44096333	l v a
-0.45523423	e v a
-0.4947992	t v a
-0.89188945	s v a
-1.458029	u v a
-0.5871912	­ v a
-0.616857	¡ v a
-0.8019717	( v a
-0.844422	<s> j a
-0.67615694	a j a
-0.7743448	n j a
-0.2568564	o j a
-0.54572874	r j a
-0.42969656	i j a
-0.15080856	l j a
-0.64720213	e j a
-0.9645643	u j a
-0.050053403	¡ j a
-0.49567854	( j a
-0.03679054	© j a
-0.54494953	- j a
-0.6804076	<s> k a
-0.7681324	a k a
-0.9305348	n k a
-0.7498903	o k a
-0.88396174	i k a
-0.63183707	s k a
-0.5238647	u k a
-0.87334037	( k a
-1.6065847	<s> x a
-1.3924831	a x a
-0.7967138	o x a
-1.4061031	i x a
-1.4588659	e x a
-1.101149	u x a
-1.347828	  a
-1.7339953	<s> : a
-1.3293624	<s> ; a
-1.5673637	ã © a
-1.4185632	ã º a
-2.4981475	<s> * a
-1.554523	<s> - a
-1.179944	a - a
-0.8808527	o - a
-1.0164772	i - a
-0.9249715	l - a
-1.1267141	e - a
-0.55096334	p - a
-1.1843154	s - a
-1.0568528	2 - a
-1.0943674	1 - a
-1.0647373	  a
-0.7364127	  a
-0.9822534	<s> " a
-1.0687582	<s> ' a
-0.31695825	d ' a
-0.29641598	l ' a
-1.0792283	' ' a
-1.2304884	<s> / a
-1.0336142	â « a
-0.73011893	<s> w a
-0.4241024	a w a
-0.308402	n w a
-0.13483533	d w a
-0.9901802	o w a
-0.38701746	i w a
-0.23272793	m w a
-1.0408888	e w a
-0.039872065	t w a
-0.2689438	s w a
-0.19886398	h w a
-0.4036594	k w a
-0.5421892	- w a
-0.58743715	ã § a
-0.39970547	_ { a
-1.0579367	<s> a n
-1.5295315	n a n
-1.4961474	d a n
-1.0945287	o a n
-0.84707415	r a n
-1.1046078	f a n
-1.0262971	i a n
-0.9886995	c a n
-1.332655	l a n
-0.7278711	m a n
-1.3056526	e a n
-0.9146287	t a n
-1.3848683	p a n
-0.7435662	s a n
-0.80667454	u a n
-1.1751505	± a n
-1.0549363	­ a n
-0.8166039	b a n
-0.9713507	h a n
-0.97920877	y a n
-0.67224073	g a n
-1.0138884	z a n
-0.8983711	( a n
-1.110677	v a n
-0.9068955	j a n
-0.8446194	k a n
-0.7117931	x a n
-0.60459214	© a n
-0.476975	º a n
-1.0539408	- a n
-0.79849994	" a n
-0.81166685	' a n
-1.0646495	w a n
-2.2454712	a n n
-2.9597135	o n n
-2.2959034	i n n
-2.8505523	e n n
-2.9799433	u n n
-2.7082949	a d n
-2.5267677	r d n
-1.8819225	<s> o n
-1.1547363	a o n
-1.995598	n o n
-1.4388598	d o n
-1.2789124	o o n
-0.89205027	r o n
-1.2022369	f o n
-0.42890728	i o n
-0.40477416	c o n
-1.3041751	l o n
-0.9733559	m o n
-1.116602	e o n
-1.3982549	t o n
-1.2250123	p o n
-0.60772014	s o n
-2.2797503	± o n
-1.1009915	b o n
-1.1864566	h o n
-1.9682895	y o n
-1.2584748	g o n
-0.41742545	z o n
-1.725349	v o n
-1.6461865	j o n
-0.91269636	k o n
-0.3100925	x o n
-1.2881317	w o n
-2.2034688	a r n
-1.8794264	o r n
-2.802408	i r n
-1.2962723	e r n
-1.9017736	u r n
-2.3299277	© r n
-2.1978736	a f n
-0.20866868	<s> i n
-0.888181	a i n
-1.3459026	n i n
-1.2994518	d i n
-1.1198881	o i n
-1.1084539	r i n
-0.7349687	f i n
-1.8370885	i i n
-1.5992384	c i n
-1.0513313	l i n
-0.617137	m i n
-0.29636252	e i n
-1.0824379	t i n
-0.95888	p i n
-1.0225986	s i n
-0.97928375	u i n
-0.54307616	q i n
-0.57711065	± i n
-1.3662941	b i n
-0.98348826	h i n
-0.8893413	g i n
-0.5754577	z i n
-0.26366234	( i n
-0.9994426	v i n
-1.0665987	j i n
-0.5457796	k i n
-1.5309808	x i n
-0.47962117	- i n
-0.33762327	" i n
-0.15761231	' i n
-0.3475901	« i n
-0.789396	w i n
-3.4921465	<s> c n
-3.3590155	i c n
-1.8207344	e c n
-0.42982906	© c n
-0.5060961	/ c n
-3.03647	a l n
-2.8177142	u l n
-2.8690708	a m n
-3.154484	o m n
-2.1684523	i m n
-2.5075848	e m n
-1.586731	u m n
-0.86338854	y m n
-0.49604648	<s> e n
-1.6986761	a e n
-1.1193259	n e n
-1.344575	d e n
-1.035578	o e n
-1.0832146	r e n
-1.0651358	f e n
-0.29062694	i e n
-0.6453688	c e n
-1.0532842	l e n
-0.29931468	m e n
-0.58956754	e e n
-1.0081056	t e n
-1.0722783	p e n
-1.0395108	s e n
-1.1155888	u e n
-0.9047875	b e n
-0.8751863	. e n
-1.2751364	h e n
-0.4348981	y e n
-0.19286376	g e n
-1.2517419	z e n
-0.5226389	( e n
-0.68301034	v e n
-2.0387557	j e n
-0.8164551	k e n
-0.56741345	x e n
-0.38590866	 e n
-0.68885225	- e n
-0.68481874	" e n
-0.85211474	« e n
-1.1988227	w e n
-3.0603697	r t n
-3.0568259	i t n
-2.1002061	e t n
-3.4121327	s t n
-1.3695691	© t n
-3.4461436	<s> p n
-3.552364	<s> s n
-3.017537	i s n
-0.657697	m s n
-3.2158983	e s n
-0.076056115	<s> u n
-0.71982485	a u n
-1.1782355	n u n
-2.0056818	d u n
-0.6742445	o u n
-1.4599664	r u n
-0.55803233	f u n
-1.4429567	i u n
-1.5553575	c u n
-1.5599369	l u n
-0.43997797	m u n
-1.3597668	e u n
-2.0295339	t u n
-0.9840671	p u n
-2.0468674	s u n
-1.0460683	b u n
-1.4578662	h u n
-0.60052675	y u n
-0.67355424	g u n
-0.2729319	( u n
-0.6082612	j u n
-0.5467204	k u n
-0.18386284	" u n
-0.22761437	« u n
-0.6511663	ä ± n
-1.0636317	ã ­ n
-2.3315792	i b n
-0.3724951	s b n
-1.7265413	a h n
-0.48972923	o h n
-1.9806149	c h n
-0.68720543	ã ¡ n
-2.4243712	a y n
-1.52214	r y n
-0.759704	c y n
-1.1447381	l y n
-1.449282	e y n
-0.742001	s y n
-1.6626458	h y n
-2.2615411	<s> g n
-1.3100991	a g n
-2.4930196	n g n
-2.118747	o g n
-1.1127017	i g n
-2.78386	e g n
-2.3068326	u g n
-2.2461193	a z n
-0.20936903	ã ³ n
-1.9586098	<s> 2 n
-1.7138119	<s> ( n
-2.377424	o v n
-2.168455	<s> k n
-0.45045048	ã ¨ n
-0.6002408	ã © n
-0.5164714	ã º n
-2.9829888	<s> * n
-1.4692013	o - n
-1.1024494	3 - n
-1.416834	  n
-1.5545659	<s> " n
-1.1218138	ã ¼ n
-1.5620239	â « n
-1.1213021	a w n
-0.785922	o w n
-0.33365232	ã ¢ n
-0.880246	ã ¶ n
-0.5352067	ä  n
-0.56881356	ã ¤ n
-1.4598712	<s> a d
-1.1695738	n a d
-0.51823086	d a d
-1.6404155	o a d
-1.0917011	r a d
-2.3964972	f a d
-1.4550263	i a d
-1.0930669	c a d
-1.5343448	l a d
-1.0863954	m a d
-1.164758	e a d
-1.0157757	t a d
-1.6661584	p a d
-1.167475	s a d
-1.1164585	u a d
-0.8580165	± a d
-2.45749	­ a d
-1.6474441	b a d
-1.7526906	h a d
-1.6296108	y a d
-0.83540213	g a d
-0.6889222	z a d
-1.5061789	( a d
-1.0184002	v a d
-1.1320988	j a d
-1.5830399	k a d
-1.5617785	x a d
-1.1105496	- a d
-0.8983796	a n d
-1.3559706	o n d
-1.2223462	i n d
-1.3450755	e n d
-0.9785248	u n d
-1.176809	­ n d
-0.8356339	¡ n d
-3.007597	³ n d
-1.1820703	© n d
-2.8853662	a d d
-2.946958	i d d
-3.0709682	e d d
-2.3306353	u d d
-2.555144	<s> o d
-2.1818666	n o d
-3.1649628	d o d
-1.0572109	o o d
-1.2189268	r o d
-1.8925202	i o d
-2.4704628	c o d
-2.6061432	l o d
-1.125451	m o d
-2.1193705	e o d
-1.1692488	t o d
-1.4305968	p o d
-2.2787056	s o d
-0.81632406	­ o d
-1.8080399	b o d
-2.2921355	h o d
-2.006641	g o d
-1.6992188	z o d
-2.7113159	v o d
-1.3258877	x o d
-1.6112051	a r d
-1.5634642	o r d
-2.393612	i r d
-1.7338645	e r d
-2.79128	u r d
-0.9365776	³ r d
-1.457385	© r d
-1.3621204	<s> i d
-1.2345362	a i d
-0.8537116	n i d
-1.3513353	d i d
-0.1478934	o i d
-1.4276942	r i d
-2.1502786	f i d
-1.7468357	i i d
-1.2957525	c i d
-0.95433295	l i d
-1.5956634	m i d
-1.2392085	e i d
-1.2570025	t i d
-1.2974627	p i d
-0.97343445	s i d
-0.8940327	u i d
-1.1937969	b i d
-1.1887434	h i d
-1.132678	g i d
-1.0580705	z i d
-0.039095934	³ i d
-0.77008736	v i d
-0.477893	j i d
-1.7304993	k i d
-1.5025935	x i d
-1.6086686	w i d
-3.1226616	<s> c d
-2.8054988	o c d
-0.64947814	b c d
-0.26934618	\ c d
-1.9225055	a l d
-1.9161652	o l d
-1.0358385	r l d
-1.9742608	i l d
-2.5908983	l l d
-2.7030914	e l d
-2.98693	u l d
-1.4226807	¡ l d
-1.9700986	<s> e d
-1.9805788	a e d
-2.3329217	n e d
-2.3511195	d e d
-1.8871562	o e d
-1.5361415	r e d
-1.3993716	f e d
-1.3854607	i e d
-1.4139009	c e d
-2.2749796	l e d
-0.9169725	m e d
-1.3609555	e e d
-2.220841	t e d
-1.5170875	p e d
-2.0307956	s e d
-1.1910936	u e d
-2.0628226	b e d
-1.7767663	h e d
-2.6922855	g e d
-0.88168293	( e d
-1.806847	v e d
-1.3956255	j e d
-0.15961795	¼ e d
-3.196288	<s> t d
-3.3221643	s t d
-2.0800176	u p d
-3.0048494	i s d
-1.7954247	e s d
-2.627388	u s d
-1.3025129	a u d
-1.2416799	n u d
-1.9461633	d u d
-1.9392447	o u d
-1.7857482	r u d
-0.15748946	i u d
-2.074296	c u d
-1.5223345	l u d
-2.25589	m u d
-0.97300345	e u d
-0.94311035	t u d
-1.7851775	p u d
-1.8323001	s u d
-1.0489982	b u d
-2.1890988	h u d
-0.43332285	y u d
-2.2092361	g u d
-1.0795728	j u d
-1.744964	ã ­ d
-2.598449	a b d
-2.8546844	m b d
-1.735679	u b d
-1.75184	d . d
-2.053679	ã ¡ d
-1.5002065	h y d
-2.88823	<s> g d
-2.4872606	a g d
-1.8110011	ã ³ d
-1.4065439	2 8 d
-1.3867321	<s> ( d
-2.9784608	<s> v d
-1.6396627	  d
-1.9949747	<s> : d
-1.4558377	<s> ; d
-1.8523083	ã © d
-2.5513594	ã º d
-1.4051484	a - d
-1.2827038	o - d
-1.2657683	e - d
-1.1904433	s - d
-1.1389557	2 - d
-1.1725018	3 - d
-0.9653072	  d
-1.247379	  d
-1.3812875	<s> " d
-1.3335564	â « d
-1.0618826	ä  d
-3.143656	r a o
-3.0510707	c a o
-3.4894092	l a o
-3.4127202	m a o
-3.2576895	t a o
-2.6948898	b a o
-3.004962	h a o
-2.5055268	g a o
-0.41750026	<s> n o
-1.0941205	a n o
-0.87188816	n n o
-1.2142056	o n o
-0.4482485	r n o
-1.0547343	i n o
-0.43035254	c n o
-0.44476038	m n o
-1.5914692	e n o
-0.7533758	t n o
-1.2237278	s n o
-1.2326819	u n o
-2.1225643	­ n o
-1.1132457	h n o
-2.5154994	¡ n o
-0.48773938	y n o
-0.77860594	g n o
-1.9153064	³ n o
-0.43127596	( n o
-0.86776376	- n o
-0.37364584	" n o
-0.4040171	« n o
-1.5045838	<s> d o
-0.40956694	a d o
-0.45201916	n d o
-0.5122428	o d o
-0.78912985	r d o
-0.5706472	i d o
-1.0162863	c d o
-1.1192511	l d o
-1.175514	e d o
-0.9328246	u d o
-0.5889803	­ d o
-1.0882144	b d o
-0.47653338	. d o
-1.1057105	( d o
-0.75293463	- d o
-3.1259823	<s> o o
-3.27815	n o o
-2.7671032	r o o
-2.545552	c o o
-3.1991558	l o o
-2.948136	m o o
-2.903291	p o o
-1.7480997	b o o
-2.0488386	h o o
-2.6186266	g o o
-1.488513	z o o
-0.81106234	w o o
-1.0720252	<s> r o
-1.4454145	a r o
-0.7607643	n r o
-0.71136016	d r o
-1.6586659	o r o
-0.62265724	r r o
-0.8497375	f r o
-1.3261124	i r o
-0.8660681	c r o
-0.8932984	e r o
-0.62312084	t r o
-0.35354376	p r o
-0.9343766	u r o
-0.9261234	b r o
-0.6103918	h r o
-0.4708685	y r o
-1.1978583	g r o
-0.9395405	( r o
-0.84111327	k r o
-1.7216431	© r o
-0.45111397	- r o
-0.09998894	 r o
-0.7784873	<s> f o
-1.1490271	a f o
-0.601313	n f o
-1.1938493	o f o
-0.694166	r f o
-1.1523422	i f o
-0.5637239	l f o
-1.145439	e f o
-0.593879	s f o
-1.3173189	u f o
-0.5176492	. f o
-0.9300177	³ f o
-0.81521744	( f o
-0.027698724	x f o
-0.6346405	© f o
-2.6806166	<s> i o
-1.8698456	a i o
-1.2936318	n i o
-0.94992304	d i o
-0.76117784	r i o
-2.8441188	f i o
-0.76883745	c i o
-1.3454682	l i o
-1.8044688	m i o
-2.011846	e i o
-1.6257576	t i o
-0.89353585	p i o
-1.3038108	s i o
-1.9658726	u i o
-0.9918923	b i o
-2.0933676	h i o
-0.81960905	g i o
-1.5149585	z i o
-1.3959714	v i o
-1.6879437	k i o
-1.5959986	x i o
-0.3196161	<s> c o
-1.6310399	a c o
-1.1567872	n c o
-1.09865	o c o
-0.9705331	r c o
-0.6266769	i c o
-1.1686258	l c o
-0.94666	e c o
-0.8329957	s c o
-1.8562375	u c o
-0.90186566	­ c o
-0.51901674	b c o
-0.7681003	. c o
-0.6950012	h c o
-0.6868851	y c o
-0.75605315	z c o
-0.4192543	( c o
-0.21942769	 c o
-0.8595014	: c o
-1.4249057	© c o
-0.40073672	* c o
-0.5992968	- c o
-0.42744392	" c o
-0.36518788	' c o
-0.68075854	/ c o
-0.4882001	« c o
-0.132643	 c o
-0.65888005	<s> l o
-1.4121776	a l o
-0.5894786	o l o
-0.5014769	r l o
-0.42155445	f l o
-1.0265502	i l o
-1.1633011	c l o
-0.6426449	l l o
-1.4341587	e l o
-0.7326734	p l o
-1.2667297	s l o
-0.8144473	u l o
-1.1839457	b l o
-0.33845982	h l o
-1.0368149	¡ l o
-0.78433466	y l o
-0.2744822	g l o
-0.59347856	³ l o
-0.9073806	( l o
-1.0182166	- l o
-0.72085917	" l o
-0.7434924	/ l o
-0.8030059	« l o
-0.89692414	<s> m o
-1.383334	a m o
-1.3369174	n m o
-1.0349011	d m o
-0.4976174	o m o
-1.5542779	r m o
-0.9986347	i m o
-1.640307	l m o
-0.5134715	m m o
-1.0436151	e m o
-0.16246201	t m o
-0.15139922	s m o
-1.4439595	u m o
-1.0069085	y m o
-1.1062758	³ m o
-0.8966273	( m o
-0.90132517	- m o
-3.7347817	<s> e o
-1.5787035	a e o
-1.6088969	n e o
-2.7079296	d e o
-2.331226	r e o
-2.5497768	f e o
-2.0455842	c e o
-1.5637878	l e o
-2.684231	m e o
-1.9038163	t e o
-1.6234456	p e o
-1.9548163	s e o
-2.1205814	u e o
-2.3292506	b e o
-1.8707266	h e o
-1.2099557	g e o
-2.9181607	v e o
-0.814142	x e o
-0.895193	<s> t o
-0.83627284	a t o
-0.7944042	n t o
-0.92701936	o t o
-1.0281236	r t o
-0.69688964	i t o
-0.51285774	c t o
-0.9095925	l t o
-0.91889244	e t o
-1.0664821	t t o
-0.55051774	p t o
-0.9504184	s t o
-0.5332627	u t o
-1.7907972	­ t o
-1.2816029	¡ t o
-0.75649154	y t o
-0.1890371	g t o
-1.2659302	³ t o
-1.0174055	( t o
-0.7289667	x t o
-0.758047	© t o
-0.60390925	" t o
-0.029302606	w t o
-0.6055726	<s> p o
-0.8010467	a p o
-0.81719196	o p o
-0.39978075	r p o
-0.5875872	i p o
-1.0626588	l p o
-0.57254136	m p o
-0.96853024	e p o
-1.3614566	p p o
-0.8190117	s p o
-0.5255749	u p o
-0.669585	y p o
-0.82708365	³ p o
-0.5003998	( p o
-0.7351862	x p o
-0.14403254	© p o
-0.82239926	- p o
-0.84395206	<s> s o
-1.7161376	a s o
-1.2128191	n s o
-1.2953795	d s o
-1.6717188	o s o
-0.5603436	r s o
-1.5462161	i s o
-0.6719691	l s o
-1.7297516	e s o
-1.4356514	t s o
-0.8705058	p s o
-0.7106663	s s o
-1.0113581	u s o
-2.1464753	­ s o
-0.86172277	b s o
-0.96034473	y s o
-0.9701617	³ s o
-1.0884113	( s o
-0.9353713	- s o
-2.105629	n u o
-1.5754946	d u o
-2.610957	c u o
-2.7036333	l u o
-2.604395	t u o
-2.8967915	q u o
-1.4122827	g u o
-2.9622438	<s> q o
-0.23550282	ã ± o
-1.400336	ã ­ o
-0.87151194	<s> b o
-1.1276634	a b o
-1.0174778	n b o
-1.6699721	o b o
-0.57437456	r b o
-1.7412136	i b o
-1.1066656	l b o
-1.1165816	m b o
-1.645978	e b o
-0.069417454	t b o
-0.74933803	s b o
-1.3748522	u b o
-0.9114191	. b o
-0.9819907	( b o
-0.66872454	- b o
-0.7694813	" b o
-2.4815655	s . o
-0.931571	<s> h o
-0.6071422	a h o
-0.80854636	n h o
-1.0906786	o h o
-0.49167198	r h o
-0.6024462	c h o
-0.88222045	l h o
-1.2561843	e h o
-0.95649153	t h o
-0.77387184	p h o
-1.0741488	s h o
-0.75535595	( h o
-0.7540366	k h o
-0.7473234	- h o
-0.30601948	" h o
-2.252867	<s> y o
-0.32261643	a y o
-0.8623874	o y o
-1.1815588	r y o
-1.3797773	t y o
-1.0152224	u y o
-1.6234777	h y o
-1.0354403	<s> g o
-0.70949143	a g o
-0.9412882	n g o
-1.0480161	o g o
-0.59860325	r g o
-1.1215987	i g o
-0.7589462	l g o
-0.722823	e g o
-0.2629655	s g o
-1.4981463	u g o
-1.5568404	­ g o
-0.41746396	. g o
-1.192334	¡ g o
-0.15011986	z g o
-1.1504403	( g o
-0.2742848	<s> z o
-0.73412186	a z o
-0.8686863	n z o
-0.52929276	o z o
-0.45880145	r z o
-1.1169565	i z o
-1.8805485	e z o
-1.6949916	<s> ( o
-1.2022108	<s> v o
-1.0194185	a v o
-1.0895975	n v o
-1.2241536	o v o
-1.7274379	r v o
-0.624265	i v o
-0.9358356	l v o
-0.6466369	e v o
-0.36261725	u v o
-0.23966208	­ v o
-0.866247	<s> j o
-0.50554794	a j o
-1.8091626	n j o
-0.63613653	o j o
-0.29096332	i j o
-0.5473041	e j o
-0.57170576	u j o
-0.16756475	. j o
-0.69713366	( j o
-0.91418463	<s> k o
-1.2586528	a k o
-1.1911545	o k o
-1.3042386	r k o
-0.98202795	i k o
-1.066048	e k o
-1.2454101	s k o
-0.964959	u k o
-0.43199214	a x o
-1.0834839	o x o
-1.4281645	i x o
-1.5585382	e x o
-1.648293	  o
-2.8162196	ã © o
-1.3844142	o - o
-1.2522801	e - o
-1.8019255	<s> " o
-0.114768125	y / o
-1.7085383	â « o
-0.764383	<s> w o
-0.44155288	k w o
-0.5508602	ã § o
-0.022243539	ã £ o
-1.0937157	<s> a r
-1.015604	a a r
-1.253739	n a r
-1.567519	d a r
-1.4020153	o a r
-1.4513763	r a r
-1.3458029	f a r
-1.5257012	i a r
-0.9146197	c a r
-1.2812598	l a r
-0.90155554	m a r
-1.2607795	e a r
-1.1165755	t a r
-0.3330708	p a r
-0.8236738	s a r
-1.0349983	u a r
-1.4513624	± a r
-0.80414385	b a r
-1.305292	h a r
-1.5776703	y a r
-0.71579504	g a r
-0.85779	z a r
-0.88387156	( a r
-0.72615343	v a r
-0.85325253	j a r
-0.48141086	k a r
-0.7934711	- a r
-0.24624768	 a r
-1.0129704	" a r
-0.6816221	' a r
-0.2884815	w a r
-3.3969095	o n r
-3.35607	i n r
-2.8688228	e n r
-3.2542164	u n r
-2.6575403	<s> d r
-1.6579823	a d r
-1.4320027	n d r
-1.410592	o d r
-1.7539983	i d r
-2.0459664	l d r
-1.1120054	e d r
-2.027899	s d r
-1.4555295	­ d r
-0.564075	y d r
-1.3690873	³ d r
-0.74359065	<s> o r
-0.85563695	a o r
-1.1405663	n o r
-0.9882312	d o r
-0.6578706	o o r
-2.360833	r o r
-0.15147345	f o r
-1.1692164	i o r
-1.2998668	c o r
-1.2791624	l o r
-1.2430815	m o r
-0.85269773	e o r
-0.7833561	t o r
-0.33164757	p o r
-1.3722695	s o r
-1.57602	± o r
-0.82141453	b o r
-0.1787248	. o r
-0.87309784	h o r
-0.18455112	y o r
-1.1147866	g o r
-1.5011072	z o r
-0.932139	( o r
-1.4151585	v o r
-0.7984595	j o r
-0.9524278	k o r
-0.2709151	w o r
-1.2378588	a r r
-1.4382933	o r r
-1.4042301	i r r
-1.2564362	e r r
-1.5426396	u r r
-1.5212526	¡ r r
-1.8184801	© r r
-0.9717718	<s> f r
-0.72345304	a f r
-1.0981785	n f r
-1.0657629	o f r
-1.8092865	i f r
-1.3790361	l f r
-1.8086104	e f r
-1.3327612	s f r
-0.34773764	u f r
-0.6948469	¡ f r
-0.8110155	( f r
-0.88136953	- f r
-0.037080944	\ f r
-1.7668985	<s> i r
-0.7480525	a i r
-2.0141845	n i r
-1.3845685	d i r
-1.8321246	o i r
-2.1430693	r i r
-1.4146132	f i r
-1.6921769	c i r
-2.1990294	l i r
-1.8386804	m i r
-1.0164622	e i r
-1.5057842	t i r
-1.0221853	p i r
-2.157542	s i r
-1.0897042	u i r
-1.6298037	b i r
-1.7396541	h i r
-1.4315001	g i r
-1.2571673	( i r
-1.3001056	v i r
-1.2589914	j i r
-1.3867335	k i r
-2.3841088	x i r
-1.3341904	<s> c r
-1.8883394	a c r
-1.8243632	n c r
-1.5817711	o c r
-2.655413	r c r
-2.0841267	i c r
-1.8539509	l c r
-1.9399961	e c r
-0.7087054	s c r
-1.8004447	u c r
-0.7150011	³ c r
-1.420547	( c r
-1.6426684	x c r
-0.37472498	: c r
-2.3794415	a l r
-1.9366592	<s> e r
-0.8238535	a e r
-0.69013405	n e r
-1.4354992	d e r
-1.808243	o e r
-1.9032797	r e r
-0.27980733	f e r
-0.71386534	i e r
-0.7935652	c e r
-1.4222634	l e r
-0.7327213	m e r
-0.9741605	e e r
-0.6939191	t e r
-0.3298379	p e r
-0.96534836	s e r
-1.0075788	u e r
-0.3516656	± e r
-0.426346	b e r
-0.5177872	h e r
-1.049016	y e r
-1.1324829	g e r
-0.3339589	z e r
-1.9504985	( e r
-0.44196528	v e r
-0.6379157	j e r
-0.61750424	k e r
-0.74026704	x e r
-0.77683353	w e r
-0.6773894	<s> t r
-1.0301852	a t r
-0.83567965	n t r
-0.46425796	o t r
-2.5178401	r t r
-1.6703221	i t r
-1.2398038	c t r
-1.8182333	l t r
-0.8501277	e t r
-0.84735805	s t r
-1.3776412	u t r
-1.6511981	­ t r
-1.1608015	b t r
-0.2503528	. t r
-1.7510157	¡ t r
-1.0748044	y t r
-1.0454198	³ t r
-0.774775	( t r
-0.56440026	x t r
-0.25427186	: t r
-1.2301296	© t r
-0.934382	- t r
-0.665154	« t r
-0.62721264	<s> p r
-0.978833	a p r
-1.9123442	o p r
-0.6497557	r p r
-2.0217998	i p r
-0.98168266	m p r
-0.6873375	e p r
-2.0084157	s p r
-1.288425	u p r
-0.7877003	( p r
-0.75432026	x p r
-1.0029625	- p r
-0.78930503	" p r
-0.210246	/ p r
-0.64422905	« p r
-3.3375142	<s> s r
-2.8009088	i s r
-1.6696694	<s> u r
-1.1465672	a u r
-1.5748602	n u r
-0.59647083	d u r
-0.53121483	o u r
-1.7208142	r u r
-1.9025207	f u r
-1.7695854	i u r
-1.226453	c u r
-1.7182539	l u r
-1.4003235	m u r
-0.2932994	e u r
-0.37662187	t u r
-1.5124283	p u r
-1.0405557	s u r
-0.784669	b u r
-1.3409178	h u r
-1.358853	y u r
-1.1890574	g u r
-1.0443103	z u r
-1.2359679	( u r
-1.5220352	j u r
-0.7385049	k u r
-1.9569268	ã ­ r
-1.0064794	<s> b r
-0.95005393	a b r
-0.5360478	o b r
-0.7635358	i b r
-0.5267571	m b r
-0.59921986	e b r
-0.84236574	u b r
-0.833581	­ b r
-0.30751303	. b r
-0.56405795	¡ b r
-0.83759123	( b r
-0.07794295	j b r
-1.105816	- b r
-1.5647624	j . r
-1.6908497	a h r
-1.7605269	o h r
-1.6709485	c h r
-1.3743453	e h r
-1.1787012	t h r
-1.9296778	p h r
-1.2254438	ã ¡ r
-2.435617	a y r
-1.2013069	c y r
-0.9793123	m y r
-0.46831104	p y r
-1.5447696	h y r
-0.47096628	<s> g r
-0.71922815	a g r
-1.2115104	n g r
-0.43181002	o g r
-2.6492157	r g r
-1.4704889	i g r
-0.979984	e g r
-0.79341716	s g r
-1.5216287	­ g r
-1.2836567	³ g r
-0.5544573	( g r
-0.43902415	" g r
-0.31545734	« g r
-1.5145706	ã ³ r
-1.6739396	<s> ( r
-1.749558	u v r
-1.5823702	<s> k r
-0.5564871	ã ¨ r
-2.0090826	<s> : r
-1.5700558	<s> ; r
-0.80173963	ã © r
-1.810586	ã º r
-0.69971925	d - r
-1.3816141	o - r
-0.9790287	s - r
-0.58991516	é  r
-1.3882624	  r
-1.4478444	<s> " r
-1.1843004	ã ¼ r
-0.6163044	ã « r
-1.4014615	â « r
-1.8143891	<s> w r
-1.0465465	a w r
-1.7221881	  r
-0.9661231	ä  r
-3.4280078	<s> a ,
-1.220977	n a ,
-1.5316641	d a ,
-1.5308547	o a ,
-1.7039087	r a ,
-2.2842393	f a ,
-1.2252421	i a ,
-1.4989368	c a ,
-2.0697277	l a ,
-1.8260034	m a ,
-1.5468112	e a ,
-1.7034097	t a ,
-2.3274894	p a ,
-1.6337603	s a ,
-1.8375797	u a ,
-0.9833726	± a ,
-1.1834744	­ a ,
-1.8297966	b a ,
-2.0829382	h a ,
-1.4877818	y a ,
-1.5566192	g a ,
-1.4979446	z a ,
-1.6830537	v a ,
-1.487848	j a ,
-1.4554086	k a ,
-1.634077	x a ,
-2.2361143	a n ,
-1.4269569	n n ,
-1.0766839	d n ,
-2.1620517	o n ,
-2.2411656	r n ,
-2.470737	i n ,
-2.5029209	e n ,
-3.4214172	u n ,
-1.3866816	­ n ,
-1.3612672	¡ n ,
-1.2776866	y n ,
-1.1419408	³ n ,
-1.823643	© n ,
-1.5961059	º n ,
-1.8181386	a d ,
-2.7753174	n d ,
-2.693615	o d ,
-1.860573	r d ,
-2.4825702	i d ,
-1.6944038	l d ,
-2.8484397	e d ,
-1.8283595	u d ,
-2.6611679	<s> o ,
-1.1384988	a o ,
-1.4716533	n o ,
-1.4685979	d o ,
-1.6694301	r o ,
-2.2638707	f o ,
-1.5393574	i o ,
-1.6961296	c o ,
-1.6408031	l o ,
-1.5518627	m o ,
-1.3404875	e o ,
-1.4397287	t o ,
-2.193897	p o ,
-1.6867652	s o ,
-1.2161422	u o ,
-1.3391048	± o ,
-1.3850201	­ o ,
-2.0035384	b o ,
-1.5638653	h o ,
-1.7974502	y o ,
-1.00306	g o ,
-1.5426567	z o ,
-1.4361372	v o ,
-1.4088236	j o ,
-1.3925204	k o ,
-1.9257257	a r ,
-1.8437654	o r ,
-1.458171	i r ,
-2.169177	e r ,
-1.9899633	u r ,
-1.1393903	f f ,
-2.7100914	<s> i ,
-1.9235649	a i ,
-2.7112677	n i ,
-2.8718414	d i ,
-2.930873	r i ,
-0.7951839	i i ,
-3.6458004	c i ,
-2.7879722	l i ,
-3.026172	m i ,
-3.249736	t i ,
-3.35188	s i ,
-2.7359781	u i ,
-2.9978795	b i ,
-2.1048074	h i ,
-2.7342255	g i ,
-2.3393314	v i ,
-1.490527	k i ,
-2.1850302	x i ,
-3.5168064	<s> c ,
-3.2877562	a c ,
-3.0207915	i c ,
-3.2604806	e c ,
-1.7637217	p c ,
-0.7738818	° c ,
-1.449783	a l ,
-1.7428637	o l ,
-1.8160223	i l ,
-2.2377782	l l ,
-2.5222034	e l ,
-2.685378	u l ,
-1.2493932	h l ,
-1.6666099	© l ,
-3.0268285	<s> m ,
-2.4430256	a m ,
-1.5774022	n m ,
-2.870511	o m ,
-2.804532	i m ,
-1.0524291	c m ,
-1.477437	m m ,
-3.074932	e m ,
-1.5315584	u m ,
-1.3114442	k m ,
-3.8975644	<s> e ,
-1.1449229	a e ,
-2.2677925	n e ,
-2.7111475	d e ,
-1.848929	o e ,
-2.1008549	r e ,
-2.0769143	f e ,
-2.5764768	i e ,
-2.1783721	c e ,
-2.0038598	l e ,
-2.6987543	m e ,
-1.7563357	e e ,
-1.4384578	t e ,
-2.6392457	p e ,
-2.034405	s e ,
-2.0756192	u e ,
-1.8511199	b e ,
-1.7801603	h e ,
-2.2140155	y e ,
-2.1520636	g e ,
-1.6011071	z e ,
-2.3101609	v e ,
-1.8297017	j e ,
-1.4263607	k e ,
-2.534169	a t ,
-3.2752984	n t ,
-2.525694	o t ,
-2.4624817	r t ,
-1.3791193	f t ,
-2.8204312	i t ,
-2.626525	l t ,
-2.1745837	e t ,
-1.4466325	t t ,
-3.1926458	s t ,
-2.571939	u t ,
-1.168574	h t ,
-2.7031977	a p ,
-2.7541878	o p ,
-1.9217738	r p ,
-1.2357514	a s ,
-1.9772418	n s ,
-1.2179925	d s ,
-1.2234603	o s ,
-2.0441222	r s ,
-1.8114741	i s ,
-1.4205861	l s ,
-1.0771925	m s ,
-1.3487706	e s ,
-0.9482163	t s ,
-1.8339788	p s ,
-1.3642008	s s ,
-1.6460606	u s ,
-1.2241154	­ s ,
-1.3982241	¡ s ,
-1.372185	y s ,
-1.0012338	g s ,
-1.6088449	³ s ,
-0.9809983	© s ,
-1.4839919	º s ,
-0.6908381	w s ,
-2.3493025	a u ,
-1.7841849	o u ,
-1.9550699	ã ­ ,
-2.8307953	<s> b ,
-2.189932	a . ,
-1.6086259	d . ,
-2.1303515	r . ,
-1.0907391	c . ,
-1.6549273	l . ,
-1.4065068	m . ,
-2.299925	e . ,
-1.71413	t . ,
-1.5218105	p . ,
-2.5345588	s . ,
-1.452061	b . ,
-1.3482473	h . ,
-1.1120335	g . ,
-1.0817683	j . ,
-2.0563896	c h ,
-1.768497	t h ,
-1.6969401	s h ,
-2.1434536	ã ¡ ,
-2.0031211	<s> y ,
-1.6713305	a y ,
-0.9827133	n y ,
-1.6051726	o y ,
-1.1212181	r y ,
-1.2638234	l y ,
-1.0685399	e y ,
-1.2417177	t y ,
-2.352537	u y ,
-0.94477427	g y ,
-0.85465235	k y ,
-1.4908293	n g ,
-2.1932988	r g ,
-2.650013	i g ,
-1.9589279	a z ,
-1.2597256	o z ,
-1.8474159	i z ,
-0.37133005	c z ,
-1.1149874	e z ,
-1.0387908	t z ,
-0.9745063	u z ,
-0.77782613	­ z ,
-0.8939227	z z ,
-2.4520667	ã ³ ,
-1.2011657	<s> 7 ,
-1.0947374	7 7 ,
-1.0326191	8 7 ,
-0.9484149	2 7 ,
-0.90144515	6 7 ,
-0.9465786	4 7 ,
-0.7346743	0 7 ,
-1.1713243	1 7 ,
-1.4605216	9 7 ,
-0.84652346	3 7 ,
-1.123849	5 7 ,
-1.0392206	<s> 8 ,
-1.0722345	7 8 ,
-1.11702	8 8 ,
-1.0382957	2 8 ,
-0.95860595	6 8 ,
-0.9663835	4 8 ,
-0.79696923	0 8 ,
-1.5693327	1 8 ,
-1.4191955	9 8 ,
-0.9273749	3 8 ,
-0.9078142	5 8 ,
-1.4847925	<s> 2 ,
-0.09837789	o 2 ,
-1.0690806	, 2 ,
-0.96955025	7 2 ,
-1.0745963	8 2 ,
-1.0234232	2 2 ,
-0.9634835	6 2 ,
-0.9552117	4 2 ,
-0.8732389	0 2 ,
-0.9870551	1 2 ,
-1.1934608	9 2 ,
-1.0195533	3 2 ,
-1.1395054	- 2 ,
-1.0891321	5 2 ,
-1.1322384	<s> 6 ,
-0.8542063	7 6 ,
-1.0368688	8 6 ,
-0.9517979	2 6 ,
-0.9827695	6 6 ,
-0.74405015	4 6 ,
-0.69853604	0 6 ,
-0.969802	1 6 ,
-1.3433766	9 6 ,
-0.9787985	3 6 ,
-0.98590577	5 6 ,
-1.22405	<s> 4 ,
-0.061319847	o 4 ,
-1.2066047	, 4 ,
-0.987829	7 4 ,
-1.1500024	8 4 ,
-0.89058256	2 4 ,
-0.9306767	6 4 ,
-1.0381975	4 4 ,
-0.8658165	0 4 ,
-0.8889485	1 4 ,
-1.1143647	9 4 ,
-0.86641634	3 4 ,
-1.0356746	5 4 ,
-0.601192	<s> 0 ,
-1.1653473	7 0 ,
-1.0942252	8 0 ,
-1.7397088	2 0 ,
-1.056345	6 0 ,
-1.0613184	4 0 ,
-0.23982511	( 0 ,
-1.6589189	0 0 ,
-1.1273818	1 0 ,
-1.1586236	9 0 ,
-1.2341098	3 0 ,
-1.1811259	5 0 ,
-1.6359783	<s> 1 ,
-0.08746399	o 1 ,
-1.3988208	, 1 ,
-0.9212196	7 1 ,
-1.0263473	8 1 ,
-0.9158247	2 1 ,
-1.0402805	6 1 ,
-0.6993097	4 1 ,
-2.1719675	( 1 ,
-1.6403913	0 1 ,
-1.0940814	1 1 ,
-1.2286903	9 1 ,
-1.1687533	3 1 ,
-1.2382698	- 1 ,
-1.1505164	5 1 ,
-0.6514495	a ) ,
-0.61833954	n ) ,
-0.7851808	d ) ,
-0.541248	o ) ,
-0.5764999	r ) ,
-0.5870433	i ) ,
-0.53843725	c ) ,
-0.5256114	l ) ,
-0.7949621	m ) ,
-0.6618544	e ) ,
-0.6009597	t ) ,
-0.61357266	p ) ,
-0.58277	s ) ,
-0.41684	u ) ,
-0.8506412	b ) ,
-0.98653716	. ) ,
-0.5188935	y ) ,
-0.67045504	g ) ,
-0.6585093	z ) ,
-0.63589853	7 ) ,
-0.5675421	8 ) ,
-0.5973882	2 ) ,
-0.6309903	6 ) ,
-0.685294	4 ) ,
-0.43630356	0 ) ,
-0.64042044	1 ) ,
-0.58134425	² ) ,
-0.7592478	x ) ,
-0.5745834	9 ) ,
-0.61353123	3 ) ,
-0.55080426	 ) ,
-0.54215455	5 ) ,
-0.54203296	" ) ,
-0.3160512	' ) ,
-0.54088295	% ) ,
-0.65991056	» ) ,
-0.17078024	 ) ,
-2.9638789	<s> v ,
-1.9378629	o v ,
-2.4438038	i v ,
-2.6028666	e v ,
-1.2810092	x v ,
-2.5108113	a j ,
-1.1895082	n k ,
-1.239834	o k ,
-1.0624566	r k ,
-0.98149574	c k ,
-1.1149738	e k ,
-0.548273	â ² ,
-1.7434658	<s> x ,
-1.8498516	a x ,
-0.77123785	i x ,
-2.5112922	e x ,
-1.0280627	u x ,
-0.60403204	x x ,
-1.0816656	<s> 9 ,
-0.9891871	7 9 ,
-1.1152459	8 9 ,
-1.1009675	2 9 ,
-1.025976	6 9 ,
-0.9668411	4 9 ,
-0.83498347	0 9 ,
-2.0865602	1 9 ,
-1.6833966	9 9 ,
-0.6795447	3 9 ,
-0.94930464	5 9 ,
-0.8310113	  ,
-2.3556058	ã © ,
-1.1648052	<s> 3 ,
-0.16938274	o 3 ,
-1.1158673	, 3 ,
-0.95652163	7 3 ,
-1.0725989	8 3 ,
-1.1313226	2 3 ,
-1.1347951	6 3 ,
-0.9823535	4 3 ,
-0.941376	0 3 ,
-0.9990474	1 3 ,
-1.2164308	9 3 ,
-0.84249574	3 3 ,
-1.0626007	5 3 ,
-1.816792	ã º ,
-0.6926725	  ,
-0.53856367	  ,
-1.1255653	<s> 5 ,
-1.0589036	7 5 ,
-1.0499921	8 5 ,
-1.404626	2 5 ,
-0.9707545	6 5 ,
-0.9917832	4 5 ,
-0.7941921	0 5 ,
-1.1559377	1 5 ,
-1.2255056	9 5 ,
-0.9268775	3 5 ,
-1.1072116	5 5 ,
-0.5743501	a " ,
-0.61817837	n " ,
-0.58811134	o " ,
-0.8137218	e " ,
-0.697185	s " ,
-1.2762619	<s> % ,
-1.0251665	5 % ,
-0.71146727	+ + ,
-0.6520997	â » ,
-1.4408832	  ,
-0.62333626	<s> \ ,
-0.41686165	ï  ,
-0.70717204	ï  ,
-1.8737197	<s> a f
-0.9395476	a a f
-2.925397	n a f
-3.1633399	d a f
-1.8716911	r a f
-2.4782164	c a f
-3.499928	l a f
-2.6808414	m a f
-2.8102207	e a f
-2.6870458	t a f
-2.531574	s a f
-2.7076273	z a f
-2.9142113	a n f
-1.9211309	o n f
-1.3684692	i n f
-2.3799314	e n f
-2.2757542	u n f
-2.195509	­ n f
-2.198937	© n f
-1.2916195	<s> o f
-2.5863197	n o f
-1.7398754	r o f
-3.137051	i o f
-3.067225	c o f
-2.982986	l o f
-2.1235259	e o f
-2.9159112	t o f
-1.5767751	s o f
-2.3514545	h o f
-2.1810186	z o f
-3.426393	a r f
-2.1932402	o r f
-2.1010845	e r f
-3.1043253	u r f
-1.8183327	³ r f
-2.3387587	a f f
-1.8223569	o f f
-2.0359907	i f f
-2.252518	e f f
-1.2843198	u f f
-3.0741515	<s> i f
-1.7717476	a i f
-1.4393244	n i f
-1.1518384	d i f
-2.009829	r i f
-2.7566214	f i f
-2.4449472	c i f
-1.9128155	l i f
-2.433424	m i f
-2.0030122	e i f
-1.8780233	t i f
-2.7553086	p i f
-1.6770592	s i f
-2.7146568	u i f
-2.6303535	b i f
-2.4367101	h i f
-2.624581	g i f
-3.5597796	<s> c f
-2.1103926	a l f
-2.124796	o l f
-2.8585474	i l f
-3.0854824	e l f
-2.3555548	u l f
-2.3439727	<s> e f
-2.325586	n e f
-2.1743405	d e f
-1.6383191	o e f
-1.5922793	r e f
-2.540299	c e f
-2.1578834	l e f
-3.1609683	t e f
-3.1844518	s e f
-2.2578351	h e f
-1.7091991	j e f
-3.5867107	s t f
-2.1117995	a p f
-3.5574903	a s f
-1.6492572	n s f
-2.9482923	o s f
-2.1356242	i s f
-2.642609	e s f
-1.033646	³ s f
-2.0143332	n u f
-2.3014774	e u f
-1.7282891	s u f
-2.0049715	b u f
-1.1870946	z u f
-1.409291	ã ­ f
-1.4902022	u b f
-1.2743664	k . f
-1.4934912	ã ¡ f
-2.1295652	ã ³ f
-1.685715	<s> ( f
-1.4435804	o x f
-1.2709332	<s> ; f
-2.205591	ã © f
-1.3888421	a - f
-1.4365689	o - f
-0.43269467	z - f
-1.4246502	  f
-1.5878859	<s> " f
