\data\
ngram 1=151
ngram 2=1782
ngram 3=9307
ngram 4=22677
ngram 5=30972

\1-grams:
-3.2073462	<unk>	0
0	<s>	-3.7362082
-1.5548462	</s>	0
-1.7501116	a	-1.031296
-1.7702978	n	-0.8478843
-1.7702978	t	-0.83641905
-1.8882787	o	-1.0368414
-1.8556455	i	-1.0061256
-1.796926	e	-1.0044678
-1.8252941	m	-0.76826704
-1.7754943	l	-0.88617134
-1.831197	p	-0.8293356
-1.9091043	u	-1.0007733
-1.9953494	j	-0.48287195
-1.7754943	s	-0.9201883
-1.6693498	,	-0.50108457
-1.8080518	ã	-0.8355181
-2.546559	©	-0.19078137
-2.0410364	(	-0.29243523
-1.7914681	r	-0.8212944
-1.6693498	)	-0.7199144
-1.7807539	c	-0.77791077
-1.8556455	h	-0.7851031
-2.613129	¢	-0.10374305
-1.8951102	g	-0.75707966
-1.9162742	f	-0.7167667
-2.4379177	§	-0.10454866
-1.8080518	d	-0.8020463
-2.546559	¨	-0.157082
-1.7261307	.	-0.6904709
-2.0410364	q	-0.34056842
-1.9461997	'	-0.515136
-1.8024533	b	-0.76135117
-1.9953494	y	-0.83125067
-1.8024533	-	-0.96323246
-1.9235646	v	-0.64631754
-1.8951102	1	-0.84078074
-2.1377697	8	-0.7215187
-2.081396	5	-0.69027555
-2.5785697	¹	-0.12580018
-2.0315063	x	-0.4700779
-2.175478	9	-0.8193594
-2.081396	4	-0.70748264
-2.1625414	7	-0.7144232
-2.175478	0	-0.63489693
-2.613129	ª	-0.15281335
-1.9461997	2	-0.65429467
-1.9867618	z	-0.5936387
-2.2624142	*	-0.19368169
-2.0130517	3	-0.7030916
-2.0041103	:	-0.27325675
-2.546559	¯	-0.11020252
-2.5785697	´	-0.0857056
-1.868406	k	-0.69338113
-2.175478	6	-0.6531805
-2.2466621	;	-0.2766475
-1.831197	â	-0.6650184
-2.3712227		-0.14257708
-2.6506777		-0.11642578
-1.9953494	w	-0.57637465
-1.9953494	å	-0.32874382
-2.4379177		-0.12373405
-2.2466621	\	-0.16287176
-2.295744	+	-0.0974283
-2.188812	=	-0.10070668
-2.5167468	«	-0.1375562
-2.6506777	»	-0.14768931
-2.5167468		-0.15085354
-2.4379177		-0.13405557
-2.5785697	®	-0.15290043
-2.0315063	"	-0.45521516
-2.546559	¦	-0.08569674
-2.5167468		-0.11254532
-2.613129	^	-0.05487733
-2.4626377	{	-0.024700055
-2.2314613	}	-0.26706487
-2.351088	!	-0.3888426
-1.8815529	/	-0.6158262
-2.613129	¶	-0.10896435
-2.4379177	?	-0.20629933
-2.4626377	%	-0.25493044
-2.5167468	#	-0.031836092
-2.5785697	³	-0.07552638
-2.5167468	­	-0.09751665
-2.546559	¡	-0.077872925
-2.737189		0
-2.613129	¤	-0.10261892
-2.546559	¼	-0.11674858
-2.9115288	<	-0.18660226
-2.3712227	µ	-0.11597865
-2.5167468	°	-0.1220584
-2.4626377		-0.08743784
-2.4379177		-0.20014262
-2.070949	ä	-0.39276093
-2.3712227		-0.11153629
-2.3712227	ù	-0.15310702
-2.6506777		-0.030892283
-2.4379177		-0.039370824
-2.3134198	ø	-0.18618295
-2.5785697	±	-0.13753697
-2.5167468	²	-0.22501436
-2.48885	|	-0.075956136
-2.3318458	&	-0.0214329
-2.787903	~	0
-2.546559		-0.05263712
-2.1377697	_	-0.117369756
-2.5785697	¬	-0.16253641
-2.5167468	¿	-0.12395673
-2.613129		-0.11286927
-2.4379177	º	-0.09955059
-2.613129	ç	0
-2.48885		-0.059821304
-2.613129	¸	-0.078723535
-2.3712227		-0.12332205
-2.5167468	¾	-0.13358982
-2.0921006	é	-0.43414906
-2.6506777		-0.11116084
-2.6917827		0
-2.6506777	è	0
-2.4379177		-0.06840616
-2.546559		-0.057891965
-2.787903	æ	0
-2.5785697		-0.06147549
-2.3712227	£	-0.11700176
-2.613129		-0.18263076
-2.5167468	¥	-0.008089033
-2.6506777		0
-2.9896626	>	-0.04865968
-2.6506777		-0.012878159
-2.1030755	î	-0.50167173
-2.6917827	`	0
-2.6917827		0
-2.6506777		0
-2.2624142	ê	-0.106280364
-2.845332	$	-0.03991403
-2.613129		0
-2.114335	ï	-0.4915665
-1.9309793	á	-0.37109002
-2.5785697		-0.09483552
-2.546559	½	-0.15706673
-2.4379177	·	-0.0951492
-2.787903		0
-2.6917827		0
-2.351088	ì	-0.1358883
-2.4379177	ë	-0.6421944
-2.175478	à	-0.6505226
-2.295744	×	0
-2.2167745	ð	-0.30595276
-2.351088	ñ	0
-2.1499789	õ	-0.33031893
-2.4379177	ö	-0.162441

\2-grams:
-1.3033382	a </s>	0
-1.1780521	n </s>	0
-1.2399942	t </s>	0
-1.3367373	o </s>	0
-1.4242636	i </s>	0
-1.3940189	e </s>	0
-1.1807928	m </s>	0
-1.2707374	l </s>	0
-1.2814938	p </s>	0
-1.3507476	u </s>	0
-1.1782445	j </s>	0
-1.2509725	s </s>	0
-0.46245646	, </s>	0
-1.3264267	ã </s>	0
-0.73399854	© </s>	0
-1.2835273	( </s>	0
-1.2473098	r </s>	0
-0.5885762	) </s>	0
-1.28494	c </s>	0
-1.1878223	h </s>	0
-0.83332145	¢ </s>	0
-1.2607249	g </s>	0
-1.1556177	f </s>	0
-0.7621994	§ </s>	0
-1.1785429	d </s>	0
-0.6637048	¨ </s>	0
-0.832595	. </s>	0
-1.0100719	q </s>	0
-1.0665607	' </s>	0
-1.1205149	b </s>	0
-1.2341439	y </s>	0
-1.297862	- </s>	0
-1.1227512	v </s>	0
-1.0759108	1 </s>	0
-1.0568871	8 </s>	0
-1.0800203	5 </s>	0
-0.6247265	¹ </s>	0
-0.8947854	x </s>	0
-1.1137416	9 </s>	0
-1.0630662	4 </s>	0
-1.0228168	7 </s>	0
-1.2161989	0 </s>	0
-0.70332927	ª </s>	0
-1.0626895	2 </s>	0
-1.1203512	z </s>	0
-0.7766263	* </s>	0
-1.0217596	3 </s>	0
-0.49578404	: </s>	0
-0.9633264	¯ </s>	0
-0.8009442	´ </s>	0
-1.1509991	k </s>	0
-1.0122014	6 </s>	0
-0.3494078	; </s>	0
-0.56129014	â </s>	0
-0.66110116	 </s>	0
-0.84908044	 </s>	0
-1.0576332	w </s>	0
-0.62874913	 </s>	0
-0.9155051	\ </s>	0
-0.8232416	+ </s>	0
-0.99446505	= </s>	0
-0.82896113	« </s>	0
-0.7028192	» </s>	0
-0.62087166	 </s>	0
-0.5760584	 </s>	0
-0.64008236	® </s>	0
-0.6236957	" </s>	0
-0.7982976	¦ </s>	0
-0.64972275	 </s>	0
-1.2678183	{ </s>	0
-0.7344582	} </s>	0
-0.40585893	! </s>	0
-1.0682968	/ </s>	0
-0.6723354	¶ </s>	0
-0.6119252	? </s>	0
-0.6066355	% </s>	0
-1.1715577	# </s>	0
-0.80301845	³ </s>	0
-0.7947705	­ </s>	0
-0.8292248	¡ </s>	0
-0.78680575	¤ </s>	0
-0.7108067	¼ </s>	0
-0.4348478	< </s>	0
-0.6066761	µ </s>	0
-0.6595187	° </s>	0
-0.80796784	 </s>	0
-0.41248035	 </s>	0
-0.86044383	 </s>	0
-0.9856026	 </s>	0
-0.6084943	± </s>	0
-0.46281135	² </s>	0
-0.7355263	| </s>	0
-1.1267834	& </s>	0
-0.8998257	 </s>	0
-1.1701318	_ </s>	0
-0.47969002	¬ </s>	0
-0.60554206	¿ </s>	0
-0.60144055	 </s>	0
-0.6788567	º </s>	0
-0.81541455	 </s>	0
-0.8034927	¸ </s>	0
-0.5818261	 </s>	0
-0.60201705	¾ </s>	0
-0.6637126	 </s>	0
-0.77072287	 </s>	0
-0.82625645	 </s>	0
-0.8211675	 </s>	0
-0.63151324	£ </s>	0
-0.44177195	 </s>	0
-0.8830234	> </s>	0
-0.94602937	$ </s>	0
-1.1350676	ï </s>	0
-0.6604032	 </s>	0
-0.5273578	½ </s>	0
-0.65928364	· </s>	0
-1.224486	<s> a	-2.7527585
-1.6449915	a a	-0.34094828
-1.305485	n a	-0.812853
-1.3170345	t a	-0.80997854
-1.6080865	o a	-0.44889987
-1.4723375	i a	-0.734219
-1.5690475	e a	-0.618349
-1.1416006	m a	-0.8815342
-1.1688132	l a	-0.97706825
-1.176505	p a	-0.72050023
-1.5370244	u a	-0.5236606
-0.940522	j a	-0.530469
-1.360265	s a	-0.8486541
-1.5498451	© a	-0.11078641
-1.4981548	( a	-0.11563076
-1.248823	r a	-1.0135667
-1.2530092	c a	-0.859784
-1.1990454	h a	-0.93800837
-1.1544197	g a	-0.7097406
-1.1811275	f a	-0.53304446
-1.6550498	§ a	-0.045531146
-1.3033526	d a	-0.82458615
-1.4749408	. a	-0.19985075
-1.0640016	q a	-0.068063825
-1.2748816	' a	-0.5061265
-1.1306546	b a	-0.80856645
-1.2315478	y a	-0.62222195
-1.5060892	- a	-0.46989518
-1.1360828	v a	-0.6713483
-1.4437704	x a	-0.22025196
-1.8486973	4 a	0
-1.1183426	z a	-0.49082246
-1.5723382	* a	0
-1.5494646	: a	0
-1.7131137	¯ a	0
-1.2035146	k a	-0.602693
-1.5567745	; a	0
-1.504965	 a	-0.11083813
-1.021663	w a	-0.51145184
-1.8079256	" a	0
-1.3522379	{ a	-0.2920672
-1.412762	/ a	-0.083674505
-1.4621873	­ a	-0.018770805
-1.5374895	 a	0
-1.6999569	<s> n	-2.2006419
-1.4728181	a n	-0.98800766
-1.7644696	n n	-0.41959435
-1.6768253	t n	-0.1191274
-1.3876616	o n	-1.0746757
-1.3154044	i n	-1.0229872
-1.3507271	e n	-0.97596806
-1.674381	m n	-0.16795889
-1.7699566	l n	-0.1106965
-1.7191889	p n	-0.0883752
-1.3495412	u n	-0.7669579
-1.5875233	j n	0
-1.6997883	s n	-0.3503559
-1.7672915	© n	-0.0805048
-1.4389447	( n	-0.11103606
-1.6618994	r n	-0.384517
-1.7899771	c n	-0.014965067
-1.6005753	h n	-0.3097536
-1.6709445	¢ n	-0.042053957
-1.5183583	g n	-0.55350214
-1.8382275	f n	0
-1.7707562	d n	-0.1443206
-1.6995378	¨ n	-0.051979255
-1.6901067	. n	-0.18987775
-1.873458	' n	0
-1.8607718	b n	-0.05436329
-1.4377432	y n	-0.38835552
-1.5543472	- n	-0.50941384
-1.8762438	v n	-0.05759263
-1.4602983	ª n	-0.018770805
-1.7578948	z n	-0.17308305
-1.7274001	¯ n	-0.057028316
-1.6729293	´ n	-0.018770805
-1.6492944	k n	-0.15232223
-1.7025722	w n	-0.08138877
-1.514735	« n	0
-1.6898075	» n	-0.0805048
-1.6336792	® n	-0.06804947
-2.0893264	" n	0
-1.5993145	/ n	0
-1.6286156	¶ n	0
-1.6418102	³ n	-0.021519829
-1.4703841	­ n	-0.05759263
-1.6983504	¡ n	-0.01664462
-1.6986513	¤ n	0
-1.6962473	¼ n	0
-1.581785	 n	-0.021519829
-1.578238	<s> t	-2.4589288
-1.5389384	a t	-0.8315774
-1.5218654	n t	-0.51398146
-1.612172	t t	-0.4453218
-1.4845283	o t	-0.795004
-1.4486784	i t	-0.82141393
-1.4688511	e t	-0.83607686
-1.7852738	m t	-0.009910025
-1.703312	l t	-0.32159704
-1.5950066	p t	-0.42279446
-1.4127947	u t	-0.68898
-1.361232	s t	-0.6717264
-1.7672915	© t	-0.15774313
-1.7906426	( t	-0.058452517
-1.5672362	r t	-0.3980112
-1.6331823	c t	-0.46130002
-1.5222381	h t	-0.35571617
-1.6709445	¢ t	-0.08736247
-1.8175982	g t	-0.16312738
-1.5397372	f t	-0.14925988
-1.6770673	d t	-0.17479947
-1.6995378	¨ t	-0.051979255
-1.6998048	' t	-0.10656474
-1.8111057	b t	-0.14975978
-1.396061	y t	-0.2190261
-1.5543472	- t	-0.62544096
-2.103638	v t	0
-1.5572003	x t	-0.22101489
-1.6928301	ª t	-0.095502414
-1.6840446	* t	0
-1.7274001	¯ t	-0.018770805
-1.6729293	´ t	-0.0805048
-1.5780078	k t	-0.123842426
-1.7845786	w t	-0.021519829
-1.368932	« t	0
-1.6898075	» t	-0.066007845
-1.6336792	® t	-0.07078662
-1.9240239	" t	0
-1.6835274	/ t	0
-1.8256533	<s> o	-2.2819898
-1.6095368	a o	-0.45839265
-1.268008	n o	-0.8725816
-1.4022827	t o	-0.905917
-1.548143	o o	-0.45627335
-1.5480841	i o	-0.71945953
-1.7118559	e o	-0.38508382
-1.2687094	m o	-0.71402913
-1.2526188	l o	-0.8883298
-1.236672	p o	-0.6538863
-1.753356	u o	-0.15156585
-1.0975974	j o	-0.43793637
-1.445261	s o	-0.6697718
-1.8390286	© o	-0.120169155
-1.6155353	( o	-0.05634591
-1.2756983	r o	-1.0938569
-1.2271703	c o	-0.8593046
-1.2796537	h o	-0.6547684
-1.223326	g o	-0.609768
-1.2304715	f o	-0.5751662
-1.7370669	§ o	-0.051979255
-1.3892776	d o	-0.74686664
-1.6735723	. o	-0.2987719
-1.3463587	' o	-0.36703494
-1.2745235	b o	-0.6946814
-1.4448868	y o	-0.32170278
-1.5612403	- o	-0.29726428
-1.1265852	v o	-0.59105754
-1.5178027	x o	-0.1748768
-1.160742	z o	-0.42428416
-1.9246448	* o	0
-1.5989949	¯ o	0
-1.2103789	k o	-0.40779817
-1.7855511	 o	-0.05783095
-1.2238827	w o	-0.23867373
-1.2005327	\ o	-0.36051923
-1.8149804	/ o	-0.01664462
-1.7497671	­ o	-0.051979255
-1.4930089	± o	0
-1.4720113	£ o	-0.030435473
-1.7536479	<s> i	-2.382998
-1.5553812	a i	-0.7946609
-1.2369142	n i	-0.8895677
-1.3020366	t i	-0.9649695
-1.5467227	o i	-0.66250014
-1.6476583	i i	-0.28172243
-1.5609864	e i	-0.5862615
-1.2077188	m i	-0.85034394
-1.1542093	l i	-0.90638363
-1.3897809	p i	-0.60899067
-1.4749002	u i	-0.72845775
-1.1162508	j i	-0.3622198
-1.4082046	s i	-0.84422714
-1.8199532	© i	-0.044161808
-1.8341643	( i	-0.03572207
-1.2138662	r i	-1.0069755
-1.371485	c i	-0.77441335
-1.2392246	h i	-0.74998665
-1.3666153	g i	-0.5719169
-1.2290434	f i	-0.61364275
-1.2419091	d i	-0.8366915
-1.8254083	. i	0
-1.3592161	q i	0
-1.4922144	' i	-0.34940264
-1.2467198	b i	-0.62673634
-1.5421566	y i	-0.23479412
-1.6738565	- i	-0.24736921
-1.1578652	v i	-0.6818718
-1.3307331	x i	-0.37074858
-1.1073813	z i	-0.41328844
-1.4606135	* i	0
-1.7291926	: i	0
-1.168705	k i	-0.5743207
-1.7655575	 i	-0.06517
-1.1328908	w i	-0.5119953
-1.5235367	 i	-0.0805048
-1.5075598	/ i	0
-1.7049391	¾ i	0
-1.1756762	<s> e	-2.8160658
-1.6638315	a e	-0.42417288
-1.2068955	n e	-0.87896895
-1.3093406	t e	-0.80177844
-1.648948	o e	-0.33232644
-1.4498944	i e	-0.7653193
-1.6503369	e e	-0.4659531
-1.1837053	m e	-0.73598397
-1.1272644	l e	-0.907214
-1.2830284	p e	-0.7142139
-1.4722962	u e	-0.66152495
-1.0194074	j e	-0.46019688
-1.4169863	s e	-0.7485081
-1.7841457	© e	-0.06911844
-1.4451305	( e	-0.15725088
-1.1933444	r e	-0.9267914
-1.3271611	c e	-0.5938685
-1.2755665	h e	-0.8045934
-1.2475489	g e	-0.62272507
-1.1972257	f e	-0.57908076
-1.2395021	d e	-0.7603628
-1.6611049	. e	-0.21223642
-1.4219435	q e	0
-1.442484	' e	-0.3647673
-1.1630666	b e	-0.71532744
-1.3595082	y e	-0.41708434
-1.4941909	- e	-0.43547505
-1.0508542	v e	-0.7432254
-2.3628104	1 e	0
-1.3244189	x e	-0.43556696
-1.1744909	z e	-0.44563597
-1.6978176	* e	0
-1.4588072	: e	0
-1.5602516	¯ e	-0.013570483
-1.2821703	k e	-0.47576255
-1.5247093	 e	-0.09170418
-1.0238682	w e	-0.42858657
-1.8260734	" e	0
-1.3480464	/ e	0
-1.7132201	¼ e	0
-1.4349289	<s> m	-2.5447266
-1.4963095	a m	-0.7922366
-1.8843046	n m	-0.2950343
-1.7601081	t m	-0.48847622
-1.4869928	o m	-0.7243537
-1.4759431	i m	-0.6560691
-1.4714125	e m	-0.78820646
-1.6815013	m m	-0.41734746
-1.5990736	l m	-0.5041439
-1.6283681	p m	-0.042513482
-1.4150645	u m	-0.6906727
-1.5872488	s m	-0.4221437
-1.5918701	, m	0
-1.8016806	© m	-0.11740914
-1.9050589	( m	-0.051979285
-1.641993	r m	-0.36295697
-1.696509	c m	-0.13931711
-1.5782741	h m	-0.47964674
-1.7045752	¢ m	-0.025212454
-1.6876793	g m	-0.21070579
-1.6512527	f m	-0.28379148
-1.5394123	d m	-0.2574122
-1.7312361	¨ m	-0.0805048
-1.775476	. m	0
-1.6966434	b m	-0.04849414
-1.463934	y m	-0.4634608
-1.495682	- m	-0.8239019
-1.8082318	v m	0
-1.6375825	x m	-0.05759263
-1.4784688	ª m	-0.03838967
-1.8531295	z m	0
-1.8798525	* m	0
-1.7082131	´ m	-0.058936942
-1.6195234	k m	-0.23853351
-1.6437373	w m	-0.13604459
-1.5488105	\ m	-0.2920672
-1.6610456	® m	-0.051979255
-1.950623	" m	0
-1.5041571	/ m	-0.18443081
-1.778229	 m	0
-0.920596	<s> l	-3.1886942
-1.4530718	a l	-0.9622747
-1.7338054	n l	-0.27220008
-1.6774328	t l	-0.17132856
-1.4584435	o l	-0.8198662
-1.4865197	i l	-0.7387318
-1.4579325	e l	-0.94503486
-1.7090578	m l	-0.24348782
-1.5080446	l l	-0.46809056
-1.3233398	p l	-0.7154641
-1.3739556	u l	-0.71053845
-1.7003164	s l	-0.3885235
-1.7706105	© l	-0.10532325
-1.6748605	( l	-0.0790569
-1.7502418	r l	-0.36325762
-1.3666972	c l	-0.8190614
-1.4994333	h l	-0.31559378
-1.6741927	¢ l	-0.025212454
-1.4222125	g l	-0.5275377
-1.3447418	f l	-0.6254794
-1.6777252	d l	-0.2187048
-1.7026055	¨ l	-0.051979255
-1.6270473	. l	0
-1.6088475	q l	0
-1.5771002	' l	0
-1.358581	b l	-0.6240492
-1.4380977	y l	-0.4787895
-1.5227511	- l	-0.9164442
-1.7288195	v l	-0.0106266225
-1.8054296	x l	-0.018770805
-1.6958807	ª l	-0.063165665
-1.5819817	z l	0
-1.6867645	* l	-0.061669555
-1.557824	: l	-0.0946519
-1.7310463	¯ l	-0.021519829
-1.6763314	´ l	-0.063165665
-1.4636598	k l	-0.27640447
-1.8065631	; l	0
-1.7037461	w l	0
-1.3704281	« l	-0.028469466
-1.4603233	» l	-0.021519829
-1.6363394	® l	-0.17940776
-1.6684009	" l	-0.19811632
-1.5634089	/ l	-0.060756918
-1.6315259	¶ l	0
-1.6807631	­ l	0
-1.6995893	¼ l	0
-1.1149998	<s> p	-2.9036624
-1.5542107	a p	-0.7135379
-1.8443332	n p	-0.10315986
-1.6835549	t p	-0.18386501
-1.4872401	o p	-0.76839936
-1.5605998	i p	-0.6217477
-1.619429	e p	-0.5711267
-1.4748898	m p	-0.46749443
-1.7773991	l p	-0.19538683
-1.6591425	p p	-0.3596124
-1.5415684	u p	-0.58269364
-1.7510347	j p	0
-1.4949777	s p	-0.4661435
-1.8052741	© p	-0.12714693
-1.5992422	( p	-0.13298444
-1.6963546	r p	-0.37618735
-1.6972365	c p	-0.17471422
-1.8810357	h p	-0.029537061
-1.708086	¢ p	0
-1.6501739	g p	-0.116042465
-1.8511736	f p	0
-1.7139093	d p	-0.10828285
-1.6054428	. p	-0.22034204
-2.172833	b p	0
-1.7071823	y p	-0.26267126
-1.5928844	- p	-0.74780005
-1.6264286	v p	0
-1.959866	x p	-0.16555563
-1.7601581	0 p	-0.2950343
-1.7276254	ª p	-0.0805048
-1.7149434	* p	0
-1.7192874	: p	-0.05147729
-1.7119043	´ p	-0.051979255
-1.7965925	k p	-0.17428383
-1.8373265	; p	0
-2.0454216	w p	0
-1.5243025	= p	-0.030435473
-2.1329753	" p	0
-1.5048355	/ p	0
-1.738291	<s> u	-2.324254
-1.533558	a u	-0.9382461
-1.4614377	n u	-0.5699674
-1.4846959	t u	-0.6528003
-1.4635651	o u	-1.0527915
-1.6907436	i u	-0.4538965
-1.5106071	e u	-0.84802073
-1.4039383	m u	-0.44768023
-1.4425042	l u	-0.7813732
-1.3923373	p u	-0.5371104
-1.855454	u u	0
-1.1408964	j u	-0.48116153
-1.4717433	s u	-0.6284511
-1.8508893	© u	-0.17940776
-1.72407	( u	-0.043087937
-1.3602352	r u	-0.71876496
-1.4898574	c u	-0.49260676
-1.3390235	h u	-0.44505727
-1.332708	g u	-0.58815575
-1.353009	f u	-0.4360956
-1.7485002	§ u	-0.06804947
-1.4874883	d u	-0.48197418
-1.885942	. u	0
-0.67149544	q u	-0.836727
-1.6608826	' u	-0.21523802
-1.3036182	b u	-0.5348228
-1.6755868	y u	-0.09981104
-1.6774735	- u	-0.15514141
-1.4694281	v u	-0.365668
-1.7411823	x u	-0.102141656
-1.341809	z u	-0.2915349
-1.9390358	* u	-0.03838967
-1.4499792	k u	-0.27228683
-1.7980044	 u	-0.051979255
-1.9289482	w u	0
-1.7844386	 u	-0.07078662
-1.7826421	¦ u	-0.17940776
-1.7865084	¤ u	0
-2.0544157	<s> j	-2.0085487
-1.7650073	a j	-0.39120328
-2.009178	n j	-0.46815842
-2.1849208	t j	-0.15232223
-1.725078	o j	-0.37540805
-1.6550169	i j	-0.27094156
-1.8880354	e j	-0.24755068
-2.1168237	l j	0
-1.703597	u j	-0.46815842
-2.4238057	s j	0
-1.8973801	© j	-0.1110365
-2.1595416	( j	-0.03838967
-1.9407157	r j	0
-2.1889846	g j	0
-1.6444912	d j	-0.42351758
-2.0337894	b j	-0.060756918
-1.6401482	- j	-0.57172704
-1.2201326	<s> s	-2.892186
-1.4940135	a s	-0.8209959
-1.5040613	n s	-0.45526126
-1.4343576	t s	-0.49679416
-1.4217185	o s	-0.7467978
-1.4255503	i s	-0.9240276
-1.4579325	e s	-0.8730979
-1.450518	m s	-0.3900516
-1.646051	l s	-0.3735611
-1.4989605	p s	-0.46604645
-1.399605	u s	-0.70737565
-1.8322561	j s	0
-1.5668669	s s	-0.43936104
-1.7706105	© s	-0.088621065
-1.2886593	( s	-0.15110227
-1.6125355	r s	-0.41162708
-1.5394144	c s	-0.25380543
-1.573401	h s	-0.2287191
-1.5188646	g s	-0.1517871
-1.3860092	f s	-0.3312758
-1.4963858	d s	-0.33693984
-1.7026055	¨ s	-0.11103653
-1.7659848	. s	-0.1443206
-1.2029881	' s	-0.2999659
-1.4713693	b s	-0.34359425
-1.4167397	y s	-0.5843199
-1.478858	- s	-0.75859034
-1.6699601	v s	-0.07090726
-1.9344802	0 s	-0.5843156
-1.8390207	z s	0
-1.8431448	* s	0
-1.69547	: s	0
-1.7310463	¯ s	-0.051979255
-1.6763314	´ s	-0.018770805
-1.3728112	k s	-0.19375299
-1.8065631	; s	0
-1.3928763	 s	0
-1.7859967	w s	-0.068785615
-1.3704281	« s	0
-1.8179139	" s	0
-1.4687915	/ s	-0.042989355
-1.6450515	³ s	0
-1.6807631	­ s	0
-1.7020245	¡ s	0
-1.7021234	¤ s	0
-2.6624563	<s> ,	-2.5559003
-1.4882011	a ,	-0.76674974
-1.3123065	n ,	-0.49276286
-1.401084	t ,	-0.75438225
-1.492764	o ,	-1.1951572
-1.5354455	i ,	-0.81593657
-1.549458	e ,	-0.5181341
-1.4222732	m ,	-0.8084088
-1.4124231	l ,	-0.7745439
-1.4492109	p ,	-1.3246783
-1.4653423	u ,	-1.4294136
-1.508613	j ,	-0.8853456
-1.3873451	s ,	-0.54697883
-1.7000401	© ,	-0.17940776
-1.8965185	( ,	-0.17940776
-1.4012787	r ,	-0.54802847
-0.7228607	) ,	-1.8455784
-1.48846	c ,	-0.71239597
-1.3732191	h ,	-0.75982064
-1.5073677	g ,	-0.7721555
-1.3560092	f ,	-1.304475
-1.4687773	d ,	-0.4633801
-1.445418	. ,	-1.304475
-1.2164875	q ,	-0.9364981
-1.2659001	' ,	-1.1863756
-1.440674	b ,	-1.0324298
-1.3890376	y ,	-0.7913755
-1.9444242	- ,	-0.9822556
-1.4124016	v ,	-1.1283836
-1.1668154	1 ,	-0.7682039
-1.26029	8 ,	-0.3284135
-1.2176859	5 ,	-0.6304144
-1.5573004	¹ ,	-0.17940776
-1.1855866	x ,	-0.9204561
-1.3360264	9 ,	-0.49392962
-1.2164397	4 ,	-0.6996236
-1.334064	7 ,	-0.65216136
-1.2048572	0 ,	-0.9185865
-1.4228132	ª ,	-0.3554412
-1.2313983	2 ,	-0.67179215
-1.2944942	z ,	-0.94527966
-1.1853396	3 ,	-0.8455011
-1.6540723	¯ ,	-0.17940776
-1.3838052	k ,	-0.5672956
-1.2028607	6 ,	-0.52058184
-1.4601147	w ,	-0.9822556
-1.2456754	\ ,	0
-1.4710431	« ,	-0.45937684
-1.420763	» ,	-0.10988715
-1.6458933	 ,	-0.17940776
-0.82948565	" ,	-0.9318564
-1.3735981	 ,	-0.3554412
-1.1287509	! ,	-0.5843156
-1.6194844	/ ,	-0.9822556
-1.2324728	? ,	-0.45937684
-1.3374848	% ,	-0.3554412
-1.4711345	¡ ,	-0.3554412
-1.4571167	¤ ,	-0.3554412
-1.5289679	 ,	-0.3554412
-1.4972942	 ,	-0.17940776
-1.4938151	<s> ã	-2.7244081
-1.6489717	a ã	-0.5821271
-1.4102901	n ã	-0.5081293
-1.4105158	t ã	-0.45825487
-1.5767773	o ã	-0.72402275
-1.5914663	i ã	-0.40814805
-1.7922255	e ã	-0.40618473
-1.3050355	m ã	-0.51258945
-1.4374834	l ã	-0.48780006
-1.4405904	p ã	-0.54647946
-1.6428976	u ã	-0.38261995
-1.3963544	j ã	-0.106239274
-1.5860286	s ã	-0.3561469
-1.791075	© ã	-0.063165665
-2.0129976	( ã	-0.01664462
-1.3554105	r ã	-0.6734628
-1.5424623	c ã	-0.5911137
-1.31881	h ã	-0.4483043
-1.4246522	g ã	-0.49665022
-1.5137721	f ã	-0.32968807
-1.4632638	§ ã	-0.030435473
-1.4463886	d ã	-0.4243294
-1.4059733	' ã	-0.43010792
-1.4529964	b ã	-0.3420114
-1.5385671	y ã	-0.4095735
-1.5567473	- ã	-0.37248942
-1.293125	v ã	-0.36746052
-1.633732	x ã	-0.25166515
-1.3926082	z ã	-0.2984503
-1.4667702	k ã	-0.14468151
-1.7353673	 ã	-0.12714693
-1.5272591	w ã	-0.08514241
-1.0770966	ã ©	-1.054226
-1.8489624	<s> (	-1.9180319
-2.346824	n (	0
-2.4701505	o (	0
-2.0748825	e (	-0.2662656
-2.685181	u (	-0.0805048
-2.0089967	s (	0
-1.5015798	) (	-0.3564422
-2.3182595	f (	0
-1.5373406	<s> r	-2.4595695
-1.4162971	a r	-1.0144001
-1.8786219	n r	-0.21313241
-1.340052	t r	-0.8388435
-1.4223568	o r	-0.9961385
-1.5006328	i r	-0.7763698
-1.4371231	e r	-1.0377791
-1.8336271	m r	-0.068849154
-1.7726482	l r	-0.2182414
-1.2961397	p r	-0.640462
-1.4137012	u r	-0.8758142
-1.8381757	j r	-0.021519829
-1.7491865	s r	-0.1354984
-1.7807221	© r	-0.095502414
-1.509566	( r	-0.038683273
-1.7863427	r r	-0.44044554
-1.3822432	c r	-0.58092105
-1.4374285	h r	-0.36228764
-1.6840858	¢ r	0
-1.2620053	g r	-0.71185964
-1.241154	f r	-0.56943035
-1.4976888	d r	-0.5837898
-1.7119409	¨ r	-0.018770805
-1.6936246	. r	-0.411366
-1.297851	b r	-0.54565644
-1.4854336	y r	-0.48354954
-1.5902766	- r	-0.6220956
-1.340701	v r	-0.5586356
-1.8550392	* r	0
-1.5577875	¯ r	0
-1.4913352	k r	-0.44630197
-1.5249168	w r	-0.14763673
-1.6306187	« r	0
-1.7022009	» r	-0.044161808
-2.1046958	" r	0
-1.4706702	/ r	-0.15361018
-1.6549234	³ r	0
-1.7132368	¡ r	0
-1.7127097	¤ r	-0.021519829
-1.7097721	¼ r	0
-1.5922651	 r	0
-3.417456	<s> )	-1.8700802
-1.5211954	a )	-0.9940043
-1.415415	n )	-0.66450226
-1.5290555	t )	-0.6880769
-1.5680518	o )	-0.8007801
-1.5817897	i )	-1.1291457
-1.5775889	e )	-0.609044
-1.4222732	m )	-0.903082
-1.5401719	l )	-0.790661
-1.4896384	p )	-0.5761763
-1.5316336	u )	-1.0280169
-1.7893696	j )	0
-1.4708816	s )	-0.686879
-1.7000401	© )	-0.08050483
-1.4984463	r )	-0.7622685
-1.3062844	) )	-0.36040035
-1.48846	c )	-0.8660984
-1.4273114	h )	-1.0078135
-1.5073677	g )	-0.4435507
-1.3984159	f )	-0.6812352
-1.5050269	d )	-1.0180327
-1.3734574	. )	-0.83613527
-1.4624869	' )	-0.3327839
-1.40241	b )	-0.44928944
-1.4520569	y )	-0.9643478
-1.5309107	- )	-0.55738664
-1.4439394	v )	-0.2357175
-1.3501618	1 )	-0.78914064
-1.3527042	8 )	-0.64182174
-1.4055933	5 )	-0.64182174
-1.4291666	x )	-0.5690502
-1.3022451	9 )	-0.607384
-1.2875385	4 )	-0.7336233
-1.334064	7 )	-0.6922306
-1.3291417	0 )	-0.6630111
-1.410371	2 )	-0.75292844
-1.4082428	z )	-0.2648769
-1.3038394	3 )	-0.6349368
-1.5041326	k )	-0.79953754
-1.3360617	6 )	-0.5769449
-1.6121544	w )	0
-1.420763	» )	-0.3140643
-0.9097909	" )	-0.3649686
-1.4569026	¦ )	-0.25856584
-0.87802196	} )	-0.9364981
-0.8144807	! )	-0.347678
-0.92388374	? )	0
-1.1856384	% )	-0.1735288
-1.4571167	¤ )	0
-1.1992929	° )	0
-1.4316735	 )	0
-1.2261988	² )	0
-1.1737663	<s> c	-2.8218987
-1.5640196	a c	-0.8432137
-1.5417281	n c	-0.48561144
-1.6132195	t c	-0.3312758
-1.4850202	o c	-0.77860945
-1.5000857	i c	-0.860677
-1.5709817	e c	-0.7654979
-1.6148255	m c	-0.10810425
-1.6745455	l c	-0.23635365
-1.4782288	p c	-0.1801034
-1.471518	u c	-0.6894531
-1.492024	s c	-0.5473308
-1.7739549	© c	-0.10654121
-1.6769804	( c	-0.084093116
-1.6130779	r c	-0.44540867
-1.6344405	c c	-0.31155747
-1.5739398	h c	-0.005918854
-1.6774654	¢ c	-0.0985651
-1.7686398	g c	-0.02163599
-1.5409051	f c	-0.17479947
-1.7075158	d c	-0.025005627
-1.705695	¨ c	-0.17940776
-1.419068	. c	-0.38468653
-1.7812328	' c	0
-1.6906426	b c	0
-1.4846435	y c	-0.33544022
-1.4521515	- c	-0.7656524
-1.7298808	v c	0
-1.936155	x c	-0.07783251
-1.6989527	ª c	-0.17940776
-1.7604616	z c	0
-1.6895015	* c	-0.05147729
-1.7957952	: c	-0.013570483
-1.7347234	¯ c	0
-1.6390162	® c	-0.0805048
-2.0969431	" c	-0.01664462
-1.2867758	/ c	-0.080772586
-1.702957	¼ c	0
-2.0863423	<s> h	-1.8013307
-1.5941485	a h	-0.78070706
-1.6591933	n h	-0.40712667
-1.4260051	t h	-0.6899353
-1.6330242	o h	-0.38538125
-1.6476583	i h	-0.22554906
-1.6208763	e h	-0.3182541
-1.7991687	m h	-0.05618246
-1.7120299	l h	-0.3824401
-1.3897809	p h	-0.6019547
-1.6232905	u h	-0.13360226
-1.4825646	s h	-0.5709305
-1.8199532	© h	-0.04649231
-2.0515094	( h	-0.051979255
-1.6989927	r h	-0.42260906
-1.0936965	c h	-0.77956355
-2.0126488	h h	-0.1691552
-1.7224205	¢ h	-0.030435473
-1.3861063	g h	-0.38921788
-1.5850421	d h	-0.39215654
-1.4499642	' h	-0.35616982
-1.7384247	b h	-0.13198833
-1.5272253	- h	-0.6800466
-1.8328416	x h	-0.039044898
-1.5043092	z h	-0.10309195
-1.7267478	* h	-0.012423279
-1.3204795	k h	-0.47950628
-1.7655575	 h	-0.13265266
-1.533568	w h	-0.2531006
-1.6534925	/ h	0
-1.7538948	¤ h	0
-1.8002874	 h	0
-1.2308358	ã ¢	-0.48300183
-1.8609768	<s> g	-2.1359289
-1.5571429	a g	-0.771366
-1.5120788	n g	-0.4450339
-1.8641776	t g	-0.16095605
-1.5484277	o g	-0.57060516
-1.5335504	i g	-0.64831424
-1.6929262	e g	-0.570896
-1.7628933	m g	0
-1.8659406	l g	-0.36227226
-1.7725635	p g	0
-1.603827	u g	-0.568558
-1.8759724	s g	-0.17014875
-1.8429463	© g	-0.14387804
-1.9464968	( g	-0.044161808
-1.7330648	r g	-0.44387692
-2.0056689	c g	-0.070087865
-1.74485	¢ g	-0.1110365
-1.7387012	g g	-0.13434131
-1.9336528	f g	-0.025212454
-1.6910975	d g	-0.17408347
-1.769004	¨ g	-0.14387804
-1.8832006	. g	0
-2.0949264	b g	0
-1.6381942	y g	-0.03363159
-1.5787591	- g	-0.5694121
-1.9086847	v g	0
-1.9774065	z g	-0.089531764
-1.929389	* g	0
-1.8675855	k g	0
-2.1768634	" g	0
-1.7055941	/ g	0
-1.6064824	<s> f	-2.3421898
-1.625146	a f	-0.48662466
-1.8978609	n f	-0.3975393
-1.800363	t f	-0.06192123
-1.5653212	o f	-0.49272156
-1.6144708	i f	-0.71210253
-1.5499828	e f	-0.7188245
-1.8077241	m f	-0.11511459
-1.717346	l f	-0.207195
-1.7358302	p f	-0.123933695
-1.6048827	u f	-0.27492833
-1.8158256	s f	-0.2325889
-1.854916	© f	-0.1554013
-1.7264448	( f	-0.044161808
-1.802829	r f	-0.26165757
-1.6220802	c f	-0.12604108
-1.8954871	h f	-0.12293094
-1.9747599	g f	0
-1.4421984	f f	-0.50522196
-1.6134661	d f	-0.1826922
-1.5606382	. f	-0.19741543
-1.8353643	b f	0
-1.9249861	y f	0
-1.6164651	- f	-0.79022586
-1.9965761	x f	-0.03838967
-0.99571514	= f	0
-1.7088399	/ f	0
-1.5787091	ã §	-0.49796498
-0.6591187	ø §	-0.3225033
-0.7254122	à §	-0.116968796
-0.83348	<s> d	-3.1980288
-1.5409179	a d	-0.7852067
-1.506451	n d	-0.5706705
-2.0186772	t d	0
-1.500089	o d	-0.65750664
-1.4384998	i d	-0.6367426
-1.5061315	e d	-0.7108034
-1.886893	m d	-0.06578117
-1.7746779	l d	-0.31149176
-1.7239771	p d	-0.03400809
-1.4426169	u d	-0.640127
-1.663618	j d	0
-1.5373945	s d	-0.16389379
-1.6464857	, d	0
-1.791075	© d	-0.12714693
-1.5921926	( d	-0.09144289
-1.7887762	r d	-0.35959387
-1.5874321	c d	-0.1957257
-1.7389208	h d	-0.08614511
-1.7270931	g d	0
-1.7880406	f d	0
-1.6541916	d d	-0.29695937
-1.7214813	¨ d	-0.030435473
-1.6316165	. d	0
-1.6279862	b d	-0.18704158
-1.5385671	y d	-0.31861195
-1.5094681	- d	-0.5802506
-1.7352269	v d	-0.02784233
-1.7669457	z d	0
-1.8672688	* d	0
-2.3987167	3 d	-0.018770805
-1.8106457	: d	0
-1.7535912	¯ d	-0.0805048
-1.7108566	w d	0
-2.116591	" d	0
-1.4725571	/ d	0
-1.6494093	¶ d	-0.03838967
-1.773736	 d	0
-1.2164836	ã ¨	-0.7281064
-2.727476	<s> .	-1.5992059
-1.513361	a .	-0.28912997
-1.466114	n .	-0.3573004
-1.4871519	t .	-0.2517896
-1.5556611	o .	-0.3914419
-1.5393183	i .	-0.30033398
-1.5399407	e .	-0.2725567
-1.4867349	m .	-0.32785293
-1.5243825	l .	-0.2648769
-1.3990655	p .	-0.3861724
-1.4686766	u .	-0.52967155
-1.577598	j .	-0.27358952
-1.4131507	s .	-0.3097711
-1.7385101	© .	-0.021519829
-1.9449167	( .	0
-1.4858991	r .	-0.2769462
-0.7745109	) .	-0.67697203
-1.5139058	c .	-0.24330258
-1.4949157	h .	-0.3964333
-1.4633745	g .	-0.23880811
-1.381935	f .	-0.35418186
-1.4242623	d .	-0.36539704
-1.2250811	. .	-0.5984527
-1.4073879	q .	-0.3619811
-1.4727013	' .	-0.43482816
-1.4886782	b .	-0.2998995
-1.3553857	y .	-0.5717732
-1.7851901	- .	-0.17496075
-1.3892597	v .	-0.4168712
-1.3752961	1 .	-0.69858867
-1.2642484	8 .	-0.66419905
-1.3198061	5 .	-0.7885493
-1.2194244	x .	-0.3599204
-1.2741385	9 .	-0.7794804
-1.3779032	4 .	-0.78435206
-1.3388371	7 .	-0.7698672
-1.3649971	0 .	-0.69352406
-1.3071282	2 .	-0.7549871
-1.4501463	z .	-0.5960643
-1.2860467	3 .	-0.8163203
-1.526966	¯ .	0
-1.5407332	k .	-0.6238844
-1.3415877	6 .	-0.66927856
-1.5663488	w .	-0.091892436
-1.6631516	» .	-0.0805048
-1.012485	" .	-0.7721555
-1.5557077	/ .	0
-0.8690661	% .	-0.46815842
-1.7033443	 .	-0.17940776
-1.3872	² .	-0.3554412
-1.7948724	<s> q	-2.6117427
-1.710811	a q	-0.3078654
-2.150358	n q	-0.21500172
-1.8657373	o q	-0.47411305
-1.742383	i q	-0.3617869
-2.0748825	e q	-0.2987719
-2.1243434	l q	-0.25166515
-1.9506867	u q	-0.4435507
-1.8904638	s q	-0.57259864
-1.9202781	© q	-0.0805048
-1.91438	( q	-0.01664462
-2.2214663	r q	-0.19371493
-1.9177431	c q	-0.3355379
-1.8200591	¢ q	-0.0805048
-1.8389087	¨ q	-0.17940776
-1.9729457	q q	-0.0805048
-2.1100059	y q	0
-2.0476327	- q	-0.38686776
-2.04319	x q	-0.051979255
-1.8312818	ª q	-0.17940776
-1.8987831	¯ q	-0.17940776
-3.9187589	<s> '	-0.19789131
-1.9018017	a '	-0.13526754
-1.901813	n '	-0.27644038
-1.8358884	t '	-0.15361018
-1.9288701	o '	0
-2.0714235	i '	0
-1.7798762	e '	-0.23508413
-1.9721451	m '	0
-1.7197297	l '	-0.4381044
-2.3818078	u '	-0.074647844
-1.7795868	j '	-0.08514241
-1.8815506	s '	-0.31734717
-1.9863565	r '	-0.40778834
-1.742386	c '	-0.2570163
-1.9805874	g '	-0.018770805
-1.7589054	d '	-0.2636208
-1.9514774	. '	0
-0.8857975	' '	-0.57027423
-1.8663156	y '	0
-1.8768486	k '	0
-1.6596078	<s> b	-2.288085
-1.5173695	a b	-0.72748816
-1.6541135	n b	-0.2398158
-1.657659	t b	-0.126797
-1.5600255	o b	-0.6818053
-1.5747837	i b	-0.5941279
-1.6507249	e b	-0.5562745
-1.6468852	m b	-0.4581474
-1.811964	l b	-0.37302625
-1.7611755	p b	0
-1.558698	u b	-0.51543355
-1.776166	s b	-0.2805275
-1.7875965	© b	-0.13265266
-1.685565	( b	-0.05179994
-1.7879635	r b	-0.26044253
-1.7954192	c b	0
-1.8247896	h b	-0.14976098
-1.6908088	¢ b	-0.021519829
-1.61187	g b	-0.14212003
-1.9125086	f b	0
-1.5802813	d b	-0.10828285
-1.7182779	¨ b	-0.0805048
-1.5746715	. b	-0.12884709
-1.7877527	' b	0
-1.6936326	b b	-0.16804059
-1.5665957	y b	-0.31717473
-1.5400779	- b	-0.7822997
-1.8031704	v b	0
-1.7142156	x b	-0.06535991
-1.7656412	z b	0
-1.7006254	* b	0
-1.7497516	¯ b	-0.0805048
-1.8483775	k b	0
-1.7096634	w b	0
-1.1873498	\ b	-0.347678
-1.939787	" b	-0.01664462
-1.6897185	/ b	0
-1.501509	¼ b	-0.0805048
-2.8249674	<s> y	-1.4645296
-1.614209	a y	-0.7676358
-1.6207325	n y	-0.34026682
-1.6303318	t y	-0.2838541
-1.5682914	o y	-0.5773499
-1.7896713	i y	-0.29902223
-1.6617336	e y	-0.52250904
-1.5537119	m y	-0.21611921
-1.463416	l y	-0.5035636
-1.7065641	p y	-0.17459294
-1.6534065	u y	-0.30937827
-2.0538824	j y	-0.20244531
-1.6954628	s y	-0.44740814
-2.0011845	( y	0
-1.503672	r y	-0.5012138
-1.7143127	c y	-0.3399226
-1.5388228	h y	-0.3747038
-1.5086389	g y	-0.28015605
-1.9528493	f y	-0.05159306
-1.7994157	d y	-0.2106666
-1.747982	' y	-0.27358952
-1.5588486	b y	-0.25790715
-2.1017563	y y	-0.20051263
-1.8109577	- y	-0.20859528
-1.5969195	v y	0
-1.7595683	x y	-0.021519829
-1.4415205	z y	-0.1701463
-1.5081733	k y	-0.2524201
-1.8469893	 y	-0.0805048
-1.4549488	w y	0
-1.8988975	 y	-0.0805048
-2.8631573	<s> -	-0.9287908
-1.6049141	a -	-0.33845827
-1.7371892	n -	-0.4506905
-1.5767481	t -	-0.6612107
-1.5764735	o -	-0.6834434
-1.5911291	i -	-0.4340825
-1.586873	e -	-0.70896554
-2.0074573	m -	0
-1.6767049	l -	-0.29131
-1.848585	p -	-0.027425414
-1.6199949	u -	-0.27615365
-1.5856227	s -	-0.64567137
-1.7875965	© -	-0.0142274
-1.8909197	( -	0
-1.6930796	r -	-0.24886784
-1.636968	c -	-0.14545192
-1.6040282	h -	0
-1.7262757	g -	0
-1.6482476	f -	-0.05253091
-1.6277406	d -	-0.2009732
-1.5490909	. -	-0.01649031
-1.7718971	b -	0
-1.3784806	y -	-0.2647365
-2.064373	- -	-0.123933695
-1.6746135	v -	0
-1.4521337	1 -	-0.29051203
-1.4000175	8 -	-0.21223642
-1.4545876	5 -	-0.28113323
-1.4521011	x -	-0.2613213
-1.3815243	9 -	-0.21710415
-1.4537207	4 -	-0.21074939
-1.4545465	7 -	-0.20490178
-1.4797316	0 -	-0.24110182
-1.5084914	2 -	-0.14869821
-1.7656412	z -	-0.0082426015
-1.4489058	3 -	-0.16642699
-1.740448	k -	0
-1.4174073	6 -	-0.17980738
-1.6396616	w -	-0.018770805
-1.604408	/ -	0
-1.825804	<s> v	-2.0933378
-1.5583214	a v	-0.60966194
-1.8566803	n v	-0.33749136
-1.6254504	t v	-0.19316918
-1.5656173	o v	-0.4971347
-1.5809972	i v	-0.51972926
-1.5641555	e v	-0.58899045
-2.0373547	m v	0
-1.8262362	l v	-0.31951
-1.866355	p v	0
-1.6996349	u v	-0.40854046
-1.9941939	s v	-0.17377777
-1.8589804	© v	-0.13265266
-1.9626025	( v	-0.044161808
-1.7684839	r v	-0.4501922
-2.027711	h v	0
-2.061666	g v	-0.06535991
-1.8298467	d v	-0.16595921
-1.783595	¨ v	-0.17940776
-2.2057006	b v	-0.20244531
-1.6068939	y v	-0.44823825
-1.5981475	- v	-0.69868976
-1.9995328	x v	-0.23432
-1.7763684	ª v	-0.03838967
-2.2268536	2 v	-0.03838967
-1.5824686	/ v	0
-1.9053252	<s> 1	-2.2910142
-2.5003273	a 1	0
-2.2131786	e 1	0
-2.1121762	m 1	0
-2.0978606	l 1	0
-2.5143511	s 1	0
-1.3547181	, 1	-0.18163888
-1.5348586	( 1	-0.24057972
-2.103482	r 1	0
-2.1044998	h 1	0
-2.6046047	d 1	0
-1.612711	. 1	-0.6187134
-1.4573166	- 1	-0.7928201
-1.2341473	1 1	-0.6954094
-1.3031152	8 1	-0.45251083
-1.2779605	5 1	-0.40029183
-1.313859	9 1	-0.5016885
-1.2762697	4 1	-0.65148413
-1.2107404	7 1	-0.2671016
-1.2918743	0 1	-0.6178439
-1.2458732	2 1	-0.6444185
-1.628192	* 1	-0.089531764
-1.3191388	3 1	-0.34697783
-1.391834	: 1	0
-2.348021	k 1	-0.14232923
-1.2665621	6 1	-0.32047975
-1.7764847	 1	-0.014951161
-1.4267149	/ 1	-0.12426843
-1.6661271	# 1	0
-3.1052246	<s> 8	-1.5230235
-2.5762997	a 8	0
-1.5286381	, 8	-0.13931711
-2.260873	( 8	-0.0106266225
-1.8180072	. 8	-0.8142517
-2.471453	' 8	-0.17940776
-1.8196882	- 8	0
-2.373735	v 8	0
-1.3097191	1 8	-0.8220429
-1.2272974	8 8	-0.60465634
-1.2872181	5 8	-0.32976168
-2.0737662	x 8	-0.45937684
-1.2886162	9 8	-0.564054
-1.2367158	4 8	-0.2693846
-1.3280035	7 8	-0.34228295
-1.3927038	0 8	-0.29220134
-1.3511554	2 8	-0.68460006
-1.3056082	3 8	-0.25409204
-1.3344543	6 8	-0.2862036
-2.8588593	<s> 5	-1.4732896
-2.561191	a 5	-0.029537061
-1.5239927	, 5	-0.07721133
-2.2219138	( 5	0
-1.8121673	. 5	-0.74264467
-1.9184785	- 5	0
-1.3084306	1 5	-0.75474185
-1.2523179	8 5	-0.6375207
-1.2854887	5 5	-0.41832477
-1.1769943	9 5	-0.61617047
-1.3097646	4 5	-0.7146494
-1.2680844	7 5	-0.3307066
-1.3902013	0 5	-0.2434027
-1.3281235	2 5	-0.74249905
-1.2405751	3 5	-0.2815303
-2.3311336	k 5	-0.2920672
-1.3323553	6 5	-0.28172243
-1.7850397	/ 5	0
-2.6550407	ã ¹	-0.19657034
-1.2179998	î ¹	0
-0.7795028	á ¹	-0.20511773
-3.374482	<s> x	-0.586062
-1.8091395	a x	-0.33803076
-2.1486022	n x	-0.12293094
-1.6410549	o x	-0.44869137
-1.6763934	i x	-0.46200335
-1.7002611	e x	-0.6276396
-1.8789462	p x	-0.23150347
-1.8280113	u x	-0.309986
-1.7611341	( x	-0.077373825
-2.4706688	r x	-0.030435473
-1.4303715	x x	0
-3.1398308	<s> 9	-1.5693656
-1.5314494	, 9	-0.12401091
-2.2860448	( 9	0
-1.7773559	. 9	-0.7228134
-2.1824389	- 9	0
-1.2096066	1 9	-0.8233951
-1.2830006	8 9	-0.60014933
-1.3729047	5 9	-0.30344638
-1.2589322	9 9	-0.4933513
-1.3407531	4 9	-0.379122
-1.2440697	7 9	-0.40894675
-1.3320243	0 9	-0.33087832
-1.3314456	2 9	-0.36749625
-1.3301412	3 9	-0.28858298
-1.3357186	6 9	-0.27114215
-2.8607461	<s> 4	-1.3946265
-2.7090106	a 4	0
-1.5239927	, 4	-0.11321949
-2.2219138	( 4	0
-1.7688727	. 4	-0.653795
-1.8479412	- 4	0
-1.2899894	1 4	-0.728186
-1.280453	8 4	-0.5699184
-1.2854887	5 4	-0.2874542
-1.2286662	9 4	-0.6348683
-1.3377492	4 4	-0.57066435
-1.2961739	7 4	-0.347678
-1.3007182	0 4	-0.30385673
-1.2891946	2 4	-0.59241533
-1.3518271	3 4	-0.2411555
-1.1779099	6 4	-0.327985
-1.8481063	/ 4	0
-3.0057907	<s> 7	-1.4954258
-2.3016915	a 7	0
-1.5305103	, 7	-0.2340814
-2.277491	( 7	0
-1.7362716	. 7	-0.8697697
-1.8526727	- 7	0
-1.3933764	1 7	-0.7057991
-1.3129264	8 7	-0.47529274
-1.3143137	5 7	-0.2778255
-1.203546	9 7	-0.584778
-1.3704772	4 7	-0.28755635
-1.2985228	7 7	-0.31110862
-1.331588	0 7	-0.27768987
-1.3520286	2 7	-0.74060166
-1.354569	3 7	-0.2765856
-1.3052388	6 7	-0.23011105
-3.1913042	<s> 0	-1.151667
-1.4863936	, 0	-0.12979037
-1.7960323	( 0	-0.046537112
-1.8215494	. 0	-0.7069257
-1.9248515	- 0	-0.052600827
-1.1277939	1 0	-0.7507925
-1.2547052	8 0	-0.6427562
-1.288259	5 0	-0.33881602
-1.2589322	9 0	-0.6664271
-1.1543164	4 0	-0.617214
-1.2190661	7 0	-0.3746884
-1.2527997	0 0	-0.58681256
-1.11095	2 0	-0.6523074
-1.2052143	3 0	-0.3581368
-1.2774963	6 0	-0.34361508
-1.6282171	+ 0	0
-1.9363406	/ 0	-0.23853351
-1.3620554	ã ª	-0.50220746
-0.9839411	é ª	0
-2.116647	<s> 2	-1.9824957
-2.2671561	a 2	0
-2.2927556	e 2	0
-2.1079686	l 2	-0.09226181
-2.1429992	p 2	0
-1.4673259	, 2	-0.11524527
-1.6305494	( 2	-0.096191585
-2.5109751	d 2	-0.03838967
-1.7153522	. 2	-0.76624143
-2.2130795	b 2	0
-1.5992836	- 2	-0.26341212
-1.2200209	1 2	-0.73847497
-1.3054633	8 2	-0.4314922
-1.2327069	5 2	-0.32215834
-1.5882859	x 2	-0.13305517
-1.2534194	9 2	-0.54290664
-1.3045337	4 2	-0.6349842
-1.2634045	7 2	-0.34995168
-1.2946687	0 2	-0.26663318
-1.265559	2 2	-0.604577
-1.3216813	3 2	-0.3618584
-1.3577118	6 2	-0.550408
-1.1949492	+ 2	0
-1.4574721	/ 2	-0.096005365
-1.6934032	# 2	0
-3.0126085	<s> z	-1.0079731
-1.6282539	a z	-0.5761497
-2.1399293	n z	-0.21634527
-1.9139056	t z	-0.19422963
-1.6021833	o z	-0.34694117
-1.5836403	i z	-0.537413
-1.6274498	e z	-0.596197
-2.1360433	m z	0
-2.0420985	l z	-0.07050448
-1.5483202	u z	-0.40921587
-2.049833	s z	0
-1.892942	© z	-0.0805048
-2.1531336	( z	0
-2.1241107	r z	-0.17330737
-1.9634982	c z	0
-2.2357335	h z	0
-1.9273648	d z	-0.060756918
-1.8143355	¨ z	-0.17940776
-1.8154807	y z	-0.10309195
-1.9106414	- z	0
-1.6101881	z z	-0.23853351
-1.8124934	<s> *	-2.1713552
-2.341239	( *	0
-1.3026342	* *	-0.16732705
-2.7292573	<s> 3	-1.5029008
-2.7801986	a 3	0
-1.5175714	, 3	-0.12647265
-2.0102446	( 3	-0.0106266225
-1.7615836	. 3	-0.66419905
-1.6212252	- 3	-0.12897749
-1.1506971	1 3	-0.72698957
-1.3081623	8 3	-0.60295314
-1.3369502	5 3	-0.32774112
-1.877505	x 3	-0.075555
-1.2270942	9 3	-0.56793743
-1.2565079	4 3	-0.6275177
-1.3237039	7 3	-0.29122257
-1.2473783	0 3	-0.3035899
-1.3459523	2 3	-0.66786546
-1.2584516	3 3	-0.41508725
-1.3294336	6 3	-0.32891935
-1.7220719	/ 3	0
-1.7268298	# 3	0
-2.0851645	<s> :	-1.8883187
-2.2778497	a :	-0.8273536
-2.2290573	n :	-0.2950343
-2.186881	t :	-0.46815842
-2.355456	i :	-0.6812256
-1.8329535	e :	-0.20839801
-2.1183171	l :	-0.76040685
-2.526594	p :	-0.0805048
-1.7948079	s :	-0.747332
-1.3028008	) :	-0.5990518
-2.316796	v :	-0.3554412
-1.9047424	: :	-0.018770805
-1.730482	ã ¯	-0.24475613
-1.2255496	ì ¯	-0.03145156
-1.3250804	ã ´	-0.4105853
-1.8591781	â ´	0
-1.4651072	õ ´	0
-2.5897326	<s> k	-1.442785
-1.5947897	a k	-0.50430447
-1.8910298	n k	-0.28912628
-1.897455	t k	-0.050022006
-1.5472903	o k	-0.50878704
-1.6119876	i k	-0.48060644
-1.6058116	e k	-0.39697206
-1.9624003	l k	-0.18559235
-1.8118502	p k	0
-1.5253822	u k	-0.37609097
-2.0016534	j k	-0.087257355
-1.511161	s k	-0.5965824
-1.827483	© k	-0.063165665
-1.7100868	( k	-0.014951161
-1.7623177	r k	-0.36893487
-1.6718558	c k	-0.32839033
-1.8876458	h k	0
-2.2852323	g k	-0.03838967
-1.9598169	d k	0
-1.8021609	y k	0
-1.6971748	- k	-0.15514141
-1.9690032	z k	0
-1.7327724	* k	0
-1.5909648	¯ k	-0.018770805
-1.7513301	k k	-0.14886393
-2.1645107	w k	0
-1.7526275	/ k	-0.21884052
-1.6355333	 k	0
-2.5319898	<s> 6	-1.8291419
-2.585624	a 6	0
-1.5314494	, 6	-0.06661154
-2.2860448	( 6	0
-1.8215494	. 6	-0.8361311
-1.9655619	- 6	0
-1.2919668	1 6	-0.71297765
-1.2281411	8 6	-0.6856804
-1.288259	5 6	-0.37375438
-1.3221496	9 6	-0.5507307
-1.3407531	4 6	-0.33178577
-1.361573	7 6	-0.297317
-1.3320243	0 6	-0.2675206
-1.3113956	2 6	-0.67324495
-1.3301412	3 6	-0.31326175
-2.4867282	k 6	0
-1.2774963	6 6	-0.32266906
-2.5217896	<s> ;	-1.9570283
-2.0067182	e ;	-1.0614369
-2.200052	s ;	-0.5930972
-1.4131205	) ;	-1.1863756
-2.059125	<s> â	-2.139753
-1.9796696	a â	-0.32841346
-2.0379674	n â	-0.3751378
-1.8212528	t â	-0.6442497
-2.105762	i â	0
-1.7489655	e â	-0.7408223
-2.0151277	m â	-0.018770805
-1.7773991	l â	-0.40759474
-2.089894	u â	-0.7226183
-1.683608	s â	-0.6938258
-1.6514146	, â	0
-1.8052741	© â	-0.051979255
-1.9086667	( â	-0.051979255
-2.0217865	r â	-0.5029205
-1.453756	) â	0
-2.1315873	c â	-0.3619811
-1.7041528	h â	-0.5073788
-1.9023609	d â	-0.3649686
-1.6998503	. â	-0.5073788
-1.7960427	' â	-0.23853351
-1.6938658	1 â	0
-1.4423882	8 â	-0.2958858
-1.4967126	5 â	0
-1.8248314	x â	0
-1.4694774	9 â	0
-1.5882725	4 â	0
-1.5503631	7 â	0
-1.482809	0 â	-0.38417384
-1.7552059	2 â	0
-1.6500645	3 â	0
-1.5514711	6 â	0
-1.7502	 â	-0.0805048
-1.5243025	= â	0
-1.823279	« â	-0.17940776
-1.6117836	 â	-0.17940776
-0.5869349	â 	-0.43880036
-1.7783395	 	0
-1.1827245	ï 	-0.2958858
-0.7580186	ö 	-0.5523616
-2.1160686	 	-0.0947
-0.78910345	é 	0
-2.729706	<s> w	-1.3093839
-1.7650073	a w	-0.2428076
-2.0703824	n w	-0.2958858
-1.6742353	t w	-0.48257923
-1.725078	o w	-0.4095573
-1.7896713	i w	-0.26755354
-1.7603081	e w	-0.28138337
-1.9806387	m w	-0.1425207
-2.0433557	l w	-0.21884052
-1.9025578	u w	-0.27754593
-2.0538824	j w	0
-1.8227748	s w	-0.29825243
-2.1595416	( w	-0.013570483
-1.9407157	r w	-0.2802479
-2.2838793	c w	0
-1.8042262	h w	-0.24587114
-1.9894779	g w	-0.095403306
-1.9285364	d w	-0.29702368
-2.372315	b w	-0.018770805
-2.1017563	y w	-0.025212454
-1.7549388	- w	-0.15165795
-2.0159614	5 w	-0.2950343
-2.0058975	z w	0
-1.8726467	¯ w	-0.17940776
-1.8229483	k w	-0.26849675
-1.4994019	w w	-0.10778294
-1.9062346	/ w	-0.033952724
-3.3900342	<s> å	-1.0288587
-1.9979522	a å	0
-2.474193	n å	-0.17158672
-2.0562706	t å	-0.5930972
-2.245161	m å	-0.10988715
-1.7901297	j å	-0.41405895
-2.1647856	s å	-0.10656474
-2.1595416	( å	0
-1.9407157	r å	-0.2662656
-1.9648443	c å	-0.6442497
-1.969126	h å	-0.25724572
-1.8811013	d å	-0.21984096
-2.2058725	' å	-0.20244531
-1.961741	b å	-0.6354681
-1.682378	y å	-0.7414179
-2.3127105	v å	-0.0805048
-2.044158	k å	0
-1.8469893	 å	-0.17940776
-2.0618644	 	-0.025212454
-0.9395442	å 	-0.27074316
-1.0116055	ä 	0
-3.9082172	<s> \	-0.3933663
-0.7637104	} \	0
-3.5506423	<s> +	-0.71752006
-2.7794936	u +	-0.030435473
-2.1308203	( +	-0.06535991
-2.3555706	2 +	0
-3.8426	<s> =	-1.0776745
-2.8734162	t =	-0.013570483
-2.215591	: =	-0.17940776
-1.6872853	ã «	-0.1836416
-1.3388293	â «	-0.21070579
-1.004247	å «	-0.014095873
-0.89475894	ä «	0
-1.2478298	õ «	0
-1.4959134	ã »	-0.24259722
-1.1411421	â »	-0.47112554
-1.1008645	î »	-0.47411305
-0.9621401	ù 	0
-1.4925284	 	-0.1110365
-1.0224198	ï 	-0.411366
-2.0590296	â 	-0.030435473
-1.4340233	å 	0
-2.0198102	 	0
-1.3404742	ï 	-0.40778834
-0.84494305	ö 	-0.26023322
-1.4018276	ã ®	-0.27571228
-2.068483	¦ ®	-0.0805048
-3.4009907	<s> "	-0.50697535
-2.119475	a "	0
-2.344067	n "	0
-2.1928155	t "	0
-1.834729	e "	-0.67323023
-2.048421	l "	0
-1.7967829	s "	-0.411366
-1.9107245	( "	0
-2.3270264	r "	-0.0946519
-1.7636538	. "	-0.73139983
-1.8666258	7 "	0
-1.6879089	ã ¦	-0.009283984
-2.0920055	 ¦	-0.1110365
-0.43583465	à ¦	-0.10587493
-2.084272	 	-0.044161808
-1.0260143	é 	0
-4.71839	<s> {	0
-2.9261672	e {	-0.018770805
-0.91456854	^ {	0
-4.780677	<s> }	-0.9204561
-2.8854008	a }	-0.021519829
-2.5834835	b }	0
-4.0639358	<s> !	-0.7331412
-3.4366329	<s> /	-0.5445635
-2.0206063	a /	0
-1.8929707	n /	0
-1.7963475	t /	-0.118331894
-1.8540717	o /	-0.006732252
-2.0156555	i /	0
-1.7114092	e /	-0.051792853
-1.8491881	m /	-0.009910025
-1.9114978	l /	0
-1.9737453	p /	-0.05147729
-2.0985913	u /	-0.05147729
-1.7844238	s /	0
-2.0330594	r /	0
-1.7764177	) /	0
-1.9675839	g /	0
-1.8656058	d /	0
-1.8301976	b /	0
-2.1382895	- /	-0.347678
-1.6149688	1 /	-0.054403078
-1.5452459	5 /	0
-1.7268817	9 /	0
-1.7127919	4 /	0
-1.8435997	7 /	0
-1.4877784	0 /	0
-1.6651798	2 /	0
-1.6563164	3 /	0
-1.8485067	: /	-0.3554412
-2.1876698	/ /	-0.014951161
-1.2491692	_ /	0
-1.4021506	ã ¶	-0.10803699
-1.1062847	õ ¶	-0.3649686
-3.9907088	<s> ?	-0.8961164
-2.683165	<s> %	-2.6972136
-3.2699842	<s> #	-1.0303657
-2.2547307	* #	-0.17940776
-1.3430336	ã ³	-0.23214698
-1.5362926	î ³	0
-1.549624	ã ­	-0.24773128
-1.8549722	¹ ­	0
-1.30758	ã ¡	-0.26977643
-1.0046625	å ¡	0
-1.1479633	õ ¡	-0.42296052
-2.1574802	ã 	0
-1.2755274	ã ¤	-0.29218146
-2.0769918	¦ ¤	0
-0.6504705	à ¤	0
-1.4694687	ã ¼	-0.27086458
-1.1746583	î ¼	-0.22864152
-1.1070521	ê ¼	0
-1.6068591	á ¼	0
-1.1597931	ð ¼	0
-4.126576	<s> <	-1.1782362
-1.2143655	î µ	-0.1313338
-1.0240815	ð µ	0
-1.5579885	õ µ	0
-1.1093159	â °	-0.16310278
-0.84306085	ê °	0
-0.9732506	ð °	-0.16108388
-1.9640573	§ 	0
-0.8592446	å 	-0.21697362
-1.0119702	ä 	0
-1.9802202	á 	0
-1.6605275	 	-0.051979255
-4.8224134	<s> ä	0
-2.1556678	n ä	-0.347678
-1.9665098	t ä	-0.33881533
-1.9525406	i ä	-0.53956354
-1.7814682	m ä	-0.2662656
-2.1690352	p ä	0
-2.0386171	( ä	0
-2.004686	r ä	0
-1.9799742	h ä	-0.39343548
-2.0217607	y ä	-0.76040685
-1.8509979	v ä	-0.3619811
-1.9703707	k ä	0
-0.56972265	ä 	-0.26789838
-0.86978495	ï 	-0.2463935
-1.9393965	§ ù	0
-1.6129488	â 	-0.3619811
-0.87827337	ù 	0
-1.4521964	ï 	0
-0.95870805	á 	0
-0.41244003	ë 	0
-4.650048	<s> ø	0
-1.8315226	ã ±	-0.06271688
-1.0630457	ø ±	0
-1.1750714	î ±	-0.21070579
-1.8899975	ã ²	0
-2.2416782	â ²	-0.089531764
-1.3096728	ø ²	0
-1.9851931	î ²	0
-3.9743323	<s> |	-0.9863477
-1.0984274	_ |	0
-3.9856992	<s> &	-1.5339164
-5.0091333	<s> ~	0
-1.2122003	ù 	0
-1.2043903	á 	0
-4.399796	<s> _	-0.3956819
-1.7877264	( _	0
-1.3271105	\ _	0
-2.0219078	/ _	0
-1.1397052	_ _	-0.16512562
-1.2656419	î ¬	0
-1.0070175	î ¿	-0.7691884
-1.3787203	õ ¿	0
-1.832392	ã 	0
-1.646862	ã º	0
-1.3162918	î º	-0.29802176
-1.0863932	ð º	-0.516883
-1.2031975	á 	0
-1.8929892	ã ¸	0
-1.537243	î ¸	0
-1.0429139	á ¸	0
-1.0895774	ð ¸	0
-1.0315287	õ ¸	-0.78972256
-1.884075	ã 	0
-0.9777361	ï 	-0.20231257
-1.2827302	å ¾	-0.047240566
-2.0519502	¦ ¾	0
-1.0879824	ð ¾	0
-4.4439673	<s> é	0
-1.8741869	¹ 	-0.0805048
-1.9771323	ä 	-0.25735527
-1.3404742	ï 	0
-1.357172	á 	0
-1.9451413	 	0
-0.41264668	ë 	0
-1.0230155	ï 	-0.47261673
-1.8180019	á 	0
-1.6835624	ã £	-0.4435507
-0.6706334	ì ¥	0
-0.9972575	õ ¥	-1.0034449
-0.87580764	é 	0
-4.321657	<s> >	-1.0836315
-2.2551136	â 	-0.3554412
-4.041242	<s> î	-0.40123218
-1.5028354	 î	0
-1.8550695	» î	0
-1.1852024	 î	0
-1.8799723	¼ î	0
-1.84204	µ î	0
-1.5759453	 î	0
-1.2399284	 î	0
-1.7811115	¿ î	0
-1.8228427	º î	0
-1.9136959	 î	0
-1.733315	½ î	0
-4.757063	<s> ê	0
-4.802586	<s> $	-0.38277113
-4.237295	<s> ï	-0.34706366
-1.5048496	 ï	0
-1.578507	 ï	0
-1.5480253	± ï	0
-1.7851107	¿ ï	-0.030435473
-1.9243068	 ï	0
-3.3729982	<s> á	-1.1746778
-2.2051249	a á	-0.47112554
-1.6549162	 á	0
-0.84449124	é 	0
-1.0360034	î ½	-0.13993818
-1.3797014	õ ½	-0.20051263
-2.0590296	â ·	-0.12193054
-1.9303334	i ì	-1.0961989
-1.922591	u ì	-1.0236483
-4.4539213	<s> ë	-1.5385581
-4.3034844	<s> à	-0.85129225
-2.2860448	( à	-0.051979255
-1.450171	® à	0
-1.7561208	 à	0
-1.5129933	¾ à	0
-4.8721886	<s> ×	0
-4.6089396	<s> ð	0
-1.866707	º ð	0
-4.1319885	<s> õ	-0.098072834
-1.9529756	 õ	0
-1.9181376	 õ	0
-1.9295489	¡ õ	0
-1.839904	¸ õ	0
-1.7911339	¥ õ	0
-1.7467374	½ õ	0
-1.5798721	¸ ö	0
-1.8925333	¥ ö	-0.051979255

\3-grams:
-1.2044684	<s> a </s>	0
-1.0356091	a a </s>	0
-1.2239847	n a </s>	0
-1.1687468	t a </s>	0
-0.95901084	o a </s>	0
-1.0543255	i a </s>	0
-1.1136968	e a </s>	0
-1.2559738	m a </s>	0
-1.1296394	l a </s>	0
-1.1235096	p a </s>	0
-1.0495899	u a </s>	0
-1.0593168	j a </s>	0
-1.164581	s a </s>	0
-1.059808	© a </s>	0
-1.2687778	r a </s>	0
-1.1988811	c a </s>	0
-1.2525927	h a </s>	0
-1.1502268	g a </s>	0
-1.1555281	f a </s>	0
-1.1891563	§ a </s>	0
-1.1465626	d a </s>	0
-1.4464862	' a </s>	0
-1.1739459	b a </s>	0
-1.0286822	y a </s>	0
-1.2021611	v a </s>	0
-1.0613672	z a </s>	0
-0.98296	k a </s>	0
-1.2992848	 a </s>	0
-1.1593676	w a </s>	0
-1.0460869	­ a </s>	0
-2.4530458	<s> n </s>	0
-1.2545148	a n </s>	0
-1.012715	n n </s>	0
-1.1562592	o n </s>	0
-1.301657	i n </s>	0
-1.1160382	e n </s>	0
-0.9435597	m n </s>	0
-0.689523	p n </s>	0
-0.9908955	u n </s>	0
-1.1006788	© n </s>	0
-0.9458286	r n </s>	0
-0.7856546	h n </s>	0
-1.0409331	¢ n </s>	0
-1.2998177	g n </s>	0
-0.7236073	d n </s>	0
-0.93037987	b n </s>	0
-0.8462567	y n </s>	0
-1.0507876	¯ n </s>	0
-0.7856355	w n </s>	0
-0.9527192	³ n </s>	0
-0.7391679	­ n </s>	0
-0.993656	¡ n </s>	0
-2.8507204	<s> t </s>	0
-1.1115766	a t </s>	0
-1.101869	n t </s>	0
-1.0465237	t t </s>	0
-1.1166012	o t </s>	0
-1.1575232	i t </s>	0
-1.0146822	e t </s>	0
-0.92446	l t </s>	0
-0.9201664	p t </s>	0
-1.0529046	u t </s>	0
-1.11362	s t </s>	0
-0.9796699	r t </s>	0
-1.016112	c t </s>	0
-0.91833836	h t </s>	0
-1.1361407	¢ t </s>	0
-0.74257755	g t </s>	0
-0.7514254	f t </s>	0
-0.64214003	d t </s>	0
-0.58068526	' t </s>	0
-0.8229612	b t </s>	0
-1.1358657	x t </s>	0
-1.1285107	ª t </s>	0
-1.1427891	´ t </s>	0
-0.69591737	k t </s>	0
-1.1099634	» t </s>	0
-1.0630318	® t </s>	0
-2.39219	<s> o </s>	0
-0.809584	a o </s>	0
-1.2604299	n o </s>	0
-1.2640545	t o </s>	0
-1.0498233	o o </s>	0
-1.0917873	i o </s>	0
-0.8431452	e o </s>	0
-1.257693	m o </s>	0
-1.3741379	l o </s>	0
-1.1882753	p o </s>	0
-0.7904469	u o </s>	0
-1.0173777	j o </s>	0
-1.1791967	s o </s>	0
-1.2921227	© o </s>	0
-1.3839257	r o </s>	0
-1.1736838	c o </s>	0
-1.2701647	h o </s>	0
-1.1782963	g o </s>	0
-1.2820373	f o </s>	0
-1.2121382	d o </s>	0
-1.3924888	b o </s>	0
-0.93459135	y o </s>	0
-1.1709459	v o </s>	0
-1.007678	z o </s>	0
-0.96170944	k o </s>	0
-0.8134385	­ o </s>	0
-0.9561759	£ o </s>	0
-2.1792307	<s> i </s>	0
-1.1636593	a i </s>	0
-1.2234942	n i </s>	0
-1.218036	t i </s>	0
-1.1169597	o i </s>	0
-0.6968989	i i </s>	0
-1.1326214	e i </s>	0
-1.1869133	m i </s>	0
-1.3233579	l i </s>	0
-1.1897151	p i </s>	0
-1.1151849	u i </s>	0
-0.81601006	j i </s>	0
-1.2001752	s i </s>	0
-1.3160808	r i </s>	0
-1.1855887	c i </s>	0
-1.2587764	h i </s>	0
-1.1566498	g i </s>	0
-1.2255437	f i </s>	0
-1.2773694	d i </s>	0
-1.2245725	b i </s>	0
-0.7271532	y i </s>	0
-1.285326	v i </s>	0
-1.1848413	x i </s>	0
-1.1980848	z i </s>	0
-0.980676	k i </s>	0
-2.86493	<s> e </s>	0
-0.9648749	a e </s>	0
-1.1934483	n e </s>	0
-1.1552011	t e </s>	0
-1.0526259	o e </s>	0
-1.1754789	i e </s>	0
-0.94025874	e e </s>	0
-1.1468477	m e </s>	0
-1.1249709	l e </s>	0
-1.1325933	p e </s>	0
-0.9898558	u e </s>	0
-1.0920751	j e </s>	0
-1.1596968	s e </s>	0
-1.3085883	© e </s>	0
-1.3330706	r e </s>	0
-1.0262202	c e </s>	0
-1.4099902	h e </s>	0
-1.1855358	g e </s>	0
-1.3245231	f e </s>	0
-1.1393294	d e </s>	0
-1.25337	b e </s>	0
-0.92658305	y e </s>	0
-1.2346348	v e </s>	0
-0.8497974	x e </s>	0
-0.99516207	z e </s>	0
-1.0543553	k e </s>	0
-1.1156414	w e </s>	0
-1.2979153	<s> m </s>	0
-1.1539829	a m </s>	0
-0.84462297	t m </s>	0
-1.0981302	o m </s>	0
-1.0456887	i m </s>	0
-1.0422328	e m </s>	0
-0.856058	m m </s>	0
-0.7403865	l m </s>	0
-0.97180605	u m </s>	0
-0.9828784	s m </s>	0
-0.9533235	r m </s>	0
-0.49177355	c m </s>	0
-0.8627577	h m </s>	0
-0.5325903	f m </s>	0
-0.78347903	b m </s>	0
-0.74606705	k m </s>	0
-3.5215704	<s> l </s>	0
-1.2080877	a l </s>	0
-1.181422	o l </s>	0
-1.0759747	i l </s>	0
-1.1175623	e l </s>	0
-0.52888393	m l </s>	0
-1.0091616	l l </s>	0
-1.0264364	p l </s>	0
-1.1097548	u l </s>	0
-1.0718861	s l </s>	0
-0.9752439	r l </s>	0
-1.1082302	c l </s>	0
-0.6665245	d l </s>	0
-1.0027716	¯ l </s>	0
-1.1465412	« l </s>	0
-3.3539197	<s> p </s>	0
-1.1174629	a p </s>	0
-0.92411554	n p </s>	0
-0.49186015	t p </s>	0
-1.1387571	o p </s>	0
-1.0035185	i p </s>	0
-0.9722442	e p </s>	0
-0.99333435	m p </s>	0
-0.950552	p p </s>	0
-0.96927065	u p </s>	0
-0.9822757	s p </s>	0
-0.8875985	r p </s>	0
-0.5169537	c p </s>	0
-0.76452106	g p </s>	0
-0.5826336	d p </s>	0
-2.6615984	<s> u </s>	0
-1.1767082	a u </s>	0
-1.0752199	n u </s>	0
-1.093246	t u </s>	0
-1.3471444	o u </s>	0
-0.8656297	i u </s>	0
-1.3202434	e u </s>	0
-1.1692979	m u </s>	0
-1.2056164	l u </s>	0
-1.2255168	p u </s>	0
-1.2898623	s u </s>	0
-1.2015095	r u </s>	0
-1.225616	c u </s>	0
-1.4548346	h u </s>	0
-1.5017025	g u </s>	0
-1.0884315	f u </s>	0
-1.0631448	§ u </s>	0
-1.1066117	d u </s>	0
-1.2800602	b u </s>	0
-0.8293737	y u </s>	0
-0.90410507	v u </s>	0
-0.91913706	z u </s>	0
-0.9646342	k u </s>	0
-2.4728622	<s> j </s>	0
-0.95479685	i j </s>	0
-1.0357077	d j </s>	0
-2.9924638	<s> s </s>	0
-1.0497537	a s </s>	0
-0.91815656	n s </s>	0
-0.9049418	t s </s>	0
-1.0011003	o s </s>	0
-1.173096	i s </s>	0
-1.1362652	e s </s>	0
-0.6719581	m s </s>	0
-0.90912205	l s </s>	0
-0.7957799	p s </s>	0
-1.0010302	u s </s>	0
-0.9729253	s s </s>	0
-1.2137196	© s </s>	0
-0.95210606	r s </s>	0
-0.7147232	c s </s>	0
-0.6027183	h s </s>	0
-0.7694938	g s </s>	0
-0.546577	f s </s>	0
-0.75003994	d s </s>	0
-1.0912434	¨ s </s>	0
-0.27827477	' s </s>	0
-0.83560157	b s </s>	0
-0.9629331	y s </s>	0
-1.1080188	¯ s </s>	0
-0.71056545	k s </s>	0
-0.8503442	w s </s>	0
-0.8384357	/ s </s>	0
-0.00079190027	<s> , </s>	0
-0.051639825	a , </s>	0
-0.10274693	n , </s>	0
-0.05322674	t , </s>	0
-0.01854614	o , </s>	0
-0.045807492	i , </s>	0
-0.09621833	e , </s>	0
-0.046652988	m , </s>	0
-0.050665617	l , </s>	0
-0.013687292	p , </s>	0
-0.010717779	u , </s>	0
-0.03872988	j , </s>	0
-0.08935152	s , </s>	0
-0.2467921	© , </s>	0
-0.2467921	( , </s>	0
-0.0891121	r , </s>	0
-0.0040797046	) , </s>	0
-0.059012905	c , </s>	0
-0.052522644	h , </s>	0
-0.050962076	g , </s>	0
-0.014349976	f , </s>	0
-0.11093774	d , </s>	0
-0.014349976	. , </s>	0
-0.03425199	q , </s>	0
-0.018933333	' , </s>	0
-0.02724534	b , </s>	0
-0.048627537	y , </s>	0
-0.030702684	- , </s>	0
-0.021706792	v , </s>	0
-0.56643546	1 , </s>	0
-0.45846182	8 , </s>	0
-0.55960983	5 , </s>	0
-0.2467921	¹ , </s>	0
-0.035595138	x , </s>	0
-0.62595147	9 , </s>	0
-0.54082453	4 , </s>	0
-0.63805467	7 , </s>	0
-0.7246509	0 , </s>	0
-0.14814964	ª , </s>	0
-0.47277325	2 , </s>	0
-0.033539183	z , </s>	0
-0.5205644	3 , </s>	0
-0.2467921	¯ , </s>	0
-0.08484091	k , </s>	0
-0.531708	6 , </s>	0
-0.030702684	w , </s>	0
-0.1121098	« , </s>	0
-0.30869204	» , </s>	0
-0.2467921	 , </s>	0
-0.034635115	" , </s>	0
-0.14814964	 , </s>	0
-0.081254855	! , </s>	0
-0.030702684	/ , </s>	0
-0.1121098	? , </s>	0
-0.14814964	% , </s>	0
-0.14814964	¡ , </s>	0
-0.14814964	¤ , </s>	0
-0.14814964	 , </s>	0
-0.2467921	 , </s>	0
-0.28525323	<s> ã </s>	0
-1.1322213	l ã </s>	0
-1.1143787	j ã </s>	0
-1.192553	( ã </s>	0
-1.2513428	' ã </s>	0
-0.8417585	- ã </s>	0
-1.1107476	 ã </s>	0
-1.1857486	ã © </s>	0
-1.8088864	<s> ( </s>	0
-2.8031323	<s> r </s>	0
-1.2948109	a r </s>	0
-1.4843075	t r </s>	0
-1.2209175	o r </s>	0
-1.0691185	i r </s>	0
-1.2817177	e r </s>	0
-0.71020657	m r </s>	0
-0.8165447	l r </s>	0
-1.442969	p r </s>	0
-1.3100954	u r </s>	0
-0.97464895	r r </s>	0
-1.0302895	c r </s>	0
-1.2921462	h r </s>	0
-1.4427024	f r </s>	0
-0.93027073	d r </s>	0
-1.114671	y r </s>	0
-1.0023681	» r </s>	0
-0.2695578	<s> ) </s>	0
-0.43164816	a ) </s>	0
-0.44531262	n ) </s>	0
-0.43802243	t ) </s>	0
-0.38179827	o ) </s>	0
-0.4360724	i ) </s>	0
-0.45564318	e ) </s>	0
-0.39931902	m ) </s>	0
-0.34688082	l ) </s>	0
-0.2884449	p ) </s>	0
-0.34194317	u ) </s>	0
-0.46482366	s ) </s>	0
-0.5675921	© ) </s>	0
-0.32861778	r ) </s>	0
-0.42280346	) ) </s>	0
-0.40923586	c ) </s>	0
-0.3922363	h ) </s>	0
-0.3482153	g ) </s>	0
-0.4432761	f ) </s>	0
-0.3776632	d ) </s>	0
-0.25148228	. ) </s>	0
-0.18368973	' ) </s>	0
-0.25102785	b ) </s>	0
-0.30052525	y ) </s>	0
-0.2632744	- ) </s>	0
-0.24509788	v ) </s>	0
-0.4671532	1 ) </s>	0
-0.44637442	8 ) </s>	0
-0.47783256	5 ) </s>	0
-0.48079544	x ) </s>	0
-0.44934228	9 ) </s>	0
-0.43787944	4 ) </s>	0
-0.4542715	7 ) </s>	0
-0.410755	0 ) </s>	0
-0.45718458	2 ) </s>	0
-0.22422157	z ) </s>	0
-0.4552273	3 ) </s>	0
-0.3727092	k ) </s>	0
-0.42384297	6 ) </s>	0
-0.45757216	» ) </s>	0
-0.36529213	" ) </s>	0
-0.37507328	¦ ) </s>	0
-0.039004482	} ) </s>	0
-0.17604892	! ) </s>	0
-0.37910765	% ) </s>	0
-2.967693	<s> c </s>	0
-1.1228093	a c </s>	0
-1.0646769	n c </s>	0
-0.95984834	t c </s>	0
-1.2221246	o c </s>	0
-1.1892087	i c </s>	0
-1.2175733	e c </s>	0
-0.73917127	m c </s>	0
-0.66017854	p c </s>	0
-1.1375902	u c </s>	0
-1.1886017	s c </s>	0
-0.8512308	r c </s>	0
-0.9775932	c c </s>	0
-0.4364692	f c </s>	0
-2.1400964	<s> h </s>	0
-0.9521769	a h </s>	0
-0.846972	n h </s>	0
-1.065248	t h </s>	0
-0.8482284	e h </s>	0
-1.1433146	p h </s>	0
-1.0786163	s h </s>	0
-1.1908083	c h </s>	0
-0.71086925	h h </s>	0
-0.8921826	¢ h </s>	0
-0.967826	g h </s>	0
-0.85844195	d h </s>	0
-0.91679335	z h </s>	0
-1.0150688	k h </s>	0
-0.86511683	ã ¢ </s>	0
-2.5769012	<s> g </s>	0
-1.2846068	a g </s>	0
-1.1001152	n g </s>	0
-1.238837	o g </s>	0
-1.1901066	i g </s>	0
-1.0130674	e g </s>	0
-1.1673979	u g </s>	0
-1.2532172	r g </s>	0
-2.6706796	<s> f </s>	0
-1.2087839	a f </s>	0
-0.920699	n f </s>	0
-0.852162	t f </s>	0
-0.7873895	o f </s>	0
-1.0289646	i f </s>	0
-0.882284	e f </s>	0
-0.7698469	l f </s>	0
-0.5217261	p f </s>	0
-0.8822719	u f </s>	0
-0.9471405	r f </s>	0
-0.55871654	c f </s>	0
-0.52406585	h f </s>	0
-0.78037244	f f </s>	0
-0.40974176	d f </s>	0
-3.5740788	<s> d </s>	0
-1.1068105	a d </s>	0
-0.99639976	n d </s>	0
-1.1337461	o d </s>	0
-1.0270295	i d </s>	0
-0.99743	e d </s>	0
-0.79864633	m d </s>	0
-0.963285	l d </s>	0
-1.0100212	u d </s>	0
-0.76571697	s d </s>	0
-1.0377101	r d </s>	0
-0.5837994	c d </s>	0
-0.63025254	h d </s>	0
-0.6773579	d d </s>	0
-0.8940928	b d </s>	0
-0.9056253	v d </s>	0
-0.97556424	3 d </s>	0
-1.011551	¯ d </s>	0
-1.1673247	ã ¨ </s>	0
-0.019007077	<s> . </s>	0
-0.28088397	a . </s>	0
-0.2652971	n . </s>	0
-0.28207	t . </s>	0
-0.24454485	o . </s>	0
-0.2419737	i . </s>	0
-0.4570073	e . </s>	0
-0.22253075	m . </s>	0
-0.34291762	l . </s>	0
-0.23492278	p . </s>	0
-0.12605189	u . </s>	0
-0.33750936	j . </s>	0
-0.33451182	s . </s>	0
-0.7252297	© . </s>	0
-0.3512535	r . </s>	0
-0.08589898	) . </s>	0
-0.3604246	c . </s>	0
-0.18202093	h . </s>	0
-0.294292	g . </s>	0
-0.20576069	f . </s>	0
-0.29114023	d . </s>	0
-0.5968184	. . </s>	0
-0.20110123	q . </s>	0
-0.16329928	' . </s>	0
-0.24229795	b . </s>	0
-0.11274542	y . </s>	0
-0.3666619	- . </s>	0
-0.17174943	v . </s>	0
-0.71230954	1 . </s>	0
-0.7344568	8 . </s>	0
-0.79498976	5 . </s>	0
-0.20231937	x . </s>	0
-0.7342178	9 . </s>	0
-0.7659615	4 . </s>	0
-0.8374425	7 . </s>	0
-0.80355006	0 . </s>	0
-0.7273346	2 . </s>	0
-0.10579861	z . </s>	0
-0.7681607	3 . </s>	0
-0.098428026	k . </s>	0
-0.7988523	6 . </s>	0
-0.5090668	w . </s>	0
-0.5355784	» . </s>	0
-0.06759624	" . </s>	0
-0.14889595	% . </s>	0
-0.3608333	 . </s>	0
-0.20499922	² . </s>	0
-2.954965	<s> q </s>	0
-0.8370255	n q </s>	0
-0.42398378	c q </s>	0
-1.0073539	n ' </s>	0
-1.29035	l ' </s>	0
-0.828875	s ' </s>	0
-1.269185	d ' </s>	0
-0.53868234	' ' </s>	0
-2.2214248	<s> b </s>	0
-1.1923127	a b </s>	0
-0.83920723	n b </s>	0
-1.3152906	o b </s>	0
-1.0690259	i b </s>	0
-1.0447799	e b </s>	0
-1.0122595	m b </s>	0
-1.1380126	u b </s>	0
-0.9248869	s b </s>	0
-0.685241	d b </s>	0
-0.27459052	<s> y </s>	0
-1.0389514	a y </s>	0
-0.80695367	n y </s>	0
-0.7022148	t y </s>	0
-0.95032674	o y </s>	0
-0.99093944	e y </s>	0
-0.81418294	m y </s>	0
-0.81379795	l y </s>	0
-0.66905516	p y </s>	0
-1.0024382	u y </s>	0
-0.8430428	s y </s>	0
-0.856084	r y </s>	0
-0.8398266	c y </s>	0
-1.1786277	h y </s>	0
-0.85890305	g y </s>	0
-0.8608351	f y </s>	0
-0.8027036	d y </s>	0
-0.3846055	' y </s>	0
-0.64886546	b y </s>	0
-0.48993215	z y </s>	0
-0.95677024	k y </s>	0
-0.6622236	 y </s>	0
-0.16881713	<s> - </s>	0
-2.5017242	<s> v </s>	0
-1.1749688	a v </s>	0
-0.70693904	t v </s>	0
-1.0191289	o v </s>	0
-1.1604125	i v </s>	0
-0.9925921	e v </s>	0
-0.68916583	g v </s>	0
-1.0885893	x v </s>	0
-1.3885252	<s> 1 </s>	0
-0.70943475	, 1 </s>	0
-1.1963149	( 1 </s>	0
-1.0495645	- 1 </s>	0
-0.8087933	1 1 </s>	0
-0.6346736	8 1 </s>	0
-0.7756786	5 1 </s>	0
-0.6399153	9 1 </s>	0
-0.70903057	4 1 </s>	0
-0.633817	7 1 </s>	0
-0.788684	0 1 </s>	0
-0.6960883	2 1 </s>	0
-0.63820505	3 1 </s>	0
-0.65936655	6 1 </s>	0
-0.70728266	<s> 8 </s>	0
-0.6613384	, 8 </s>	0
-0.95949954	( 8 </s>	0
-0.4018204	' 8 </s>	0
-0.7563375	1 8 </s>	0
-0.67860585	8 8 </s>	0
-0.7284221	5 8 </s>	0
-0.63898337	9 8 </s>	0
-0.67885214	4 8 </s>	0
-0.69493777	7 8 </s>	0
-0.63345826	0 8 </s>	0
-0.771526	2 8 </s>	0
-0.65300715	3 8 </s>	0
-0.6747469	6 8 </s>	0
-0.7540502	<s> 5 </s>	0
-0.63357025	, 5 </s>	0
-1.2325416	. 5 </s>	0
-0.82377505	1 5 </s>	0
-0.7366526	8 5 </s>	0
-0.7230806	5 5 </s>	0
-0.68036515	9 5 </s>	0
-0.7544291	4 5 </s>	0
-0.65510166	7 5 </s>	0
-0.65247613	0 5 </s>	0
-0.7856728	2 5 </s>	0
-0.70745224	3 5 </s>	0
-0.27406603	k 5 </s>	0
-0.6741431	6 5 </s>	0
-0.6279979	ã ¹ </s>	0
-0.6667257	<s> x </s>	0
-0.6770796	a x </s>	0
-0.4653047	n x </s>	0
-0.8170291	o x </s>	0
-0.76306146	i x </s>	0
-0.9234602	e x </s>	0
-0.3116171	p x </s>	0
-0.795654	u x </s>	0
-0.7382459	<s> 9 </s>	0
-0.63805044	, 9 </s>	0
-0.9376643	1 9 </s>	0
-0.63826317	8 9 </s>	0
-0.70397174	5 9 </s>	0
-0.6623657	9 9 </s>	0
-0.6593073	4 9 </s>	0
-0.66729563	7 9 </s>	0
-0.6502855	0 9 </s>	0
-0.766446	2 9 </s>	0
-0.69485515	3 9 </s>	0
-0.60166836	6 9 </s>	0
-0.69871515	<s> 4 </s>	0
-0.6893985	, 4 </s>	0
-0.8059782	1 4 </s>	0
-0.6919522	8 4 </s>	0
-0.7282152	5 4 </s>	0
-0.6270524	9 4 </s>	0
-0.684232	4 4 </s>	0
-0.65992445	7 4 </s>	0
-0.6752016	0 4 </s>	0
-0.73243654	2 4 </s>	0
-0.6426201	3 4 </s>	0
-0.6616353	6 4 </s>	0
-0.70886993	<s> 7 </s>	0
-0.6993249	, 7 </s>	0
-0.7528468	1 7 </s>	0
-0.7185015	8 7 </s>	0
-0.681785	5 7 </s>	0
-0.54963493	9 7 </s>	0
-0.6841056	4 7 </s>	0
-0.61939466	7 7 </s>	0
-0.6735843	0 7 </s>	0
-0.78250617	2 7 </s>	0
-0.6826817	3 7 </s>	0
-0.64456934	6 7 </s>	0
-0.5400295	<s> 0 </s>	0
-0.6898407	, 0 </s>	0
-1.3624333	. 0 </s>	0
-0.7855668	1 0 </s>	0
-0.7662608	8 0 </s>	0
-0.7686705	5 0 </s>	0
-0.7217258	9 0 </s>	0
-0.719565	4 0 </s>	0
-0.7259409	7 0 </s>	0
-0.9259774	0 0 </s>	0
-0.85671115	2 0 </s>	0
-0.7050233	3 0 </s>	0
-0.71685493	6 0 </s>	0
-0.8388276	ã ª </s>	0
-1.2530485	<s> 2 </s>	0
-0.63230246	l 2 </s>	0
-0.6853794	, 2 </s>	0
-1.0640807	( 2 </s>	0
-0.7855882	d 2 </s>	0
-0.83386755	- 2 </s>	0
-0.7802351	1 2 </s>	0
-0.69346094	8 2 </s>	0
-0.67199004	5 2 </s>	0
-0.7031026	9 2 </s>	0
-0.7522855	4 2 </s>	0
-0.6931512	7 2 </s>	0
-0.69846135	0 2 </s>	0
-0.8193388	2 2 </s>	0
-0.6869665	3 2 </s>	0
-0.68706363	6 2 </s>	0
-1.405335	<s> z </s>	0
-0.9791225	a z </s>	0
-1.010586	n z </s>	0
-0.8046633	t z </s>	0
-0.8638328	o z </s>	0
-1.0633898	i z </s>	0
-0.75360334	e z </s>	0
-1.2242501	u z </s>	0
-0.7325196	z z </s>	0
-0.055507153	<s> * </s>	0
-0.69295686	* * </s>	0
-0.7716377	<s> 3 </s>	0
-0.67105293	, 3 </s>	0
-0.9318667	( 3 </s>	0
-0.84170896	- 3 </s>	0
-0.745906	1 3 </s>	0
-0.62852806	8 3 </s>	0
-0.7167596	5 3 </s>	0
-0.64169335	9 3 </s>	0
-0.70090306	4 3 </s>	0
-0.67273307	7 3 </s>	0
-0.6747054	0 3 </s>	0
-0.7538694	2 3 </s>	0
-0.655801	3 3 </s>	0
-0.6715689	6 3 </s>	0
-0.011083528	<s> : </s>	0
-0.04638353	a : </s>	0
-0.18380845	n : </s>	0
-0.11442797	t : </s>	0
-0.06641909	i : </s>	0
-0.23751613	e : </s>	0
-0.054619633	l : </s>	0
-0.056402206	s : </s>	0
-0.0816313	) : </s>	0
-0.15506719	v : </s>	0
-0.9600041	ã ¯ </s>	0
-0.7668276	ì ¯ </s>	0
-0.74648297	ã ´ </s>	0
-1.7242757	<s> k </s>	0
-1.0018151	a k </s>	0
-0.93930054	n k </s>	0
-0.9372336	o k </s>	0
-0.89612055	i k </s>	0
-0.7605955	e k </s>	0
-0.99131346	l k </s>	0
-1.0518912	u k </s>	0
-0.704444	j k </s>	0
-1.0291152	s k </s>	0
-1.0534773	r k </s>	0
-0.9570845	c k </s>	0
-1.1731628	<s> 6 </s>	0
-0.6466625	, 6 </s>	0
-0.75889057	1 6 </s>	0
-0.6329658	8 6 </s>	0
-0.6995433	5 6 </s>	0
-0.67503726	9 6 </s>	0
-0.64927995	4 6 </s>	0
-0.64803076	7 6 </s>	0
-0.6685868	0 6 </s>	0
-0.7089413	2 6 </s>	0
-0.65916115	3 6 </s>	0
-0.6729695	6 6 </s>	0
-0.009220229	<s> ; </s>	0
-0.021353824	e ; </s>	0
-0.06603615	s ; </s>	0
-0.015916126	) ; </s>	0
-1.3698905	<s> â </s>	0
-0.43990543	n â </s>	0
-0.34788135	t â </s>	0
-0.31452373	e â </s>	0
-0.38525498	u â </s>	0
-0.3160929	s â </s>	0
-0.40811175	r â </s>	0
-0.110992745	. â </s>	0
-0.28392744	« â </s>	0
-0.4548409	 â </s>	0
-1.0476326	â  </s>	0
-0.37570253	ö  </s>	0
-0.8806417	  </s>	0
-1.7392421	<s> w </s>	0
-0.78657776	a w </s>	0
-0.8458735	o w </s>	0
-0.874732	e w </s>	0
-0.2696667	5 w </s>	0
-0.92596173	/ w </s>	0
-0.6019911	  </s>	0
-0.7123543	<s> \ </s>	0
-0.0771954	<s> + </s>	0
-0.57031244	( + </s>	0
-0.033930272	<s> = </s>	0
-0.3921023	: = </s>	0
-0.5476974	ã « </s>	0
-0.41993263	â « </s>	0
-0.75580704	å « </s>	0
-0.6981001	ã » </s>	0
-0.46392626	â » </s>	0
-0.5255011	  </s>	0
-0.38904852	ï  </s>	0
-0.6676645	ã ® </s>	0
-0.42586884	e " </s>	0
-0.28927612	s " </s>	0
-0.41217455	r " </s>	0
-0.06624055	. " </s>	0
-0.6270561	 ¦ </s>	0
-0.6008469	  </s>	0
-0.044776585	<s> } </s>	0
-0.6502554	a } </s>	0
-0.12476962	<s> ! </s>	0
-0.230139	<s> / </s>	0
-0.22966748	- / </s>	0
-0.18031217	õ ¶ </s>	0
-0.13113487	<s> ? </s>	0
-0.06586943	<s> % </s>	0
-0.10512228	<s> # </s>	0
-0.41683057	* # </s>	0
-0.788756	ã ­ </s>	0
-0.73569715	ã ¡ </s>	0
-0.771406	ã ¤ </s>	0
-0.01861852	<s> < </s>	0
-0.33391333	â ° </s>	0
-0.3362616	ð ° </s>	0
-0.6807529	å  </s>	0
-0.3410388	  </s>	0
-0.7080605	ä  </s>	0
-0.4636458	î ± </s>	0
-0.038209267	<s> | </s>	0
-0.01191526	<s> & </s>	0
-0.55888104	<s> _ </s>	0
-0.46409553	ä  </s>	0
-0.03230495	<s> > </s>	0
-0.19881245	<s> $ </s>	0
-0.38691714	â · </s>	0
-3.024648	<s> a a	-0.37117863
-1.6136616	t a a	-0.07580934
-2.0803535	m a a	0
-1.60966	l a a	0
-1.8128105	s a a	-0.014794079
-1.9231308	r a a	-0.01857267
-1.7666332	c a a	0
-1.7835134	h a a	0
-1.7575033	d a a	0
-1.5770187	b a a	-0.1308689
-1.4788666	v a a	-0.051815778
-1.7001712	k a a	0
-0.8341527	<s> n a	-1.6214112
-1.2435752	a n a	-0.6115686
-1.0424291	n n a	-0.20965084
-1.2586277	o n a	-0.46415746
-1.3318101	i n a	-0.56586504
-1.2782063	e n a	-0.32662266
-0.98963916	m n a	-0.051409245
-1.0254607	l n a	0
-1.1211149	u n a	-0.19355701
-0.86432445	s n a	-0.07707075
-1.1851685	© n a	-0.060601804
-1.3044757	( n a	0
-1.0269808	r n a	-0.2679763
-1.0046387	h n a	0
-0.8471136	g n a	-0.23612148
-1.1101146	y n a	-0.055588786
-0.7920291	- n a	-0.096950464
-1.0426047	® n a	-0.051409245
-1.020266	 n a	-0.030109882
-1.0458193	<s> t a	-1.5973947
-1.1797152	a t a	-0.51748645
-1.2387567	n t a	-0.30056843
-1.1605518	t t a	-0.17146021
-1.0009704	o t a	-0.3386535
-1.1184716	i t a	-0.52563095
-1.2064728	e t a	-0.410214
-1.1245694	l t a	-0.11827801
-0.9760977	p t a	-0.25118792
-1.0623983	u t a	-0.38271734
-0.9766535	s t a	-0.45324713
-1.1716354	© t a	-0.09360825
-1.2544678	( t a	0
-1.2496812	r t a	-0.25094327
-0.9824932	c t a	-0.18942338
-0.9877318	h t a	0
-1.1841512	¢ t a	-0.07959207
-1.1365545	g t a	-0.051409245
-0.874715	- t a	0
-0.8827939	x t a	0
-1.1747146	ª t a	0
-2.434888	<s> o a	-0.49188727
-1.7904932	n o a	0
-1.6665998	i o a	-0.01857267
-1.69669	m o a	0
-1.5484939	l o a	-0.17307939
-1.7238566	j o a	-0.110429145
-1.4823339	( o a	0
-1.482329	r o a	-0.16350076
-1.6955125	c o a	-0.04192325
-1.5935792	' o a	0
-1.4414936	b o a	-0.11720202
-2.5987613	<s> i a	-0.24610914
-1.6944671	a i a	0
-1.3002484	n i a	-0.26680952
-1.4635112	t i a	-0.3564818
-1.5908521	e i a	0
-1.4844042	m i a	-0.11677904
-1.3278563	l i a	-0.4150554
-1.2322012	p i a	-0.11355763
-1.4820716	u i a	0
-1.2814858	s i a	-0.22711806
-1.3007145	r i a	-0.4469679
-1.2193804	c i a	-0.43597472
-1.3740516	h i a	-0.05484937
-1.2465267	g i a	-0.19849966
-1.2326111	f i a	-0.122290276
-1.2821214	d i a	-0.33394992
-1.1984404	b i a	-0.16550083
-1.3278621	v i a	-0.29022074
-1.3423902	z i a	0
-1.6099249	k i a	0
-2.6209893	<s> e a	-0.6281742
-1.451919	n e a	-0.17446685
-1.377836	t e a	-0.26383516
-1.6360182	m e a	-0.21005015
-1.4993513	l e a	-0.15010424
-1.3950466	p e a	-0.21450818
-1.0661541	j e a	-0.57434154
-1.4134823	s e a	-0.13477379
-1.4513446	r e a	-0.25763607
-1.3515238	c e a	-0.24481225
-1.321346	h e a	-0.37065372
-1.3755047	g e a	-0.25647157
-1.4633157	d e a	-0.14089468
-1.3790954	' e a	-0.1267097
-1.273919	b e a	-0.27066687
-1.3533231	y e a	-0.222159
-1.5538659	v e a	-0.63255525
-1.3410615	z e a	-0.39825025
-1.3666316	 e a	-0.051409245
-1.3459796	w e a	-0.030109882
-0.49673986	<s> m a	-2.2002401
-1.0720994	a m a	-0.4300902
-0.7962804	n m a	0
-0.68558395	t m a	-0.35761327
-1.0487145	o m a	-0.30288327
-1.0009017	i m a	-0.3526388
-1.0374049	e m a	-0.26938477
-0.96300155	m m a	-0.2237818
-0.903314	l m a	-0.18720935
-1.005986	u m a	-0.28854242
-0.73066723	s m a	-0.2985853
-1.0510004	© m a	-0.064444244
-1.0817826	( m a	-0.045985676
-0.80767393	r m a	-0.23013057
-0.7310937	h m a	-0.15049638
-0.5704206	g m a	-0.10433546
-0.67850584	f m a	-0.16771007
-0.52004814	d m a	-0.34380132
-0.7275967	y m a	-0.2030426
-0.699271	- m a	-0.29577282
-0.9774961	´ m a	-0.17711902
-0.73744977	k m a	0
-0.49254614	w m a	0
-0.2786717	\ m a	0
-0.5143274	<s> l a	-2.7929885
-1.2500161	a l a	-0.3951877
-1.027704	n l a	-0.046347037
-0.769681	t l a	-0.20742635
-1.133653	o l a	-0.35556796
-1.1411425	i l a	-0.25969142
-1.2404375	e l a	-0.437437
-0.9830692	m l a	0
-0.9882649	l l a	-0.298026
-0.6724073	p l a	-0.523189
-1.1346706	u l a	-0.3743305
-0.69539547	s l a	-0.19098674
-1.0759369	© l a	-0.087606646
-1.1578517	( l a	-0.024944348
-0.9507433	r l a	-0.11574178
-0.73199356	c l a	-0.34505546
-0.93838435	h l a	0
-0.7611375	g l a	-0.2177558
-0.9028249	f l a	-0.2169281
-0.6713604	b l a	-0.27872318
-0.81718177	y l a	0
-0.7894571	- l a	-0.100095704
-1.0441853	v l a	0
-0.79633737	k l a	0
-0.42985404	" l a	-0.16771007
-0.53141695	<s> p a	-2.6853914
-1.0142705	a p a	-0.24187681
-1.051647	o p a	-0.19628306
-0.96328527	i p a	-0.20118374
-1.0868865	e p a	-0.06780887
-1.1057743	m p a	-0.1604926
-0.92691875	l p a	0
-0.926985	p p a	-0.14635678
-0.9222043	u p a	-0.18680093
-0.9949003	s p a	-0.17748971
-1.1084654	© p a	-0.10409372
-0.7996913	( p a	-0.07354808
-1.0888417	r p a	0
-0.90110266	- p a	-0.19328275
-0.8323677	x p a	-0.051409245
-0.4258062	k p a	0
-1.3277568	n u a	-0.19165081
-1.1845287	t u a	-0.43654972
-1.3606553	o u a	-0.3037432
-1.464854	l u a	-0.33578372
-1.662752	j u a	-0.17875043
-1.5665408	s u a	-0.046347037
-1.5515	r u a	-0.09348303
-1.4441972	h u a	-0.052766383
-1.088638	g u a	-0.27620238
-1.3493313	d u a	-0.20910273
-0.8627559	q u a	-0.49861112
-1.7992148	b u a	-0.09823756
-1.0323938	x u a	-0.07959207
-0.6304624	<s> j a	-1.4834418
-0.70161283	a j a	-0.026559344
-0.8612782	n j a	-0.021291943
-0.61690366	o j a	-0.052766383
-0.86368054	i j a	0
-0.52754223	e j a	0
-0.5670851	u j a	0
-0.8991957	( j a	-0.013428128
-0.67359835	d j a	-0.093398154
-0.62432975	- j a	-0.077645294
-0.882431	<s> s a	-2.1108255
-1.2253898	a s a	-0.1955928
-1.3116306	n s a	-0.12778501
-1.3217024	t s a	-0.011335051
-1.2549684	o s a	-0.17716573
-1.229777	i s a	-0.38248727
-1.3670279	e s a	-0.019219507
-1.3863391	m s a	0
-1.133419	l s a	-0.0091870725
-1.3272315	p s a	0
-1.143166	u s a	-0.2649588
-1.1359845	s s a	-0.3251066
-1.2928174	© s a	-0.024944348
-1.4035913	( s a	-0.030109882
-1.2660886	r s a	-0.14595288
-1.0982678	b s a	-0.09823756
-1.1968602	y s a	-0.17152794
-0.8371689	- s a	-0.31444576
-1.6130115	ã © a	-0.40278885
-1.1106721	<s> ( a	-0.9989387
-0.24118641	) ( a	-0.854404
-0.95173925	<s> r a	-1.6519252
-1.3226019	a r a	-0.57664114
-0.7914144	n r a	-0.012293123
-0.78729963	t r a	-0.54103625
-1.2524633	o r a	-0.51054263
-1.0857137	i r a	-0.5346992
-1.3553106	e r a	-0.39340803
-1.0423788	p r a	-0.09712411
-1.1481206	u r a	-0.4019203
-0.9913812	j r a	0
-0.8289902	s r a	-0.01857267
-1.1339713	© r a	-0.08340668
-1.1989354	( r a	0
-0.97494143	r r a	-0.18443406
-0.85246074	c r a	-0.1355703
-0.8370103	h r a	-0.123459786
-0.6723723	g r a	-0.4683049
-0.7086222	f r a	-0.3657734
-0.86017203	d r a	-0.25462136
-0.91149694	b r a	-0.26668906
-0.917763	y r a	-0.115501314
-0.7801231	- r a	0
-0.71843964	v r a	-0.1666208
-0.96985966	k r a	-0.010515514
-0.9720637	<s> c a	-2.1090603
-1.2136482	a c a	-0.164637
-1.1544917	n c a	-0.12376983
-1.0255301	t c a	0
-1.1876695	o c a	-0.2736537
-1.0935929	i c a	-0.47597134
-1.247522	e c a	0
-0.9431888	m c a	0
-0.8225745	l c a	-0.1258989
-1.0647147	u c a	-0.1451211
-1.0580964	s c a	-0.26982352
-1.1683313	© c a	-0.07380729
-1.2418834	( c a	-0.040629003
-1.1178411	r c a	-0.09361737
-0.969697	c c a	-0.09203922
-1.1038995	y c a	0
-0.83056027	- c a	-0.31769094
-1.0711339	: c a	-0.17711902
-0.53663343	<s> h a	-1.3944302
-0.99943316	a h a	-0.12688333
-0.848956	n h a	-0.023105653
-0.9658366	t h a	-0.25111464
-0.8419143	o h a	-0.17424335
-0.6187942	i h a	-0.17207447
-0.9251346	e h a	0
-0.8276669	m h a	-0.1267097
-0.6890292	l h a	-0.09103131
-0.86812854	p h a	-0.3352425
-0.5722143	u h a	-0.14429693
-0.82605	s h a	-0.22585484
-1.0426064	© h a	-0.030109882
-1.1042354	( h a	0
-0.856341	r h a	0
-0.96467364	c h a	-0.5751225
-0.89002925	h h a	-0.07959207
-0.77407455	g h a	-0.20046617
-0.7692406	d h a	-0.15083596
-0.6923085	' h a	-0.10984761
-0.5729362	b h a	-0.11075835
-0.7519717	- h a	-0.101232626
-0.8423051	x h a	-0.051409245
-0.7657037	k h a	-0.11359748
-1.0747316	 h a	-0.030109882
-0.87542653	w h a	-0.1267097
-0.8059498	<s> g a	-1.5715905
-0.9948391	a g a	-0.38001937
-1.1879396	n g a	-0.1954454
-1.033145	o g a	-0.078200646
-1.0064015	i g a	-0.28768966
-0.99515104	e g a	-0.1960605
-0.62729245	l g a	-0.1308689
-0.96722907	u g a	-0.13828284
-1.105042	© g a	-0.036089562
-1.1000882	( g a	0
-1.1337748	r g a	-0.098569945
-0.71323246	d g a	-0.030109882
-0.9221775	- g a	-0.08562372
-0.69302845	<s> f a	-1.8612372
-0.8814099	a f a	-0.13201901
-0.92651284	n f a	-0.07580934
-1.3542856	o f a	-0.037975255
-1.2496594	i f a	-0.038247116
-1.2870781	e f a	-0.030342136
-0.94744194	l f a	-0.01857267
-0.9373898	u f a	-0.01857267
-1.0516568	s f a	-0.13633433
-1.0773983	© f a	-0.07959207
-1.1450117	( f a	-0.022973865
-0.88729966	r f a	-0.09749176
-1.0615153	f f a	-0.049724616
-0.8054448	- f a	-0.11720202
-0.6488277	ã § a	-0.14387992
-1.1832243	<s> d a	-2.1965976
-1.0742788	a d a	-0.43536222
-1.1799326	n d a	-0.2170885
-1.0246532	o d a	-0.11070633
-0.9551036	i d a	-0.3735136
-1.0505967	e d a	-0.13579239
-1.0469627	l d a	-0.028382353
-0.9161158	p d a	0
-1.1259907	u d a	-0.09965761
-0.8701881	s d a	0
-1.1850121	© d a	-0.11601873
-1.1172062	( d a	-0.011335051
-0.9767425	r d a	-0.11148295
-1.0508819	d d a	-0.08511142
-1.0541312	b d a	-0.051409245
-0.84791136	y d a	-0.07207124
-1.157109	- d a	-0.035204176
-1.0776954	¯ d a	0
-2.784476	<s> q a	-0.51108015
-0.6181663	q q a	-0.17711902
-0.89090526	- q a	0
-0.8487695	<s> ' a	0
-1.0913806	n ' a	-0.051409245
-0.90044713	l ' a	-0.22847757
-1.1721327	u ' a	-0.05719238
-0.6542812	j ' a	-0.08511142
-1.2535058	s ' a	-0.15239535
-0.9530975	d ' a	-0.22105007
-0.64276	<s> b a	-1.8326396
-1.0413307	a b a	-0.33935517
-0.78460133	n b a	-0.15834887
-0.8822938	t b a	-0.1267097
-0.89630425	o b a	-0.15635283
-0.9627483	i b a	-0.14584722
-0.95643955	e b a	-0.14084442
-0.95509404	m b a	-0.20016967
-0.7718915	l b a	-0.008156631
-0.8319676	u b a	-0.2344391
-0.928248	s b a	-0.051815778
-1.0355625	© b a	-0.14211953
-0.9762668	( b a	-0.026660457
-0.89407146	r b a	-0.18994264
-0.46332166	h b a	-0.13486779
-0.8827727	d b a	-0.06783138
-0.96711355	b b a	-0.012293123
-1.1131852	y b a	-0.07959207
-0.7846188	- b a	-0.17617987
-0.23346654	\ b a	-0.63255525
-0.95752585	<s> y a	-0.45637804
-1.0197108	a y a	-0.20132463
-0.8065091	n y a	-0.057441916
-1.2666833	t y a	0
-0.88065344	o y a	-0.23777132
-0.409575	i y a	-0.0939491
-1.2844322	l y a	0
-0.89216924	u y a	-0.10246715
-1.3208518	s y a	0
-1.2513028	r y a	-0.0622195
-0.91092885	h y a	0
-0.79503906	g y a	0
-0.3906568	y y a	0
-0.9560021	k y a	0
-1.2652609	a - a	0
-1.2226828	n - a	-0.14466129
-1.3544482	t - a	-0.18211097
-1.1728537	o - a	-0.35113436
-1.217511	i - a	-0.04297655
-1.2956364	e - a	-0.2663269
-1.1005611	l - a	-0.062179714
-1.3291471	s - a	-0.1159888
-1.4078155	r - a	-0.07005563
-1.140213	d - a	-0.19476579
-1.4615654	x - a	-0.024944348
-0.7761035	<s> v a	-1.6927778
-0.8456726	a v a	-0.38752636
-0.8335674	n v a	-0.2150554
-0.8171581	t v a	0
-0.8827232	o v a	-0.14933607
-0.7664137	i v a	-0.4098509
-0.7986452	e v a	-0.44596952
-0.67988545	l v a	-0.15610448
-0.82214534	u v a	-0.16350076
-0.5616623	s v a	-0.024944348
-1.0387672	© v a	-0.05639923
-1.0447745	( v a	-0.021291943
-0.7838595	r v a	-0.13195646
-0.81544536	d v a	-0.037975255
-0.6498352	y v a	-0.13486779
-0.7431278	- v a	-0.11017664
-1.2655121	<s> x a	-0.5687741
-0.8198353	a x a	-0.19393638
-1.522793	o x a	-0.07959207
-1.2597532	i x a	-0.06783138
-1.0819727	e x a	-0.22754897
-0.98196256	<s> z a	-0.13388953
-0.8748876	a z a	-0.10673331
-0.9061539	n z a	-0.16072603
-0.7242102	o z a	-0.008156631
-0.70414215	i z a	-0.014417218
-1.0100722	e z a	0
-0.7006997	l z a	-0.04192325
-0.8178314	u z a	-0.14117855
-0.97648406	© z a	0
-0.715661	r z a	0
-0.5664476	y z a	-0.037975255
-0.943454	z z a	0
-2.8307893	<s> * a	0
-2.685452	<s> : a	0
-1.3705485	ã ¯ a	0
-0.6306763	<s> k a	-0.8227975
-1.0352234	a k a	-0.22429055
-1.022307	n k a	-0.04943564
-0.8855556	o k a	0
-0.8527504	i k a	-0.19667298
-1.0331686	e k a	0
-1.0142449	l k a	-0.016469391
-0.8389983	u k a	0
-0.8049409	s k a	-0.017949753
-1.0013915	r k a	0
-1.1419029	c k a	-0.038270865
-0.52486515	- k a	-0.1736439
-0.7884624	k k a	0
-2.4416587	<s> ; a	0
-1.3670466	  a	-0.09872572
-0.54622287	<s> w a	-0.9253989
-0.55019546	a w a	-0.18478832
-0.48034352	n w a	0
-0.80890465	t w a	-0.016469391
-0.9361254	o w a	-0.06834404
-0.291313	i w a	0
-0.8620436	e w a	-0.16771007
-0.458076	m w a	-0.037975255
-0.34360766	l w a	0
-0.4763336	u w a	0
-0.5010019	s w a	-0.028382353
-0.43950373	r w a	-0.038270865
-0.43901503	h w a	0
-0.6729319	d w a	-0.1267097
-0.44147742	- w a	0
-0.3964818	¯ w a	-0.17711902
-0.7403575	k w a	0
-1.1693467	<s> " a	0
-1.071299	e { a	-0.07959207
-1.3585758	<s> / a	0
-0.9599797	ã ­ a	-0.15499058
-0.713764	¹  a	0
-0.98076886	<s> a n	-1.9660746
-0.9663576	a a n	-0.15056805
-1.3139237	n a n	-0.3922575
-1.1679229	t a n	-0.5883403
-0.9111549	o a n	-0.08171281
-1.1227586	i a n	-0.4186715
-1.1360991	e a n	-0.24147892
-1.0652363	m a n	-0.6183755
-1.1265302	l a n	-0.6261076
-1.1415308	p a n	-0.31965962
-0.94215214	u a n	-0.24106844
-1.0835667	j a n	-0.11870085
-1.1595353	s a n	-0.48001927
-1.3893554	© a n	-0.087606646
-1.4751245	( a n	-0.040629003
-1.2981529	r a n	-0.6669038
-1.189951	c a n	-0.46678585
-1.167412	h a n	-0.3759005
-1.1699095	g a n	-0.2892661
-1.1503022	f a n	-0.15598431
-1.2991172	§ a n	-0.051409245
-1.2087796	d a n	-0.37878862
-1.5120269	' a n	-0.24528539
-1.3187766	b a n	-0.38292652
-0.93145704	y a n	-0.19778359
-1.0740361	- a n	-0.37560815
-1.032963	v a n	-0.3622638
-0.9694721	x a n	-0.051409245
-1.029343	z a n	-0.14549182
-1.1487141	k a n	-0.18663712
-1.1895962	 a n	-0.11455972
-0.99792445	w a n	-0.17713374
-0.6924834	/ a n	-0.14817889
-1.3238213	a n n	-0.678017
-1.3482597	o n n	-0.63390845
-1.4587302	i n n	-0.22567287
-1.2783473	e n n	-0.5394123
-1.4801178	u n n	-0.222159
-3.2790275	<s> t n	0
-0.69703317	<s> o n	-1.6419857
-1.2604587	a o n	-0.20342076
-1.216589	n o n	-0.4505123
-1.0802602	t o n	-0.6445611
-1.1304984	o o n	-0.092447884
-0.99458927	i o n	-0.55525565
-0.92564356	e o n	-0.096950464
-0.96446633	m o n	-0.53779316
-1.2549245	l o n	-0.56173754
-1.111313	p o n	-0.32730338
-0.93952286	u o n	0
-0.95110065	j o n	-0.18056823
-0.93079233	s o n	-0.62605083
-1.3263136	© o n	-0.07172267
-1.325557	( o n	-0.021291943
-1.2659601	r o n	-0.55392146
-1.079748	c o n	-0.50951016
-1.0951097	h o n	-0.40899777
-1.059598	g o n	-0.25923753
-0.9084719	f o n	-0.337782
-1.0327392	§ o n	-0.11874137
-1.0918595	d o n	-0.32073882
-1.1526198	' o n	-0.13885114
-1.1229142	b o n	-0.2968691
-0.87006056	y o n	-0.23388584
-0.98919296	- o n	-0.1722616
-1.2825906	v o n	-0.13296309
-0.76141703	x o n	-0.13487291
-0.77963877	z o n	-0.27771416
-1.2811118	k o n	-0.0571038
-1.2703307	 o n	-0.051409245
-1.3193022	w o n	0
-0.36144647	<s> i n	-2.1860666
-1.1175122	a i n	-0.5310329
-1.310481	n i n	-0.45254585
-1.2677709	t i n	-0.56150866
-0.9786483	o i n	-0.43037528
-1.0492171	e i n	-0.27797797
-1.0571668	m i n	-0.49996722
-1.1016706	l i n	-0.6049725
-1.1115535	p i n	-0.3928756
-1.2035742	u i n	-0.21229039
-1.0257058	j i n	0
-1.2380515	s i n	-0.44757766
-1.1683414	© i n	-0.037975255
-1.2531105	( i n	-0.040629003
-1.2707738	r i n	-0.5250127
-1.0986196	c i n	-0.33797178
-1.1863289	h i n	-0.2768677
-1.043079	g i n	-0.31949505
-1.0448312	f i n	-0.2937783
-1.238437	d i n	-0.45376977
-1.0038818	' i n	-0.29833454
-1.1753044	b i n	-0.19925842
-0.6033914	y i n	0
-0.7020419	- i n	-0.17188045
-1.1540565	v i n	-0.4378296
-1.1554981	x i n	0
-0.96457386	z i n	-0.20244932
-0.94818723	k i n	-0.34351856
-1.2108566	 i n	-0.054631498
-0.9218911	w i n	-0.10901319
-0.4754939	<s> e n	-2.5320077
-1.0533792	a e n	-0.09699865
-1.3236996	n e n	-0.24898818
-1.1510746	t e n	-0.6135135
-1.0029278	o e n	0
-1.1535898	i e n	-0.6139865
-1.063325	e e n	-0.1534431
-1.0588304	m e n	-0.40477788
-1.262132	l e n	-0.36470485
-1.1028571	p e n	-0.34388965
-1.2317853	u e n	-0.23801255
-1.3575314	j e n	0
-1.1728796	s e n	-0.40268356
-1.2778127	© e n	-0.12562364
-1.1489434	( e n	-0.05165312
-1.2633257	r e n	-0.5432029
-1.0829462	c e n	-0.5140456
-1.1195722	h e n	-0.2670165
-1.0646871	g e n	-0.33777806
-1.0318593	f e n	-0.0932189
-1.1349543	d e n	-0.35160047
-0.9549925	' e n	-0.30917227
-1.1632802	b e n	-0.22711807
-0.92068434	y e n	-0.22030179
-0.75196767	- e n	-0.21368903
-1.0166769	v e n	-0.4636796
-0.8450542	x e n	0
-1.0204965	z e n	-0.07574603
-1.1308513	¯ e n	0
-0.9649688	k e n	-0.23218334
-1.2421833	 e n	-0.07959207
-1.0602336	w e n	0
-3.0853915	<s> m n	-0.36903635
-1.6522387	a m n	-0.16951437
-1.5356121	o m n	-0.17152794
-1.9617302	e m n	0
-1.521552	y m n	-0.10973149
-2.0446312	a l n	-0.080242954
-1.7518792	e l n	0
-1.9891977	u l n	-0.13633433
-1.5107576	f l n	0
-3.3435767	<s> p n	-0.20109992
-0.062599	<s> u n	-2.488138
-1.4158813	a u n	-0.164637
-1.2009773	t u n	-0.18811712
-1.3663591	o u n	-0.46327716
-1.4378242	e u n	-0.04580919
-0.921051	m u n	-0.24319495
-1.2360612	l u n	-0.1523507
-1.2863508	p u n	-0.032592732
-0.95023966	j u n	-0.04260627
-1.3864206	s u n	-0.020455942
-0.9423915	© u n	-0.17711902
-1.0029571	( u n	-0.07998249
-1.2013457	r u n	-0.11642926
-1.434218	c u n	-0.072506525
-1.0015262	h u n	-0.097183935
-1.2856591	g u n	0
-0.9168692	f u n	-0.10854398
-1.2441481	d u n	-0.08621119
-0.9609202	' u n	-0.15510137
-1.1820731	b u n	-0.072506525
-0.6648224	- u n	-0.14774583
-0.9012393	* u n	0
-1.0091641	k u n	0
-1.1683095	 u n	-0.0974236
-1.1156807	i j n	0
-3.2175682	<s> s n	-0.20608771
-1.6692749	o s n	-0.013428128
-1.9487336	i s n	-0.11284218
-1.6521608	e s n	-0.13236417
-1.8759083	u s n	0
-1.3274778	ã © n	-0.6876167
-1.6167753	<s> ( n	-0.84287685
-3.2544127	<s> r n	0
-1.3699079	a r n	-0.51735497
-1.298188	o r n	-0.437155
-1.4427904	e r n	-0.52661127
-1.5572933	u r n	-0.29746327
-3.1769238	<s> c n	-0.19016054
-1.3640344	a h n	-0.096981585
-1.662696	t h n	-0.22539793
-0.991889	o h n	-0.14965488
-1.5323646	c h n	-0.2905785
-1.5720181	k h n	0
-0.88880235	ã ¢ n	-0.19228344
-2.3193796	<s> g n	-0.5809593
-1.082019	a g n	-0.7148206
-1.3474894	o g n	-0.28165343
-0.93628764	i g n	-0.6943555
-1.2801988	u g n	0
-1.3013284	© g n	-0.07959207
-1.3280383	r g n	-0.18727754
-1.1069818	¨ g n	-0.07959207
-3.2934215	<s> f n	0
-4.104501	<s> d n	0
-1.761442	a d n	-0.0622195
-1.0867989	ã ¨ n	-0.76977
-2.969066	<s> b n	-0.3048883
-1.4044853	i b n	-0.17083411
-1.4121236	a y n	0
-1.274661	e y n	-0.1722616
-1.2080213	l y n	-0.040866893
-0.9651861	s y n	-0.2613978
-1.4695381	r y n	0
-1.1750551	c y n	-0.06783138
-0.9861062	d y n	-0.22198665
-1.1790704	a - n	-0.18975273
-1.4668256	n - n	-0.1308689
-1.2655969	t - n	-0.10859251
-1.3861048	o - n	-0.07580934
-1.3654116	e - n	-0.289972
-1.2003429	u - n	0
-1.3800774	s - n	-0.2030426
-1.5102657	o v n	-0.222159
-1.1142244	ã ª n	-0.07580934
-1.7322977	a z n	0
-1.5195942	l z n	-0.17711902
-1.2337614	ã ¯ n	-0.12353103
-0.9805665	ã ´ n	-0.13708727
-1.9471339	<s> k n	-0.18238066
-1.2455252	o w n	-0.06780011
-1.6647992	ã » n	-0.07959207
-0.97521603	ã ® n	-0.1562551
-1.5588198	<s> " n	0
-1.0130451	ã ¶ n	0
-0.61678606	ã ³ n	-0.18411191
-0.89459157	ã ­ n	0
-0.82445496	ã ¡ n	-0.09128124
-0.96471477	ã ¤ n	0
-0.97412694	ã ¼ n	0
-0.9539418	ä  n	-0.1722616
-1.588826	<s> a t	-1.5086422
-1.0828614	a a t	0
-1.2262133	n a t	-0.5426053
-1.3601568	t a t	-0.47163832
-1.1266059	o a t	-0.0897539
-1.2365791	i a t	-0.32074553
-1.2140808	e a t	-0.06998685
-1.2153482	m a t	-0.5392679
-1.323321	l a t	-0.5527182
-1.21972	p a t	-0.42186838
-1.1219919	u a t	-0.23302318
-1.3834258	j a t	0
-1.2999718	s a t	-0.2577003
-1.4304545	© a t	-0.07959205
-1.525144	( a t	-0.021291943
-1.3196021	r a t	-0.5417323
-1.1710202	c a t	-0.27663895
-1.294956	h a t	-0.2377809
-1.2033342	g a t	-0.2513083
-1.3267043	f a t	-0.12617378
-1.2138098	d a t	-0.36579913
-1.0121256	q a t	-0.16771007
-1.1970674	' a t	-0.31007943
-1.2961967	b a t	-0.29698867
-1.4038557	y a t	0
-1.2821026	- a t	-0.07580934
-1.4056448	v a t	-0.23810841
-0.9812199	x a t	-0.09702635
-1.2051959	z a t	-0.026660457
-1.2967603	k a t	-0.23318343
-1.4676551	 a t	-0.05828534
-1.2015555	w a t	-0.26230204
-2.9245572	<s> n t	0
-1.2846543	a n t	-0.768937
-1.4160087	o n t	-0.48354694
-1.2718217	i n t	-0.6612698
-1.2538419	e n t	-0.68372035
-1.2828276	u n t	-0.3203533
-1.5452192	y n t	-0.2588793
-1.1865978	a t t	-0.4057447
-1.218205	o t t	-0.426146
-1.267831	i t t	-0.26463327
-1.1740342	e t t	-0.5857073
-1.3065882	u t t	-0.21728307
-1.2899501	h t t	-0.45646393
-2.1192656	<s> o t	-0.6913485
-1.3580341	a o t	0
-1.2489079	n o t	-0.34715265
-1.4005055	t o t	-0.087931365
-1.108747	o o t	-0.06580144
-1.352888	i o t	-0.16656224
-1.2329755	e o t	-0.110429145
-1.2475173	m o t	-0.28434387
-1.241525	l o t	-0.37463307
-1.2778391	p o t	-0.19854836
-1.5160953	u o t	-0.051409245
-1.4287202	s o t	-0.08013371
-1.3876066	© o t	0
-1.3953247	r o t	-0.42066783
-1.3159742	c o t	-0.15394416
-1.4107584	h o t	-0.10383806
-1.1637306	g o t	-0.16034496
-1.3308483	d o t	-0.19971295
-1.5379311	' o t	-0.07959207
-1.373594	b o t	-0.19142734
-1.0512527	y o t	-0.023775768
-1.2436528	v o t	-0.1451211
-1.261356	x o t	-0.17875043
-1.2338619	z o t	-0.062839195
-1.3085229	k o t	-0.12916628
-1.3325951	 o t	-0.17711902
-1.9067627	<s> i t	-0.67562675
-1.0957569	a i t	-0.48664048
-1.2981437	n i t	-0.35436508
-1.2385588	t i t	-0.45024055
-1.0904111	o i t	-0.40391827
-1.356191	i i t	-0.037975255
-1.1111197	e i t	-0.053638287
-1.2662244	m i t	-0.3398683
-1.3748055	l i t	-0.44143033
-1.1931323	p i t	-0.3234845
-1.0341028	u i t	-0.44414443
-1.2431933	j i t	0
-1.2022085	s i t	-0.4157713
-1.2493356	© i t	-0.051409245
-1.3559608	( i t	-0.051409245
-1.263784	r i t	-0.55119526
-1.1347927	c i t	-0.37202513
-1.2950386	h i t	-0.1934857
-1.2907021	g i t	-0.18102728
-1.2726805	f i t	-0.11323589
-1.30883	d i t	-0.42491063
-1.3323838	' i t	-0.06783138
-1.1365126	b i t	-0.24639003
-1.3242503	v i t	-0.31076252
-1.1907063	x i t	-0.080242954
-1.4487879	k i t	0
-1.2963948	 i t	0
-0.93639666	w i t	-0.046688613
-0.44261447	<s> e t	-2.7004929
-1.2544682	a e t	0
-1.3367349	n e t	-0.42008412
-1.5769082	t e t	-0.12152623
-0.95104796	o e t	-0.12916628
-1.2614981	i e t	-0.18826951
-1.1493826	e e t	-0.13474692
-1.2852992	m e t	-0.4620605
-1.3215885	l e t	-0.53586024
-1.2973143	p e t	-0.31136104
-1.3242301	u e t	-0.2497009
-1.0540549	j e t	-0.3880672
-1.3420596	s e t	-0.23655827
-1.1967239	( e t	-0.024944348
-1.3401996	r e t	-0.60568553
-1.3344643	c e t	-0.2876795
-1.4213204	h e t	-0.16389088
-1.3208144	g e t	-0.09358799
-1.1680958	f e t	-0.20744747
-1.5278989	d e t	-0.2945686
-1.4966915	' e t	-0.051815778
-1.2034183	b e t	-0.23610188
-1.587516	y e t	0
-0.85626817	- e t	-0.39802864
-1.1777817	v e t	-0.24087197
-1.1558645	z e t	-0.103399694
-1.1716652	k e t	-0.10973242
-1.3128511	 e t	-0.07959207
-1.3215461	w e t	0
-1.9447823	o m t	-0.062463906
-3.9825633	<s> l t	0
-1.3590128	a l t	-0.46941006
-1.5578899	o l t	-0.2422885
-1.750061	i l t	-0.1066971
-1.4998851	e l t	-0.090632625
-1.2448899	u l t	-0.37618473
-3.312211	<s> p t	-0.34150404
-1.3965533	a p t	-0.23608463
-1.1388614	o p t	-0.5439305
-1.739115	i p t	-0.04750998
-1.1081729	e p t	-0.2550422
-1.4400067	m p t	-0.23765105
-1.6041415	l p t	-0.12562364
-1.3928281	u p t	-0.062839195
-1.8164792	r p t	-0.17711902
-1.3015994	y p t	-0.15718025
-1.1446501	<s> u t	-1.6479535
-1.1183639	a u t	-0.5592841
-1.1590096	n u t	-0.23621091
-1.5833119	t u t	-0.1178338
-1.2817881	o u t	-0.5246327
-1.1118383	e u t	-0.45884088
-1.0376923	m u t	-0.07780721
-1.2771331	l u t	-0.23794305
-1.0139706	p u t	-0.20776846
-1.1761334	j u t	-0.39825025
-1.531757	s u t	0
-0.95791626	© u t	-0.17711902
-1.3609061	r u t	-0.1336929
-1.1860988	c u t	-0.2223798
-1.2308848	h u t	-0.008641232
-1.2989773	g u t	0
-1.2750163	f u t	-0.04750998
-1.6846772	d u t	-0.01857267
-0.8745142	' u t	-0.19393638
-1.1511438	b u t	-0.23610188
-1.2829859	k u t	0
-1.2041545	 u t	-0.07959207
-1.3631625	<s> s t	-1.6061788
-1.112524	a s t	-0.5622537
-1.2056944	n s t	-0.26551035
-1.1703545	o s t	-0.33694145
-1.1829009	i s t	-0.5298561
-1.1599184	e s t	-0.7434839
-1.1148784	m s t	-0.15562235
-1.0725281	l s t	-0.0091870725
-1.1245164	u s t	-0.4862094
-1.2882055	s s t	0
-1.4043456	( s t	-0.011335051
-1.2663902	r s t	-0.121284254
-1.0196377	g s t	-0.01857267
-1.1900716	b s t	-0.2030217
-0.97619814	y s t	-0.23682876
-1.032261	- s t	-0.289972
-0.12441226	0 s t	0
-1.2691959	ã © t	-0.99728775
-1.4885321	<s> ( t	-0.8842515
-3.191116	<s> r t	0
-1.254299	a r t	-0.53554034
-1.3718383	o r t	-0.48602176
-1.4830401	i r t	-0.008641232
-1.436975	e r t	-0.530954
-1.4349691	u r t	-0.37074152
-1.4237177	y r t	0
-1.1300572	¤ r t	-0.051409245
-1.2481825	a c t	-0.55767405
-1.3764733	n c t	-0.18455721
-1.1953068	o c t	-0.40711254
-1.3818636	i c t	-0.2870405
-1.2927171	e c t	-0.58185226
-1.5302267	u c t	-0.22447008
-1.9379008	r c t	-0.17711902
-2.2073193	<s> h t	-0.7081926
-1.4069438	p h t	-0.070417464
-1.7018857	s h t	0
-1.4376509	c h t	-0.1773877
-1.3721406	g h t	-0.038270865
-0.9122967	ã ¢ t	-0.37640235
-3.0786376	<s> g t	0
-1.4968791	n g t	-0.19126244
-1.9218335	i g t	0
-1.1422166	a f t	0
-1.3557255	o f t	-0.069993146
-1.3089994	i f t	0
-1.6791625	e f t	0
-1.8222568	a d t	0
-1.5518486	n d t	-0.07580934
-1.138658	ã ¨ t	-0.46982414
-3.0685046	<s> b t	0
-1.7932323	o b t	-0.222159
-1.8529608	u b t	-0.030109882
-1.4527069	a y t	-0.09702635
-0.9016601	m y t	-0.17083411
-1.4239993	l y t	-0.110429145
-1.4338226	p y t	-0.17711902
-1.1369234	r y t	-0.22198665
-1.4855107	h y t	-0.037975255
-1.1302785	b y t	-0.222159
-1.4048865	a - t	0
-1.3733546	n - t	0
-1.4188312	t - t	-0.319069
-1.3355349	o - t	0
-1.4596214	i - t	-0.038270865
-1.4014875	e - t	-0.10561729
-1.2003429	u - t	-0.024944348
-1.429048	s - t	-0.16125882
-1.5526083	r - t	-0.01857267
-3.0983682	<s> v t	0
-1.6658212	i x t	-0.080242954
-1.2331315	e x t	-0.25972697
-0.59229136	ã ª t	-0.43605354
-2.9063344	<s> * t	0
-1.2337614	ã ¯ t	-0.04192325
-0.9805665	ã ´ t	-0.1808099
-1.1646864	e k t	0
-1.7884525	r k t	0
-1.8675023	e w t	-0.17711902
-0.66486347	ã » t	-0.15225364
-0.84281975	ã ® t	-0.23682876
-1.4395272	<s> " t	0
-2.3513587	<s> a o	-1.1522511
-1.7750535	t a o	0
-1.8534529	m a o	0
-1.8653913	l a o	-0.038270865
-1.8092985	p a o	-0.046347037
-1.8040951	u a o	-0.07959207
-1.6612436	s a o	-0.20910273
-1.5764223	( a o	0
-1.6993709	r a o	-0.15505391
-1.8586415	c a o	0
-1.8572649	h a o	-0.17152794
-1.7427812	f a o	0
-1.6711023	d a o	-0.22198665
-1.8148046	' a o	-0.030109882
-1.78079	y a o	-0.222159
-0.33425447	<s> n o	-2.026093
-1.3041304	a n o	-0.50423104
-1.1978816	n n o	-0.16396701
-1.393826	o n o	-0.2512621
-1.3443453	i n o	-0.4303437
-1.3667073	e n o	-0.23648733
-1.3690023	u n o	-0.074237876
-0.751725	s n o	-0.0571038
-1.1611927	© n o	-0.09065068
-1.2752413	( n o	-0.07959205
-1.0185591	r n o	-0.120122105
-0.99514824	h n o	-0.028793054
-0.89512503	g n o	-0.14684586
-1.1000254	y n o	-0.062839195
-0.6652676	- n o	-0.19328275
-0.7307093	k n o	0
-0.7050984	<s> t o	-1.9653528
-1.1563125	a t o	-0.4781295
-1.3106369	n t o	-0.25716034
-1.2417005	t t o	-0.1499998
-1.177277	o t o	-0.32364532
-1.2497865	i t o	-0.25411642
-1.2566099	e t o	-0.26128072
-1.0750704	l t o	-0.20742635
-0.9896428	p t o	-0.10827555
-1.114855	u t o	-0.22718391
-1.1589993	s t o	-0.282818
-1.211965	© t o	-0.07959205
-1.1005884	( t o	-0.012293123
-1.2770338	r t o	-0.22071676
-1.1014601	c t o	-0.18499756
-1.2367003	h t o	-0.1348757
-1.233461	¢ t o	-0.17711902
-1.4057488	g t o	-0.17711902
-0.86538684	y t o	-0.21076739
-0.84890884	- t o	-0.1722616
-0.92176855	k t o	0
-1.0653446	w t o	-0.17711902
-1.634443	n o o	-0.04192325
-1.7849288	t o o	-0.014794079
-1.8841138	m o o	-0.058750052
-1.4299592	l o o	-0.0500801
-1.7035903	p o o	0
-1.5754758	r o o	-0.02761403
-1.6190157	c o o	-0.15959294
-1.4219576	h o o	-0.0069819773
-1.2931104	g o o	-0.12967646
-1.4039537	f o o	-0.26101366
-1.7646241	d o o	0
-1.5676676	' o o	0
-1.1655135	b o o	-0.34263423
-1.3462641	z o o	-0.051815778
-0.7757138	w o o	-0.2731176
-2.612607	<s> i o	-0.3584719
-1.467195	n i o	-0.15499058
-1.3556349	t i o	-0.34835285
-1.5452077	m i o	-0.022555541
-1.4722472	l i o	-0.32228613
-1.3264402	p i o	-0.17360938
-1.6737697	u i o	-0.037975255
-1.2601845	s i o	-0.3279034
-1.3652956	r i o	-0.4332686
-1.2259562	c i o	-0.3327793
-1.6765484	h i o	-0.038196914
-1.2130482	g i o	-0.25668094
-1.5356823	f i o	0
-1.3183109	d i o	-0.2353026
-1.5210404	' i o	0
-1.146862	b i o	-0.14202067
-1.3781372	v i o	-0.26297167
-1.2121152	x i o	-0.222159
-1.2235264	z i o	0
-1.5470332	k i o	0
-1.8138261	a e o	-0.030109882
-1.9112537	n e o	0
-2.0206227	m e o	0
-1.807361	l e o	-0.09934385
-1.7584897	h e o	-0.014794079
-1.3161714	g e o	-0.19504467
-1.8185284	d e o	-0.120375425
-0.59273314	<s> m o	-2.0960705
-1.1838367	a m o	-0.4536265
-0.7161678	n m o	-0.030109882
-0.7449564	t m o	-0.046347037
-1.1350372	o m o	-0.3113036
-1.0801668	i m o	-0.29085857
-1.1337243	e m o	-0.24002615
-0.9918806	m m o	-0.14604805
-1.0467849	l m o	-0.17193127
-1.2062978	u m o	-0.26748088
-1.1150824	s m o	-0.06499535
-1.1252617	© m o	-0.07959207
-1.1766076	( m o	-0.055325083
-1.0351856	r m o	-0.08469516
-0.95898795	h m o	0
-1.227741	d m o	-0.07959207
-0.85348153	y m o	-0.070417464
-0.705282	- m o	-0.30696014
-1.4800279	<s> l o	-1.6616117
-1.321591	a l o	-0.34783468
-0.83479506	n l o	0
-1.0970551	o l o	-0.31323677
-1.2110503	i l o	-0.160677
-1.3272972	e l o	-0.30427274
-1.1267382	l l o	-0.24568816
-0.86442405	p l o	-0.23506258
-1.3032544	u l o	-0.19113979
-0.9302408	s l o	-0.035854608
-1.1271273	© l o	-0.048011567
-1.2246884	( l o	-0.016469391
-1.0448475	r l o	-0.0889673
-0.94547945	c l o	-0.24645099
-0.9606222	h l o	-0.12632634
-0.9078389	g l o	-0.11901108
-0.78687006	f l o	-0.10082973
-0.8280639	b l o	-0.14878117
-0.97917193	y l o	-0.17398141
-0.9730735	- l o	-0.13477379
-1.1049316	k l o	-0.037975255
-0.685747	® l o	-0.17711902
-0.7439668	<s> p o	-2.4070642
-0.9831731	a p o	-0.40867782
-0.824221	n p o	-0.058750052
-1.1905211	o p o	-0.28780603
-1.1208644	i p o	-0.1520582
-1.2356286	e p o	-0.13885114
-1.1223572	m p o	-0.19627362
-1.0510857	p p o	-0.06513785
-1.1270845	u p o	-0.1910172
-1.0077317	s p o	-0.32305545
-1.1458772	© p o	-0.0974236
-1.2578626	( p o	-0.037975255
-1.1085937	r p o	-0.08315744
-1.0230018	y p o	-0.04368187
-0.8490069	- p o	-0.49284828
-1.1526055	x p o	-0.062463906
-1.9772016	t u o	0
-1.950119	l u o	-0.024944348
-1.6703136	r u o	0
-2.0853055	d u o	0
-1.0560753	q u o	-0.13751511
-0.6125498	<s> j o	-1.4968957
-0.70216006	a j o	-0.23961106
-0.6462962	n j o	-0.17016053
-0.8428353	o j o	0
-0.97648025	i j o	-0.08008014
-0.6768578	e j o	-0.021291943
-0.9003555	u j o	-0.2030217
-0.92718196	© j o	-0.17711902
-1.025643	( j o	0
-0.94248223	d j o	-0.15098763
-0.72024786	- j o	-0.067561015
-0.63274497	<s> s o	-2.3410523
-1.4483728	a s o	-0.149568
-1.2770957	n s o	-0.37341592
-1.3941447	t s o	-0.0571038
-1.4063233	o s o	-0.17349547
-1.3096061	i s o	-0.27103472
-1.5408611	e s o	-0.06571398
-1.2094768	m s o	-0.13486779
-1.3183367	l s o	-0.13486779
-1.2573483	p s o	0
-1.4500698	u s o	-0.026660457
-1.1530635	s s o	-0.25478283
-1.3503585	© s o	-0.072924115
-1.2676827	( s o	-0.069993146
-1.2908698	r s o	-0.1396231
-1.0820669	d s o	-0.523189
-1.2140756	b s o	-0.110429145
-1.3927433	y s o	0
-1.0385513	- s o	-0.2661411
-1.2895286	k s o	-0.051409245
-1.5760006	ã © o	-0.49952048
-1.5970249	<s> ( o	-0.70893323
-0.8945184	<s> r o	-1.7391313
-1.4040929	a r o	-0.3222109
-1.2139089	n r o	0
-0.7886066	t r o	-0.48572505
-1.3261597	o r o	-0.14140071
-1.1824332	i r o	-0.2790545
-1.391867	e r o	-0.34715167
-0.7548179	p r o	-0.48279026
-1.3670328	u r o	-0.2057599
-1.1503314	© r o	-0.106621645
-1.2207257	( r o	-0.024944348
-1.0581357	r r o	-0.18221928
-0.83138	c r o	-0.36912587
-1.1163065	h r o	-0.05165312
-0.7196538	g r o	-0.25104636
-0.8492417	f r o	-0.2497009
-0.8969073	d r o	-0.26072866
-0.888489	b r o	-0.18619658
-0.8714653	y r o	-0.17207447
-0.6981065	- r o	-0.2772508
-0.8811617	v r o	-0.07580934
-0.7830447	k r o	-0.021291943
-0.9232731	w r o	0
-0.3744383	<s> c o	-2.694613
-1.1898112	a c o	-0.18929441
-1.1476102	n c o	-0.21971379
-1.1563025	o c o	-0.30120724
-1.0910583	i c o	-0.47776634
-1.1469452	e c o	-0.18647376
-1.2654711	m c o	0
-0.9795182	l c o	-0.040866893
-1.3066615	u c o	-0.13158613
-1.0193423	s c o	-0.28330594
-1.1515198	© c o	-0.062463906
-1.2210116	( c o	-0.06728909
-1.0609936	r c o	-0.14363144
-1.1155481	c c o	-0.10730229
-1.1426482	h c o	-0.07959207
-0.9396193	¢ c o	-0.17711902
-0.41754186	. c o	-0.6448313
-0.8717358	y c o	0
-0.8068763	- c o	-0.48448598
-0.78404534	* c o	-0.06783138
-1.0239195	" c o	0
-0.7629192	<s> h o	-1.5238279
-1.320627	a h o	-0.04297655
-0.86201763	n h o	-0.06896502
-1.0781848	t h o	-0.34837553
-1.1324837	o h o	0
-1.3279114	e h o	-0.037975255
-0.7580821	l h o	-0.034455925
-0.8513967	p h o	-0.36440086
-1.0854896	u h o	-0.051409245
-0.9345518	s h o	-0.10175751
-1.1601557	( h o	-0.016469391
-0.7407173	r h o	-0.06780011
-1.0894921	c h o	-0.42074004
-1.0341482	g h o	-0.030342136
-0.9303606	d h o	-0.013428128
-1.0929813	' h o	-0.2030217
-1.0960636	b h o	-0.037975255
-0.6390676	- h o	-0.09144535
-0.738043	z h o	-0.06783138
-0.88530314	k h o	-0.0063703842
-1.1174811	 h o	-0.037975255
-0.89537525	w h o	-0.051815778
-1.0638224	<s> g o	-1.3041263
-1.1185665	a g o	-0.3525587
-1.1277515	n g o	-0.21595512
-1.0124868	t g o	-0.037975255
-1.0771928	o g o	-0.20244932
-1.0580293	i g o	-0.29164654
-0.9721384	e g o	-0.09723875
-0.8928715	l g o	-0.014794079
-1.2882786	u g o	-0.10045467
-1.2925273	s g o	-0.17711902
-1.1479235	© g o	-0.062463906
-1.1541008	( g o	0
-1.0862668	r g o	-0.10161795
-0.98214954	- g o	-0.089288495
-0.6401075	<s> f o	-2.2346816
-1.2979995	a f o	-0.046347037
-1.0345749	n f o	-0.18118967
-0.9832538	t f o	0
-1.1121132	o f o	-0.09702635
-1.0751938	i f o	-0.19843298
-1.0873734	e f o	-0.4460591
-0.556009	m f o	0
-1.0443574	l f o	-0.038270865
-1.0720012	u f o	-0.051815778
-0.7276778	s f o	-0.20181459
-1.1038731	© f o	-0.037975255
-1.1856247	( f o	-0.037975255
-1.0554284	r f o	-0.110429145
-1.2903205	f f o	-0.16962992
-0.9252489	- f o	-0.39818278
-0.8587214	x f o	-0.17711902
-0.6511748	ã § o	-0.31383812
-1.4154098	<s> d o	-1.9559002
-1.1306641	a d o	-0.3865364
-1.2510008	n d o	-0.18778387
-0.9133775	o d o	-0.23413515
-0.98013175	i d o	-0.28812534
-1.0804976	e d o	-0.31001413
-1.1978076	l d o	-0.043938573
-1.00766	u d o	-0.14885598
-1.231735	© d o	-0.069993146
-1.1604285	( d o	-0.04750998
-1.225517	r d o	-0.12301371
-0.9117037	c d o	-0.080242954
-1.2331231	b d o	-0.080242954
-0.8612298	y d o	-0.120375425
-1.0780092	- d o	-0.14760368
-1.4817454	n ' o	-0.051409245
-1.1595621	l ' o	-0.189244
-1.2183074	u ' o	-0.021291943
-1.5109165	s ' o	-0.10973149
-1.0683404	g ' o	-0.17711902
-1.1847805	d ' o	-0.11693619
-0.7938279	<s> b o	-1.7797803
-1.0415611	a b o	-0.4002578
-1.0411061	n b o	0
-1.0462279	t b o	0
-1.154939	o b o	-0.03501709
-1.0104715	i b o	-0.0597987
-0.9010607	e b o	-0.16608717
-1.0489565	m b o	-0.1645373
-0.9801	l b o	0
-1.181298	u b o	-0.035204176
-0.77722144	s b o	-0.43381238
-1.1148715	© b o	-0.030109882
-1.22726	( b o	-0.0091870725
-1.0060335	r b o	-0.10090565
-0.8635212	g b o	0
-1.0283021	b b o	0
-0.67934656	y b o	-0.058750052
-0.79382914	- b o	-0.26483408
-0.73179525	x b o	-0.3063647
-0.7359129	<s> y o	-0.79237884
-1.2289916	a y o	-0.092447884
-0.9739436	o y o	-0.13708727
-0.80753183	i y o	0
-1.6449683	e y o	0
-1.555081	l y o	-0.1267097
-0.931765	u y o	0
-1.2482592	r y o	-0.1066971
-0.97838575	' y o	0
-0.5996803	- y o	-0.06783138
-0.9057301	k y o	-0.06834404
-1.4688106	n - o	-0.07580934
-1.4199246	t - o	-0.05171412
-1.3870682	o - o	-0.082729615
-1.4852415	e - o	-0.33444014
-1.4855682	s - o	-0.07580934
-1.3188215	r - o	0
-1.2461596	d - o	-0.09823756
-1.3760371	y - o	-0.09823756
-1.340607	x - o	0
-0.7276454	<s> v o	-1.8391141
-0.9382176	a v o	-0.2825788
