\data\
ngram 1=151
ngram 2=2547
ngram 3=13714
ngram 4=34297
ngram 5=47986

\1-grams:
-3.2577639	<unk>	0
0	<s>	-4.0832305
-1.6143938	</s>	0
-1.7517064	a	-1.1672769
-1.7269268	n	-0.99295443
-1.7646472	r	-0.9745117
-1.8011692	c	-0.9316871
-1.8256605	h	-0.8613269
-1.8516158	i	-1.072511
-1.7309598	s	-1.0715147
-1.7825243	m	-0.94785666
-1.8410468	p	-0.93222773
-1.8569984	o	-1.1632816
-1.8206505	l	-0.87944186
-1.8059583	t	-1.0146054
-1.9536557	y	-0.98940235
-1.8059583	d	-0.9154117
-1.9026436	v	-0.75864697
-1.8156977	e	-1.0693706
-1.8516158	f	-0.88435274
-1.8059583	-	-1.0611202
-1.8966686	g	-0.8730142
-1.8206505	b	-0.8839456
-1.8966686	u	-1.0499964
-1.7825243	.	-1.0197212
-1.7073052	,	-0.6886777
-1.94033	w	-0.77827954
-1.9744438	x	-0.5496857
-1.8516158	"	-0.6960928
-1.8792216	k	-0.9283218
-1.9674033	(	-0.73816454
-1.9744438	;	-0.3505935
-2.0872812	á	-0.60728294
-2.6752157	¼	-0.103461996
-2.525909		-0.16582972
-2.0192664	î	-1.0955985
-2.7124	½	-0.0697563
-1.7269268	)	-0.7836414
-2.043541	ä	-0.59419143
-2.579638		-0.21777964
-2.6092203	¯	-0.0704831
-2.6409655	¶	-0.08870206
-2.6409655	µ	-0.11052352
-2.7530684	¹	-0.085512824
-1.9674033	z	-0.7199667
-1.8966686	1	-0.8864255
-2.0038059	5	-0.7685539
-1.9744438	3	-0.75279176
-2.0872812	9	-0.7250714
-1.8735583	ã	-0.9105558
-2.7124	©	-0.17648609
-1.9674033	j	-0.6953891
-2.027208	8	-0.7357955
-1.9962771	0	-0.6994992
-2.060512	6	-0.73459196
-1.9274011	'	-0.77390885
-1.9816003	:	-0.48652983
-1.8206505	â	-0.72089857
-2.0352979	7	-0.7425445
-1.9888767	4	-0.7215969
-1.9338175	2	-0.83774006
-2.0781736	q	-0.35146096
-2.1791887	?	-0.5554281
-2.6092203	³	-0.14137508
-2.6092203	±	-0.14310403
-2.7124	¦	-0.04238629
-2.8479934		-0.12672967
-2.7124	®	-0.019363692
-2.3599298	%	-0.4910642
-2.7979426	­	-0.09818342
-2.6409655	¡	-0.16845058
-3.0462122		-0.026014986
-1.8516158	/	-0.8608592
-2.3267446	*	-0.27135187
-2.3430204	&	-0.085963115
-2.3599298	!	-0.3790508
-2.551943	$	-0.26846236
-2.525909		-0.07236434
-2.0965838	ï	-0.8827425
-2.6752157		-0.083306625
-2.551943		-0.16171059
-2.551943		-0.0898615
-2.1679623	+	-0.18031907
-2.0519438	<	-0.54171777
-2.3267446	>	-0.18177243
-2.525909	°	-0.105821885
-2.525909		-0.05993436
-2.7979426		-0.07499336
-2.579638	¸	-0.07045296
-2.295916	{	-0.5259515
-1.9962771	\	-0.8426671
-2.227244	_	-0.47051093
-2.0692532	}	-0.6801743
-2.0781736	=	-0.30881205
-2.2147224	^	-0.29823375
-2.295916	é	-0.2743795
-2.6092203		0
-2.5013475	¥	-0.07067454
-2.3599298	ç	0
-2.7979426	»	-0.0691301
-2.5013475		-0.14066738
-2.7530684	º	-0.018554028
-2.7979426		0
-2.6752157		-0.07848008
-2.579638	·	-0.07001611
-2.7124	è	-0.11626671
-2.904573	¢	-0.013854264
-2.6092203	§	-0.11432708
-2.7124	«	-0.15456684
-2.5013475	£	-0.10253543
-2.8479934		0
-2.7124	¤	-0.041008495
-2.7979426		-0.08463504
-2.579638	ì	-0.008606957
-2.579638		-0.085631005
-2.395862	ê	-0.21396337
-2.7124		0
-2.7979426	´	-0.0736081
-2.7530684	¬	-0.013313151
-2.7124	ª	0
-2.1679623	ð	-0.7023836
-2.8479934	¨	-0.079091676
-2.579638		-0.082696296
-2.6752157	²	-0.15432765
-2.6752157		-0.07805993
-2.6409655	¾	-0.048180763
-2.7530684		-0.12961599
-2.6409655	¿	-0.09282432
-2.0192664	å	-0.3902554
-2.7979426		0
-2.7530684		-0.030559156
-2.6752157		-0.07292001
-2.7530684		0
-2.2812853	ñ	-0.33602065
-2.395862	#	-0.15796342
-2.3110569	|	-0.16502345
-2.478101	~	-0.15829994
-2.7124		-0.034531906
-2.6752157		-0.08087947
-2.3430204	ø	-0.21512102
-2.395862	ù	-0.15327539
-2.9696438		-0.030702794
-3.0462122	[	0
-2.5013475	]	-0.2915781
-2.6092203		0
-2.579638		-0.050765667
-2.3430204	×	-0.026280398
-2.4350379	à	-0.19090031
-2.7530684	õ	0
-2.551943	ö	0
-2.6092203	æ	0

\2-grams:
-1.3907895	a </s>	0
-1.2099307	n </s>	0
-1.2510083	r </s>	0
-1.2552749	c </s>	0
-1.2842145	h </s>	0
-1.4151729	i </s>	0
-1.3023323	s </s>	0
-1.2098649	m </s>	0
-1.2657429	p </s>	0
-1.3948432	o </s>	0
-1.3354608	l </s>	0
-1.3875237	t </s>	0
-1.4009805	y </s>	0
-1.2901248	d </s>	0
-1.2085392	v </s>	0
-1.4247066	e </s>	0
-1.174194	f </s>	0
-1.4334333	- </s>	0
-1.2586856	g </s>	0
-1.2318164	b </s>	0
-1.4119737	u </s>	0
-1.0311673	. </s>	0
-0.5749661	, </s>	0
-1.2479352	w </s>	0
-0.9789138	x </s>	0
-0.8447581	" </s>	0
-1.2767386	k </s>	0
-1.740494	( </s>	0
-0.32860848	; </s>	0
-1.0345701	¼ </s>	0
-0.70489365	 </s>	0
-0.8549789	½ </s>	0
-0.802158	) </s>	0
-1.0585699	 </s>	0
-0.8260753	¯ </s>	0
-0.9170553	¶ </s>	0
-0.77863675	µ </s>	0
-0.79480827	¹ </s>	0
-1.1936316	z </s>	0
-1.1569443	1 </s>	0
-1.1799186	5 </s>	0
-1.1154065	3 </s>	0
-1.1742235	9 </s>	0
-1.5625736	ã </s>	0
-0.9606696	© </s>	0
-1.2396667	j </s>	0
-1.1530378	8 </s>	0
-1.1692235	0 </s>	0
-1.1042243	6 </s>	0
-0.98930156	' </s>	0
-0.70283794	: </s>	0
-0.6203876	â </s>	0
-1.1891944	7 </s>	0
-1.1207862	4 </s>	0
-1.1505085	2 </s>	0
-0.97652036	q </s>	0
-0.5684618	? </s>	0
-0.7442909	³ </s>	0
-0.840416	± </s>	0
-1.225891	¦ </s>	0
-1.0369881	 </s>	0
-0.6890581	% </s>	0
-1.0028759	­ </s>	0
-0.85437083	¡ </s>	0
-1.1286478	/ </s>	0
-0.9556789	* </s>	0
-1.2696745	& </s>	0
-0.54223144	! </s>	0
-1.096314	$ </s>	0
-0.7593175	 </s>	0
-1.0824468	ï </s>	0
-0.86171234	 </s>	0
-0.50784004	 </s>	0
-0.93657535	 </s>	0
-0.99462306	+ </s>	0
-1.6497257	< </s>	0
-0.70316607	> </s>	0
-0.9269397	° </s>	0
-0.8800247	 </s>	0
-1.0314027	 </s>	0
-0.9825075	¸ </s>	0
-1.3715894	{ </s>	0
-1.1329316	\ </s>	0
-0.81722397	} </s>	0
-0.94264966	= </s>	0
-0.9062815	¥ </s>	0
-0.80502456	» </s>	0
-0.8203114	 </s>	0
-0.79297495	 </s>	0
-0.90617186	· </s>	0
-0.77906555	§ </s>	0
-0.98731863	« </s>	0
-0.6843588	£ </s>	0
-1.2420732	¤ </s>	0
-0.8540113	 </s>	0
-0.70135945	 </s>	0
-0.8931898	´ </s>	0
-0.86109483	¨ </s>	0
-0.7850605	 </s>	0
-0.79398763	² </s>	0
-0.8369336	 </s>	0
-0.9926568	¾ </s>	0
-0.82976526	 </s>	0
-0.72359353	¿ </s>	0
-0.9242956	 </s>	0
-1.1213006	# </s>	0
-0.7919917	| </s>	0
-1.0695388	~ </s>	0
-1.0049077	 </s>	0
-1.0080187	 </s>	0
-1.0206112	ù </s>	0
-0.29980165	] </s>	0
-0.8607088	<s> a	-3.2978003
-1.7047852	a a	-0.51585984
-1.2710634	n a	-0.9269551
-1.2800667	r a	-0.9751697
-1.2878462	c a	-0.83888
-1.2609693	h a	-0.89008725
-1.5687727	i a	-0.86609113
-1.441169	s a	-0.7874197
-1.1661843	m a	-0.91843086
-1.2818279	p a	-0.7288039
-1.6300325	o a	-0.54540575
-1.2678614	l a	-0.98568624
-1.3757253	t a	-0.7970273
-1.370968	y a	-0.6392973
-1.2455992	d a	-0.8088087
-1.0517088	v a	-0.60568815
-1.5371499	e a	-0.72783685
-1.2641052	f a	-0.65045565
-1.4496206	- a	-0.694536
-1.2656944	g a	-0.6998661
-1.2117292	b a	-0.83181596
-1.5541455	u a	-0.48584664
-1.5639083	. a	-0.2107379
-1.5411655	, a	0
-1.0595617	w a	-0.77766484
-1.3998317	x a	-0.29829195
-1.6528676	" a	-0.21698424
-1.2520415	k a	-0.7290232
-1.3054568	( a	-0.15432028
-1.9579711	; a	-0.014494801
-1.7702456	) a	0
-1.5282562	 a	-0.036853652
-1.150233	z a	-0.48100966
-2.0158036	3 a	0
-1.7101132	© a	-0.020057548
-1.0046872	j a	-0.56551856
-1.3633027	' a	-0.22541475
-1.4477149	: a	-0.02781415
-2.161787	7 a	0
-1.9106811	2 a	0
-1.0839633	q a	-0.16308086
-1.7345103	± a	0
-1.5065913	 a	-0.04875848
-1.4740475	­ a	-0.014494801
-1.7558227	¡ a	0
-1.5055823	 a	0
-1.4226502	/ a	-0.1626889
-1.6752007	* a	-0.17251739
-1.678953	 a	-0.032552328
-1.4455351	> a	0
-1.5980495	 a	-0.19454797
-1.3459637	{ a	-0.032920692
-1.4728646	\ a	-0.35942757
-1.2205541	_ a	-0.13074997
-1.9909608	} a	-0.05569369
-1.2517812	= a	0
-1.6256808	§ a	-0.043968905
-1.4734955	 a	0
-1.5126597	 a	0
-1.5274994	 a	0
-1.7227708	<s> n	-2.4723141
-1.46518	a n	-1.075673
-1.7139287	n n	-0.41806993
-1.652086	r n	-0.4132729
-1.7962286	c n	-0.17760585
-1.6269579	h n	-0.37690508
-1.3622907	i n	-1.0246445
-1.7778996	s n	-0.3824676
-1.6870866	m n	-0.3189466
-1.787168	p n	-0.21647038
-1.380583	o n	-1.0017202
-1.7344773	l n	-0.31702867
-1.8285993	t n	-0.45505792
-1.5617864	y n	-0.49552816
-1.7231144	d n	-0.4489656
-1.8295003	v n	-0.07054126
-1.4302009	e n	-1.0826895
-1.8177505	f n	-0.16966362
-1.6067208	- n	-0.51844627
-1.6693723	g n	-0.3358326
-1.7468076	b n	-0.29861683
-1.3630489	u n	-0.8454206
-1.6334198	. n	-0.29436865
-1.7070746	, n	0
-1.9552093	w n	-0.18866092
-2.0151985	" n	-0.17086357
-1.5781385	k n	-0.504149
-1.4031787	( n	-0.1637816
-1.9400557	; n	0
-1.6816076	¼ n	-0.032552328
-2.3417099	) n	0
-1.387074	 n	-0.07880568
-1.6263703	¶ n	-0.014494801
-1.6373178	z n	-0.11670631
-1.6949477	© n	-0.0132682575
-1.7181426	j n	-0.0088003315
-1.8085786	' n	-0.12901658
-1.6210794	2 n	-0.56267214
-1.5410396	³ n	-0.03778429
-1.7172292	± n	0
-1.6634936	 n	-0.041086506
-1.6324788	­ n	-0.014494801
-1.5918711	¡ n	-0.047012687
-1.5628381	/ n	-0.12626845
-1.6639022	* n	-0.12846088
-0.96446127	< n	-1.0344237
-1.6913333	> n	-0.041086506
-1.6682813	° n	0
-1.6648886	¸ n	-0.041086506
-1.4400415	{ n	-0.25825265
-1.5034573	\ n	-0.4489656
-1.4260887	_ n	-0.2075428
-1.5355561	^ n	-0.22175205
-1.5836682	 n	-0.048852503
-1.4702759	¢ n	0
-1.2651913	« n	-0.025386306
-1.60358	¤ n	0
-1.56795	´ n	0
-1.5544685	¨ n	-0.19454797
-1.5018831	 n	0
-1.6575686	 n	0
-1.5451354	<s> r	-2.6431897
-1.4228427	a r	-1.020621
-1.8110636	n r	-0.20539266
-1.7398229	r r	-0.29608727
-1.4395539	c r	-0.55459344
-1.5277424	h r	-0.36913463
-1.5220059	i r	-0.7795489
-1.8427314	s r	-0.3820188
-1.6908193	m r	-0.3269254
-1.2924501	p r	-0.7051605
-1.3727703	o r	-1.0301415
-1.739357	l r	-0.32067752
-1.3948698	t r	-0.84494764
-1.564325	y r	-0.45638186
-1.4613208	d r	-0.6013305
-1.6098388	v r	-0.30531275
-1.5378135	e r	-1.0137733
-1.2885829	f r	-0.62400955
-1.5574701	- r	-0.609414
-1.2774075	g r	-0.71232563
-1.3186392	b r	-0.6776881
-1.4076325	u r	-0.8895261
-1.7218677	. r	-0.3135793
-1.2740936	w r	-0.42091298
-2.1449406	x r	-0.086470075
-1.9402775	" r	-0.12428225
-1.5213956	k r	-0.5207117
-1.6019267	( r	-0.11951399
-1.6651133	; r	0
-1.7080454	¼ r	-0.041086506
-1.532897	 r	0
-1.650389	¶ r	-0.021428224
-1.9674914	z r	-0.12901658
-1.5994847	3 r	-0.6708144
-1.5321264	© r	-0.07497665
-1.7916927	j r	-0.020057548
-1.6219925	' r	-0.1346678
-2.0591483	: r	0
-2.2989554	2 r	0
-1.574568	q r	-0.032552328
-1.7222313	³ r	0
-1.6874609	 r	0
-1.6563064	­ r	0
-1.7646449	¡ r	0
-1.5879266	/ r	-0.16782777
-1.6809621	* r	-0.21610342
-1.6923695	¸ r	-0.014494801
-1.5045367	{ r	-0.16531785
-1.2367429	\ r	-0.63754004
-1.6356974	_ r	0
-1.6355845	¥ r	-0.06774381
-1.6028769	 r	0
-1.4169958	« r	-0.04857861
-1.6290585	¤ r	0
-1.5751998	¨ r	-0.19454797
-1.538021	² r	0
-1.5181499	 r	0
-1.683915	 r	0
-1.2909151	<s> c	-2.918705
-1.5430208	a c	-0.73379076
-1.7207128	n c	-0.43479806
-1.5709742	r c	-0.46584758
-1.6145558	c c	-0.4345411
-1.8806155	h c	-0.33305848
-1.5589591	i c	-0.83275706
-1.5091813	s c	-0.6904099
-1.7412264	m c	-0.21824051
-1.7080647	p c	-0.11605149
-1.5453612	o c	-0.70775324
-1.8298063	l c	-0.21746366
-1.7426963	t c	-0.34526262
-1.6058531	y c	-0.36213094
-1.876783	d c	-0.15485896
-1.6514916	v c	0
-1.5981971	e c	-0.77525246
-1.7166353	f c	-0.14926338
-1.4612967	- c	-0.7762115
-1.8493156	g c	-0.072255544
-1.6501878	b c	-0.26785332
-1.5900472	u c	-0.6833285
-1.6387099	. c	-0.5063031
-1.5844244	, c	0
-1.8287796	w c	-0.1134565
-1.7824224	x c	-0.24409777
-1.8752607	" c	-0.24428268
-1.8805829	k c	0
-1.4323928	( c	-0.18442132
-1.4332565	; c	0
-1.7329777	¼ c	0
-1.8603375	 c	-0.0132682575
-1.7824888	z c	0
-1.7393717	© c	-0.032552328
-1.7318425	j c	0
-1.9842038	0 c	0
-1.7646351	' c	-0.11267921
-1.6696942	: c	-0.028666526
-1.7099355	 c	-0.023000067
-1.7890866	¡ c	0
-1.5485524	/ c	-0.28150198
-1.6967103	* c	-0.108541116
-1.3299859	& c	0
-1.9011557	< c	-0.05569369
-1.8587613	> c	-0.086470075
-1.7177212	° c	-0.10035828
-1.4506714	{ c	-0.052349146
-1.2202809	\ c	-0.49587125
-1.4964268	_ c	0
-1.5167847	¬ c	-0.05569369
-1.3464423	# c	0
-1.4708378	<s> h	-2.7010849
-1.6352661	a h	-0.6118525
-1.549438	n h	-0.35273364
-1.6798948	r h	-0.51407194
-1.2228258	c h	-0.83578926
-1.9284891	h h	-0.04857861
-1.7400119	i h	-0.413404
-1.5102136	s h	-0.73601854
-1.9274766	m h	-0.22581705
-1.3859591	p h	-0.6376742
-1.5734668	o h	-0.6201342
-1.8023236	l h	-0.4100294
-1.2521772	t h	-0.8885506
-1.8494648	y h	-0.13307804
-1.6057078	d h	-0.3869943
-2.2127306	v h	0
-1.6674571	e h	-0.4859082
-2.2240143	f h	-0.023000067
-1.5484617	- h	-0.7066157
-1.5784918	g h	-0.4176089
-1.7024568	b h	-0.16776378
-1.6090399	u h	-0.14718841
-1.6402782	. h	-0.42136467
-1.1563123	w h	-0.8078969
-1.7889032	x h	-0.18333633
-1.9577978	" h	-0.22379072
-1.4722693	k h	-0.45438087
-1.5427098	( h	-0.21012734
-1.74932	¼ h	-0.032552328
-1.877188	 h	0
-1.6876103	¶ h	-0.041086506
-1.4401418	z h	-0.3705776
-1.7683353	' h	-0.36436585
-1.9636481	: h	0
-1.7245967	 h	-0.032552328
-1.5114417	/ h	-0.08561599
-1.8523445	* h	-0.10521915
-1.7698952	{ h	0
-1.9464605	\ h	-0.6194504
-1.7909569	 h	-0.023000067
-1.7297385	 h	-0.041086506
-1.200325	<s> i	-3.1023073
-1.6478488	a i	-0.77185124
-1.3393828	n i	-0.8159872
-1.2998883	r i	-0.9405841
-1.406457	c i	-0.7322861
-1.3070492	h i	-0.68626684
-1.6422093	i i	-0.4715253
-1.4720967	s i	-0.7732582
-1.2332252	m i	-0.731609
-1.4132588	p i	-0.68863976
-1.5471795	o i	-0.569834
-1.2142762	l i	-0.92571217
-1.3793714	t i	-0.8832907
-1.5332167	y i	-0.3360707
-1.2409327	d i	-0.7649969
-1.1420137	v i	-0.65658325
-1.626759	e i	-0.7131049
-1.2128894	f i	-0.7076214
-1.5263475	- i	-0.4918604
-1.2808596	g i	-0.6256766
-1.181857	b i	-0.753602
-1.6289011	u i	-0.51878357
-1.869536	. i	-0.16990235
-1.1706319	w i	-0.6647274
-1.3335344	x i	-0.3821443
-2.0597906	" i	-0.14072025
-1.3090117	k i	-0.61294025
-1.3490837	( i	-0.3030824
-1.7364037	 i	0
-1.2511078	z i	-0.47985804
-1.1970497	j i	-0.39784116
-1.3919266	' i	-0.26824066
-1.5076844	: i	-0.025386306
-1.1827736	q i	-0.09072111
-1.54626	 i	-0.05569369
-1.6494043	¡ i	0
-1.5131285	/ i	-0.114306666
-1.8669299	* i	-0.04682102
-1.3744333	> i	0
-1.5176307	{ i	-0.0105819795
-1.5488176	\ i	-0.4600098
-1.3456092	_ i	-0.21657951
-1.4654052	§ i	0
-1.5526339	 i	0
-1.2266092	<s> s	-2.9879544
-1.5223881	a s	-0.9157518
-1.5883	n s	-0.6914743
-1.5508819	r s	-0.47058153
-1.5550381	c s	-0.48261264
-1.5630851	h s	-0.31765607
-1.4776791	i s	-0.86607444
-1.6080806	s s	-0.5956553
-1.539965	m s	-0.4828601
-1.4958154	p s	-0.545949
-1.4931141	o s	-0.8281932
-1.4606324	l s	-0.48061568
-1.4884595	t s	-0.69220006
-1.5264236	y s	-0.5622882
-1.5631201	d s	-0.6415534
-1.4581965	v s	-0.15227647
-1.4752502	e s	-0.84683955
-1.6481994	f s	-0.22842947
-1.543633	- s	-0.7867247
-1.5086004	g s	-0.3619908
-1.5787878	b s	-0.3674831
-1.3334985	u s	-0.85950136
-1.6534958	. s	-0.17298578
-1.709251	w s	-0.19583845
-1.7623109	x s	0
-1.8574357	" s	-0.17151411
-1.5190423	k s	-0.5065962
-1.3817296	( s	-0.23884593
-1.6528629	; s	0
-1.5421381	¼ s	-0.023000067
-1.676173	 s	-0.0105819795
-1.6289743	¶ s	-0.06774381
-1.6379406	z s	-0.031122232
-1.8353184	1 s	-0.31870234
-1.9973508	5 s	0
-1.518678	© s	-0.041086506
-1.5262506	j s	-0.025386306
-2.1364882	8 s	0
-1.6489627	0 s	-0.43057555
-1.9500089	6 s	-0.18700853
-0.9496823	' s	-0.47645175
-1.9186368	: s	0
-2.1520147	7 s	-0.12901658
-2.020644	2 s	0
-1.5646163	q s	0
-1.6998748	³ s	0
-1.598558	¦ s	-0.026954662
-1.6660922	 s	-0.041086506
-1.6350626	­ s	0
-1.7415057	¡ s	-0.011347779
-1.4943724	 s	0
-1.4212801	/ s	-0.19555105
-1.6657648	* s	-0.12568001
-1.8744371	< s	-0.09930656
-1.6710389	° s	0
-1.2732862	\ s	-0.76005507
-1.5908786	º s	0
-1.4061128	« s	-0.042349733
-1.5567237	¨ s	-0.041086506
-1.3541656	 s	-0.020057548
-1.4554639	<s> m	-2.6551466
-1.498946	a m	-0.8171809
-1.8130491	n m	-0.2952064
-1.6764703	r m	-0.4565432
-1.5761933	c m	-0.31681508
-1.6327008	h m	-0.3318831
-1.5459901	i m	-0.6894588
-1.6111995	s m	-0.61417305
-1.5130748	m m	-0.495279
-1.6331599	p m	-0.334755
-1.5859354	o m	-0.7146574
-1.6087308	l m	-0.4248438
-1.7410893	t m	-0.4076363
-1.6708738	y m	-0.6283958
-1.6612935	d m	-0.34398
-1.6897887	v m	0
-1.4969965	e m	-0.748448
-1.8262278	f m	-0.10787067
-1.5013456	- m	-0.5904247
-1.5750666	g m	-0.33424896
-1.8182884	b m	-0.2067755
-1.4316763	u m	-0.72118706
-1.723387	. m	-0.29436865
-1.8254101	w m	-0.15115166
-1.7773066	x m	-0.18700853
-1.8707354	" m	-0.23961839
-1.5416564	k m	-0.2479325
-1.6411433	( m	-0.07484082
-1.5676798	¼ m	0
-1.7029382	 m	-0.032552328
-1.6615057	¶ m	0
-1.6856023	z m	-0.19505388
-1.7239733	5 m	0
-1.9522829	3 m	0
-2.0312767	9 m	-0.032552328
-1.7285028	© m	-0.036324587
-1.72858	j m	0
-1.7886904	0 m	0
-1.6653192	' m	-0.1611195
-2.070552	: m	0
-1.9640397	7 m	0
-1.8244687	2 m	0
-1.5194157	 m	-0.026954662
-1.3006849	¡ m	0
-1.4400996	/ m	-0.13155687
-1.8272649	* m	-0.109119
-1.4481467	{ m	-0.11638954
-1.2961886	\ m	-0.6829582
-1.4697139	· m	0
-1.703563	 m	0
-1.3855555	<s> p	-2.9728346
-1.5631818	a p	-0.74460906
-1.8464932	n p	-0.26522094
-1.771271	r p	-0.34478635
-1.9525044	c p	-0.042889025
-1.8101597	h p	-0.1458018
-1.5993515	i p	-0.7290926
-1.5211896	s p	-0.7315956
-1.6158284	m p	-0.45539027
-1.6377211	p p	-0.44186038
-1.5089227	o p	-0.7336227
-1.7226437	l p	-0.4362349
-1.7908854	t p	-0.2385976
-1.6752341	y p	-0.4331303
-1.8174707	d p	-0.11787615
-1.9980643	v p	0
-1.6262159	e p	-0.6597067
-1.8342025	f p	0
-1.5259082	- p	-0.7421775
-1.9502151	g p	-0.025386306
-1.8629141	b p	-0.022779834
-1.498769	u p	-0.68267363
-1.6219941	. p	-0.35652813
-2.0837712	w p	-0.04728666
-1.9566711	x p	-0.21184406
-2.056326	" p	-0.17502101
-1.9821038	k p	-0.11129293
-1.8435038	( p	-0.07071992
-1.8637853	; p	0
-1.5585223	 p	-0.064648144
-1.6966724	¶ p	-0.041086506
-1.9120495	z p	-0.052349146
-1.8853204	5 p	-0.16178532
-1.9668243	3 p	0
-1.7619611	© p	-0.017782629
-1.8069943	j p	0
-1.9600482	8 p	-0.09930656
-1.6653508	0 p	-0.35367084
-2.0768206	6 p	-0.15480524
-2.0778983	' p	-0.011347779
-1.6789746	: p	0
-2.2010672	7 p	0
-2.2176888	2 p	0
-1.7707245	³ p	-0.086470075
-1.7336371	 p	0
-1.5315361	/ p	-0.15747045
-1.4866896	* p	-0.1637083
-2.1200495	< p	-0.086470075
-1.3555185	{ p	-0.15572004
-1.5121621	\ p	-0.4270877
-2.0212495	} p	0
-1.4101341	| p	0
-1.1752753	<s> o	-3.3963742
-1.7678963	a o	-0.3978619
-1.3575433	n o	-0.84764457
-1.3737304	r o	-0.9645501
-1.2825302	c o	-0.88889706
-1.2360415	h o	-0.8734127
-1.5868578	i o	-0.73432577
-1.4914294	s o	-0.82081115
-1.3278421	m o	-0.768052
-1.275589	p o	-0.8021772
-1.7049294	o o	-0.59461325
-1.3281015	l o	-0.9234139
-1.361553	t o	-0.9035933
-1.412792	y o	-0.49434638
-1.3813245	d o	-0.7462962
-1.193398	v o	-0.57517797
-1.7328031	e o	-0.660703
-1.2235147	f o	-0.65405977
-1.6005358	- o	-0.6019502
-1.3166568	g o	-0.6989437
-1.3009672	b o	-0.72285235
-1.7122823	u o	-0.26938146
-1.6421677	. o	-0.5778166
-1.1074917	w o	-0.5081594
-1.5834867	x o	-0.21514511
-1.9661288	" o	-0.09597643
-1.3091925	k o	-0.70747346
-1.5455993	( o	-0.20244354
-1.8983113	 o	0
-1.3969663	z o	-0.4260434
-1.5658417	© o	-0.017782629
-1.1298448	j o	-0.5168684
-1.9006115	' o	-0.05385622
-1.9774145	: o	0
-1.633761	± o	0
-1.7428696	 o	0
-1.7113614	­ o	0
-1.6433771	/ o	-0.028198956
-1.8699067	* o	-0.050279543
-1.4203094	\ o	-0.58490604
-1.6830711	§ o	-0.026954662
-1.7322663	£ o	-0.032552328
-1.6377791	<s> l	-2.7611141
-1.4839925	a l	-1.0565422
-1.7913605	n l	-0.3179821
-1.679513	r l	-0.33439586
-1.3492038	c l	-0.71815646
-1.5319535	h l	-0.39297178
-1.5133919	i l	-0.84413975
-1.626444	s l	-0.60777974
-1.7961334	m l	-0.29747275
-1.4118936	p l	-0.5226153
-1.4963437	o l	-0.9116299
-1.4803748	l l	-0.50365376
-1.6847609	t l	-0.47447145
-1.5493114	y l	-0.49494362
-1.7589469	d l	-0.44732034
-1.6538508	v l	-0.09738703
-1.4791007	e l	-1.0789026
-1.3722663	f l	-0.6110824
-1.585533	- l	-0.8736135
-1.4113917	g l	-0.51958406
-1.4633385	b l	-0.6325906
-1.4979235	u l	-0.72866756
-1.8048843	. l	-0.37577373
-2.2046342	w l	-0.19710115
-1.7875993	x l	-0.12752928
-1.9564247	" l	-0.15843815
-1.5441357	k l	-0.4673423
-1.8396829	( l	-0.10314847
-1.6841625	; l	0
-1.746002	¼ l	-0.0105819795
-1.5519729	 l	0
-1.6846311	¶ l	-0.029490128
-1.6505878	z l	-0.33982113
-1.7505195	© l	-0.026954662
-1.8837615	j l	0
-1.6700349	' l	-0.12033468
-1.843373	: l	0
-1.7580842	³ l	0
-1.7809844	± l	0
-1.6564345	¦ l	0
-1.6902574	­ l	0
-1.8018434	¡ l	-0.03497363
-1.693438	/ l	-0.013254753
-1.8494853	* l	-0.111884475
-1.7319441	¸ l	0
-1.2773634	\ l	-0.5319357
-2.0303202	_ l	-0.086470075
-1.787605	 l	0
-1.4338495	« l	0
-1.665536	¤ l	-0.026954662
-1.5020609	 l	-0.086470075
-0.88078314	<s> t	-3.367849
-1.5524358	a t	-0.8554814
-1.5778407	n t	-0.50037104
-1.587386	r t	-0.5214874
-1.6772144	c t	-0.5480665
-1.4953848	h t	-0.40228203
-1.4912957	i t	-0.9008228
-1.3859365	s t	-0.7697463
-1.7416945	m t	-0.060575135
-1.6350545	p t	-0.43415204
-1.5199901	o t	-0.70263225
-1.7442923	l t	-0.51043797
-1.6837054	t t	-0.39204478
-1.5668784	y t	-0.5633321
-1.7078477	d t	-0.17107563
-1.6930128	v t	0
-1.5398105	e t	-0.8013254
-1.6853343	f t	-0.3237211
-1.5243744	- t	-0.7527819
-1.7073245	g t	-0.08948267
-1.7277285	b t	-0.19059505
-1.4447767	u t	-0.7239652
-1.5839815	. t	-0.38320306
-1.7203076	w t	-0.16852513
-1.6671989	x t	-0.24624476
-1.755557	" t	-0.30428934
-1.7078314	k t	-0.35511974
-1.4834294	( t	-0.23669715
-1.8469384	; t	0
-1.7361974	¼ t	0
-1.7145964	 t	-0.0132682575
-1.6758142	¶ t	0
-1.9039252	z t	-0.06468906
-2.3488195	1 t	-0.39760166
-1.5838115	5 t	-0.83348393
-2.3619342	3 t	-0.31069657
-1.5321457	9 t	-0.80352074
-1.5477711	© t	-0.06318575
-1.6742023	j t	0
-1.6115285	8 t	-0.9618731
-1.7004334	0 t	-0.6987854
-1.5986024	6 t	-0.9996617
-1.6682605	' t	-0.161812
-1.5503044	: t	-0.4180467
-1.5290841	7 t	-0.6708144
-1.6001369	4 t	-1.0344237
-2.4455984	2 t	-0.31069657
-1.4733965	¦ t	-0.068543024
-1.7128284	 t	-0.04728666
-1.4346852	® t	0
-1.6293677	¡ t	0
-1.5337292	 t	-0.041086506
-1.5697145	/ t	-0.09591644
-1.5745628	* t	-0.2326035
-1.3313082	& t	-0.15480524
-1.4624416	> t	0
-1.5803088	{ t	0
-1.2571646	\ t	-0.70913833
-1.4972267	_ t	0
-1.7777016	 t	0
-1.5108753	¢ t	0
-1.4295744	« t	-0.026954662
-1.6561254	¤ t	0
-1.7179098	 t	0
-1.4999058	 t	-0.19454797
-2.5140235	<s> y	-1.7157879
-1.7427768	a y	-0.66012067
-1.5854323	n y	-0.50524855
-1.5954877	r y	-0.64711946
-1.6659279	c y	-0.44354707
-1.4704437	h y	-0.5015115
-1.7292743	i y	-0.47039837
-1.6905851	s y	-0.5179543
-1.5217361	m y	-0.40142253
-1.6225815	p y	-0.33089653
-1.6903738	o y	-0.47968104
-1.4460983	l y	-0.81883556
-1.6232383	t y	-0.5345831
-2.1727583	y y	-0.045732424
-1.5954483	d y	-0.45616925
-1.5605628	v y	-0.21352124
-1.68928	e y	-0.5791011
-1.80475	f y	-0.17975256
-1.6185137	- y	-0.24031956
-1.522818	g y	-0.3876859
-1.4256941	b y	-0.44630373
-1.6337818	u y	-0.21455306
-2.3552186	, y	-0.09930656
-1.5086094	w y	-0.15881352
-1.7516541	x y	-0.12507553
-2.2226918	" y	-0.11638954
-1.571761	k y	-0.32782078
-1.586172	( y	-0.06620914
-1.5289837	z y	-0.08665829
-1.9113355	j y	-0.110632785
-1.9170438	' y	0
-1.8826585	/ y	-0.035559513
-1.6158035	* y	0
-1.5617678	 y	-0.19454797
-1.5470998	<s> d	-2.727696
-1.5618725	a d	-0.8927511
-1.5075706	n d	-0.5808909
-1.7208691	r d	-0.40766376
-1.655441	c d	-0.17604052
-1.6120341	h d	-0.32004958
-1.512769	i d	-0.7308203
-1.8251207	s d	-0.38081875
-1.924613	m d	-0.09072111
-1.7654468	p d	-0.12712976
-1.4842765	o d	-0.73851323
-1.6950743	l d	-0.5257715
-1.9248425	t d	-0.16291384
-1.6061645	y d	-0.3923532
-1.7573745	d d	-0.3459596
-1.6520802	v d	-0.10163414
-1.5398105	e d	-0.8605617
-1.8295329	f d	-0.11534928
-1.4814537	- d	-0.58094335
-1.8097228	g d	-0.26163852
-1.8215365	b d	-0.17414029
-1.4972906	u d	-0.5443305
-1.7252936	. d	-0.21702754
-1.9214746	, d	0
-1.7715362	w d	-0.11292785
-2.0444121	" d	-0.18885054
-1.9261308	k d	-0.13464583
-1.8368391	( d	-0.050684493
-1.7361974	¼ d	0
-1.5471249	 d	-0.023000067
-1.6758142	¶ d	-0.086470075
-1.689094	z d	-0.056356348
-1.9582827	3 d	-0.12752928
-1.7421318	© d	-0.04728666
-1.8002335	j d	0
-1.5889446	' d	-0.32883373
-1.8382667	: d	0
-2.319006	2 d	-0.05569369
-1.4733965	¦ d	-0.026954662
-1.7128284	 d	0
-1.491914	/ d	-0.19603729
-1.5745628	* d	-0.12222359
-1.8623544	> d	-0.032552328
-1.8979911	{ d	0
-1.4767371	\ d	-0.5245017
-2.0840511	<s> v	-2.1131055
-1.6383731	a v	-0.592736
-1.9484391	n v	-0.21333747
-1.8026342	r v	-0.24770638
-2.0065007	c v	-0.051568724
-2.1139696	h v	-0.017782629
-1.5759115	i v	-0.55606294
-1.8328731	s v	-0.25246802
-2.0237894	m v	-0.045732424
-2.223342	p v	0
-1.4987819	o v	-0.54939586
-1.842756	l v	-0.48554075
-1.7092721	t v	-0.27942482
-1.8219889	y v	-0.28391853
-1.7945707	d v	-0.33542475
-1.8626364	v v	0
-1.5550487	e v	-0.6026159
-1.6451573	- v	-0.6523949
-2.018382	g v	0
-2.1306603	b v	-0.15901847
-1.7637736	u v	-0.32232478
-1.9474325	. v	-0.4180467
-2.2358701	w v	-0.041086506
-1.6853334	x v	-0.18119462
-2.202902	" v	-0.14605391
-1.7462326	k v	-0.119159676
-1.655217	( v	-0.21679154
-1.7593641	 v	0
-1.6727334	¯ v	-0.19454797
-2.0050056	z v	-0.020057548
-2.419229	5 v	-0.086470075
-1.7950745	© v	-0.023000067
-1.8178358	j v	0
-1.9087499	' v	-0.2075428
-2.5043268	2 v	-0.086470075
-1.4782062	¡ v	0
-1.7630556	/ v	0
-1.8944855	* v	-0.18089767
-1.3611478	{ v	-0.2517153
-1.5918021	\ v	-0.39781308
-1.7709718	_ v	0
-1.5567113	<s> e	-2.835673
-1.6580015	a e	-0.6386789
-1.3470901	n e	-0.93490946
-1.2145777	r e	-1.0397322
-1.3596226	c e	-0.73892564
-1.2346168	h e	-0.81180257
-1.611694	i e	-0.7548681
-1.4181117	s e	-0.944779
-1.2399768	m e	-0.82642955
-1.2550625	p e	-0.69894004
-1.6495371	o e	-0.56180865
-1.2975289	l e	-0.9741219
-1.3429911	t e	-0.9198463
-1.4111984	y e	-0.5515424
-1.231925	d e	-0.8680668
-1.0537833	v e	-0.6798438
-1.6818143	e e	-0.728937
-1.2666394	f e	-0.65897053
-1.6260666	- e	-0.6507626
-1.1786451	g e	-0.7027863
-1.2498853	b e	-0.7683267
-1.526589	u e	-0.620416
-1.5845339	. e	-0.20512392
-1.1062083	w e	-0.70798653
-1.3801416	x e	-0.38241804
-2.1658382	" e	-0.15056956
-1.3077474	k e	-0.7261144
-1.7817495	( e	-0.14368384
-1.5833036	¼ e	-0.026954662
-1.8703691	 e	-0.014494801
-1.219581	z e	-0.5352607
-1.7477056	© e	-0.04979173
-1.083877	j e	-0.5773759
-1.6278687	' e	-0.053033777
-1.8416642	: e	0
-1.7186728	 e	0
-1.633741	¡ e	0
-1.5923665	/ e	-0.0181306
-1.8466448	* e	-0.14344865
-1.9015517	{ e	-0.05569369
-1.7894179	\ e	-0.25788406
-1.6613144	§ e	0
-1.5000969	 e	-0.0132682575
-1.6569573	¾ e	-0.032552328
-1.3818669	 e	0
-1.4229215	<s> f	-2.8470147
-1.5732408	a f	-0.553193
-1.7698022	n f	-0.35755613
-1.8550059	r f	-0.32315525
-1.7819769	c f	-0.0971919
-1.8885576	h f	-0.13359787
-1.5373309	i f	-0.6156649
-1.8289796	s f	-0.33341122
-1.9713763	m f	-0.07672599
-1.7403824	p f	-0.11173391
-1.5092566	o f	-0.55505526
-1.634184	l f	-0.45522505
-1.7917858	t f	-0.4683817
-1.785192	y f	-0.14352015
-1.7363688	d f	-0.26655757
-1.613559	e f	-0.6089726
-1.404672	f f	-0.43914068
-1.600275	- f	-0.79884416
-1.8565031	g f	-0.06980399
-1.9046869	b f	-0.1226337
-1.6104057	u f	-0.3020587
-1.7797239	. f	-0.31492162
-1.7782589	w f	-0.058778856
-2.074702	x f	-0.09930656
-1.9647291	" f	-0.26150683
-1.9329249	k f	-0.15143408
-1.9909804	( f	-0.064229816
-1.8947185	 f	-0.026954662
-1.9921374	z f	-0.17388207
-1.8996048	' f	-0.06468906
-1.9750896	: f	0
-1.8197683	q f	-0.09930656
-1.7397703	 f	-0.026954662
-1.5522355	/ f	-0.07570458
-1.8669299	* f	-0.25026777
-1.7496704	° f	-0.05569369
-1.6721547	{ f	0
-1.3208188	\ f	-0.73657393
-1.6247313	= f	0
-3.4205942	<s> -	-0.7841251
-1.6819934	a -	-0.4894716
-1.5075706	n -	-0.576254
-1.7437876	r -	-0.35159904
-1.6149186	c -	-0.07515537
-1.6846957	h -	-0.3867242
-1.5844042	i -	-0.46877354
-1.6825185	s -	-0.47530386
-1.5611106	m -	-0.29301545
-1.6350545	p -	-0.10839334
-1.6326869	o -	-0.6913891
-1.5920042	l -	-0.44893035
-1.599833	t -	-0.6577267
-1.5308532	y -	-0.601372
-1.5861789	d -	-0.50863385
-1.8457525	v -	0
-1.5860727	e -	-0.92019445
-1.6279472	f -	-0.27480653
-2.2344398	- -	-0.068543024
-1.7728416	g -	-0.23475409
-1.605914	b -	-0.102194324
-1.6263393	u -	-0.023210907
-1.8330594	. -	0
-1.9760673	w -	-0.095957026
-1.4662764	x -	-0.14650796
-1.8117887	" -	0
-1.6295421	k -	-0.18763989
-2.0725052	( -	0
-1.7024412	) -	0
-1.611685	z -	-0.020658873
-1.5294626	1 -	-0.11552925
-1.5266216	5 -	-0.139627
-1.575018	3 -	-0.012788441
-1.5001229	9 -	-0.16427976
-1.7421318	© -	0
-1.8002335	j -	0
-1.4774201	8 -	-0.060981352
-1.4075282	0 -	-0.18732148
-1.5324036	6 -	-0.09296141
-1.5290841	7 -	-0.0118403165
-1.4618393	4 -	-0.051458523
-1.5342818	2 -	-0.093077056
-1.6110654	± -	-0.011347779
-1.496061	­ -	-0.05569369
-1.474462	/ -	-0.49757743
-1.8410189	* -	0
-1.5110344	{ -	0
-1.3782785	^ -	-0.08109742
-1.7393222	² -	0
-1.8029146	<s> g	-2.4503558
-1.6159825	a g	-0.6804402
-1.5827894	n g	-0.44625944
-1.6272424	r g	-0.3783499
-1.9604748	c g	-0.07790745
-1.9400653	h g	-0.045732424
-1.5885837	i g	-0.6724984
-1.8324387	s g	-0.33886543
-1.8651795	m g	-0.15254745
-1.7742522	p g	-0.069854274
-1.6205461	o g	-0.73892546
-1.875993	l g	-0.28992507
-1.8461169	t g	-0.24732082
-1.5531541	y g	-0.4062018
-1.8893607	d g	-0.20995955
-1.8616811	v g	0
-1.6426213	e g	-0.67093456
-1.9978669	f g	-0.13668731
-1.5761763	- g	-0.752061
-1.7483485	g g	-0.28065026
-2.0636568	b g	-0.08424007
-1.6506138	u g	-0.59299624
-1.841467	. g	-0.16055238
-1.8442742	w g	0
-2.0739331	" g	-0.23173933
-1.9390545	k g	-0.15272631
-1.7944165	( g	-0.05319423
-1.7949334	¼ g	0
-1.7567521	 g	0
-1.478015	µ g	0
-1.7470871	z g	0
-2.4173574	3 g	0
-1.7919576	© g	-0.026954662
-1.9906857	' g	0
-1.7335436	­ g	0
-1.6465826	/ g	0
-1.891336	* g	-0.07737608
-1.9292302	{ g	0
-1.6830996	\ g	-0.6194504
-1.7123684	¤ g	-0.05569369
-1.6413318	¨ g	-0.086470075
-1.3892959	<s> b	-2.8524613
-1.5920794	a b	-0.7723717
-1.7913605	n b	-0.51139224
-1.7221303	r b	-0.3697511
-1.8392297	c b	-0.1082794
-1.7738489	h b	-0.37401605
-1.6260101	i b	-0.74111724
-1.7150156	s b	-0.4860772
-1.8252935	m b	-0.42008716
-1.910344	p b	-0.07248777
-1.5732732	o b	-0.6105846
-1.6738148	l b	-0.34608582
-1.7661228	t b	-0.4387647
-1.6503944	y b	-0.5222781
-1.7092503	d b	-0.33823282
-1.8485212	v b	-0.032920692
-1.6671588	e b	-0.6493187
-2.0502086	f b	0
-1.5364759	- b	-0.7420591
-1.625799	g b	-0.17422093
-1.7019614	b b	-0.4251113
-1.4979235	u b	-0.6057223
-1.751048	. b	-0.2931684
-1.8473496	, b	-0.18700853
-1.8321754	w b	-0.052349146
-2.0598292	x b	0
-2.049478	" b	-0.15817192
-1.7091929	k b	-0.096277684
-1.4846874	( b	-0.10979389
-1.746002	¼ b	-0.032552328
-1.5519729	 b	-0.08323852
-1.736011	z b	-0.1353926
-2.0007615	1 b	0
-1.8246313	5 b	0
-1.8979285	3 b	0
-1.868434	9 b	0
-1.7505195	© b	0
-1.8837615	j b	0
-2.080267	0 b	0
-2.1989985	' b	-0.10624155
-1.843373	: b	0
-1.8628742	4 b	0
-1.7900572	2 b	0
-1.5345516	 b	-0.020057548
-1.6902574	­ b	-0.05569369
-1.8018434	¡ b	0
-1.6158366	/ b	-0.019013137
-1.5791264	* b	-0.11236241
-1.523302	& b	-0.032552328
-0.45210773	< b	-1.2701765
-1.6658757	{ b	0
-1.366085	\ b	-0.69868994
-1.3886384	_ b	-0.14465919
-1.5066102	 b	0
-1.9302052	<s> u	-2.4059856
-1.6159825	a u	-0.72762626
-1.5676274	n u	-0.55321014
-1.4063609	r u	-0.75776327
-1.4329884	c u	-0.5979297
-1.3315064	h u	-0.60535127
-1.6297961	i u	-0.48201925
-1.4831097	s u	-0.71823657
-1.413837	m u	-0.5177299
-1.3639207	p u	-0.4978422
-1.498619	o u	-0.7035218
-1.4182822	l u	-0.660632
-1.508332	t u	-0.6530621
-1.5353285	y u	-0.34908408
-1.5258285	d u	-0.5872679
-1.5888087	v u	-0.1466695
-1.5781472	e u	-0.5990784
-1.3192103	f u	-0.6040112
-1.7089041	- u	-0.334048
-1.3850796	g u	-0.60269165
-1.2717674	b u	-0.64656264
-1.7147105	u u	-0.1440558
-1.9884654	. u	0
-1.5354606	w u	-0.13194625
-1.6843058	x u	-0.1105894
-2.3465595	" u	-0.039264243
-1.4757072	k u	-0.3462288
-2.1010597	( u	-0.05557858
-1.7567521	 u	0
-1.3782572	z u	-0.2794157
-1.1638056	j u	-0.46803656
-1.7781061	' u	0
-0.8213396	q u	-0.54016316
-1.7652075	 u	0
-1.796993	/ u	-0.008332679
-1.891336	* u	-0.038658515
-1.9292302	{ u	-0.39760166
-1.7123684	¤ u	0
-3.2195091	<s> .	-1.4277294
-1.6113534	a .	-0.33988908
-1.5063412	n .	-0.2978316
-1.4973524	r .	-0.35897356
-1.4536685	c .	-0.24595018
-1.5291415	h .	-0.19946751
-1.5704279	i .	-0.23801838
-1.4512354	s .	-0.4783115
-1.4846325	m .	-0.31537583
-1.5159297	p .	-0.25133446
-1.6479255	o .	-0.30985987
-1.5071639	l .	-0.30689564
-1.5983871	t .	-0.42845437
-1.5471307	y .	-0.28476486
-1.519127	d .	-0.2902566
-1.4381907	v .	-0.16252035
-1.549783	e .	-0.38444376
-1.5092677	f .	-0.21463689
-1.9762447	- .	-0.43004656
-1.5532019	g .	-0.20736735
-1.4610579	b .	-0.27980444
-1.5558311	u .	-0.3209455
-1.4139196	. .	-0.38195643
-1.5260936	w .	-0.12900169
-1.4963592	x .	-0.25960654
-0.96946734	" .	-0.62533987
-1.5416564	k .	-0.38320306
-0.93445164	) .	-0.68528426
-1.4135337	z .	-0.6456464
-1.3469657	1 .	-0.7670764
-1.4082171	5 .	-0.7123655
-1.3556569	3 .	-0.8247613
-1.3232388	9 .	-0.7656841
-1.7285028	© .	-0.086470075
-1.4598976	j .	-0.1355842
-1.3513317	8 .	-0.76997447
-1.2473817	0 .	-0.8302191
-1.3171233	6 .	-0.8221839
-1.2516577	' .	-0.6288457
-1.373559	7 .	-0.796588
-1.374434	4 .	-0.71484613
-1.3317086	2 .	-0.7998193
-1.4385877	q .	-0.32531124
-0.82749695	% .	-0.6086664
-1.9507664	/ .	-0.8235704
-1.567062	* .	-0.12813708
-1.3640988	° .	-0.2594527
-1.20895	} .	-0.88784164
-1.4225413	« .	-0.39760166
-1.3622808	~ .	-0.39760166
-3.238825	<s> ,	-2.345371
-1.504324	a ,	-0.63636494
-1.3997018	n ,	-0.597456
-1.4090508	r ,	-0.9206683
-1.4235411	c ,	-0.7873264
-1.5050864	h ,	-0.90969646
-1.4867778	i ,	-0.8053689
-1.4392337	s ,	-0.6601679
-1.4665837	m ,	-0.6884079
-1.4627558	p ,	-0.53542805
-1.5285449	o ,	-1.2014608
-1.5166099	l ,	-0.7734767
-1.6085107	t ,	-0.81152385
-1.4470354	y ,	-0.7102318
-1.4709897	d ,	-0.5228224
-1.4088541	v ,	-0.9584227
-1.5685375	e ,	-0.58444715
-1.4469002	f ,	-0.79162735
-1.6334718	- ,	-1.3828784
-1.6148604	g ,	-0.58494854
-1.4411831	b ,	-0.7890685
-1.4924678	u ,	-0.89516795
-1.5145607	. ,	-0.6424391
-1.4892238	w ,	-0.60710293
-1.2174048	x ,	-0.48803854
-0.98444235	" ,	-1.1936932
-1.4042711	k ,	-0.5305293
-2.3582253	( ,	-0.05569369
-0.86624813	) ,	-0.92387354
-1.3853154	z ,	-0.979612
-1.2696753	1 ,	-0.93001485
-1.3458159	5 ,	-0.9165142
-1.2593199	3 ,	-0.7878492
-1.4334557	9 ,	-0.7560839
-1.3229584	© ,	-0.39760166
-1.4520894	j ,	-0.7713361
-1.2861563	8 ,	-0.7560839
-1.3987771	0 ,	-0.6417753
-1.3308572	6 ,	-0.8631855
-1.2313948	' ,	-1.3518442
-1.2902213	7 ,	-0.93599254
-1.3145565	4 ,	-0.826043
-1.2657834	2 ,	-0.78626174
-1.3678911	q ,	-0.8235704
-1.2485942	? ,	-0.76557845
-1.361831	³ ,	-0.2594527
-1.1638312	± ,	-0.33982113
-0.9097197	% ,	-0.92048043
-1.6197851	­ ,	-0.19454797
-1.2826896	¡ ,	-0.5225404
-1.40482	/ ,	-1.134514
-1.1448659	! ,	-0.69863164
-1.1046572	 ,	-0.6194504
-1.506806	° ,	-0.31069657
-1.2526908	\ ,	-0.3135793
-1.1793777	} ,	-0.6554076
-1.417104	 ,	-0.39760166
-1.2603623	« ,	-0.5225404
-1.5845315	 ,	-0.19454797
-1.0791248	² ,	-0.6194504
-1.4931026	 ,	-0.31069657
-1.3617122	<s> w	-2.9222226
-1.7008885	a w	-0.5496597
-1.9178114	n w	-0.3698172
-2.1066453	r w	-0.4283465
-2.1210446	c w	-0.038658515
-1.8216866	h w	-0.33982113
-1.853497	i w	-0.29194
-1.705698	s w	-0.7272556
-1.8695576	m w	-0.1100964
-1.9256425	p w	-0.048852503
-1.622059	o w	-0.6226468
-2.0545177	l w	-0.4331303
-1.6737499	t w	-0.6086664
-1.8250718	y w	-0.26945454
-1.743911	d w	-0.5292448
-1.7376862	e w	-0.5758101
-1.9450575	f w	0
-1.6468941	- w	-0.9304738
-1.71984	g w	-0.43971622
-2.138706	b w	-0.09930656
-1.7171522	u w	-0.36009502
-1.7108496	. w	-0.19581172
-1.8504523	w w	-0.059019014
-2.1142776	x w	-0.18089767
-1.9862128	" w	-0.2904275
-1.7492127	k w	-0.3443888
-2.011677	( w	-0.07881837
-1.9520037	 w	0
-1.7062563	z w	-0.032920692
-1.6009091	' w	-0.0088003315
-1.788757	 w	-0.026954662
-1.7043252	/ w	-0.105472095
-1.9138777	* w	-0.11945704
-1.7705758	& w	-0.086470075
-1.5566835	 w	-0.086470075
-3.3703308	<s> x	-0.8651775
-1.7736363	a x	-0.4494664
-2.3403447	n x	-0.16648513
-2.4178584	r x	-0.07246336
-1.8098037	i x	-0.5064609
-2.293781	s x	0
-1.8486304	p x	-0.4116628
-1.6558094	o x	-0.44380474
-2.1841757	l x	0
-2.0577223	t x	0
-2.1058462	y x	-0.09688328
-2.0231533	d x	0
-1.581072	e x	-0.6729091
-2.4037483	f x	0
-1.7949247	u x	-0.2560519
-1.6968002	x x	-0.07340218
-1.2190398	( x	-0.21565984
-2.1300495	0 x	-0.08109742
-1.3668511	{ x	-0.21225928
-2.6053917	\ x	-0.19454797
-1.679699	_ x	0
-1.1057403	| x	-0.39781308
-2.2831173	<s> "	-1.8642664
-1.7831935	a "	-0.930394
-1.7698022	n "	-0.57600653
-1.9976859	r "	-0.36515316
-1.9540869	c "	-0.5943318
-1.8885576	h "	-0.5271221
-1.7807627	i "	-0.6510703
-1.628068	s "	-0.88618195
-1.8602294	m "	-0.5907382
-1.9146603	p "	-0.40594295
-1.7240779	o "	-0.831973
-1.8365737	l "	-0.58967507
-1.7258563	t "	-0.564559
-1.5509541	y "	-0.6666886
-1.849983	d "	-0.5017263
-1.7156887	e "	-0.5972895
-1.9322618	f "	-0.2440539
-2.1891348	- "	-0.20007995
-1.8156191	g "	-0.5289801
-1.9987043	b "	-0.16745128
-2.036838	u "	-0.1548657
-1.3615737	. "	-0.4524668
-1.1844175	, "	-0.77528024
-2.0868242	w "	-0.11911513
-1.6269114	x "	-0.240288
-1.8085188	k "	-0.6391761
-2.3537064	( "	-0.10270017
-1.4891182	) "	-0.6716332
-1.7912707	z "	0
-2.0066788	1 "	0
-1.8872949	5 "	0
-1.7560439	8 "	0
-1.5955213	0 "	-0.2931684
-1.7284297	6 "	0
-1.4406126	' "	-0.10752953
-1.5582231	: "	0
-1.7174898	4 "	0
-2.2213151	2 "	0
-0.70671374	? "	-0.37024352
-1.7397703	 "	0
-1.8669299	* "	0
-0.6150154	! "	-0.23126799
-1.444621	= "	0
-2.2194688	<s> k	-2.0140011
-1.6374832	a k	-0.7487838
-1.7488343	n k	-0.36187515
-1.7500279	r k	-0.38532197
-1.7846515	c k	-0.5160532
-1.8519905	h k	-0.20287701
-1.6011277	i k	-0.5872078
-1.5908529	s k	-0.66581297
-1.9753681	m k	0
-1.8770639	p k	-0.23090571
-1.6045564	o k	-0.6127482
-1.808673	l k	-0.31700188
-1.8722504	t k	-0.33712447
-1.7027466	y k	-0.1519164
-1.9241359	d k	-0.031141195
-1.9267526	v k	0
-1.577419	e k	-0.5465109
-2.062513	f k	0
-1.6293968	- k	-0.46033576
-2.0806694	g k	-0.0132682575
-1.9535525	b k	0
-1.4864243	u k	-0.57600653
-2.1416755	. k	-0.23816106
-1.910772	w k	-0.08163171
-2.1933353	" k	-0.11929676
-1.8492885	k k	-0.19155651
-1.5475365	( k	-0.11185326
-1.783974	¼ k	0
-1.9129868	 k	-0.023000067
-1.7185836	¶ k	0
-1.7446897	z k	-0.16178532
-1.8138621	j k	-0.0248208
-1.9869812	' k	0
-2.129229	: k	0
-1.6713207	/ k	-0.09738703
-1.7278721	* k	-0.035559513
-1.6774575	{ k	-0.017782629
-1.2317039	_ k	-0.25076577
-1.5627196	 k	0
-1.856805	<s> (	-2.239412
-2.0166574	a (	-0.041098177
-1.9552875	n (	0
-2.2370138	r (	-0.045174826
-2.0671468	c (	0
-2.2077072	h (	-0.032920692
-2.335838	i (	0
-2.0965934	s (	-0.0138544245
-2.1429896	m (	-0.10362927
-1.9286186	p (	-0.07340218
-2.3146718	o (	0
-2.35611	l (	0
-2.0152564	t (	-0.029588547
-2.104863	y (	0
-2.0221896	d (	0
-2.267438	v (	0
-2.0575008	e (	-0.05385622
-2.0087566	f (	-0.09687374
-2.0980117	g (	0
-2.224515	b (	0
-2.2277834	" (	0
-2.316048	k (	-0.110632785
-2.017367	( (	0
-1.5675485	) (	0
-2.0259674	1 (	0
-1.8321068	8 (	0
-1.7866948	: (	0
-1.8957605	2 (	0
-1.6238154	q (	-0.27287436
-2.0413718	/ (	0
-1.7021164	+ (	0
-1.8207899	> (	0
-1.4694276	{ (	-0.038896915
-1.3053684	} (	-0.28672403
-3.66604	<s> ;	-0.66877455
-1.8785591	a ;	-1.0191206
-1.8303018	n ;	-1.1246004
-2.013865	r ;	-0.5739044
-2.1269052	c ;	-0.76557845
-1.9510319	h ;	-0.87472296
-1.8807263	i ;	-0.88784164
-1.7073222	s ;	-0.661125
-1.9077277	m ;	-0.7713361
-1.9761624	p ;	-0.87472296
-1.9995503	o ;	-0.7713361
-2.0093524	l ;	-0.3978619
-1.8258319	t ;	-0.9126652
-1.6833434	y ;	-0.9361463
-1.8979529	d ;	-0.64085114
-1.8363608	e ;	-0.979612
-1.949408	f ;	-0.8235704
-2.0992775	g ;	-0.69863164
-1.9158304	. ;	-0.73657393
-2.2602944	w ;	-0.39760166
-1.2953366	" ;	-1.037604
-1.8588053	k ;	-0.73657393
-2.5629058	( ;	-0.19454797
-1.123821	) ;	-1.3386339
-1.6874176	1 ;	-0.83348393
-1.5983185	5 ;	-1.0666084
-1.7682134	3 ;	-0.6987854
-1.5821512	9 ;	-0.9996617
-1.6711146	8 ;	-0.92048043
-1.6426877	0 ;	-0.7713361
-1.6536678	6 ;	-0.73657393
-1.6034439	' ;	-0.9996617
-1.6113282	7 ;	-0.9996617
-1.6522139	4 ;	-0.7713361
-1.807959	2 ;	-0.73657393
-1.807781	\ ;	0
-1.838568	~ ;	-0.19454797
-4.091224	<s> á	-0.63429475
-2.4656286	a á	0
-2.639711	( á	-0.086470075
-1.7183821	± á	0
-1.9817102	* á	0
-1.7343991	 á	0
-1.1878661	á ¼	-0.11978906
-1.2740796	î ¼	-0.53802204
-1.3402178	ã ¼	-0.58851147
-1.1414877	ê ¼	0
-1.3753562	ð ¼	-0.32531124
-2.0764687	¼ 	-0.119594924
-0.62094766	â 	-0.938047
-1.2456919	ï 	-0.23661041
-0.89299816	ñ 	-0.3414091
-3.8788712	<s> î	-0.7820429
-2.9203646	a î	0
-2.0275068	( î	-0.05385622
-1.8672222	¼ î	0
-1.4079905	 î	0
-1.7457364	½ î	-0.026954662
-1.727227	¯ î	-0.0132682575
-1.7574614	µ î	-0.04728666
-1.758736	¹ î	-0.032552328
-1.6548816	³ î	0
-1.900715	± î	-0.051146608
-1.7964026	­ î	0
-1.4382963	 î	-0.021428224
-1.8594463	¸ î	0
-1.7128334	» î	-0.011347779
-1.7113874	 î	-0.032552328
-1.7691607	º î	-0.017782629
-1.791533	 î	-0.036324587
-1.777971	· î	0
-1.4662108	´ î	0
-1.6131076	¬ î	0
-1.7515588	 î	0
-1.8547112	² î	-0.020057548
-1.7151573	¿ î	0
-1.3423189	 î	0
-1.6555276	 î	0
-0.9874332	á ½	0
-1.1229798	î ½	-0.47042146
-1.4792528	â ½	0
-1.0689973	ð ½	-0.3785907
-3.9588947	<s> )	-1.0461383
-1.608641	a )	-0.6258441
-1.4109281	n )	-0.640309
-1.5505981	r )	-0.47191244
-1.5069283	c )	-0.4574052
-1.489589	h )	-0.39198995
-1.6065142	i )	-0.521315
-1.4859214	s )	-0.68440545
-1.3730271	m )	-0.62927765
-1.4795017	p )	-0.85141987
-1.5979525	o )	-0.637151
-1.5030308	l )	-0.7972718
-1.5381914	t )	-0.4987885
-1.4072399	y )	-0.51367897
-1.5152152	d )	-0.72517204
-1.3480611	v )	-0.5291293
-1.6065007	e )	-0.6988817
-1.4141128	f )	-0.77293
-1.8831542	- )	0
-1.5701662	g )	-0.48803854
-1.4727366	b )	-0.5249227
-1.6212605	u )	-0.82372415
-1.3571306	. )	-0.6774456
-1.463549	w )	-0.5822256
-1.2377642	x )	-0.38149315
-1.032397	" )	-0.88270694
-1.518749	k )	-0.4854142
-1.2801965	) )	-0.48436886
-1.387074	 )	0
-1.4087276	z )	-0.1336179
-1.4011744	1 )	-0.5477294
-1.4463743	5 )	-0.46422487
-1.3517526	3 )	-0.6933802
-1.4095703	9 )	-0.4862964
-1.3282646	© )	0
-1.4425398	8 )	-0.5936318
-1.4221584	0 )	-0.7508144
-1.3947215	6 )	-0.6289691
-1.3014859	' )	-0.47001463
-1.4385629	7 )	-0.7161783
-1.4317663	4 )	-0.76460266
-1.4008446	2 )	-0.5777031
-1.4897399	q )	-0.14261109
-0.96148884	? )	-0.2902566
-1.409308	± )	-0.12901658
-0.8659509	% )	-0.84907585
-1.6639022	* )	0
-1.5160301	 )	-0.032552328
-1.3467135	° )	0
-1.2322828	} )	-0.17907563
-1.4242765	 )	0
-1.3400874	² )	0
-4.543242	<s> ä	-0.3025279
-2.229787	a ä	-0.15011138
-1.8634776	n ä	-0.11461761
-1.7609386	r ä	-0.17942129
-2.077554	c ä	-0.16531785
-1.7041734	h ä	-0.5456318
-1.8851049	i ä	-0.18839991
-2.3052337	s ä	-0.21963489
-1.8784487	m ä	-0.16990235
-2.4988954	p ä	-0.12813708
-2.0042226	o ä	-0.6086664
-1.6070188	l ä	-0.45395094
-1.9487538	t ä	-0.28544658
-1.9077516	y ä	-0.7333937
-1.9429727	d ä	-0.12683697
-1.8204492	v ä	0
-1.979027	g ä	0
-1.928212	b ä	-0.16887939
-2.1125948	u ä	0
-1.7562469	k ä	-0.24893548
-1.949977	z ä	-0.096853614
-2.0426419	 	-0.14207079
-0.929662	ä 	-0.13056855
-1.3288292	î ¯	-0.35308784
-2.125659	ã ¯	-0.0105819795
-1.2253182	ø ¯	0
-1.3400154	ã ¶	-0.4016676
-1.2251613	î µ	-0.48803854
-1.7688745	ã µ	0
-2.4137654	â µ	0
-0.95832825	ð µ	-0.4581495
-0.8811916	á ¹	-0.30397907
-1.2254658	î ¹	-0.47915536
-1.8814536	ã ¹	0
-3.0519447	<s> z	-1.1021738
-1.6406062	a z	-0.60747504
-1.9932814	n z	-0.26194862
-1.8358923	r z	-0.21174878
-1.6667451	c z	-0.21865459
-2.0016227	h z	-0.2086442
-1.66283	i z	-0.5603125
-1.8160677	s z	-0.09111429
-2.6274135	p z	-0.086470075
-1.6389439	o z	-0.31999856
-2.1164706	l z	-0.08315465
-1.8799114	t z	-0.3420327
-1.794223	y z	-0.108840704
-1.800308	d z	-0.026857747
-1.6746778	e z	-0.51647455
-2.2654235	f z	0
-1.880385	- z	-0.13194625
-2.1800547	g z	0
-2.1441538	b z	0
-1.5976846	u z	-0.4668644
-1.959085	, z	0
-2.1169515	w z	0
-2.3852632	" z	0
-1.8039464	( z	0
-1.8376639	¼ z	0
-2.0197654	z z	-0.34411347
-1.6191441	* z	0
-1.9299797	_ z	0
-1.7963166	<s> 1	-2.5650892
-2.0998402	a 1	-0.12752928
-2.2994013	r 1	0
-2.0056071	c 1	0
-2.278966	s 1	0
-1.9777809	m 1	0
-2.1425714	p 1	0
-2.245953	f 1	0
-1.4952564	- 1	-0.8137399
-1.5886995	. 1	-0.70387036
-1.4893687	, 1	-0.6534265
-2.392586	w 1	-0.086470075
-1.8829972	x 1	-0.023000067
-2.0739331	" 1	-0.07756071
-2.1171572	k 1	0
-1.3321568	( 1	-0.32635453
-1.9243282	 1	-0.14804335
-1.2886146	1 1	-0.6830035
-1.3573439	5 1	-0.57706726
-1.3800368	3 1	-0.528829
-1.3298545	9 1	-0.6098033
-1.4044362	8 1	-0.57793033
-1.484394	0 1	-0.54741246
-1.4069388	6 1	-0.45792335
-1.2635508	: 1	-0.17605366
-1.359356	7 1	-0.5821347
-1.4021137	4 1	-0.36841014
-1.2980341	2 1	-0.60097015
-1.5552046	/ 1	-0.23329942
-1.734382	* 1	-0.14555867
-0.99131554	$ 1	-0.19438955
-1.1019032	+ 1	-0.13464583
-1.6777334	 1	-0.011347779
-1.4084618	{ 1	-0.03383996
-1.233009	_ 1	-0.2437903
-0.89720315	= 1	-0.05311717
-1.7553335	£ 1	0
-1.6255941	 1	-0.086470075
-1.2579609	# 1	-0.11772686
-2.9536228	<s> 5	-1.6229008
-1.7701242	- 5	-0.2188632
-1.7141895	. 5	-0.25106925
-1.605039	, 5	-0.5227518
-2.0245855	( 5	-0.012233105
-1.9903924	 5	-0.020057548
-1.3553057	1 5	-0.6819104
-1.3807821	5 5	-0.52163935
-1.4233459	3 5	-0.389637
-1.3563533	9 5	-0.5491059
-1.341667	8 5	-0.53860986
-1.5468806	0 5	-0.33935812
-1.2260996	6 5	-0.4769828
-1.4798555	: 5	0
-1.3643693	7 5	-0.58235705
-1.3492981	4 5	-0.51519555
-1.3546169	2 5	-0.62832177
-1.6806653	/ 5	-0.1259923
-1.3547049	$ 5	-0.026926842
-1.7148159	+ 5	0
-1.9305011	# 5	0
-1.6289659	~ 5	0
-2.754301	<s> 3	-1.5971848
-2.5249958	a 3	0
-2.3914897	m 3	0
-1.6483468	- 3	-0.15415221
-1.6901221	. 3	-0.45445257
-1.6025623	, 3	-0.6305206
-2.1283138	x 3	-0.023000067
-1.7046764	( 3	-0.19965367
-1.9729105	 3	-0.06774384
-1.3028835	1 3	-0.7526668
-1.4409858	5 3	-0.49184316
-1.3660371	3 3	-0.5561502
-1.4016926	9 3	-0.5730861
-1.3847201	8 3	-0.54386497
-1.3974862	0 3	-0.30185962
-1.3885833	6 3	-0.42985108
-1.4345858	: 3	0
-1.3631105	7 3	-0.502164
-1.4064645	4 3	-0.48356134
-1.4139798	2 3	-0.5669373
-1.6786813	/ 3	-0.03849355
-1.2317672	$ 3	-0.056356348
-1.5688362	+ 3	-0.04682102
-1.7155223	 3	0
-1.6057838	{ 3	0
-1.5210868	_ 3	0
-1.2707659	^ 3	0
-1.6586955	 3	-0.05569369
-1.5364726	# 3	0
-3.2372808	<s> 9	-1.361141
-1.8160415	- 9	0
-1.8236452	. 9	-0.33481768
-1.5716941	, 9	-0.6895156
-2.4747114	( 9	0
-2.037448	 9	-0.009323601
-1.3308103	1 9	-0.73637164
-1.4459715	5 9	-0.44970304
-1.4072239	3 9	-0.44340533
-1.3170649	9 9	-0.5596585
-1.3665031	8 9	-0.53111845
-1.4471095	0 9	-0.36790156
-1.4659746	6 9	-0.4718709
-1.4121975	7 9	-0.5595926
-1.4559898	4 9	-0.45160192
-1.4887866	2 9	-0.47472072
-1.9440429	/ 9	0
-1.7625158	$ 9	0
-3.5678592	<s> ã	-0.879851
-1.8923609	a ã	-0.35077503
-1.6663064	n ã	-0.236302
-1.5751561	r ã	-0.42897242
-1.9166756	c ã	-0.17481747
-1.4996192	h ã	-0.28033733
-1.7431742	i ã	-0.31073707
-1.7708995	s ã	-0.2071118
-1.6370622	m ã	-0.39120173
-1.8388065	p ã	-0.13618222
-1.8931557	o ã	-0.0088003315
-1.4557099	l ã	-0.45732743
-1.5884941	t ã	-0.40699697
-1.7870777	y ã	0
-1.6280943	d ã	-0.29796168
-1.5544045	v ã	-0.23557153
-1.9813306	e ã	-0.14352015
-1.6615129	f ã	-0.18977067
-1.4807849	g ã	-0.42638722
-1.6809274	b ã	-0.28586602
-1.736899	u ã	-0.25693977
-1.9097518	w ã	-0.1633297
-1.8765581	x ã	0
-2.4521625	" ã	0
-1.547255	k ã	-0.23952112
-2.4890954	( ã	0
-1.4947598	z ã	-0.10182676
-1.3005728	j ã	-0.21865226
-2.2184684	0 ã	-0.39760166
-2.0870905	' ã	-0.113799304
-2.22866	2 ã	-0.5225404
-1.4093636	³ ã	0
-2.3803294	/ ã	-0.023000067
-1.8789614	* ã	0
-1.6915194	§ ã	0
-1.2731687	ã ©	-0.65881556
-1.2276365	ø ©	0
-2.1703894	<s> j	-2.2842224
-1.7152927	a j	-0.31685632
-2.190987	n j	-0.2670702
-2.1107466	r j	-0.24195543
-2.0600815	h j	0
-1.6950983	i j	-0.26864436
-2.183603	s j	-0.11534928
-2.3894038	m j	0
-1.7714775	o j	-0.31409174
-1.9218334	l j	-0.042537406
-1.9772657	t j	-0.11267921
-1.800308	d j	-0.33085933
-1.8359208	e j	-0.2754179
-2.2654235	f j	0
-1.7488664	- j	-0.5739044
-2.0980117	g j	-0.08969814
-1.8401885	b j	-0.39692137
-1.7424253	u j	-0.21053302
-1.7880336	. j	-0.5085728
-2.094163	" j	-0.12616858
-2.1301408	k j	-0.053182878
-2.256258	( j	-0.054018185
-1.9686478	 j	-0.119594924
-1.7562592	j j	0
-1.8423812	/ j	-0.12769131
-1.9273043	* j	-0.14190252
-1.8207899	> j	-0.041086506
-1.9299797	_ j	0
-3.1619987	<s> 8	-1.3577827
-2.9246492	a 8	-0.026954662
-2.860219	r 8	-0.032552328
-1.7916659	- 8	-0.15747045
-1.7646406	. 8	-0.28687978
-1.5676874	, 8	-0.46869302
-2.5996127	( 8	0
-2.0039816	 8	-0.0105819795
-1.4146814	1 8	-0.7049497
-1.4013357	5 8	-0.49778542
-1.3509799	3 8	-0.44817472
-1.4296889	9 8	-0.60264003
-1.3425794	8 8	-0.5063507
-1.4931989	0 8	-0.31609756
-1.3909653	6 8	-0.46908075
-1.3250157	7 8	-0.5752707
-1.4305215	4 8	-0.45859888
-1.4864335	2 8	-0.47988954
-1.8481915	/ 8	0
-1.3574682	$ 8	0
-3.2053645	<s> 0	-1.2540884
-1.811357	- 0	-0.046775784
-1.9564487	. 0	-0.565673
-1.6044185	, 0	-0.6413751
-2.127915	( 0	-0.05935979
-1.9859555	 0	-0.014494801
-1.1776187	1 0	-0.7226344
-1.2354113	5 0	-0.6122359
-1.28716	3 0	-0.5687287
-1.2400645	9 0	-0.6030618
-1.2642804	8 0	-0.6026879
-1.3401209	0 0	-0.5533664
-1.368049	6 0	-0.5849677
-1.6393731	: 0	-0.33089653
-1.2068112	7 0	-0.57145214
-1.2512466	4 0	-0.59837234
-1.2770216	2 0	-0.6658591
-1.7389073	/ 0	0
-1.3857675	+ 0	-0.27287436
-1.7255065	 0	-0.19454797
-1.8085282	{ 0	0
-1.3587945	_ 0	-0.24195543
-1.1907547	= 0	0
-3.0813947	<s> 6	-1.3973124
-2.7822871	a 6	0
-1.6994531	- 6	-0.048389323
-1.8222097	. 6	-0.38160303
-1.5699725	, 6	-0.54865825
-1.9484458	( 6	0
-2.0227883	 6	-0.043968905
-1.3708391	1 6	-0.61553335
-1.4026304	5 6	-0.50176567
-1.3874389	3 6	-0.54209197
-1.3368804	9 6	-0.525782
-1.3884256	8 6	-0.5215489
-1.5219532	0 6	-0.2698598
-1.3706464	6 6	-0.50587964
-1.5866599	: 6	0
-1.345905	7 6	-0.514144
-1.3515399	4 6	-0.43995976
-1.3707644	2 6	-0.5558988
-1.5309352	$ 6	0
-1.6448277	~ 6	0
-3.232581	<s> '	-1.1376462
-1.8035872	a '	-0.37833536
-1.6887726	n '	-0.32148615
-1.804666	r '	-0.18459028
-1.850947	c '	-0.3543776
-1.944601	h '	-0.22179236
-1.6932082	i '	-0.2886609
-1.7382978	s '	-0.6767992
-1.8362161	m '	-0.29088297
-1.844305	p '	-0.29144055
-1.6375955	o '	-0.3868013
-1.7060446	l '	-0.2689754
-1.7309194	t '	-0.42953473
-1.6344795	y '	-0.32790458
-1.7428977	d '	-0.23525357
-1.9357135	v '	-0.33982113
-1.7369852	e '	-0.6566805
-1.6959361	f '	-0.22181799
-1.9122208	g '	-0.2345624
-1.96068	b '	-0.13748804
-1.7653341	u '	-0.27533475
-1.710111	. '	-0.5543628
-1.687258	, '	-0.6116352
-2.0030007	w '	-0.33982113
-1.6894683	x '	-0.23226465
-1.5289708	" '	-0.15487963
-1.7482171	k '	-0.2050252
-2.2416162	( '	0
-1.7958009	) '	0
-1.9299885	z '	-0.279744
-2.0882068	1 '	0
-1.7631714	0 '	-0.3630998
-1.2098287	' '	-0.3631258
-1.8906285	2 '	0
-1.2656376	? '	0
-1.7501116	­ '	-0.19454797
-1.8681508	¡ '	-0.086470075
-1.8561877	 '	0
-3.2973623	<s> :	-0.8267338
-1.8410528	a :	-0.6988919
-1.9216273	n :	-0.6708144
-1.9728574	r :	-0.522782
-2.128087	c :	-0.56048274
-1.9519584	h :	-0.376654
-1.8562335	i :	-0.7957531
-1.741103	s :	-0.3864453
-1.8408985	m :	-0.83348393
-1.9769962	p :	-0.68945694
-1.8188617	o :	-0.9361463
-1.9647642	l :	-0.92048043
-1.7553568	t :	-0.587754
-1.7090168	y :	-0.5043389
-1.8986766	d :	-0.37306002
-1.7397958	e :	-0.42746666
-1.7684343	f :	-0.7713361
-2.0311942	g :	-0.56048274
-2.0197988	b :	-0.8235704
-1.9622824	u :	-0.9618731
-1.6904747	. :	-0.6988733
-2.2625844	w :	-0.39760166
-1.756475	x :	-0.33089653
-1.5025848	" :	-1.0965717
-1.7522135	k :	-0.580774
-1.2402699	) :	-0.8203267
-1.7867916	1 :	-0.21225928
-1.5988274	5 :	-0.17907563
-1.5619258	3 :	-0.41534728
-1.6217315	9 :	-0.19834094
-1.628833	8 :	-0.18839991
-1.6433487	0 :	-0.23226465
-1.6542931	6 :	-0.20007995
-2.0267346	: :	-0.069268584
-1.6118851	7 :	-0.35799724
-1.6912813	4 :	-0.19834094
-1.7023208	2 :	-0.21463689
-1.9341764	* :	-0.023000067
-2.1574452	<s> â	-2.1882896
-1.8496919	a â	-0.90260804
-1.7441396	n â	-0.84772444
-1.9165422	r â	-0.72355473
-1.9493568	c â	-0.50249076
-1.8837749	h â	-0.39781308
-1.9504993	i â	-0.678582
-1.6400076	s â	-0.9012633
-1.7961334	m â	-0.5239214
-1.9550284	p â	-0.49472308
-1.9863284	o â	-0.58681166
-1.8656609	l â	-0.65739274
-1.8133402	t â	-0.899646
-1.6503944	y â	-1.1246004
-1.8795468	d â	-0.74703586
-2.0882285	v â	-0.5225404
-1.7658178	e â	-0.96914655
-2.0502086	f â	-0.47125483
-1.8521763	g â	-0.42032832
-2.2743123	b â	-0.5225404
-1.987081	u â	-0.3630998
-1.4781845	. â	-1.3184204
-1.2497392	, â	-0.91544026
-2.0777287	w â	-0.12813708
-1.8608657	x â	-0.22175205
-1.4897583	" â	-0.36489022
-1.8832892	k â	-0.8235704
-2.3354583	( â	-0.042012524
-1.3425866	) â	-0.736574
-1.6474837	1 â	-0.61966187
-1.5018436	5 â	-0.7100907
-1.4756471	3 â	-0.66741985
-1.5014704	9 â	-0.9051791
-2.2608836	j â	0
-1.4786676	8 â	-0.6988097
-1.6258456	0 â	-0.5689055
-1.4762175	6 â	-0.76005507
-1.750666	: â	-0.279744
-1.4727157	7 â	-0.79566246
-1.4399539	4 â	-0.48503378
-1.6049069	2 â	-0.70881253
-1.1937414	? â	-0.4489656
-2.01375	/ â	-0.50249076
-1.7799193	+ â	-0.31069657
-1.745704	> â	-0.05569369
-1.4346036	 â	-0.31069657
-2.0080938	= â	-0.19454797
-1.2919184	¥ â	0
-1.6516129	 â	-0.19454797
-3.1014721	<s> 7	-1.322018
-3.0636609	a 7	0
-2.7014983	m 7	-0.042349733
-2.8380866	e 7	-0.086470075
-1.8359996	- 7	-0.041220408
-1.8207788	. 7	-0.42850977
-1.6075299	, 7	-0.6732225
-1.9447961	( 7	-0.0075321626
-2.0086074	 7	-0.030444773
-1.3561931	1 7	-0.6331309
-1.3632249	5 7	-0.49311188
-1.4051903	3 7	-0.37382367
-1.4045622	9 7	-0.47703812
-1.4370325	8 7	-0.5139018
-1.4684361	0 7	-0.3978517
-1.3293859	6 7	-0.53448594
-1.4100916	7 7	-0.5840876
-1.3326197	4 7	-0.3579366
-1.4867688	2 7	-0.48096633
-1.9915094	/ 7	0
-1.5268216	$ 7	0
-1.8684134	~ 7	0
-2.9066741	<s> 4	-1.4606993
-2.7552266	a 4	-0.026954662
-2.4435449	s 4	-0.014494801
-1.6489291	- 4	-0.1400442
-1.8179313	. 4	-0.35495034
-1.6037989	, 4	-0.5796212
-1.9375874	( 4	-0.0248208
-1.9815636	 4	-0.03855901
-1.3831519	1 4	-0.63576275
-1.3262827	5 4	-0.5157795
-1.4869275	3 4	-0.44056195
-1.3341177	9 4	-0.566865
-1.3853915	8 4	-0.47556543
-1.5174747	0 4	-0.2962595
-1.3472061	6 4	-0.5340791
-1.4783753	: 4	0
-1.4319389	7 4	-0.47932065
-1.3307792	4 4	-0.36715525
-1.4310656	2 4	-0.5294982
-1.9332377	/ 4	0
-1.3528725	$ 4	-0.028666526
-1.8730698	+ 4	0
-1.7221528	 4	0
-1.607597	{ 4	0
-1.0430495	# 4	0
-2.2090578	<s> 2	-2.0608606
-2.4366875	a 2	-0.11534928
-2.4054995	r 2	0
-2.352067	s 2	0
-2.2827	m 2	0
-2.4976728	o 2	0
-2.3449738	l 2	-0.110632785
-2.155023	f 2	0
-1.5528772	- 2	-0.5669857
-1.7104802	. 2	-0.6407877
-1.4922326	, 2	-0.6200179
-1.9885597	x 2	-0.032552328
-2.367242	" 2	0
-1.4176903	( 2	-0.22799456
-1.9479403	 2	-0.097233385
-1.2142133	1 2	-0.68386203
-1.3971543	5 2	-0.57356733
-1.4198345	3 2	-0.5423181
-1.3316765	9 2	-0.5572872
-1.3386397	8 2	-0.43663588
-1.4164591	0 2	-0.40485412
-1.3651454	6 2	-0.46712637
-1.357254	: 2	-0.106020994
-1.3612293	7 2	-0.52463365
-1.3283373	4 2	-0.38396657
-1.4287109	2 2	-0.57687676
-1.027493	% 2	-0.56048274
-1.5574449	/ 2	-0.113378055
-1.9105849	* 2	-0.014494801
-1.1349537	$ 2	-0.10104697
-1.4569185	+ 2	0
-1.4968092	> 2	0
-1.696217	 2	0
-1.528095	{ 2	-0.13719037
-1.1717114	_ 2	-0.27482456
-1.2755244	= 2	0
-0.7382535	^ 2	-0.23591286
-1.77613	£ 2	0
-1.6418295	 2	0
-1.3752631	# 2	0
-2.851839	<s> q	-1.4588143
-1.8101531	a q	-0.3923018
-2.2784586	n q	-0.13748804
-2.2567444	r q	-0.23816106
-2.1425235	c q	-0.18400379
-2.3363066	h q	-0.08109742
-1.7347736	i q	-0.3115469
-1.9703329	s q	-0.4643597
-2.2304301	m q	0
-2.089909	o q	-0.3978619
-2.302494	d q	-0.35636273
-1.8001988	e q	-0.44817388
-1.973431	- q	-0.32531124
-1.8939142	u q	-0.2111309
-1.8191916	, q	0
-2.4401054	" q	-0.041086506
-2.4706264	( q	-0.012233105
-1.7533133	q q	-0.08109742
-1.9778633	* q	0
-1.6963326	\ q	-0.7333937
-4.85619	<s> ?	-0.18706432
-2.3806922	n ?	-0.16531785
-1.9474329	s ?	-0.522782
-2.077278	t ?	-0.38593102
-2.0654573	y ?	-0.25655445
-2.1621282	d ?	0
-2.0059898	e ?	-0.5739044
-2.048348	 ³	-0.020057548
-1.3591686	î ³	-0.24562308
-1.3220234	ã ³	-0.28345183
-1.4433234	ð ³	0
-1.1608258	î ±	-0.725893
-1.0557576	ä ±	-0.19378376
-1.7683316	ã ±	-0.14352015
-1.9666929	â ±	-0.020057548
-0.91901946	ø ±	-0.23226465
-2.0659308	 ¦	-0.012233105
-1.4424403	ã ¦	-0.16123131
-2.0842555	 	-0.0918184
-1.7993603	 	-0.19454797
-1.1440436	ê 	0
-1.554852	î ®	-0.23226465
-1.6817697	ã ®	-0.13748804
-5.241131	<s> %	-0.73657393
-2.359425	( %	-0.032552328
-1.6752781	1 %	-0.6335616
-1.5278637	5 %	-0.47889516
-1.5792445	3 %	-0.46153784
-1.530298	9 %	-0.47394377
-1.5716157	8 %	-0.39787447
-1.6300387	0 %	-0.5482208
-1.5324225	6 %	-0.5277579
-1.5944887	7 %	-0.35367084
-1.6045834	4 %	-0.68542147
-1.6903367	2 %	-0.51436746
-1.6076841	î ­	-0.3978619
-1.9633664	¹ ­	0
-1.3594197	ã ­	-0.3756004
-1.2575308	ã ¡	-0.41986498
-1.7839898	é ¡	-0.086470075
-1.0741091	å ¡	-0.14572233
-2.1033876	 	-0.02192776
-2.7849276	â 	-0.19454797
-3.305359	<s> /	-1.0749705
-1.7239078	a /	-0.107733905
-1.9084158	n /	-0.065048955
-2.04211	r /	-0.019985983
-2.0480347	c /	0
-1.8115	h /	0
-1.8236097	i /	-0.14386244
-1.7883625	s /	-0.06356175
-1.7459297	m /	-0.08774549
-2.0102153	p /	0
-2.0275388	o /	-0.054494217
-1.9459373	l /	0
-1.8161912	t /	-0.008791403
-1.755204	y /	-0.012507674
-1.849983	d /	-0.025417263
-1.9212445	v /	0
-1.8068645	e /	-0.17772871
-1.835546	f /	0
-2.2446573	- /	0
-1.7782549	g /	-0.15904538
-1.9046869	b /	0
-1.9117138	u /	-0.13538928
-1.905695	w /	0
-1.8207234	" /	0
-1.9838113	k /	0
-1.6421735	) /	-0.026926842
-1.7398347	1 /	-0.07124621
-1.6924518	5 /	0
-1.6408422	3 /	0
-1.8071629	9 /	0
-1.5818232	j /	-0.030646622
-1.5786167	8 /	0
-1.7072768	0 /	-0.03243452
-1.6035846	6 /	0
-1.9750896	: /	-0.39760166
-1.5654993	7 /	0
-1.7174898	4 /	0
-1.6908983	2 /	-0.06825043
-1.82171	¡ /	0
-2.6095574	/ /	-0.011347779
-0.6382914	< /	-0.42448938
-1.5984613	¸ /	0
-1.7006512	 /	-0.05569369
-1.7661934	² /	-0.086470075
-1.7419494	 /	-0.119594924
-1.8361303	<s> *	-2.2678194
-2.0803285	x *	0
-2.5656939	( *	-0.041086506
-2.3320127	: *	-0.04682102
-1.6821946	* *	-0.16790146
-3.602488	<s> &	-1.4156476
-2.8618402	r &	-0.18089767
-2.7792118	s &	0
-3.1049628	t &	-0.19454797
-2.5648167	b &	-0.18089767
-2.424156	a !	-0.18229605
-2.4052732	n !	0
-2.6612594	r !	0
-2.1716554	s !	-0.19547999
-2.1947153	t !	0
-2.1428103	y !	0
-2.2553372	d !	-0.110632785
-2.0854864	e !	-0.2466325
-2.5745792	w !	0
-1.7667484	\ !	-0.27678657
-3.5958326	<s> $	-1.1641794
-3.1299882	a $	0
-3.2813303	s $	-0.012233105
-2.213364	( $	-0.009323601
-1.7334085	 	-0.041086506
-1.2109655	× 	0
-4.3183975	<s> ï	-0.75686526
-2.6457539	( ï	0
-1.9084448	¼ ï	0
-1.6500248	 ï	0
-1.7791166	½ ï	0
-1.5281774	µ ï	0
-1.7918968	¹ ï	0
-1.94133	± ï	-0.032552328
-1.5307602	® ï	0
-1.4539171	 ï	0
-1.6462624	 ï	-0.05569369
-1.6978937	¸ ï	0
-1.7373632	 ï	0
-1.5859324	º ï	0
-1.8280163	 ï	-0.032552328
-1.8140103	· ï	0
-1.8901014	² ï	-0.086470075
-1.7445244	¿ ï	-0.026954662
-2.1133647	¼ 	0
-0.96375316	ï 	-0.5582646
-1.6264322	å 	0
-1.2295747	ù 	0
-2.14766	â 	0
-1.1653713	ï 	-0.37306002
-1.87725	ã 	0
-2.14766	â 	0
-0.98710036	ï 	-0.58580357
-1.1929754	é 	0
-1.2658325	å 	-0.1440558
-0.8199082	ñ 	-0.19236046
-3.5010836	<s> +	-1.0061998
-2.4777675	a +	0
-2.4791193	e +	-0.020057548
-2.6905866	( +	0
-2.5876153	) +	0
-2.2135155	1 +	0
-2.1771464	0 +	-0.35636273
-1.9707506	2 +	0
-3.9132433	<s> <	-0.7226951
-2.2741222	n <	-0.33982113
-2.2262144	t <	0
-1.6720259	. <	-0.36571905
-1.7543206	, <	0
-2.0180097	 <	-0.19454797
-1.9761431	1 <	-0.8235704
-1.9180439	5 <	-0.56048274
-1.7732071	9 <	0
-2.0464633	0 <	-0.6194504
-1.747894	7 <	-0.87472296
-1.6724552	> <	-0.09930656
-4.7886643	<s> >	-0.509874
-2.856071	r >	-0.04144242
-3.1522977	i >	-0.009323601
-2.6276605	m >	-0.032920692
-2.697392	t >	-0.39760166
-2.477938	- >	-0.12901658
-1.6218405	" >	-0.30607295
-1.8181665	ã °	0
-1.1983875	â °	-0.32422683
-1.1004854	ð °	-0.4659409
-1.1061733	â 	-0.24652937
-1.7815889	 	-0.086470075
-1.9782224	 	-0.0619942
-1.7396137	ê 	0
-1.7649059	 	-0.036324587
-0.9130896	á ¸	-0.10078676
-1.3590306	î ¸	-0.10960186
-1.516364	ã ¸	-0.16367948
-0.9119165	ð ¸	-0.5708538
-4.504502	<s> {	-0.11628508
-2.8656309	n {	-0.023000067
-2.8447573	r {	0
-2.9929402	c {	-0.027914675
-3.0096583	m {	0
-2.7810411	l {	0
-2.4195282	t {	-0.06516699
-2.8014574	d {	0
-2.6123576	e {	-0.06833257
-2.9092517	f {	-0.06318575
-2.9443853	b {	0
-2.6160955	x {	0
-1.078073	_ {	-0.22177066
-0.9993048	} {	-0.3058912
-0.8215491	^ {	-0.22991553
-3.11002	<s> \	-1.3544314
-2.2246022	a \	-0.09304203
-2.3453996	n \	0
-2.198996	c \	0
-2.3413954	i \	0
-2.4453216	s \	0
-2.5282984	m \	0
-2.0915368	p \	0
-2.82947	o \	-0.05569369
-2.6346738	l \	-0.020057548
-2.2177198	t \	-0.05430738
-2.383228	d \	-0.015971256
-2.4438472	e \	-0.026954662
-1.9371227	- \	0
-2.42958	u \	0
-1.5296263	, \	-0.040961325
-1.470165	( \	-0.21855405
-1.5693833	) \	-0.17469825
-1.9423732	z \	0
-1.969712	1 \	0
-2.1829672	3 \	0
-2.0319893	: \	-0.0105819795
-1.9517438	2 \	0
-1.2124487	& \	0
-2.0247223	! \	0
-1.1541426	+ \	-0.012233105
-1.127077	{ \	-0.17662545
-1.8098701	\ \	-0.068543024
-1.206167	_ \	-0.30607295
-1.0635102	} \	-0.109368816
-1.051374	= \	-0.08861834
-1.1262411	^ \	0
-1.107715	| \	0
-0.8295642	~ \	-0.2643115
-5.2314925	<s> _	0
-2.004544	a _	-0.18333887
-2.2255857	n _	-0.18333633
-2.36634	r _	0
-2.159996	c _	-0.05385622
-2.3763192	i _	0
-2.1632059	s _	0
-2.0104318	m _	-0.19960053
-2.2832065	p _	-0.12752928
-2.5549405	o _	-0.041086506
-1.9970517	t _	-0.109223284
-2.0131316	y _	-0.1134565
-2.3289833	d _	0
-2.1830945	v _	-0.07054126
-2.4008791	e _	-0.017782629
-2.1129894	f _	0
-2.3389182	g _	0
-2.385406	b _	0
-2.3594527	u _	0
-1.862745	x _	-0.1543196
-2.1650548	k _	0
-2.0639794	z _	-0.15480524
-1.1738741	} _	-0.3486857
-4.7803397	<s> }	-0.33664364
-2.3926828	a }	-0.152728
-2.0931337	n }	-0.028666526
-2.0238698	r }	-0.16531785
-2.5378492	c }	0
-2.3541648	i }	-0.46828222
-2.2289896	m }	0
-2.2585812	p }	-0.18400379
-2.8620772	o }	0
-2.2989628	t }	-0.06468906
-2.044924	v }	-0.086136624
-2.1950953	e }	-0.011347779
-2.2896192	f }	0
-2.5403123	- }	-0.08109742
-2.4888303	b }	-0.110632785
-2.4461286	u }	-0.20185074
-1.770015	x }	-0.11772686
-2.3406281	k }	0
-1.5242252	) }	-0.5669857
-2.146931	z }	0
-1.9239999	1 }	-0.14572026
-2.078411	5 }	-0.023000067
-1.825306	3 }	0
-2.0422049	j }	0
-1.9651504	0 }	-0.105303355
-1.9044025	4 }	0
-1.777396	2 }	-0.15485616
-1.7514184	q }	0
-1.8161985	\ }	0
-1.147187	} }	-0.38062826
-3.4729264	<s> =	-1.5183451
-2.3411074	r =	0
-2.0817878	c =	0
-2.5446808	i =	-0.026954662
-2.462054	e =	-0.05935979
-2.6245043	g =	-0.041086506
-2.3425777	k =	-0.032552328
-2.4706264	( =	0
-1.9739997	) =	0
-2.2333565	: =	-0.18089767
-2.285986	2 =	0
-1.3439739	} =	0
-4.489689	<s> ^	-0.1875913
-2.1250503	a ^	-0.2931684
-2.2243013	n ^	-0.28391853
-2.1394925	r ^	-0.8235704
-2.232282	c ^	0
-2.400646	s ^	-0.69863164
-2.4217427	l ^	-0.2594527
-2.2074037	y ^	0
-2.7444363	e ^	-0.18089767
-1.9913839	b ^	0
-1.6217413	x ^	-0.1581489
-1.6366287	) ^	-0.30510783
-2.5269258	0 ^	0
-2.314364	2 ^	0
-1.6458986	} ^	-0.1353926
-5.2368207	<s> é	0
-2.171596	k é	-0.69863164
-2.362482	/ é	-0.082434386
-2.0575092	* é	-0.017782629
-1.7709483	ä 	0
-1.573599	ã ¥	-0.119159676
-2.077363	¸ ¥	0
-1.7777568	 ¥	0
-1.127206	à ¥	0
-0.9493339	á »	0
-1.2255673	î »	-0.32193884
-1.3764211	ð »	0
-0.697769	ä 	-0.24142155
-0.9632092	ï 	-0.38716662
-0.8545446	ñ 	-0.74703586
-1.257479	á º	0
-1.2029617	î º	-0.6491724
-1.57638	ã º	-0.08994504
-1.1754991	ð º	-0.3978619
-1.1542102	ä 	0
-1.6081234	ã 	0
-1.0125856	ï 	-0.59413797
-1.7321028	ê 	-0.12813708
-1.2445015	ñ 	0
-1.3003509	î ·	-0.3689108
-1.1502419	â ·	0
-1.5244366	ð ·	-0.43554395
-1.4210032	ã ¢	-0.17481747
-1.4192996	ã §	-0.32625464
-0.80386925	ø §	-0.6116352
-0.8327106	ä «	-0.21904781
-1.3784031	ã «	-0.3978554
-0.94129246	å «	-0.11373162
-1.9150181	¹ £	0
-1.573599	ã £	-0.4116628
-1.8334436	â £	-0.028198956
-1.3784031	ã ¤	-0.19962062
-1.8053199	 ¤	0
-0.5461407	à ¤	-0.08232896
-1.4624801	ä 	-0.022779834
-2.0318382	ã 	-0.11534928
-1.1080759	å 	-0.14649715
-2.7983735	i ì	-0.39760166
-1.1614329	ñ 	0
-4.8323636	<s> ê	0
-2.9225962	t ê	-0.18089767
-2.83767	d ê	-0.31069657
-1.3279284	é 	0
-1.3793757	å 	0
-1.2744204	î ´	-0.24505629
-1.6826596	ã ´	-0.09688885
-1.9782224	 ´	0
-1.6286852	ð ´	-0.33982113
-1.2254658	î ¬	-0.3248043
-2.425045	â ¬	-0.05569369
-1.6817697	ã ª	0
-4.5025206	<s> ð	-0.08166227
-1.9434514	¼ ð	0
-1.9242868	 ð	0
-1.8069777	½ ð	0
-1.8144691	µ ð	0
-1.9185053	 ð	0
-1.9175607	° ð	0
-1.9406892	¸ ð	0
-1.9876059	 ð	0
-1.842911	º ð	0
-1.8442667	· ð	0
-1.7709095	´ ð	0
-1.9197707	² ð	0
-1.8407439	¾ ð	0
-1.3790668	ã ¨	-0.21692362
-1.7963328	é ¨	0
-2.0426419	 	-0.19454797
-2.2163215	ä 	-0.05569369
-1.4044125	ï 	-0.33089653
-1.6535681	ì 	0
-2.0599904	 ²	-0.012233105
-1.359445	î ²	-0.40684554
-1.948112	ã ²	0
-1.5308001	â ²	-0.13748804
-1.0406543	ê ²	-0.15480524
-1.2171434	ð ²	-0.31870234
-1.517276	ã 	-0.19953144
-1.1875795	á ¾	0
-1.6661618	î ¾	0
-1.0401495	ê ¾	0
-1.1012392	ð ¾	-0.5456318
-1.4457841	å ¾	-0.13748804
-1.1547573	ä 	-0.10163414
-1.4747685	ï 	0
-0.8775042	å 	-0.20690432
-0.9870721	á ¿	0
-1.1609132	î ¿	-0.55580777
-1.4613519	ê ¿	0
-1.5254371	ð ¿	0
-4.3403807	<s> å	-0.56805676
-1.8808887	a å	-0.26799256
-1.9381506	r å	-0.32148615
-2.0089636	h å	-0.34663707
-1.8836405	i å	-0.1816917
-2.1441069	s å	-0.105303355
-2.1651418	p å	-0.12901658
-2.0854812	o å	0
-2.0627394	t å	-0.45583522
-1.8667114	y å	-0.36110744
-2.2898316	d å	-0.33982113
-2.0626588	e å	0
-2.3379369	b å	0
-2.0562546	u å	0
-1.9531711	k å	-0.16531785
-2.594175	( å	-0.017782629
-1.7000501	j å	-0.33089653
-1.8413187	â 	-0.14394072
-1.246909	ï 	-0.38363403
-2.0599904	 	0
-2.4174929	â 	-0.14916553
-0.9198607	ï 	-0.19379888
-0.7881718	ù 	0
-4.9866996	<s> ñ	0
-1.8501633	µ ñ	0
-1.963864	° ñ	0
-1.9940954	¸ ñ	0
-2.038054	 ñ	0
-1.8849417	¾ ñ	0
-3.454432	<s> #	-0.8628488
-1.6108861	# #	-0.08109742
-4.533394	<s> |	-0.18877804
-2.421445	t |	0
-2.234436	x |	0
-2.532659	: |	0
-2.3019304	\ |	-0.09930656
-4.1761765	<s> ~	-0.67676926
-2.509688	a ~	0
-2.337397	; ~	-0.19454797
-2.303271	) ~	0
-1.5896595	} ~	-0.376654
-1.7230041	~ ~	-0.31069657
-2.0659308	 	-0.023000067
-2.0599904	 	-0.028593587
-0.4809302	é 	-0.18383564
-0.6261878	è 	0
-4.5808086	<s> ø	0
-2.0480394	± ø	0
-1.8680028	§ ø	0
-5.0599413	<s> ù	0
-1.8810034	§ ù	-0.05569369
-2.096916	 	-0.03855901
-5.0244207	<s> [	0
-1.4449295	å 	0
-1.9895068	¤ 	-0.05569369
-5.2400494	<s> ×	0
-2.7885618	( ×	0
-4.777747	<s> à	-0.4108742
-0.9446739	 à	-0.032552328

\3-grams:
-0.88941246	<s> a </s>	0
-1.092362	a a </s>	0
-1.1982814	n a </s>	0
-1.3928189	r a </s>	0
-1.2849554	c a </s>	0
-1.3355411	h a </s>	0
-1.2386289	i a </s>	0
-1.2578236	s a </s>	0
-1.2705747	m a </s>	0
-1.3256408	p a </s>	0
-0.996355	o a </s>	0
-1.2794367	l a </s>	0
-1.3401299	t a </s>	0
-1.058173	y a </s>	0
-1.2349432	d a </s>	0
-1.2490885	v a </s>	0
-1.26917	e a </s>	0
-1.3495201	f a </s>	0
-1.5609475	- a </s>	0
-1.3331397	g a </s>	0
-1.3273199	b a </s>	0
-1.0029365	u a </s>	0
-1.2470806	w a </s>	0
-1.0978829	x a </s>	0
-1.1320634	" a </s>	0
-1.163354	k a </s>	0
-1.2972009	( a </s>	0
-1.1470785	z a </s>	0
-1.0868895	j a </s>	0
-1.2277721	' a </s>	0
-0.9992272	: a </s>	0
-1.2396896	 a </s>	0
-1.1417397	­ a </s>	0
-1.1660807	* a </s>	0
-0.53751	_ a </s>	0
-2.4554672	<s> n </s>	0
-1.2684559	a n </s>	0
-0.91527677	n n </s>	0
-1.1731598	r n </s>	0
-0.84270287	c n </s>	0
-1.1727206	h n </s>	0
-1.2117567	i n </s>	0
-0.949109	m n </s>	0
-1.1928835	o n </s>	0
-0.75908506	l n </s>	0
-1.0323081	y n </s>	0
-1.3321464	e n </s>	0
-1.1883472	g n </s>	0
-0.5760059	b n </s>	0
-1.2064575	u n </s>	0
-1.0973486	w n </s>	0
-1.0741439	³ n </s>	0
-1.0340002	­ n </s>	0
-0.9375662	¡ n </s>	0
-0.6416958	_ n </s>	0
-0.3596416	^ n </s>	0
-0.8737887	 n </s>	0
-2.698705	<s> r </s>	0
-1.3762488	a r </s>	0
-1.0846264	r r </s>	0
-1.0856986	h r </s>	0
-1.1308155	i r </s>	0
-0.8838256	s r </s>	0
-0.77379066	m r </s>	0
-1.505858	p r </s>	0
-1.2746339	o r </s>	0
-0.7069559	l r </s>	0
-1.4761304	t r </s>	0
-1.1906623	y r </s>	0
-1.3135858	d r </s>	0
-1.3987478	e r </s>	0
-1.428777	f r </s>	0
-1.1454833	b r </s>	0
-1.2979783	u r </s>	0
-1.0731033	k r </s>	0
-0.95516026	( r </s>	0
-1.1330847	¼ r </s>	0
-0.80689275	« r </s>	0
-2.904068	<s> c </s>	0
-1.3108377	a c </s>	0
-1.2116082	n c </s>	0
-1.0462112	r c </s>	0
-0.8759558	c c </s>	0
-1.2062694	i c </s>	0
-1.102512	s c </s>	0
-1.3046918	m c </s>	0
-0.70896274	p c </s>	0
-1.2302368	o c </s>	0
-0.9324029	t c </s>	0
-0.89359117	d c </s>	0
-1.1962136	e c </s>	0
-0.7332438	f c </s>	0
-0.9705794	g c </s>	0
-0.8495568	b c </s>	0
-1.4975511	u c </s>	0
-1.0192043	° c </s>	0
-0.7715328	¬ c </s>	0
-2.8916864	<s> h </s>	0
-0.99673253	a h </s>	0
-0.76060665	n h </s>	0
-1.3361877	c h </s>	0
-0.886363	i h </s>	0
-1.3062158	s h </s>	0
-1.223511	p h </s>	0
-0.90478206	o h </s>	0
-1.1183404	t h </s>	0
-1.085827	d h </s>	0
-0.9543313	e h </s>	0
-1.0703396	g h </s>	0
-0.92174715	b h </s>	0
-1.0927548	u h </s>	0
-1.2157133	w h </s>	0
-1.0980631	k h </s>	0
-0.99621767	 h </s>	0
-2.110527	<s> i </s>	0
-1.1745437	a i </s>	0
-1.2629467	n i </s>	0
-1.3269525	r i </s>	0
-1.209503	c i </s>	0
-1.2427474	h i </s>	0
-0.91659623	i i </s>	0
-1.3268219	s i </s>	0
-1.2521157	m i </s>	0
-1.3184516	p i </s>	0
-1.0942634	o i </s>	0
-1.4069098	l i </s>	0
-1.3439113	t i </s>	0
-0.87609917	y i </s>	0
-1.2601825	d i </s>	0
-1.3184508	v i </s>	0
-1.1825993	e i </s>	0
-1.3289124	f i </s>	0
-1.1460516	- i </s>	0
-1.2864513	g i </s>	0
-1.3008562	b i </s>	0
-1.1036981	u i </s>	0
-1.6458821	w i </s>	0
-1.2941282	x i </s>	0
-0.9852512	" i </s>	0
-1.1103128	k i </s>	0
-1.1024495	z i </s>	0
-0.9909809	j i </s>	0
-0.9028925	' i </s>	0
-0.85467553	q i </s>	0
-0.7367979	_ i </s>	0
-2.8051763	<s> s </s>	0
-1.1647946	a s </s>	0
-1.1100837	n s </s>	0
-1.0626771	r s </s>	0
-0.923519	c s </s>	0
-0.8686993	h s </s>	0
-1.2516968	i s </s>	0
-1.1262197	s s </s>	0
-1.0094965	m s </s>	0
-1.0271274	p s </s>	0
-1.150219	o s </s>	0
-1.0556095	l s </s>	0
-1.1495987	t s </s>	0
-1.0890104	y s </s>	0
-1.0097389	d s </s>	0
-0.8693855	v s </s>	0
-1.2453383	e s </s>	0
-0.8201015	f s </s>	0
-0.82982725	g s </s>	0
-0.8455988	b s </s>	0
-1.18187	u s </s>	0
-1.0532594	w s </s>	0
-0.9467236	k s </s>	0
-1.1223999	© s </s>	0
-0.753142	0 s </s>	0
-0.41760528	6 s </s>	0
-0.41438255	' s </s>	0
-0.5315825	7 s </s>	0
-1.1286871	¡ s </s>	0
-1.1164967	/ s </s>	0
-0.85971546	« s </s>	0
-0.8676815	¨ s </s>	0
-1.0327595	 s </s>	0
-2.6713197	<s> m </s>	0
-1.1663871	a m </s>	0
-1.0516335	r m </s>	0
-0.7598442	c m </s>	0
-0.91909164	h m </s>	0
-1.1112396	i m </s>	0
-1.1671693	s m </s>	0
-0.7637516	m m </s>	0
-0.86669993	p m </s>	0
-1.1591763	o m </s>	0
-1.1113355	l m </s>	0
-1.0735065	t m </s>	0
-1.3202579	y m </s>	0
-1.0993162	e m </s>	0
-0.84950334	f m </s>	0
-0.87029785	g m </s>	0
-1.1403737	b m </s>	0
-1.1508768	u m </s>	0
-0.850518	k m </s>	0
-1.1862298	' m </s>	0
-1.1188891	/ m </s>	0
-2.8719049	<s> p </s>	0
-1.1856642	a p </s>	0
-0.9605641	r p </s>	0
-1.1376144	i p </s>	0
-1.3984445	s p </s>	0
-1.0171726	m p </s>	0
-0.92596364	p p </s>	0
-1.2517228	o p </s>	0
-1.0667131	l p </s>	0
-0.88176113	t p </s>	0
-1.0394578	d p </s>	0
-1.2342287	e p </s>	0
-0.96910435	u p </s>	0
-1.0174726	( p </s>	0
-3.3551977	<s> o </s>	0
-0.837612	a o </s>	0
-1.2483287	n o </s>	0
-1.4472388	r o </s>	0
-1.3860521	c o </s>	0
-1.3697075	h o </s>	0
-1.184391	i o </s>	0
-1.2215984	s o </s>	0
-1.3874949	m o </s>	0
-1.346586	p o </s>	0
-1.073556	o o </s>	0
-1.4345186	l o </s>	0
-1.2340797	t o </s>	0
-1.218586	y o </s>	0
-1.364535	d o </s>	0
-1.1586925	v o </s>	0
-1.0853513	e o </s>	0
-1.4393967	f o </s>	0
-1.2518561	g o </s>	0
-1.4511744	b o </s>	0
-0.7967472	u o </s>	0
-1.397593	w o </s>	0
-1.0343585	k o </s>	0
-1.0563854	z o </s>	0
-1.0886385	j o </s>	0
-0.9602237	£ o </s>	0
-2.7313442	<s> l </s>	0
-1.3931752	a l </s>	0
-0.9851348	r l </s>	0
-1.0855262	c l </s>	0
-1.0039661	h l </s>	0
-1.200204	i l </s>	0
-1.1671396	s l </s>	0
-0.79787755	m l </s>	0
-1.1897378	p l </s>	0
-1.235958	o l </s>	0
-1.2457503	l l </s>	0
-1.238806	t l </s>	0
-0.9271612	y l </s>	0
-0.91688836	d l </s>	0
-1.3073746	e l </s>	0
-1.3798393	f l </s>	0
-1.2427601	u l </s>	0
-1.1633805	w l </s>	0
-1.125751	/ l </s>	0
-3.6319242	<s> t </s>	0
-1.1737866	a t </s>	0
-1.1863223	n t </s>	0
-1.1446854	r t </s>	0
-1.2554643	c t </s>	0
-1.1900978	h t </s>	0
-1.1264102	i t </s>	0
-1.2845334	s t </s>	0
-1.0802611	p t </s>	0
-1.2704197	o t </s>	0
-1.1953886	l t </s>	0
-1.1278383	t t </s>	0
-0.73294073	d t </s>	0
-1.2581017	e t </s>	0
-1.0382652	f t </s>	0
-0.79748774	g t </s>	0
-0.9122251	b t </s>	0
-1.198223	u t </s>	0
-1.1661115	x t </s>	0
-1.1835707	k t </s>	0
-1.1267836	' t </s>	0
-0.48342472	& t </s>	0
-1.9514098	<s> y </s>	0
-1.1532495	a y </s>	0
-1.0175449	n y </s>	0
-1.1145356	r y </s>	0
-1.2032174	c y </s>	0
-1.1883062	h y </s>	0
-1.1433072	i y </s>	0
-0.9932939	s y </s>	0
-0.9668109	m y </s>	0
-0.8956119	p y </s>	0
-1.1350176	o y </s>	0
-1.090056	l y </s>	0
-1.1135215	t y </s>	0
-1.0708815	d y </s>	0
-0.6983727	v y </s>	0
-1.0352484	e y </s>	0
-0.82590747	f y </s>	0
-1.0220642	g y </s>	0
-0.6905551	b y </s>	0
-0.9487091	u y </s>	0
-1.0185201	w y </s>	0
-0.85909605	x y </s>	0
-1.0409452	k y </s>	0
-0.8489201	z y </s>	0
-2.8388088	<s> d </s>	0
-1.1872251	a d </s>	0
-1.2350569	n d </s>	0
-1.1681206	r d </s>	0
-0.7427151	c d </s>	0
-0.9310822	h d </s>	0
-1.1268055	i d </s>	0
-1.3097051	s d </s>	0
-0.8234731	m d </s>	0
-1.2194912	o d </s>	0
-1.1183697	l d </s>	0
-0.86902153	t d </s>	0
-1.216377	y d </s>	0
-1.0095228	d d </s>	0
-0.60340255	v d </s>	0
-1.1830766	e d </s>	0
-1.034473	b d </s>	0
-1.0303864	u d </s>	0
-0.6629902	w d </s>	0
-0.5335991	3 d </s>	0
-0.43889964	' d </s>	0
-0.7813128	2 d </s>	0
-1.9166725	<s> v </s>	0
-1.428686	a v </s>	0
-0.929729	r v </s>	0
-1.0620222	i v </s>	0
-1.0010974	o v </s>	0
-0.7020268	t v </s>	0
-1.0607566	e v </s>	0
-0.8340125	w v </s>	0
-0.6359485	5 v </s>	0
-0.6359485	2 v </s>	0
-2.8005843	<s> e </s>	0
-1.1358963	a e </s>	0
-1.3375227	n e </s>	0
-1.427014	r e </s>	0
-1.2452105	c e </s>	0
-1.2268587	h e </s>	0
-1.1857369	i e </s>	0
-1.4024534	s e </s>	0
-1.2799302	m e </s>	0
-1.3648901	p e </s>	0
-1.0683513	o e </s>	0
-1.3415594	l e </s>	0
-1.3192562	t e </s>	0
-1.0346811	y e </s>	0
-1.2212498	d e </s>	0
-1.3563559	v e </s>	0
-1.1542547	e e </s>	0
-1.3928607	f e </s>	0
-1.3062866	g e </s>	0
-1.297396	b e </s>	0
-1.0863972	u e </s>	0
-1.2650424	w e </s>	0
-1.316041	x e </s>	0
-1.1297041	k e </s>	0
-1.1510172	z e </s>	0
-1.157126	© e </s>	0
-1.1827006	j e </s>	0
-2.8328114	<s> f </s>	0
-1.122286	a f </s>	0
-0.99409896	r f </s>	0
-0.8801711	i f </s>	0
-0.9544492	s f </s>	0
-0.89329994	o f </s>	0
-0.9695044	l f </s>	0
-0.92290735	t f </s>	0
-1.0242977	d f </s>	0
-1.173636	e f </s>	0
-0.9828559	f f </s>	0
-1.0261902	u f </s>	0
-0.71043617	z f </s>	0
-0.5889286	q f </s>	0
-0.7465242	° f </s>	0
-0.21559893	<s> - </s>	0
-1.3330271	a - </s>	0
-1.1793851	n - </s>	0
-1.3024085	i - </s>	0
-1.1739635	m - </s>	0
-1.4369696	l - </s>	0
-1.588122	t - </s>	0
-1.6494298	e - </s>	0
-0.9809665	- - </s>	0
-0.50270844	/ - </s>	0
-2.7995534	<s> g </s>	0
-1.2188324	a g </s>	0
-1.0979087	n g </s>	0
-1.0830177	r g </s>	0
-1.0772041	i g </s>	0
-0.7734035	m g </s>	0
-0.7384709	p g </s>	0
-1.2890248	o g </s>	0
-1.1695461	e g </s>	0
-0.9931168	g g </s>	0
-1.182301	u g </s>	0
-0.7643024	k g </s>	0
-2.6825056	<s> b </s>	0
-1.1805086	a b </s>	0
-1.1693184	r b </s>	0
-1.0385207	i b </s>	0
-1.0576937	s b </s>	0
-1.1471581	m b </s>	0
-1.1014994	o b </s>	0
-1.0007132	l b </s>	0
-0.8949711	v b </s>	0
-1.0616037	e b </s>	0
-0.8562468	g b </s>	0
-1.2034321	b b </s>	0
-1.070888	u b </s>	0
-1.241879	k b </s>	0
-0.89750314	& b </s>	0
-0.48768795	_ b </s>	0
-2.8474455	<s> u </s>	0
-1.2731714	a u </s>	0
-1.1715058	n u </s>	0
-1.2696532	r u </s>	0
-1.7040076	c u </s>	0
-1.1837585	h u </s>	0
-0.93699396	i u </s>	0
-1.19401	s u </s>	0
-1.2305428	m u </s>	0
-1.1741815	p u </s>	0
-1.2741266	o u </s>	0
-1.2277346	l u </s>	0
-1.1579483	t u </s>	0
-1.1263759	y u </s>	0
-1.231872	d u </s>	0
-1.2537261	e u </s>	0
-1.3128688	f u </s>	0
-1.1897843	- u </s>	0
-1.3953934	g u </s>	0
-1.3281817	b u </s>	0
-1.1668953	k u </s>	0
-1.2313951	z u </s>	0
-0.13209121	<s> . </s>	0
-0.4843667	a . </s>	0
-0.5506475	n . </s>	0
-0.45452994	r . </s>	0
-0.5181673	c . </s>	0
-0.45661178	h . </s>	0
-0.3671356	i . </s>	0
-0.59552073	s . </s>	0
-0.4203328	m . </s>	0
-0.462025	p . </s>	0
-0.37536296	o . </s>	0
-0.5504484	l . </s>	0
-0.6036325	t . </s>	0
-0.49521542	y . </s>	0
-0.49969956	d . </s>	0
-0.42459065	v . </s>	0
-0.62269515	e . </s>	0
-0.43168348	f . </s>	0
-0.17843308	- . </s>	0
-0.5425565	g . </s>	0
-0.34488192	b . </s>	0
-0.32889912	u . </s>	0
-0.75095284	. . </s>	0
-0.56397724	w . </s>	0
-0.30002722	x . </s>	0
-0.13867159	" . </s>	0
-0.27267772	k . </s>	0
-0.11216197	) . </s>	0
-0.09967702	z . </s>	0
-0.8667566	1 . </s>	0
-0.8797929	5 . </s>	0
-0.8363057	3 . </s>	0
-0.8852502	9 . </s>	0
-0.59039235	© . </s>	0
-0.47330353	j . </s>	0
-0.8533474	8 . </s>	0
-0.918076	0 . </s>	0
-0.72068644	6 . </s>	0
-0.2277857	' . </s>	0
-0.86674166	7 . </s>	0
-0.8434726	4 . </s>	0
-0.784	2 . </s>	0
-0.24321581	q . </s>	0
-0.10975136	% . </s>	0
-0.063559055	/ . </s>	0
-0.4883879	* . </s>	0
-0.30018032	° . </s>	0
-0.054244287	} . </s>	0
-0.19589657	« . </s>	0
-0.19589657	~ . </s>	0
-0.0014413643	<s> , </s>	0
-0.1338917	a , </s>	0
-0.13645482	n , </s>	0
-0.07073476	r , </s>	0
-0.055399273	c , </s>	0
-0.041127283	h , </s>	0
-0.0530014	i , </s>	0
-0.15769461	s , </s>	0
-0.10716256	m , </s>	0
-0.10452275	p , </s>	0
-0.020520309	o , </s>	0
-0.14041047	l , </s>	0
-0.10891727	t , </s>	0
-0.17063805	y , </s>	0
-0.16760679	d , </s>	0
-0.036573004	v , </s>	0
-0.20645916	e , </s>	0
-0.054817356	f , </s>	0
-0.013403913	- , </s>	0
-0.091971	g , </s>	0
-0.05516278	b , </s>	0
-0.04259728	u , </s>	0
-0.079452366	. , </s>	0
-0.08690622	w , </s>	0
-0.1713616	x , </s>	0
-0.020899707	" , </s>	0
-0.10586535	k , </s>	0
-0.45047647	( , </s>	0
-0.039744027	) , </s>	0
-0.034759775	z , </s>	0
-0.6383367	1 , </s>	0
-0.6888445	5 , </s>	0
-0.59958893	3 , </s>	0
-0.7237244	9 , </s>	0
-0.15106705	© , </s>	0
-0.057621036	j , </s>	0
-0.63797754	8 , </s>	0
-0.66385674	0 , </s>	0
-0.7059427	6 , </s>	0
-0.014413445	' , </s>	0
-0.6892837	7 , </s>	0
-0.660749	4 , </s>	0
-0.5877295	2 , </s>	0
-0.050693832	q , </s>	0
-0.05844417	? , </s>	0
-0.2246228	³ , </s>	0
-0.17756923	± , </s>	0
-0.04007062	% , </s>	0
-0.27483487	­ , </s>	0
-0.108096786	¡ , </s>	0
-0.02403664	/ , </s>	0
-0.068997905	! , </s>	0
-0.084217705	 , </s>	0
-0.19305788	° , </s>	0
-0.33931822	\ , </s>	0
-0.07689498	} , </s>	0
-0.15106705	 , </s>	0
-0.108096786	« , </s>	0
-0.27483487	 , </s>	0
-0.084217705	² , </s>	0
-0.19305788	 , </s>	0
-3.1491978	<s> w </s>	0
-1.014097	a w </s>	0
-0.93624467	m w </s>	0
-1.0613306	o w </s>	0
-1.0506653	e w </s>	0
-1.1649334	k w </s>	0
-0.68740463	<s> x </s>	0
-0.84084857	a x </s>	0
-0.5159794	n x </s>	0
-0.69378984	r x </s>	0
-0.7471628	i x </s>	0
-0.18500334	p x </s>	0
-0.8973465	o x </s>	0
-0.5467796	y x </s>	0
-0.9789357	e x </s>	0
-0.76466835	u x </s>	0
-2.3005123	<s> " </s>	0
-0.5122448	a " </s>	0
-0.46625304	n " </s>	0
-0.6145852	r " </s>	0
-0.44544512	c " </s>	0
-0.5098842	h " </s>	0
-0.45242652	i " </s>	0
-0.6214469	s " </s>	0
-0.5663125	m " </s>	0
-0.5115048	p " </s>	0
-0.4474751	o " </s>	0
-0.53180516	l " </s>	0
-0.58260465	t " </s>	0
-0.5082527	y " </s>	0
-0.5959841	d " </s>	0
-0.5977521	e " </s>	0
-0.43008918	f " </s>	0
-0.3378567	- " </s>	0
-0.53102446	g " </s>	0
-0.37969163	b " </s>	0
-0.3979094	u " </s>	0
-0.2096489	. " </s>	0
-0.06741762	, " </s>	0
-0.6409011	w " </s>	0
-0.29485753	x " </s>	0
-0.45539367	k " </s>	0
-0.3860879	) " </s>	0
-0.2489852	0 " </s>	0
-0.4802546	' " </s>	0
-0.19749102	? " </s>	0
-0.30380616	! " </s>	0
-2.147149	<s> k </s>	0
-1.1139685	a k </s>	0
-1.0716472	n k </s>	0
-0.98209196	r k </s>	0
-1.2397895	c k </s>	0
-1.0401909	i k </s>	0
-1.1277803	s k </s>	0
-1.0590265	p k </s>	0
-1.0797604	o k </s>	0
-1.0968103	l k </s>	0
-0.88354474	e k </s>	0
-0.9146285	u k </s>	0
-1.0226592	w k </s>	0
-1.1095016	j k </s>	0
-0.3869015	_ k </s>	0
-2.251895	<s> ( </s>	0
-1.4663155	t ( </s>	0
-0.1917474	<s> ; </s>	0
-0.02263781	a ; </s>	0
-0.017655628	n ; </s>	0
-0.06629935	r ; </s>	0
-0.04146432	c ; </s>	0
-0.031901862	h ; </s>	0
-0.030917995	i ; </s>	0
-0.053458344	s ; </s>	0
-0.040891666	m ; </s>	0
-0.031901862	p ; </s>	0
-0.040891666	o ; </s>	0
-0.10366328	l ; </s>	0
-0.029141327	t ; </s>	0
-0.02755784	y ; </s>	0
-0.05618553	d ; </s>	0
-0.024856653	e ; </s>	0
-0.03605955	f ; </s>	0
-0.048776902	g ; </s>	0
-0.044479698	. ; </s>	0
-0.10373345	w ; </s>	0
-0.021670628	" ; </s>	0
-0.044479698	k ; </s>	0
-0.17987734	( ; </s>	0
-0.010700189	) ; </s>	0
-0.035211843	1 ; </s>	0
-0.020237483	5 ; </s>	0
-0.048758626	3 ; </s>	0
-0.023704026	9 ; </s>	0
-0.028604148	8 ; </s>	0
-0.040891666	0 ; </s>	0
-0.044479698	6 ; </s>	0
-0.023704026	' ; </s>	0
-0.023704026	7 ; </s>	0
-0.040891666	4 ; </s>	0
-0.044479698	2 ; </s>	0
-1.1603717	ã ¼ </s>	0
-1.4051228	â  </s>	0
-0.7875842	ï  </s>	0
-0.66457355	î ½ </s>	0
-0.27817237	<s> ) </s>	0
-0.5186053	a ) </s>	0
-0.49121392	n ) </s>	0
-0.4218637	r ) </s>	0
-0.5105246	c ) </s>	0
-0.47473258	h ) </s>	0
-0.48204288	i ) </s>	0
-0.55335546	s ) </s>	0
-0.45585227	m ) </s>	0
-0.39000946	p ) </s>	0
-0.41930637	o ) </s>	0
-0.43172097	l ) </s>	0
-0.48258433	t ) </s>	0
-0.5207047	y ) </s>	0
-0.3881789	d ) </s>	0
-0.36293948	v ) </s>	0
-0.5497912	e ) </s>	0
-0.4992428	f ) </s>	0
-0.49769562	g ) </s>	0
-0.4230713	b ) </s>	0
-0.32454765	u ) </s>	0
-0.27008316	. ) </s>	0
-0.340448	w ) </s>	0
-0.4325685	x ) </s>	0
-0.51989543	" ) </s>	0
-0.45596737	k ) </s>	0
-0.38719678	) ) </s>	0
-0.41932917	z ) </s>	0
-0.5463299	1 ) </s>	0
-0.5464726	5 ) </s>	0
-0.56877756	3 ) </s>	0
-0.5070976	9 ) </s>	0
-0.6373177	8 ) </s>	0
-0.5484972	0 ) </s>	0
-0.5408549	6 ) </s>	0
-0.5021852	' ) </s>	0
-0.521599	7 ) </s>	0
-0.53819805	4 ) </s>	0
-0.53422433	2 ) </s>	0
-0.4050907	q ) </s>	0
-0.24544229	? ) </s>	0
-0.4269175	± ) </s>	0
-0.5828186	% ) </s>	0
-0.6604896	 ) </s>	0
-0.3542687	} ) </s>	0
-1.1474657	  </s>	0
-0.8203137	ä  </s>	0
-1.0897541	ã ¶ </s>	0
-0.83601797	î ¹ </s>	0
-1.6177492	<s> z </s>	0
-1.0166521	a z </s>	0
-0.9927704	n z </s>	0
-0.5936041	h z </s>	0
-0.9766892	i z </s>	0
-0.8613565	s z </s>	0
-1.1017076	o z </s>	0
-0.96372265	t z </s>	0
-0.81153536	e z </s>	0
-0.99381244	u z </s>	0
-0.98864084	z z </s>	0
-1.5946852	<s> 1 </s>	0
-0.6485367	a 1 </s>	0
-1.0081724	- 1 </s>	0
-1.1159797	. 1 </s>	0
-1.108732	, 1 </s>	0
-1.2797031	( 1 </s>	0
-1.1330166	 1 </s>	0
-1.013859	1 1 </s>	0
-0.89528656	5 1 </s>	0
-0.84096944	3 1 </s>	0
-0.8460141	9 1 </s>	0
-0.85648894	8 1 </s>	0
-0.938288	0 1 </s>	0
-0.79344964	6 1 </s>	0
-0.84546494	: 1 </s>	0
-0.8425986	7 1 </s>	0
-0.8213859	4 1 </s>	0
-0.8707584	2 1 </s>	0
-1.0534936	$ 1 </s>	0
-0.864014	+ 1 </s>	0
-0.43695253	_ 1 </s>	0
-0.5367489	# 1 </s>	0
-0.9611832	<s> 5 </s>	0
-0.65857476	- 5 </s>	0
-0.92714345	. 5 </s>	0
-0.9722477	1 5 </s>	0
-0.83508253	5 5 </s>	0
-0.8460005	3 5 </s>	0
-0.8216066	9 5 </s>	0
-0.8432051	8 5 </s>	0
-0.842536	0 5 </s>	0
-0.78396237	6 5 </s>	0
-0.845718	7 5 </s>	0
-0.83420056	4 5 </s>	0
-0.9435204	2 5 </s>	0
-1.0030652	<s> 3 </s>	0
-0.7154107	- 3 </s>	0
-0.91459537	. 3 </s>	0
-1.2156589	( 3 </s>	0
-0.95622975	1 3 </s>	0
-0.86021817	5 3 </s>	0
-0.7991587	3 3 </s>	0
-0.8320574	9 3 </s>	0
-0.7881914	8 3 </s>	0
-0.8172976	0 3 </s>	0
-0.72935855	6 3 </s>	0
-0.79953295	7 3 </s>	0
-0.80455005	4 3 </s>	0
-0.80975795	2 3 </s>	0
-0.7669267	+ 3 </s>	0
-0.9328134	<s> 9 </s>	0
-0.96044976	. 9 </s>	0
-1.0732646	1 9 </s>	0
-0.8038312	5 9 </s>	0
-0.83136934	3 9 </s>	0
-0.7831936	9 9 </s>	0
-0.7799015	8 9 </s>	0
-0.8594419	0 9 </s>	0
-0.7790302	6 9 </s>	0
-0.8056283	7 9 </s>	0
-0.802333	4 9 </s>	0
-0.8224851	2 9 </s>	0
-1.2589247	<s> ã </s>	0
-1.7083685	l ã </s>	0
-1.1479306	t ã </s>	0
-0.9980023	ã © </s>	0
-2.5526452	<s> j </s>	0
-1.1625295	a j </s>	0
-1.0677384	i j </s>	0
-1.136602	d j </s>	0
-0.9860832	e j </s>	0
-0.79641974	<s> 8 </s>	0
-0.8987716	a 8 </s>	0
-0.8618908	r 8 </s>	0
-0.5967632	- 8 </s>	0
-0.8812353	. 8 </s>	0
-1.0330125	 8 </s>	0
-1.0075111	1 8 </s>	0
-0.84782714	5 8 </s>	0
-0.8490076	3 8 </s>	0
-0.7999836	9 8 </s>	0
-0.878834	8 8 </s>	0
-0.82605994	0 8 </s>	0
-0.77290773	6 8 </s>	0
-0.7789815	7 8 </s>	0
-0.7549869	4 8 </s>	0
-0.8195245	2 8 </s>	0
-0.970036	<s> 0 </s>	0
-1.067625	. 0 </s>	0
-1.0073105	 0 </s>	0
-0.88756204	1 0 </s>	0
-0.91598386	5 0 </s>	0
-0.8791934	3 0 </s>	0
-0.92717403	9 0 </s>	0
-0.8974854	8 0 </s>	0
-1.1180516	0 0 </s>	0
-0.86938334	6 0 </s>	0
-0.861301	7 0 </s>	0
-0.8849753	4 0 </s>	0
-0.922775	2 0 </s>	0
-0.5901711	_ 0 </s>	0
-0.8932003	<s> 6 </s>	0
-0.754963	- 6 </s>	0
-0.9366115	. 6 </s>	0
-1.0215402	 6 </s>	0
-0.86157596	1 6 </s>	0
-0.81660515	5 6 </s>	0
-0.84794044	3 6 </s>	0
-0.79685616	9 6 </s>	0
-0.76155984	8 6 </s>	0
-0.81070423	0 6 </s>	0
-0.8001582	6 6 </s>	0
-0.77556956	7 6 </s>	0
-0.74924886	4 6 </s>	0
-0.79835474	2 6 </s>	0
-0.8782693	a ' </s>	0
-0.859789	n ' </s>	0
-0.77732086	r ' </s>	0
-0.71524805	c ' </s>	0
-0.8649774	h ' </s>	0
-0.60441846	s ' </s>	0
-0.5978574	m ' </s>	0
-0.8599825	o ' </s>	0
-0.76850253	l ' </s>	0
-0.71844095	t ' </s>	0
-0.6389599	y ' </s>	0
-0.70997095	d ' </s>	0
-0.67657065	e ' </s>	0
-0.6480125	g ' </s>	0
-0.50475556	. ' </s>	0
-0.107617974	, ' </s>	0
-0.4297917	" ' </s>	0
-0.6801584	' ' </s>	0
-0.42074215	<s> : </s>	0
-0.07591905	a : </s>	0
-0.08149525	n : </s>	0
-0.11952116	r : </s>	0
-0.10822924	c : </s>	0
-0.17836848	h : </s>	0
-0.05964353	i : </s>	0
-0.1792192	s : </s>	0
-0.0543559	m : </s>	0
-0.09910059	p : </s>	0
-0.04233352	o : </s>	0
-0.043969847	l : </s>	0
-0.10081229	t : </s>	0
-0.12553124	y : </s>	0
-0.18020527	d : </s>	0
-0.15467234	e : </s>	0
-0.06335678	f : </s>	0
-0.10822924	g : </s>	0
-0.055694923	b : </s>	0
-0.039783485	u : </s>	0
-0.07592259	. : </s>	0
-0.16810422	w : </s>	0
-0.20359513	x : </s>	0
-0.028813165	" : </s>	0
-0.10265469	k : </s>	0
-0.056140628	) : </s>	0
-0.38206336	1 : </s>	0
-0.32869303	5 : </s>	0
-0.38405743	3 : </s>	0
-0.30787694	9 : </s>	0
-0.31837812	8 : </s>	0
-0.33153582	0 : </s>	0
-0.45830786	6 : </s>	0
-0.6506841	: : </s>	0
-0.29905614	7 : </s>	0
-0.30787694	4 : </s>	0
-0.40792975	2 : </s>	0
-0.6205432	* : </s>	0
-2.062848	<s> â </s>	0
-0.47039434	a â </s>	0
-0.34978467	n â </s>	0
-0.59115833	r â </s>	0
-0.31018028	c â </s>	0
-0.4771161	h â </s>	0
-0.5547623	i â </s>	0
-0.33959222	s â </s>	0
-0.41343442	m â </s>	0
-0.39450118	o â </s>	0
-0.40593588	l â </s>	0
-0.4054688	t â </s>	0
-0.31834278	y â </s>	0
-0.45826393	d â </s>	0
-0.3610469	e â </s>	0
-0.40673235	f â </s>	0
-0.7352741	g â </s>	0
-0.24603842	. â </s>	0
-0.25363302	, â </s>	0
-0.2646407	x â </s>	0
-0.4737642	k â </s>	0
-0.500101	) â </s>	0
-0.45282355	1 â </s>	0
-0.42608088	5 â </s>	0
-0.3751794	3 â </s>	0
-0.42511773	9 â </s>	0
-0.38606855	8 â </s>	0
-0.50057185	0 â </s>	0
-0.42197776	6 â </s>	0
-0.2213153	: â </s>	0
-0.45978194	7 â </s>	0
-0.35900503	4 â </s>	0
-0.41657212	2 â </s>	0
-0.20190005	+ â </s>	0
-0.20190005	 â </s>	0
-0.28886515	= â </s>	0
-0.94741136	<s> 7 </s>	0
-0.9461617	. 7 </s>	0
-1.0815868	 7 </s>	0
-0.9752421	1 7 </s>	0
-0.83188564	5 7 </s>	0
-0.85530424	3 7 </s>	0
-0.84021384	9 7 </s>	0
-0.8227129	8 7 </s>	0
-0.89116466	0 7 </s>	0
-0.7825881	6 7 </s>	0
-0.82339317	7 7 </s>	0
-0.8158535	4 7 </s>	0
-0.82787204	2 7 </s>	0
-0.91240805	<s> 4 </s>	0
-0.8815949	a 4 </s>	0
-0.7275343	- 4 </s>	0
-0.9587914	. 4 </s>	0
-1.3062928	, 4 </s>	0
-1.0685335	( 4 </s>	0
-0.97876203	1 4 </s>	0
-0.82245666	5 4 </s>	0
-0.82199377	3 4 </s>	0
-0.7168184	9 4 </s>	0
-0.8285699	8 4 </s>	0
-0.83700967	0 4 </s>	0
-0.83416325	6 4 </s>	0
-0.82556635	7 4 </s>	0
-0.7512113	4 4 </s>	0
-0.87662035	2 4 </s>	0
-1.4204098	<s> 2 </s>	0
-0.5414026	a 2 </s>	0
-0.5533185	l 2 </s>	0
-0.8524809	- 2 </s>	0
-1.0300907	. 2 </s>	0
-1.0239096	( 2 </s>	0
-1.1158459	 2 </s>	0
-0.87470615	1 2 </s>	0
-0.7600267	5 2 </s>	0
-0.86501205	3 2 </s>	0
-0.75442797	9 2 </s>	0
-0.8128625	8 2 </s>	0
-0.8593962	0 2 </s>	0
-0.8283285	6 2 </s>	0
-1.0320988	: 2 </s>	0
-0.8043792	7 2 </s>	0
-0.7489526	4 2 </s>	0
-0.90982896	2 2 </s>	0
-0.5135863	_ 2 </s>	0
-0.7261341	^ 2 </s>	0
-1.9290433	<s> q </s>	0
-0.80742216	a q </s>	0
-0.57268244	i q </s>	0
-0.90280867	e q </s>	0
-1.0580786	u q </s>	0
-0.27938914	<s> ? </s>	0
-0.30000287	n ? </s>	0
-0.2690886	s ? </s>	0
-0.4228675	t ? </s>	0
-0.22497247	y ? </s>	0
-0.28232032	e ? </s>	0
-0.6631746	 ³ </s>	0
-0.7834769	ã ³ </s>	0
-0.68630403	î ± </s>	0
-0.66128814	ä ± </s>	0
-0.73749673	â ± </s>	0
-1.0676894	 ¦ </s>	0
-1.0738387	  </s>	0
-0.3770111	  </s>	0
-0.06848226	<s> % </s>	0
-0.4050599	1 % </s>	0
-0.46820417	5 % </s>	0
-0.31082353	3 % </s>	0
-0.30971378	9 % </s>	0
-0.36631334	8 % </s>	0
-0.49309266	0 % </s>	0
-0.33015928	6 % </s>	0
-0.3221097	7 % </s>	0
-0.42056972	4 % </s>	0
-0.35749283	2 % </s>	0
-0.9623076	ã ­ </s>	0
-0.8964491	ã ¡ </s>	0
-0.69446313	å ¡ </s>	0
-0.6985586	<s> / </s>	0
-0.622887	a / </s>	0
-0.7889988	n / </s>	0
-0.9355635	r / </s>	0
-0.54256517	i / </s>	0
-1.0722106	s / </s>	0
-0.9792194	o / </s>	0
-1.0319307	t / </s>	0
-0.89435905	e / </s>	0
-0.5134578	u / </s>	0
-0.7310257	 / </s>	0
-0.6171313	² / </s>	0
-0.75247	 / </s>	0
-0.23099132	<s> * </s>	0
-0.6954508	: * </s>	0
-1.042297	* * </s>	0
-0.016075253	<s> & </s>	0
-0.27461094	a ! </s>	0
-0.22483595	e ! </s>	0
-0.4539117	\ ! </s>	0
-0.6044816	  </s>	0
-0.3665222	ï  </s>	0
-0.12324695	<s> + </s>	0
-0.21868992	0 + </s>	0
-1.1124442	<s> < </s>	0
-0.12371853	<s> > </s>	0
-0.685596	r > </s>	0
-0.66734064	i > </s>	0
-0.5907129	m > </s>	0
-0.16814253	t > </s>	0
-0.39342672	- > </s>	0
-0.5807947	" > </s>	0
-0.68597865	â ° </s>	0
-0.585372	ð ° </s>	0
-0.53976965	  </s>	0
-1.0015073	  </s>	0
-0.9007356	  </s>	0
-1.4761276	<s> \ </s>	0
-1.2549814	{ \ </s>	0
-0.6800956	\ \ </s>	0
-0.21500312	<s> } </s>	0
-0.5126756	a } </s>	0
-0.68513787	n } </s>	0
-0.5810425	r } </s>	0
-0.36479175	i } </s>	0
-0.56922233	t } </s>	0
-0.51594424	v } </s>	0
-0.5276599	- } </s>	0
-0.464764	b } </s>	0
-0.5292425	u } </s>	0
-0.45148832	x } </s>	0
-0.34279314	) } </s>	0
-0.61156505	1 } </s>	0
-0.47516075	0 } </s>	0
-0.5442985	2 } </s>	0
-0.48379773	} } </s>	0
-0.042594623	<s> = </s>	0
-0.38099918	: = </s>	0
-0.66900444	ã ¥ </s>	0
-0.83856773	ä  </s>	0
-0.5110076	ä « </s>	0
-0.5408423	ã « </s>	0
-0.8535923	å « </s>	0
-0.54463243	  </s>	0
-0.6893665	ä  </s>	0
-0.7351584	 ² </s>	0
-0.7782107	î ² </s>	0
-0.41066155	â ² </s>	0
-0.90338683	ã  </s>	0
-0.6897844	å  </s>	0
-0.24047679	<s> # </s>	0
-0.63248813	# # </s>	0
-0.34003255	<s> | </s>	0
-0.47776076	\ | </s>	0
-0.7432481	<s> ~ </s>	0
-0.25753373	~ ~ </s>	0
-0.8375616	  </s>	0
-0.9463271	  </s>	0
-2.5152442	<s> a a	-1.3426373
-1.4314734	a a a	-0.032445733
-1.850117	n a a	-0.010340621
-1.8556689	r a a	-0.044775665
-1.6897649	c a a	0
-1.8552017	h a a	-0.10455021
-1.9579213	i a a	-0.062326316
-1.6238227	s a a	-0.0077322787
-1.7356678	m a a	-0.020811982
-1.8067887	l a a	0
-1.9717538	t a a	0
-2.0119197	d a a	0
-1.7034646	f a a	-0.04768259
-1.6144805	g a a	-0.39473495
-1.9138055	b a a	-0.015604751
-2.029182	w a a	0
-1.7373507	" a a	-0.026328333
-1.9384181	k a a	0
-1.7390795	( a a	-0.017373718
-1.4566007	z a a	0
-1.7267853	j a a	0
-0.7058698	<s> n a	-1.879843
-1.3270322	a n a	-0.5928784
-1.1054137	n n a	-0.23815651
-1.0804	r n a	-0.20176508
-0.78174114	c n a	-0.017373718
-0.96954346	h n a	-0.027505327
-1.3370737	i n a	-0.6545579
-0.8403872	s n a	-0.07824553
-0.9643816	m n a	-0.11747516
-1.3429978	o n a	-0.4961264
-1.0169597	l n a	0
-0.71647155	t n a	-0.14585653
-1.1230999	y n a	-0.083789766
-0.6683943	d n a	-0.18993336
-0.70893705	v n a	-0.07364254
-1.3656043	e n a	-0.56768084
-0.807932	- n a	-0.2459755
-0.85699546	g n a	-0.17951432
-1.2308708	u n a	-0.40878138
-0.6755352	" n a	-0.06078905
-0.9001486	k n a	-0.017373718
-1.3657653	( n a	-0.015604751
-0.82243705	 n a	0
-1.028518	* n a	-0.03526223
-0.46696097	\ n a	-0.6889756
-1.1212082	 n a	0
-0.9012971	<s> r a	-2.044571
-1.2481005	a r a	-0.6383224
-0.89688504	n r a	-0.04768259
-1.0944269	r r a	-0.20851593
-0.7981881	c r a	-0.3997177
-0.8800117	h r a	-0.114702955
-1.0743873	i r a	-0.35565132
-0.88886225	s r a	-0.008599986
-0.99088085	m r a	0
-0.9601108	p r a	-0.30881777
-1.3175948	o r a	-0.4748981
-0.96792865	l r a	0
-0.7422285	t r a	-0.62445945
-0.95889777	y r a	-0.13578881
-0.8729056	d r a	-0.3419104
-0.83577955	v r a	0
-1.4317995	e r a	-0.580768
-0.7206949	f r a	-0.34669393
-0.8089324	- r a	-0.20345654
-0.59702086	g r a	-0.59906876
-0.80649173	b r a	-0.42614275
-1.1660061	u r a	-0.38340265
-0.9212115	w r a	-0.067512564
-1.0551164	" r a	-0.009687065
-0.67742187	k r a	-0.2211648
-1.3128654	( r a	0
-0.77600765	z r a	0
-0.86308026	© r a	-0.019595116
-1.036112	* r a	0
-0.46937335	\ r a	-0.7278741
-0.72268444	<s> c a	-2.4294674
-1.0715153	a c a	-0.38635078
-1.1132239	n c a	-0.16130133
-1.0999506	r c a	-0.18405163
-0.96419185	c c a	-0.30257702
-1.0545771	h c a	-0.062326316
-1.2451769	i c a	-0.53735536
-0.9304371	s c a	-0.42463434
-1.2269962	m c a	0
-1.0238754	o c a	-0.33999264
-0.9689386	l c a	-0.049757477
-0.9391935	t c a	0
-1.0412142	y c a	0
-0.9729139	d c a	-0.062326316
-1.2008337	e c a	-0.34285662
-0.90882367	- c a	-0.42434445
-1.0857165	b c a	0
-1.08781	u c a	-0.13244244
-0.74558556	w c a	-0.08999759
-1.0481834	x c a	-0.08431887
-1.0062879	" c a	-0.05782524
-1.3949871	( c a	-0.05777598
-1.0964781	 c a	-0.0543564
-0.7654404	/ c a	0
-1.0624903	* c a	0
-0.53516334	<s> h a	-2.4079182
-1.0916444	a h a	-0.22326645
-1.0501629	n h a	-0.17540607
-0.8236031	r h a	-0.1324857
-1.068085	c h a	-0.58888316
-0.7981104	i h a	-0.06304751
-0.9830278	s h a	-0.5079248
-0.6334511	m h a	0
-1.0023806	p h a	-0.38996994
-0.95461905	o h a	-0.15933926
-0.738938	l h a	-0.10299881
-1.1688732	t h a	-0.46212798
-0.63390833	y h a	-0.04768259
-0.7339898	d h a	-0.16370405
-1.0118158	e h a	-0.14732745
-0.9064348	- h a	-0.26319116
-0.9364064	g h a	-0.23417968
-0.676594	b h a	-0.02501827
-0.7531193	u h a	-0.037391637
-0.8397364	w h a	-0.52319086
-0.51242137	x h a	-0.011953575
-1.0480285	" h a	-0.054202083
-0.8869171	k h a	-0.22941414
-1.3554108	( h a	-0.016441781
-0.68862104	z h a	-0.11940929
-0.86755455	' h a	-0.11009097
-0.9183958	/ h a	0
-1.0140165	* h a	0
-0.11183018	\ h a	-0.5428476
-2.988471	<s> i a	-0.34155798
-1.3500476	a i a	-0.22403048
-1.2967852	n i a	-0.48329985
-1.3050872	r i a	-0.44409752
-1.2246898	c i a	-0.41269344
-1.5035928	h i a	-0.22367372
-1.6124449	i i a	-0.115746416
-1.4430434	s i a	-0.37259766
-1.3368269	m i a	-0.28304434
-1.2070358	p i a	-0.23697005
-1.4590282	o i a	0
-1.4015919	l i a	-0.43969637
-1.3366464	t i a	-0.36423117
-1.2357868	d i a	-0.504727
-1.341905	v i a	-0.28356695
-1.339031	e i a	-0.37621045
-1.3911592	f i a	-0.15709887
-1.0768702	g i a	-0.3102587
-1.3187562	b i a	-0.31095633
-1.5631086	u i a	-0.012964697
-1.5981834	w i a	0
-1.13328	x i a	-0.18595782
-1.3191512	k i a	-0.25026968
-1.719561	( i a	0
-1.1607884	z i a	-0.06409389
-1.0979028	j i a	-0.27815893
-1.1809733	<s> s a	-2.0806856
-1.2740215	a s a	-0.3709469
-1.460001	n s a	-0.17259315
-1.3815188	r s a	-0.06811733
-1.3178551	c s a	0
-1.3409292	i s a	-0.37898207
-1.3747678	s s a	-0.26189065
-1.5017662	m s a	-0.13759102
-1.358311	p s a	-0.07247679
-1.2824584	o s a	-0.31855103
-1.4995219	l s a	-0.069177754
-1.5047426	t s a	-0.05818689
-1.3098412	y s a	-0.066761665
-1.5733632	d s a	-0.017373718
-1.4178717	e s a	-0.21690975
-1.1316352	- s a	-0.023260718
-1.6213576	b s a	-0.27401692
-1.2242936	u s a	-0.37098485
-1.2708656	" s a	0
-1.3272119	k s a	-0.07403894
-1.4274036	( s a	-0.027505327
-1.2004465	© s a	0
-1.2359629	* s a	0
-0.4523965	<s> m a	-2.430083
-1.1600991	a m a	-0.4716342
-0.85013855	n m a	-0.095228255
-1.1317667	r m a	-0.2543344
-0.98522884	c m a	0
-0.8687593	h m a	-0.15900095
-1.086966	i m a	-0.330312
-0.71650416	s m a	-0.36104873
-0.99052036	m m a	-0.16560781
-0.71108013	p m a	-0.12773585
-1.0955505	o m a	-0.4452973
-0.93098634	l m a	-0.19889757
-0.66965455	t m a	-0.28947628
-0.87711763	y m a	-0.19515055
-0.70572925	d m a	-0.25400892
-1.0301123	e m a	-0.51029986
-0.7451147	f m a	-0.5428476
-0.6734542	- m a	-0.44604468
-0.8140285	g m a	-0.1984403
-0.5702417	b m a	-0.012964697
-1.1247839	u m a	-0.36395788
-0.5792686	w m a	-0.04768259
-0.40425664	x m a	0
-0.8203192	" m a	-0.14709923
-0.71749604	k m a	-0.1728702
-1.087555	( m a	-0.08580608
-1.0026716	 m a	0
-0.7524782	z m a	0
-0.6536346	' m a	0
-0.7000206	/ m a	0
-1.0110546	* m a	-0.028974624
-0.69444937	{ m a	-0.1623747
-0.25005755	\ m a	-0.54374653
-0.79369926	<s> p a	-2.2339327
-1.0468187	a p a	-0.28686023
-1.0167507	n p a	-0.03861452
-1.1480445	r p a	-0.06090918
-0.83594006	h p a	0
-1.0213541	i p a	-0.21303804
-0.91341966	s p a	-0.44875544
-1.2501376	m p a	-0.20100783
-1.1715407	p p a	-0.08660255
-1.2545553	o p a	-0.23373412
-1.0159144	l p a	0
-0.8855431	t p a	0
-0.9590517	y p a	-0.017373718
-0.9296309	d p a	0
-1.018649	e p a	-0.23367259
-0.85046715	- p a	-0.35860685
-0.9744012	g p a	0
-1.0577626	u p a	-0.09093022
-0.7267891	x p a	-0.03179111
-1.1202925	" p a	-0.027977012
-0.63751835	k p a	0
-1.264107	( p a	-0.03179114
-0.83199334	 p a	0
-1.0443951	© p a	-0.1890511
-0.9295056	* p a	0
-0.8500249	\ p a	-0.4459375
-3.0017164	<s> o a	-0.82575905
-1.8229225	n o a	-0.042671725
-1.4071409	r o a	-0.37436378
-1.493276	c o a	-0.25975704
-1.8727322	h o a	-0.011088733
-1.5772729	i o a	-0.14992754
-1.7794287	s o a	-0.011953575
-1.8245281	m o a	-0.104712464
-2.1685047	p o a	0
-1.3846917	l o a	-0.32661518
-1.7702074	t o a	-0.032445733
-1.7250257	d o a	0
-1.5837499	e o a	-0.019595116
-1.6737971	f o a	-0.1984403
-1.6446939	g o a	-0.268385
-1.2388813	b o a	-0.55246997
-1.4959173	z o a	0
-1.6717016	j o a	-0.16608676
-0.5108557	<s> l a	-2.2767384
-1.2765088	a l a	-0.5334704
-0.80492437	n l a	-0.1693376
-1.1872283	r l a	-0.10625282
-0.7525644	c l a	-0.534989
-0.8432222	h l a	-0.099640645
-1.1926011	i l a	-0.38567358
-0.7488298	s l a	-0.3371674
-0.9863735	m l a	-0.13149351
-0.6804138	p l a	-0.52239
-1.1828085	o l a	-0.44200635
-1.1621473	l l a	-0.30695868
-0.8262305	t l a	-0.19153112
-0.9858694	y l a	-0.22615945
-0.964636	d l a	-0.15769906
-0.695894	v l a	-0.030046048
-1.3310964	e l a	-0.47380745
-0.8550923	f l a	-0.31557196
-0.79050034	- l a	-0.23729655
-0.77048016	g l a	-0.3271049
-0.75645787	b l a	-0.24626689
-1.1537054	u l a	-0.42704934
-0.98516655	w l a	-0.04768259
-0.9095966	" l a	-0.020811982
-0.7682792	k l a	-0.15354931
-1.2628503	( l a	-0.03179114
-0.59652716	z l a	0
-1.0066087	* l a	0
-0.64144254	\ l a	-0.5568645
-1.7508767	<s> t a	-1.9158238
-1.2106218	a t a	-0.5043473
-1.2172403	n t a	-0.32974747
-1.351315	r t a	-0.1866666
-1.3162806	c t a	-0.23548411
-1.2466897	h t a	-0.051566362
-1.2014316	i t a	-0.5428393
-1.0554549	s t a	-0.6745716
-1.1570619	p t a	-0.1677597
-1.2075722	o t a	-0.3907306
-1.2471927	l t a	-0.115577176
-1.1650741	t t a	-0.17733704
-1.1317554	y t a	0
-1.2567011	e t a	-0.4571895
-1.3673278	f t a	-0.07573543
-1.0573128	- t a	-0.082537115
-1.3225335	b t a	-0.08431887
-1.1400023	u t a	-0.29515636
-0.8231627	w t a	-0.08999759
-1.1620559	x t a	-0.0401163
-1.285148	" t a	-0.062326316
-0.873469	k t a	0
-1.3267769	( t a	-0.008599986
-1.0886669	© t a	-0.026328333
-0.9573793	* t a	0
-1.2919202	\ t a	0
-1.2834277	<s> y a	-0.7036419
-1.2047188	a y a	-0.38085806
-1.1037672	n y a	-0.13522534
-1.3470987	r y a	-0.0959282
-1.4128109	c y a	-0.31290075
-1.1823466	h y a	-0.058971513
-0.58927083	i y a	-0.11060781
-1.2185289	s y a	-0.17025241
-1.0294467	m y a	-0.039566427
-1.3759468	p y a	0
-1.005414	o y a	-0.086110964
-1.4921583	l y a	-0.04176739
-1.350155	t y a	-0.030653123
-0.8593131	y y a	0
-1.2753912	d y a	0
-0.9913424	v y a	0
-1.2690319	e y a	-0.088523306
-1.0649495	g y a	0
-1.3648653	b y a	-0.06941696
-0.8531158	u y a	-0.027977012
-1.1342651	w y a	0
-1.0346156	k y a	0
-1.3059216	( y a	0
-0.9700997	<s> d a	-2.0302608
-1.1440384	a d a	-0.46711677
-1.2243481	n d a	-0.27083567
-1.2868308	r d a	-0.15504023
-0.714404	h d a	-0.026328333
-1.1355965	i d a	-0.53476346
-0.6879062	s d a	-0.047838103
-0.7246688	p d a	-0.062326316
-1.076145	o d a	-0.13459209
-1.3922706	l d a	0
-0.87149686	y d a	-0.07364254
-1.0489645	d d a	-0.036862276
-1.3770007	e d a	-0.3421706
-0.55781555	f d a	0
-0.87079823	- d a	-0.16943283
-0.6801795	g d a	-0.09555115
-1.0173846	b d a	-0.017373718
-1.0712315	u d a	-0.18866915
-1.1004058	" d a	-0.011953575
-0.6525309	k d a	0
-1.2176764	( d a	0
-0.7655029	z d a	0
-0.71155167	/ d a	-0.08310221
-1.0682565	* d a	-0.042671725
-0.59091735	<s> v a	-1.8980652
-0.78839064	a v a	-0.3983797
-0.7797443	n v a	-0.20652214
-0.87688494	r v a	-0.19890408
-0.7822733	i v a	-0.4621673
-0.7412767	s v a	0
-0.9486538	o v a	-0.40229088
-0.6511453	l v a	-0.1091172
-0.95451075	t v a	0
-0.79661745	d v a	-0.19219764
-0.886282	e v a	-0.4230682
-0.6155919	- v a	-0.39573398
-0.6610559	u v a	0
-0.8280125	" v a	0
-1.0438826	( v a	0
-0.6404161	* v a	0
-0.4001584	\ v a	-0.6889756
